<?xml version="1.0"?>
<opencv_storage>
<opencv_ml_ann_mlp>
  <format>3</format>
  <layer_sizes>
    9 100 100 2</layer_sizes>
  <activation_function>SIGMOID_SYM</activation_function>
  <f_param1>6.6666666666666663e-01</f_param1>
  <f_param2>1.7159000000000000e+00</f_param2>
  <min_val>-9.4999999999999996e-01</min_val>
  <max_val>9.4999999999999996e-01</max_val>
  <min_val1>-9.7999999999999998e-01</min_val1>
  <max_val1>9.7999999999999998e-01</max_val1>
  <training_params>
    <train_method>BACKPROP</train_method>
    <dw_scale>1.0000000000000000e-03</dw_scale>
    <moment_scale>0.</moment_scale>
    <term_criteria>
      <iterations>255</iterations></term_criteria></training_params>
  <input_scale>
    4.8005175838445275e+00 -2.1597859725531099e+00
    9.0192494984054665e+00 -2.1166867714897388e+00
    1.3084190852478983e+01 -2.2131812549620613e+00
    1.7902740756379941e+01 -2.0595461599631628e+00
    2.0448821916829466e+01 -1.9119400746195356e+00
    2.6926031821001970e+01 -1.8903326031143839e+00
    3.3770718200209004e+01 -1.9131937844255511e+00
    3.8019449518868555e+01 -1.7087149273749320e+00
    4.1853775932327643e+01 -1.5992423018194473e+00</input_scale>
  <output_scale>
    5.2631578947368418e-01 4.9999999999999994e-01 5.2631578947368418e-01
    4.9999999999999994e-01</output_scale>
  <inv_output_scale>
    1.8999999999999999e+00 -9.4999999999999996e-01
    1.8999999999999999e+00 -9.4999999999999996e-01</inv_output_scale>
  <weights>
    <_>
      -1.9931855473143456e-01 1.6250929979846127e-01
      7.6756988083305708e-02 -2.1595251904693438e-01
      -1.8269593951008073e-01 -1.1765196441297385e-01
      1.3027431094200334e-01 -1.6677810414480887e-01
      -2.2142152985489116e-01 -1.7895577876113314e-01
      1.1693114723028207e-01 2.0152429073605202e-01
      6.6247372166389318e-02 1.0400985916117368e-01
      1.3761333246583982e-01 1.7648397054102441e-01
      -1.1711693747205001e-01 1.3733464208413574e-02
      1.9596538998429705e-01 1.5519768648253640e-01
      1.5432205873001253e-01 -1.5266084136769567e-01
      1.3335932245478210e-01 -2.8492617555870670e-01
      -1.7011460676187828e-01 -3.7659668687952855e-02
      1.5552591829213244e-01 2.8068225811234217e-02
      -2.2823239120653474e-01 -5.0124938079177360e-02
      -5.9591140410021920e-02 1.5889284139921744e-01
      5.1094906379981632e-02 -9.0465537755438419e-02
      3.4290762902563630e-02 -1.4343630028182236e-01
      1.4035108380036818e-01 2.9147213499897229e-02
      1.3437372122991634e-01 1.4443012029356586e-01
      1.0638687660728420e-01 1.1413081552104065e-01
      -1.5790350075279636e-01 1.3513078842100099e-02
      -1.3513355901757942e-01 2.0122178667379431e-01
      -8.9941592410126947e-02 -1.8908347318544477e-01
      -1.4442644854022449e-01 3.0907711092806562e-02
      -1.3236787569728567e-01 8.8702410724563363e-02
      -1.5148455293838881e-01 -1.4816360940120349e-01
      -3.8842624889067412e-01 2.5128009819126312e-01
      -6.6351993642589993e-02 -6.7953735632828485e-02
      1.5687436348079128e-01 2.0355039596073626e-01
      -7.8772026729980391e-02 -1.8686095607125700e-01
      -4.5127729399722975e-02 1.0751034735835745e+00
      -1.2654276747816481e-01 1.8448832786664132e-01
      3.4043115814063163e-02 -3.5136878217483049e-02
      -1.0461033748111494e-02 1.4506723591845228e-01
      -1.2399765133037273e-01 1.2080193124342282e-01
      9.2729893158301713e-02 2.9956204612698123e-01
      7.4722049699444570e-02 -4.0945684695785252e-02
      -8.5089384827563203e-02 -6.5485477409816112e-02
      -1.1066635402450763e-01 5.1341677057592829e-02
      7.3726628146053921e-02 1.6936157189308651e-01
      -1.8524689485303336e-01 2.0921744817767669e-02
      -2.0310522771766276e-01 1.0642968104995112e-01
      -1.6971388332533512e-02 1.6609664695725232e-01
      1.4931032856760765e-01 -7.1998550917422910e-02
      -5.8099717916750081e-02 -3.8696802126420085e-02
      -2.4444963459584798e-01 6.5855391082121031e-02
      3.6479529603362343e-02 1.9108355407709585e-01
      1.5995561820173987e-01 1.4497266352011942e-01
      9.2579692842971531e-03 -8.5790350350031394e-02
      2.0138510911117163e-02 -1.3072649599894225e-02
      -1.0282608779461762e-01 1.1641827719660164e-01
      -1.3880535340030026e-01 1.2535000701928767e-01
      -1.3923151805647002e-01 -1.7610864882237404e-01
      -1.6487809950072804e-01 1.0368425190056944e-01
      2.2248570183249652e-01 1.6254307318313208e-01
      -2.3491120206733315e-02 1.2341432427375536e-01
      8.4239329579218522e-02 1.7233394984276371e-01
      1.2721164608869071e-01 1.2088008478314025e-01
      -5.1888837438535895e-02 2.8728158311962754e-02
      -1.1489919832368588e-01 2.4068194081946592e-03
      1.4565026365931938e-01 1.6248484901807667e-01
      -1.9392388641612440e-01 -2.3433823846800167e-01
      1.0559712021894593e-01 1.6074864963070512e-01
      1.8463456143979980e-02 1.5484784151138359e-01
      7.0473735848964169e-03 9.9041702485774999e-02
      2.9624535575445834e-02 -1.8237005098483502e-01
      1.6682806088587224e-01 -6.1395813533727025e-03
      3.9535266489729097e-02 2.7878259728365584e-01
      4.5202059160074873e-02 -7.8045774910974128e-02
      2.0858937831122706e-01 6.1054942031311489e-02
      -1.7080282272133837e-01 9.8805263817393282e-02
      -2.1060453797879813e-01 -2.0108688622555512e-01
      2.3238570996368621e-01 5.7431731631153338e-02
      -1.9113931198387396e-01 -2.1440725338033501e-01
      -1.7071239891332174e-01 1.0061042704848519e-01
      -1.3200020488041825e-01 5.2168073506973660e-02
      1.4580275277647341e-02 -1.0256460712588769e-02
      -8.9940405263513861e-03 2.5589932399195220e-01
      -1.3853299830315116e-01 -1.7168523855430086e-02
      -1.7321195746184356e-01 -1.7009363599973656e-01
      -2.3721128437367048e-01 -1.7592340335052112e-01
      1.3771872512993436e-01 9.4471758222561014e-02
      9.3505145467352821e-02 -9.7486080029673114e-02
      2.1053443728167592e-01 -1.0370467455797283e-01
      2.1641953563151531e-01 1.0806923951571099e-01
      8.5846105314915155e-02 -9.8528492204784712e-02
      1.0326033837251603e-01 1.0189763626304701e-01
      -1.4169031104102925e-01 2.6784113831805562e-01
      -1.4680587340849155e-01 7.9698736331961839e-02
      -1.7337390825802182e-01 4.3724674159813952e-02
      7.9806870716683326e-02 2.2363006248227978e-02
      -1.2980611714573309e-01 9.7496486227391391e-02
      1.8484413019493323e-01 -1.4569344084059385e-01
      6.0565800307059756e-02 -2.0645901281073414e-01
      9.0073100542206852e-02 -2.3006799493554483e-02
      2.1491170665571560e-01 -1.9157687114710034e-01
      1.3760508678802585e-01 -2.7262294025613793e-03
      1.6362417709382288e-01 7.8132785574165559e-02
      2.4846091939723228e-01 -1.8263949094935616e-01
      -1.1290384565466263e-01 -1.6895301504424937e-01
      -6.0054111250134087e-02 -4.0333076174677115e-02
      5.0503705084711747e-02 -5.1678803052532772e-02
      -1.0320914364328311e-01 1.5509290669774323e-01
      -8.2824692440255906e-02 -2.0705125282767317e-01
      1.1452201165598196e-01 -5.8745643903325109e-02
      1.6405427887912669e-01 2.2129679339093566e-01
      -6.8916965272187033e-02 -8.2303120491109653e-03
      -2.0670617670950525e-01 -5.5958680730607783e-03
      -3.3824383679819103e-02 -1.8422793554459496e-01
      1.7687824272498806e-01 1.6633652129387613e-01
      -1.1011624654658880e-01 4.1334568254001454e-02
      -7.9483054616115378e-02 -1.2444128579113174e-01
      -5.0179899932995563e-02 6.0209400274122790e-02
      -2.6121813075692352e-01 5.9472183247734421e-02
      1.1316030963291897e-01 1.6909255518788799e-01
      1.0134678408527645e-01 -1.3840443870925352e-02
      2.3781442225400515e-01 1.5333462983024396e-01
      -1.3924231929777200e-01 -1.7734576012951947e-02
      2.0244063929588749e-01 -2.0452638533522172e-01
      1.7582120464546400e-01 2.0815695625777947e-01
      1.9639216321721978e-01 -8.7399147371449229e-02
      7.1718410464617396e-02 1.6638480888769647e-01
      -1.9709841524353741e-01 1.5699827282380143e-02
      -1.4444396110621507e-02 -1.3873438064865767e-01
      2.9666620399324689e-03 7.9400929469418555e-02
      1.3459118010475976e-01 2.0155354211110654e-01
      -1.0671511216365152e-01 -1.3511759403636017e-01
      3.0459027327456999e-02 4.7629385882465451e-02
      -1.3792557808577718e-01 5.3329046154747220e-02
      1.8408813895937717e-01 1.6104412670301882e-01
      -1.3032485961347590e-01 1.2456993917480978e-01
      -8.7132382384217430e-02 -7.5200002008612030e-02
      1.2821569036380437e-01 -1.0863808840931631e-02
      1.2996449690531958e-01 -1.1542904206922068e-01
      4.3443652588885891e-02 -9.1370807698644502e-02
      4.1159682002040822e-02 -7.9058087326007456e-02
      -2.2807682078415471e-02 2.2119354251171494e-01
      -7.6042965157015210e-02 -4.7322735417014372e-02
      -1.1920866620781728e-01 1.7935604431685626e-01
      1.5762331106392985e-01 -1.3706582609400503e-01
      -1.5638835002274010e-01 -1.5109371233842672e-01
      -3.7103774429953641e-02 1.2821174261752484e-02
      2.6054232908812019e-01 -1.1107060585382920e-01
      1.4659631906738979e-01 8.8586562630189283e-02
      1.6139453634810033e-01 -1.6948220301008962e-01
      -7.9344962424718127e-02 -1.5668872181872229e-01
      -1.5126882870017877e-01 -1.5712988440741005e-01
      -1.0851411075462596e-01 1.0124966915371300e-01
      4.9873270515112471e-02 -1.4604239772604888e-01
      -1.9649797267014332e-01 -1.5729164499990195e-01
      -1.3547527211569541e-01 1.0246301942595674e-01
      9.5280011880506096e-02 7.6421345280988720e-02
      2.0212943978625466e-02 -1.2572933487139190e-01
      -9.7665461883075844e-02 -9.0990336042542044e-02
      1.0846271927013605e-01 1.5705217880526573e-01
      2.7098181289049078e-01 8.2650127548483124e-02
      1.0673111641873877e-01 1.8309109704187032e-01
      1.3183100408148279e-01 -2.6976931720381897e-01
      5.4226564569686041e-03 -1.6744001022048013e-01
      -1.1692996041667486e-02 -5.8384640839394602e-03
      1.2117251855845131e-01 -1.1461263367187303e-01
      -1.6031251378913347e-01 1.9730794105337199e-01
      -2.5920865705695764e-02 -2.1428368771554743e-01
      -2.3749811911414645e-01 -5.8421600125209333e-02
      2.4551123404154265e-01 4.6723929489578896e-02
      2.9041036669408649e-02 1.0166750739605475e-01
      9.7587368952646275e-02 1.3381322452526048e-01
      -1.3753472082809734e-01 2.8714141295570411e-01
      -2.0766788984623860e-01 8.2208933385281471e-02
      -1.6876421842412093e-01 1.7118898499717622e-02
      4.0567039205699991e-02 -1.6455794442181945e-01
      -5.5647084736412493e-02 3.3281872624310051e-03
      1.0160218735095394e-01 -1.2572505813089299e-01
      -1.5673507796283448e-01 -1.7270641756988606e-01
      -1.6367638450628152e-01 -2.5499279996667185e-01
      -1.1463516595490754e-02 1.1797120139601859e-01
      -3.1805177221989672e-01 -1.2978417994374547e-02
      2.8823585354500136e-02 2.9575512991694825e-01
      1.2983209238088220e-02 -1.3960307816769846e-01
      1.9163841300285087e-01 1.6293326621323659e-01
      -1.2255515325859216e-01 -1.7834558530322589e-01
      7.6813434240595765e-02 -1.7186790161237483e-01
      2.1257231829670523e-01 7.3897700219209189e-02
      1.0961404433854180e-01 1.2320544251070206e-01
      1.0313808264113389e-01 -2.1581774413089733e-01
      -1.2100580161894395e-01 1.1869746304447402e-01
      -7.1245579513154966e-02 -3.2739544279970174e-02
      -2.9209908796754815e-02 1.5055008857709037e-01
      -7.7320999616015240e-02 -9.2438896858092034e-02
      -1.5051853838010016e-02 -8.7356716904270493e-02
      5.8665080827830660e-02 -2.2583739628642879e-01
      -6.2388801816765677e-02 -1.3672171018287424e-01
      1.0818878717588060e-01 2.9453244517956122e-02
      -6.8628483856442615e-02 -1.2962062563674870e-01
      2.8445242273099169e-01 1.1027869232904731e-01
      6.9731138055865158e-02 -2.0531298958479322e-01
      1.3929684824407340e-01 1.2848914285628754e-01
      1.0732731557272729e-01 -2.3968621028726270e-01
      1.1527844079739094e-01 -1.2755839674695416e-01
      -1.8150986899620178e-01 -1.2421457664240762e-01
      9.7622297197572275e-02 4.2641172003315284e-02
      -1.6381899082861281e-01 -2.4701756070817518e-01
      -1.0994752338486290e-01 -1.2861194882609475e-01
      -1.5288302320637553e-01 -1.1570963277957108e-01
      -1.4450643444196867e-01 7.3687585524869093e-02
      -2.1835102275128382e-01 1.7277352138829801e-02
      2.0097197013138465e-01 1.8669451649316593e-01
      1.3548515561710731e-01 -9.1367774992748466e-02
      -1.3682285909213740e-01 2.0105147233975287e-01
      5.2222059092917661e-02 -1.6992545057817476e-01
      8.3022681904635270e-02 1.6838670672974818e-01
      -1.0475227702956291e-01 -2.5582768904664932e-01
      -1.4069934449934487e-01 1.1628320862839354e-01
      -2.3252961357560226e-01 -1.0430440842665843e-01
      -1.5785059205823063e-01 -1.2294089185278453e-01
      -2.7707777138265488e-01 1.5670776861074603e-01
      -4.7354193147104342e-03 1.9667249941949336e-01
      1.5398034462836671e-01 1.2515939843535429e-01
      -1.9570855103933946e-01 -1.7129851425861861e-01
      -8.0691270239817064e-02 -1.5809540320630891e-01
      -5.1375934811224475e-02 1.9947863045668585e-01
      2.3821862994476806e-02 -7.2295189908212043e-02
      -3.3610005918061799e-02 -1.7348169050848208e-01
      -2.0829701464670011e-01 -1.7090422271141301e-01
      -1.2779857274048387e-01 -1.2963408490766795e-01
      1.6919738471384951e-01 1.0883989826826199e-01
      -4.7595601145433548e-02 -2.1684449773988229e-01
      1.9695520159928154e-01 1.2583613152681217e-01
      8.2390779501672479e-02 2.0036925809168965e-01
      6.5083688613431723e-02 7.1059004469236450e-02
      -2.1957396123181153e-01 2.9895367129545314e-01
      1.1370311750690938e-01 1.6820876074474839e-01
      -1.5292646754525982e-01 -1.7660887647032203e-01
      8.1040689138405661e-02 -1.5473305424898337e-01
      3.9394935297951028e-01 -1.3224341013912386e-01
      8.0886625212037377e-02 1.3539039600509958e-01
      1.1174043044340060e-01 2.0644225618758669e-01
      -1.8744183167732745e-01 -2.1638996946701908e-01
      1.2239647030754432e-01 2.1050555985752051e-01
      9.8231682846025348e-02 -1.3498340920350540e-02
      1.2573956448347773e-01 -1.6011838357138458e-01
      1.5781564388623198e-01 -2.0886762326512789e-01
      -5.0567393020643642e-02 1.4611390590796058e-02
      1.7376713931142404e-01 -1.5860443507889727e-01
      1.4842478603750583e-01 1.0755151721995113e-01
      6.4994860914620506e-02 -1.2359000568995901e-01
      -1.2672332767873082e-01 1.2394035721800774e-01
      1.6121588106725968e-01 6.0354763746772733e-02
      2.1731674761461403e-01 3.4393150523447637e-02
      -1.3911925037518511e-01 -1.8092600570753406e-01
      -1.6047362603260021e-01 -1.8265791635271567e-01
      1.6197241098504495e-01 -8.1856742212788852e-02
      -1.5412792658734006e-01 2.2442632278159552e-02
      -1.2910733560923074e-01 -1.3990941819428881e-01
      -2.1973444234766959e-01 -3.2569629823800149e-02
      -1.1939105123149688e-01 2.4777497410243104e-01
      -1.5669767897888676e-01 2.1242311674430171e-02
      -3.3466283212602102e-02 2.1198566656609072e-01
      1.2314293737602086e-01 1.2152768765281612e-01
      -2.3699501739020237e-01 4.6322723863556091e-02
      1.9253288742584967e-01 -1.5017005513766912e-01
      1.1766595168941510e-01 -6.9144597590920634e-02
      -1.3798395689378479e-01 -7.1549667649362117e-02
      2.4563387738783287e-02 1.8694003349902305e-01
      -1.3522560769033556e-01 1.7892653410890388e-01
      -2.6919252396438070e-01 2.5398337138864881e-02
      4.0130125027701899e-02 1.7337713497121016e-01
      -2.5018409176754869e-01 -8.1880732205118739e-02
      -3.3498466657493557e-02 4.1281483089988767e-02
      4.8246727314386145e-02 -1.0909683438449741e-01
      -8.1736002158307480e-02 1.2935389578851658e-01
      1.7797507456040787e-01 1.1693485659995598e-01
      -6.8091272471612257e-02 1.5444731182396224e-01
      2.5046427450021995e-02 -1.0222075172987255e-01
      7.6819605129280003e-02 2.0344002680813103e-01
      -1.2625198567938722e-01 -3.7757584962669490e-02
      -7.3395468689180426e-02 2.8899465313872708e-02
      1.9574806411162174e-01 2.8778611402655879e-01
      1.9630118423021922e-01 -1.2028030848109990e-01
      9.5683609918051291e-02 -1.8741809449553701e-01
      -9.3201165229184257e-02 7.9766133506898940e-01
      -1.1046798002499267e-01 1.5683911991147981e-01
      -1.3047783168240118e-01 1.4551061211091962e-01
      1.9763749848954607e-01 7.5979976282212480e-02
      -1.8664845461015000e-02 -2.0319627745329621e-01
      1.4414196954836961e-01 1.6508612263588924e-02
      2.4686473184669258e-01 -1.1650962350225433e-01
      1.3056853836498686e-01 -4.3637420186266172e-02
      1.5471529473502249e-01 2.7217858806862882e-01
      -1.0388124064097867e-01 -1.2591333661220500e-01
      -1.7463616524501874e-01 -8.6532856581305731e-02
      -7.0700482382486662e-02 1.2325833841683662e-01
      -2.1673312603403783e-01 -1.4650811191612431e-01
      -9.1029174607999461e-02 -1.2386635274673277e-01
      1.1235377451050352e-01 -1.9976838294848809e-01
      2.1804574525718814e-01 6.6128327419769537e-03
      1.4677679168035851e-01 5.8546712888141769e-02
      -1.4247382194277655e-01 -1.6394972444378628e-02
      -1.9473838223856926e-01 -2.1490322330719935e-01
      1.0028696845605939e-01 -1.5471250000280354e-01
      -1.5014090447709308e-01 -8.6448118770613258e-02
      -4.6011119678117815e-02 -8.5707055419983955e-02
      1.6968446453550942e-01 7.8903619106637693e-02
      1.6919408485103296e-01 -1.4852613998877837e-01
      -5.8597951017409951e-02 1.0979839057466949e-01
      -3.5244244825417007e-02 1.2101042445747878e-01
      -3.4962680509798151e-02 -8.4011417368404617e-02
      1.3179889891105331e-01 -2.5199882217008276e-02
      -2.5725402872032621e-01 2.0762155232443683e-02
      -9.9526209264814647e-02 -1.7263594717586367e-01
      -5.0106588189259942e-02 -1.5230382317694510e-01
      -1.4008851385987613e-02 1.0826970708032088e-01
      -1.1333969032817910e-01 1.9592457950769657e-01
      -9.6682638882695793e-03 -7.7099409278042250e-02
      1.5167612975626443e-01 9.5419423440035053e-02
      -6.0389879545290383e-03 2.1426971738692552e-01
      2.4746935509292856e-01 -9.0276041708630947e-02
      -5.2220064571085453e-02 6.7823875742302074e-04
      1.4652057637322613e-01 -1.5937615997397908e-01
      -1.3508190612183843e-01 1.3545238608381027e-01
      9.0916322962837234e-02 1.9521491233350616e-01
      1.9669863368851132e-01 1.7740629126464849e-01
      1.0645234346794571e-01 -6.1784038919286265e-02
      -1.3069117490917254e-01 4.1417274982093688e-02
      1.4446273606616397e-01 -1.2591675294387075e-01
      -2.0596840747639047e-01 1.8409524051809698e-01
      -1.2089576328845493e-01 2.5455444847251262e-03
      2.2930672717005315e-01 1.0501403737455990e-02
      1.4413602376782692e-01 1.7107648730676792e-01
      8.2596415134782525e-02 3.1319605404703396e-02
      -1.9121869602691599e-01 3.2106360161190634e-01
      1.2677403604528312e-01 -1.4420734832713722e-01
      -8.5162315887533049e-02 1.5122608910334479e-01
      1.5972421495928152e-01 8.7885691918203793e-02
      1.5723928499822071e-01 7.0304024587055522e-02
      -1.9877256544323521e-01 4.1671268888515529e-02
      -3.5286239430376606e-02 -1.6780867667348912e-01
      -4.1445167636741158e-02 1.9250929789415863e-01
      -1.3950361030181735e-01 1.3920429831212593e-02
      2.3372934586970429e-01 1.3732149964595450e-01
      1.0112464054129271e-01 1.1989574568109612e-01
      -2.3699824593886757e-02 7.5403863489991077e-02
      -9.6775806222478070e-02 1.6495700001035041e-01
      1.9119505056177524e-01 -1.4875166319677837e-02
      -2.9919525418695837e-02 1.8848217275318765e-01
      -1.9924032025502164e-02 4.9732474482794154e-03
      -6.2411077180296995e-02 2.0732402083529361e-01
      1.0813161958498926e-01 -1.1830287973325002e-01
      1.0471203733070954e-01 -1.3712267374958084e-01
      -1.2123739325734545e-01 -2.5021224742936939e-02
      -1.6389128336777206e-01 1.9898440427547712e-01
      -1.4659434247000330e-01 -1.7794380760201031e-01
      -1.4515306017729757e-01 -1.0483290359079744e-01
      -4.8686566505536932e-02 1.0635514195504889e-01
      4.6985920583845042e-02 1.2760735133446549e-01
      -3.5551929797834989e-02 1.7046540597090845e-01
      2.1600748523618046e-01 -8.5961277755906632e-02
      2.0196794646845456e-01 -2.1628898996186982e-01
      8.4816295771823119e-02 1.2091620449616106e-01
      -1.8059204754916566e-01 -2.0782037032833073e-01
      -1.9170319553121201e-01 2.0119876631191476e-02
      4.2381420184872814e-03 4.0166870749894078e-02
      -2.1727197544521004e-01 2.3269385272005633e-01
      -1.7319348990394839e-01 6.8279336983031708e-02
      1.5771067325065227e-01 -1.2628620106520383e-01
      4.3805852864904807e-02 1.5078431925800098e-01
      -1.7119175622427366e-01 -1.0742542219292955e-01
      3.4388348643100669e-02 2.0642271839083771e-02
      -5.0008746136683470e-02 1.6669480015882487e-01
      3.3367043094622323e-02 -2.1347707581012457e-01
      -1.0247052489980714e-01 -1.4742764119289950e-01
      -1.0394492287992375e-02 9.2470120895936560e-03
      2.0235553535251184e-02 -1.4040004437997683e-01
      -1.5037756323501686e-01 -3.9768241443351220e-02
      -1.1279308520228166e-01 4.3139264546423139e-02
      -7.4464976439226199e-02 -1.8767277579853819e-01
      -2.1692031678561177e-01 2.5714967955803059e-01
      -8.1413589402873909e-02 -9.0525810819177308e-02
      6.5707009459528426e-02 -7.2714314232328825e-02
      -9.1870339082243384e-03 3.9196414052071341e-03
      -6.0735466516680409e-02 2.4249986811222313e-01
      -1.3717275554977204e-01 1.1569157726130588e-02
      1.3547594253200435e-01 1.7077544463268979e-01
      -1.4958265179544919e-01 1.1426438569953545e-01
      2.7470261644650734e-01 -1.7960598257160648e-02
      -2.4199181103820741e-01 2.4032448528439460e-01
      2.1194362625477534e-01 -4.7466720294180961e-02
      -2.4048562820274449e-01 1.6162538395189021e-02
      -2.7591510543524102e-03 -2.4668583060677696e-01
      -1.1758816184707373e-01 1.4215468062971442e-01
      -7.1125460109863245e-02 -1.2044885265717134e-01
      1.0079695309161579e-01 -1.8269796015079334e-01
      6.8089490437666614e-02 -1.0575598627900135e-01
      1.5035912586966638e-01 -1.2638363833401298e-01
      5.2643737247966470e-02 8.5179700824772692e-02
      4.4840698199171213e-02 -2.4501200514892088e-01
      -1.0754758720713939e-01 -7.0652941599038496e-02
      7.9635935012135298e-02 1.9349114488070290e-01
      1.6623056571214864e-01 -1.5258134768041087e-01
      -1.2602589947490453e-01 -1.5688687914400745e-01
      1.1206670353043244e-01 9.8142938393553508e-02
      5.2111868196728327e-02 1.4520797112122144e-01
      8.6492117114450956e-02 8.7207665581021193e-02
      -1.1655996833229974e-01 8.6399262369768512e-02
      1.5185266191768064e-02 -1.4949095391931896e-01
      1.2413295196690585e-01 1.9326831294146965e-01
      6.3614522358793779e-02 1.5712349875632992e-01
      2.8525026919347971e-02 1.1600887677660708e-01
      -2.1988845684757621e-01 1.0285094834348343e-01
      1.2945669883137386e-03 1.2148665577627418e-01
      5.9653750371266828e-02 -1.5944547992297668e-02
      2.1880032172248409e-01 -8.7595973218072734e-02
      -1.7233788466734906e-01 -3.1472148605902014e-02
      1.2667099321847958e-01 -2.9227718495628247e-01
      -3.0905367389881672e-02 1.2658775006992787e-01
      -1.8251732551408253e-01 1.8264276835998172e-01
      1.2267188565263830e-01 9.3308704197714743e-03
      8.8542463757959655e-02 -1.9760571919439074e-01
      -4.8752414408978602e-02 -4.5388567324048175e-02
      -6.9717293350115964e-02 2.3351866050520958e-02
      -1.6325874640470175e-01 6.7544439077821358e-02
      1.9825745347997645e-01 -1.4559881169808442e-01
      -2.3495307310329056e-01 1.5965677367351244e-01
      -1.8537770815548574e-01 1.6579071671963841e-01
      1.4739683051702071e-01 -1.8221639615776167e-02
      4.3973378320203121e-02 4.7158396329192609e-02
      -1.9324254905636459e-01 -1.3083647310872359e-01
      -1.9322442709413765e-01 9.7043932849308942e-02
      2.5016238649047667e-01 -6.4727356132015718e-02
      -1.8439448947768936e-01 8.3037982590794548e-02
      1.2457019688938309e-01 6.0834102730054163e-01
      1.3862288055708982e-01 5.4451791035703100e-02
      -9.1918773211195209e-02 1.7804708748218565e-01
      -5.9653635061666564e-02 1.6414692185808816e-01
      1.5857469207135455e-01 -9.2435574037991589e-02
      1.0694268470329116e-02 -1.0828686060876515e-01
      1.8636255584671177e-01 -1.1002148023605596e-01
      1.6887498581357635e-01 5.4175807462316337e-02
      -2.0375117048271238e-01 6.0881675768004462e-02
      -7.0047997983252619e-02 -2.0826417544316936e-01
      -1.2865634183729022e-01 -1.5521294747105976e-01
      2.3994317458656111e-01 -1.0562485465846856e-01
      -8.5018243901661641e-02 -1.5923283375527642e-01
      -8.2557305689182500e-02 -2.0192609832832659e-01
      3.3051944143717271e-01 1.2643988941336284e-01
      -9.9407206939660611e-02 3.7686956839176722e-02
      1.3022006422309612e-01 1.5788841328582809e-01
      -2.6726903320664193e-02 9.3239348791045326e-02
      1.6070717807507062e-01 -1.8224142583905284e-01
      -1.0113908946407048e-01 5.9509200754664156e-02
      9.6261026576271752e-02 -1.1219298647301161e-01
      -7.3482482280594147e-02 -3.5922277697160963e-02
      1.0632480184610248e-01 -2.6608036300571923e-02
      4.2114249419730625e-02 -5.3178932678054382e-02
      -1.1384364440888045e-01 -7.8381301166922532e-02
      -6.0110021818492176e-02 6.7819118678408105e-02
      -3.2580586017493758e-02 3.7542543843192430e-02
      4.6243155368387641e-02 -9.4218652963782498e-02
      -1.2672697598561938e-01 -6.7215422025633950e-02
      -5.0990134769306047e-03 -5.7407945783870179e-02
      -1.0907281138217798e-02 -9.3222632737118977e-02
      -8.4441129889300318e-02 -6.1064840277011756e-02
      -1.2105728942288934e-02 1.3263560504090520e-02
      -3.6900770990019385e-02 3.5576477158506085e-02
      -4.4654548770960964e-02 -9.9571056290261185e-03
      6.9900308794316685e-03 5.2142099870754521e-02
      4.6027049195241837e-02 1.3364444746865175e-02
      4.3242623873545036e-02 3.9117143762329019e-02
      -2.0814467557666198e-02 -2.3398263058290118e-02
      1.0577033305836064e-02 1.3100353698528706e-02
      -5.5033920062895880e-03 -3.7463853425264621e-03
      -1.8034900312464325e-02 1.8520822417914085e-02
      8.9295903294254429e-03 -5.4860426444725630e-03
      1.5321733055364119e-03 -1.6934931508008733e-04
      2.9306092189896296e-03 -3.3522836431118216e-04
      -2.2554210128652367e-03 1.6797321873592856e-03
      -5.8924373432172709e-02 -2.5354462590528724e-02
      8.3898709663783599e-03 4.9789887188868433e-02
      -1.4385772143610946e-02 3.2186032265361414e-03
      4.3931019075809964e-02 1.7573730984030492e-02
      -8.5640826985404588e-03 5.2997330539281284e-01
      1.7024369063948074e-02 -3.8822811098595235e-02
      -4.6652417180186298e-02 -7.1905648729636193e-04
      5.4751200545879487e-03 -5.9066533089730366e-02
      7.8439237907678549e-03 -2.7411950356138878e-03
      -8.2190345684874350e-02 9.5128390516863323e-02
      -1.0003392545071575e-01 -8.0621223449294857e-02
      5.2280199363102818e-02 9.4898642185897900e-02
      5.2655775875109830e-03 8.3172027146037095e-02
      3.9156074813691981e-02 -9.5730017231496364e-02
      4.4559567613290975e-02 -2.6506708282451909e-02
      -3.2597173401623984e-02 -1.0376121282742100e-01
      -7.4766398444772605e-02 5.6618996788983120e-02
      -5.0325526953293107e-02 3.1149498877502922e-02
      -2.9470238788516203e-02 -6.2772305964907571e-02
      1.5669482528574127e-01 4.6793362452915210e-02
      1.8160471865806972e-03 6.2008526023711916e-02
      1.0404547743094712e-01 -2.4258862358700225e-02
      -1.3780338440862347e-01 8.7160129803905445e-02</_>
    <_>
      1.7517945336996927e-02 2.7055433840014625e-03
      2.0360274971542202e-02 9.0091483490430495e-03
      -2.1045572728362614e-03 1.9922745154399003e-02
      -1.1628070736368264e-02 -9.7383106339777280e-03
      1.5600925531218892e-02 5.8747043093659874e-03
      -7.6695089118432877e-03 1.3527656596302312e-02
      -1.8755995495302644e-02 -1.8778157275634322e-03
      -5.4060321408706882e-03 8.4541326787376993e-03
      5.2590358951413911e-03 -1.3668396197244550e-03
      -1.6718027052289790e-02 9.3475534056871486e-03
      4.3238536440397693e-03 -9.5995795617587892e-03
      -1.9215297327598406e-02 9.5982087340077873e-03
      -1.9487450221717798e-03 2.9616844994410393e-03
      -1.1060417951706142e-02 -2.1775039151161898e-03
      1.5299906685617386e-02 -1.4843366617009429e-03
      -1.1006215850671274e-02 1.9538123764194133e-02
      1.0924153585088029e-02 1.7369836799168519e-02
      9.9753469475446221e-03 -2.4053224294112558e-03
      1.3151475103891322e-02 -5.9389702026287064e-03
      -1.9055109434308156e-02 -2.3336860739081801e-03
      1.6739377373079543e-02 1.1016058028709377e-02
      -5.5489676805412814e-03 1.7924218026810490e-02
      7.6642062820040258e-04 -3.1425796752730605e-03
      9.8668186801474482e-03 -5.3515979578183381e-03
      -9.7899900552909716e-03 1.0383665989774251e-02
      -7.9251710616871709e-03 5.5614271740278302e-03
      -4.9015964729235062e-03 -1.3578686966107922e-02
      9.5995979548549326e-03 1.1629049010355194e-03
      4.4351890796086036e-04 1.4485444772593782e-02
      -2.5705692972323529e-03 1.9406370421395262e-02
      -8.9221592353085685e-03 -1.3217755044635616e-02
      -7.0716820554595876e-03 6.5606899135517438e-04
      -1.8501120663930230e-04 1.0437331566309530e-02
      8.7862632339730945e-05 -7.1058325942417481e-03
      8.4560268788753737e-03 2.9789243398447391e-03
      -1.1557442387193860e-02 -3.0723680396543013e-03
      -1.3486918791408812e-02 1.6230871903949759e-03
      5.5680578508147185e-03 -5.2777633349715310e-03
      -5.5208858172505100e-03 3.5011679374469160e-03
      -1.8885399132625841e-02 -2.0547465211636116e-02
      -7.7129130179683422e-03 4.2148123414198733e-03
      7.7032225201496796e-04 9.9163121505856690e-03
      -1.2015277777948807e-02 1.7568876668817100e-02
      1.1667087534604522e-02 -4.8939017735966329e-03
      -1.4771722600588741e-02 -1.3751266866596721e-02
      -6.4696448465244904e-03 1.4185685589181984e-02
      1.1032213537860410e-02 1.0646750064389690e-02
      1.8536050274125377e-02 1.8205632079316156e-04
      -1.8682426560892380e-02 -6.6674404268453075e-03
      -1.7369446702729819e-02 1.4131312042179460e-02
      9.1077607597677100e-03 -2.1823749355808011e-02
      -8.6810557152508473e-04 -1.3029143252426226e-02
      2.0355717001382567e-02 -2.3655313556846542e-03
      4.2137931596256161e-03 -1.1914232961411392e-02
      5.8501955023384086e-03 -5.3467704430113583e-03
      1.2392648634016344e-02 -1.2213208856437540e-02
      1.6677935233756436e-02 1.4552717027815556e-03
      5.5374728803392146e-03 -8.3335137642981637e-03
      -1.4047016769795872e-02 -1.0603512608236394e-02
      -2.6145133262819545e-02 2.1817517036215855e-02
      -2.3417492765787917e-02 -2.1772873666922182e-02
      7.6388410976424214e-03 -3.1492649475332424e-02
      8.1617738958918926e-03 9.5441249498064897e-03
      3.6857386521819068e-04 2.0454609015619192e-02
      5.8399852945826289e-03 -3.6898404460545902e-03
      -2.1541147138572379e-02 1.6736924797079247e-03
      1.3698260472459468e-02 1.1463563025866704e-02
      -2.5552209016611815e-02 1.0153896922545856e-02
      -4.3734740073123066e-03 9.5358870505939681e-03
      -1.0333046014179685e-02 2.9487100361309231e-03
      1.4200113096222423e-02 1.4141092234169567e-02
      -3.2710320218211949e-04 1.7326179849412763e-02
      -5.9306042205222211e-03 -1.6046352937678861e-02
      -8.7479384567242073e-03 -1.7984639162496843e-02
      -1.4773916129153242e-02 1.6927003737365939e-02
      -1.8153463144977303e-02 1.8811908039796016e-02
      -2.2343111692539792e-02 -1.0763634719041027e-02
      4.2829452241342518e-03 -2.3210354469482396e-03
      -3.1382472437741942e-03 -1.4020964795549776e-02
      7.1840160817042507e-03 2.4796222158127986e-02
      5.8418441722789712e-03 -2.5116883297279385e-02
      1.6844721425847642e-02 -7.7713164169208662e-03
      -2.4643193427098163e-02 2.2198080543727537e-02
      -1.4143771257977224e-02 1.5095534625293939e-02
      -1.6031785689393712e-02 1.8652706556382050e-03
      -2.2686608159854316e-03 -1.9185760468636775e-02
      -8.0916935548454912e-03 4.5334149444747097e-03
      5.3877180695582685e-03 3.6953804432221676e-03
      -6.2600552703060549e-03 -2.3544733720439772e-02
      -2.5700975873368108e-02 -3.6565200029441119e-03
      1.0563626719250367e-02 -2.0603537911609678e-02
      1.0133129224016850e-02 -8.2525327290283931e-03
      -4.9326264349100740e-03 -7.5971774797081925e-03
      3.1584478686865962e-03 -3.5565121922194578e-03
      -4.0463006894929350e-03 -1.5336772393656649e-03
      1.7513357568176232e-02 -5.6649227282781871e-03
      -8.7578404346076288e-04 -2.4834517897373985e-02
      9.9891147473396436e-03 -1.7832646506374311e-02
      1.2667609500443865e-02 -7.7480044278712768e-03
      1.2155555870787260e-03 2.4138030354575366e-03
      -8.5736538425531961e-03 5.1817401691279736e-03
      1.8550575043152766e-02 -3.8135008345315932e-03
      -9.0907296082058629e-03 1.5386191829586582e-02
      1.4904232959380283e-02 -6.2482687576943408e-03
      -3.0204069250133426e-03 1.8802732579002498e-02
      -1.5415447089153702e-02 9.7926881507820408e-04
      9.8639474396390672e-06 -6.6488051930570593e-04
      9.9951783425797965e-03 1.7476376136886598e-02
      -6.1034720254799094e-03 -5.2228809054938909e-03
      1.6113798161944432e-02 -1.4641407680131611e-02
      -1.0891701330829808e-02 -1.1721970092523248e-02
      1.5482429978716104e-02 2.1645395804129060e-02
      -1.4669675748500495e-03 9.8672259005677856e-03
      1.7136646101027077e-02 8.3152920660458027e-03
      1.2003185078441789e-02 1.8059124488817059e-02
      4.0140501595409541e-03 -5.0033209086285902e-03
      -1.1368102553006800e-02 -7.3306842182804116e-03
      9.5988807571865953e-03 8.2489833724421393e-03
      -1.3652303868775034e-02 -7.9833855231354353e-04
      1.7938906061120873e-02 -1.4674571373426808e-02
      6.7756259522530485e-03 -1.1502840760316560e-02
      -9.3475518117765530e-03 2.1658913110185426e-03
      -1.7973034731399645e-02 -3.0529419736743542e-03
      1.0979769296048440e-02 -1.8024524733759387e-02
      1.4031449274179838e-02 -1.3499319553676685e-02
      2.1208238241700152e-03 1.3211111339506915e-02
      1.0143847690232561e-02 1.8165264115370335e-02
      -7.4945706946156999e-03 -1.0784299259362222e-02
      -2.4494826519870388e-03 2.1907570155146723e-02
      -1.0647130443563937e-02 3.2579562593955383e-03
      -8.4264251680998044e-03 -1.4117407239888941e-02
      6.6261106507164696e-03 1.8436993454439592e-02
      -1.2108265378953568e-02 -5.7451903004762245e-03
      9.5977122920266299e-03 5.0225736343192089e-03
      1.6789796326948391e-02 5.3980338588858210e-03
      -5.4773987668948181e-03 1.8315218169821696e-02
      2.0615008920303549e-02 4.9760666644654873e-03
      1.8341367468605322e-02 1.9464438404146059e-03
      1.7070344478405365e-02 6.4426628715954521e-03
      -8.9689767940605170e-03 -1.6839865151229969e-02
      2.9115298549672081e-03 7.0940024164489321e-03
      -8.0137924997713585e-03 -1.1312297158699201e-03
      -2.5572728214306208e-03 -1.6765877502090885e-02
      -1.4471817223160113e-02 -4.4254052719458273e-03
      -6.5049765717348218e-03 -7.5008979346047749e-03
      1.1216520315352885e-02 -1.4219294884880824e-02
      6.8626203362295891e-03 -1.3968404865383898e-02
      -1.2994821660515214e-02 1.8581312596949985e-02
      6.2008705107952534e-04 -1.2100832302235581e-03
      -5.8265737680193441e-03 8.0554855225025753e-03
      2.4831805908572136e-02 1.2043947338650220e-02
      1.0334380090824746e-02 1.2536828126235388e-02
      2.0709004936999863e-02 -1.0304795359957790e-02
      1.5480685862083442e-02 -4.8570889716916714e-03
      -3.2339310503260423e-02 -1.7942496368102509e-03
      -1.1320030546742259e-02 -9.9407440305143910e-03
      -4.5306520833094562e-03 1.8384091928300393e-02
      -1.8506516565260746e-03 -1.5129058754648145e-02
      1.8046217178672382e-02 -5.8650968912209861e-03
      -1.6598999026984872e-02 -1.3885257403848203e-02
      -1.0013967236326358e-02 -1.3994956839537978e-02
      2.9158408068250268e-03 -1.1204286558983642e-03
      5.2649972685789304e-03 6.0438991540605743e-03
      -4.4437210156568832e-03 1.5915297553837457e-02
      1.9557033969968812e-03 -1.1763253197179182e-02
      -1.5522697106418756e-02 1.5850074277835330e-02
      1.9551047353124556e-02 1.8982364251624174e-02
      1.0467255879230170e-03 1.3545253243322345e-02
      5.3987137761191840e-03 4.2168324343111038e-03
      -1.4041184926551261e-02 2.5191621307178641e-02
      1.7132792278442874e-02 8.4380658988117106e-03
      -1.4470656864158790e-02 -3.0895770551501409e-04
      -4.2236600084816786e-03 1.8281372756631595e-03
      1.5375942489110417e-02 -1.1431893731328796e-02
      -3.2732178401576888e-03 -1.1096860244737581e-02
      -1.5182017256113087e-03 -1.5888851777482862e-02
      -1.2379580994949145e-02 -1.9484140633952311e-02
      1.6322907276411280e-02 -3.8504936966566091e-03
      1.1036185207859490e-02 -7.9444041058780081e-03
      1.6018637139193438e-03 9.9632881663379129e-03
      -4.6002091099380873e-03 1.3359228221461759e-02
      1.6578493546149396e-02 1.5640756766220176e-02
      3.2599913265745151e-03 8.4324050207284489e-03
      -6.1042778390366257e-03 -6.9778233806835760e-03
      7.3545087824006860e-03 -7.0190731304446297e-03
      -4.7939620022758572e-03 -8.7535527398315636e-03
      -3.7676013713790380e-03 -2.8931710430447913e-02
      1.6858026354357854e-02 -8.1283537032528722e-03
      1.6569650597645778e-02 -6.1624421837140663e-03
      2.6123407101865848e-03 -1.7006436703084972e-02
      -1.9686865986214504e-02 7.2882022663497935e-03
      -1.6264316795508781e-02 1.1317895864545843e-02
      1.3245190268041211e-02 -1.3200849613273375e-02
      3.7229238830554030e-03 -5.8607925750746763e-03
      8.1586755837211901e-03 1.3280289435935308e-02
      -6.5948322020512864e-03 -3.8403188106332798e-03
      -1.9240042842930460e-02 -1.8105128267648155e-02
      1.0355613258754073e-02 -3.0723395746754967e-02
      7.5578564989515016e-03 1.4542778470520858e-02
      2.1669383327727866e-02 -2.5777126288975792e-03
      -8.6023256015854144e-03 1.9290477602198848e-03
      7.3601752167147339e-03 -1.0993824992349768e-02
      2.2041459232012336e-02 -1.5450655488916080e-02
      -6.3240305540537157e-03 -1.7125544515100441e-02
      -4.8388061610804393e-04 -8.7551854248800534e-03
      1.3936793010509018e-02 1.2218193586861810e-02
      1.3906807194734676e-02 -2.0253509053074934e-03
      2.1475425455967923e-02 1.2676142043642504e-02
      1.5822612874024051e-02 -3.8157795346075617e-04
      -1.0623776216345767e-02 -5.0201938761343292e-03
      9.8333170945801678e-03 1.2491124090922439e-02
      -3.2806466444255528e-03 1.3660880421216543e-02
      -5.7914354678452766e-03 7.9118260598990808e-03
      1.8109422194084034e-02 9.2174617988961273e-04
      -1.2946226985309084e-02 -1.7719138638062368e-03
      2.9507121796337669e-03 1.4251251829862305e-02
      -9.1027962439384144e-03 1.5231987127840344e-03
      -2.2515041956203366e-02 -1.1686357511167321e-03
      4.3660558231616055e-03 -2.0903488400918983e-02
      5.3910195188065771e-03 3.0188928862506046e-03
      1.0210229071932529e-02 -4.6828404234757067e-04
      7.5531014564004500e-03 -8.9457368062209868e-03
      -2.0478311010968722e-03 5.0544201049520562e-03
      1.9020494228791998e-02 -2.0540713343216745e-02
      1.6776686782092071e-03 1.8348791601687779e-02
      -3.8883059821865460e-03 -7.9335729414195739e-04
      -7.9940437865918673e-03 -1.4499537703133069e-02
      1.9233710897459129e-02 -1.6274242928120144e-03
      -5.1670956545257912e-03 -8.5962597536679575e-05
      -1.9197801909295278e-02 -6.1431252979408579e-03
      -1.6771350236752202e-02 -6.3778844277568216e-03
      -1.5601570680218719e-02 -3.7012309914960396e-03
      -2.2706365588123424e-02 1.7218006112033762e-02
      -5.6506792392334759e-04 -1.1848362509149253e-02
      7.1265831374575980e-03 2.2867923149925990e-02
      -2.5660177974636395e-02 -2.1128648488435063e-02
      -9.0486456655121811e-03 -8.6045061022089493e-03
      1.8552788884017526e-02 1.2198747604578494e-02
      -9.1928927857355056e-03 -1.3542896253258448e-02
      4.0882541609598170e-04 -5.7197834573950636e-03
      7.1799871009785743e-04 -9.7935521875654307e-03
      2.0247088799007884e-02 -5.9133509341915509e-03
      -4.7837357795499713e-03 1.3637288024982543e-02
      -7.7388996168615536e-03 -1.6461085592061393e-02
      1.6899255961280335e-02 -1.0130435341378582e-02
      1.1261522096021196e-02 1.2490383458131651e-02
      -1.4950339647513298e-02 -1.6755876111183104e-02
      2.8661856969668261e-03 -1.0509768575691013e-02
      -1.8562542930646816e-03 3.2289581335451676e-03
      1.8950795084539698e-02 -9.1570088979216566e-03
      2.4875101747612906e-02 1.3459829208139647e-02
      1.8966608256633485e-02 -2.2255933798447543e-03
      -2.6148563754197526e-04 6.8071118719069965e-03
      -1.2384677679531218e-02 1.6002079945644988e-02
      -1.6331264734433557e-02 6.4773231407686796e-04
      1.4942605906327358e-02 -1.6924214730227902e-02
      1.9576725593816916e-04 6.5087404414017223e-03
      -8.7571771717118788e-03 -9.6687649278859294e-03
      -1.0325895428838753e-02 1.2982160178698521e-02
      -2.0225076738666515e-02 -7.4910287696285521e-03
      -2.2072119697580751e-02 6.8128375805492801e-03
      1.7183664419506948e-02 -1.9562653527515025e-03
      -2.0284692332171735e-02 1.4667939814283083e-02
      2.6385934380007909e-04 1.4729001785553730e-02
      6.3756692162985316e-03 9.8540503150124203e-03
      -3.4290223782278500e-03 -1.6633602874882465e-03
      -1.6724155412460820e-02 1.2942501427542014e-02
      9.5804212137399394e-03 -1.3081999442859253e-02
      -1.1174865456238105e-02 1.6831052191398474e-03
      -1.8689518262906910e-02 1.4100734903620304e-02
      -2.0567838014460857e-03 1.7730614153390906e-02
      -1.9506826619853010e-03 -6.7012948218911584e-03
      -1.3580899934132836e-02 1.8176291037041919e-02
      4.8114204273671446e-03 5.3496805055365474e-03
      6.4809925324202096e-04 3.8012984887982617e-03
      4.9289587547149630e-03 1.3092346451261336e-03
      -2.0932939357837660e-02 5.8158649079707702e-03
      -4.3057065935212697e-03 1.8085540088367005e-02
      -1.3008267092608538e-02 1.2106963074306072e-02
      2.8979567602053602e-03 1.7282581324102587e-02
      7.4637950490373381e-03 6.9863026895707709e-03
      -1.2159264958578907e-02 -8.3214432747335722e-03
      -4.8634567333229553e-04 -8.9768138189949120e-03
      6.1845324912611823e-03 -8.3283295841862122e-03
      5.6396720843396855e-03 -8.1787764542641840e-03
      -2.3200453558770522e-02 -1.9868094679151602e-02
      3.6309721813042868e-03 -2.4273249021015929e-02
      7.2343459338339421e-03 -4.7083154982881176e-03
      1.7891083699527365e-02 9.3951198071288208e-03
      1.0211255389052735e-02 -7.7627261143674436e-03
      -1.8790494032426688e-02 -1.3561025412851999e-03
      1.1197957116183816e-02 7.4660707910310783e-03
      1.2685164182481522e-02 -5.0922811699707603e-03
      -6.5957000508135308e-03 9.2494147431383435e-03
      1.4156687646142130e-03 -7.0485599324848240e-03
      -1.0253006924622851e-02 -2.3072355958014785e-02
      -7.3292388472072359e-03 -4.0358956258550018e-03
      1.8859178531229398e-02 -2.8335937948386985e-03
      -3.5862029285583558e-03 6.0921162202046209e-03
      -6.6091610334172192e-03 2.2089252602045136e-02
      -8.6307417850254935e-04 -4.9245380723323103e-03
      -2.9462980125518463e-03 -9.7862329246737427e-03
      1.3159084877401615e-02 6.7501739644427279e-03
      8.9499825392390670e-03 1.3346034415568941e-03
      -7.5981311108273665e-03 -7.6623396313448876e-03
      5.5517627730175903e-04 -4.4785913525613565e-03
      1.7872839199382370e-02 -3.5150521863576739e-03
      1.2772268526981160e-02 3.9389580931707699e-03
      1.1493938117163639e-02 5.7561628025685330e-05
      4.8508036246686535e-03 1.2488669694992870e-02
      6.4424931353671321e-03 -6.4522194030031685e-03
      -6.9763840571740203e-03 -3.7417439013636864e-03
      -3.6125824983364736e-04 5.2634040741264543e-03
      7.7419854275702638e-03 -1.6210296429388378e-02
      1.0226990347706980e-02 -1.7601576427402565e-02
      7.6525435677633003e-03 -5.6284850674483723e-03
      -8.4006630462401741e-03 -8.5227676566786981e-03
      1.1638880615250294e-02 1.3839605526547184e-02
      -5.4387704990437073e-03 1.9200362925569106e-02
      8.6226168007592918e-03 -1.2623203782997200e-02
      1.4480887939651818e-04 9.9183333268904710e-03
      1.0101948134185733e-02 -1.1683261690739986e-02
      -4.0271176213124479e-03 -1.6674739769008549e-02
      3.3254830159308547e-04 1.3702629715557154e-02
      -1.3964780625614492e-02 1.3028127110221827e-03
      1.5213825001009861e-02 -6.6204195763498435e-03
      1.2522883095261684e-02 -3.4741111131995637e-03
      -3.8500528570087182e-04 5.8741296407591173e-03
      1.1348192037376361e-02 -1.4758040265795294e-03
      1.5081917603195719e-03 -2.1151728196137757e-02
      9.2995026672096429e-03 -1.5387118577191770e-03
      1.2055665795433851e-02 -1.3369305982854098e-02
      1.9483970252066413e-02 -1.1844213685748919e-02
      5.0222778536315920e-03 1.3045653712142393e-02
      1.0608613872293657e-02 -1.9580690528206712e-03
      4.6969807099176948e-04 1.8605233491205915e-02
      -1.5850024081395301e-02 -1.1557986685494770e-02
      -1.3731718453339960e-02 7.1280499547425689e-03
      5.1208799493846786e-03 -1.2259047353915691e-03
      -1.3110295548431862e-02 1.7486507633896898e-03
      -9.6272633867613092e-03 -1.5123822637077199e-02
      1.2592931029648131e-02 6.8917139443551564e-04
      1.1283636590357438e-03 -1.0634459720601178e-02
      -8.7701774983732356e-03 2.7110683398530963e-03
      5.4628283906544665e-03 1.0396023453767897e-02
      -1.2885987235161394e-02 5.1458753377884954e-03
      7.2297586850634150e-03 1.2215729422951127e-02
      -9.0913142052908204e-03 -1.3115217521910701e-02
      1.5502280605919804e-02 -6.5975067414755619e-03
      -5.1862760176039011e-03 1.3200773800677277e-02
      -1.0920547891447731e-02 -1.7549361143107747e-02
      -2.0388386914974087e-02 1.0105393666560155e-02
      7.6560008915077284e-03 -2.0189364225771413e-02
      -1.2137656833820459e-02 1.3293551386251191e-02
      1.3516028922464752e-02 -3.8290720894846256e-03
      5.2829277271355165e-03 -1.4386285404725628e-02
      1.8186421907913340e-03 8.7348150893964815e-03
      2.5529166064240171e-06 8.4663327944688727e-03
      -4.5971219786526867e-03 7.6368940411913108e-03
      -1.6800127680904026e-02 -1.8092412694685096e-03
      -3.4750277672694874e-03 1.7168797381100866e-02
      1.7878839979399905e-02 -1.1272174958469980e-02
      -1.3106843059561120e-02 1.7734379858403350e-02
      6.8364868995543868e-03 -3.9621165223155024e-03
      1.4153347518220581e-02 -1.4530681936592038e-02
      -9.4689520566240380e-03 -1.3171183538404866e-03
      -4.7835269634907219e-03 -1.6392377016395603e-02
      5.6133498542933148e-04 -7.5534251887407929e-03
      7.5054909525326310e-03 4.1070502866713482e-03
      -1.2740562289046284e-02 -1.6947014413848986e-02
      1.3803442463528000e-02 -3.0002251062134244e-03
      -1.3140638334540999e-02 1.4125860241516420e-02
      1.4115365438444860e-02 -1.2917853910517536e-02
      1.3136045530131063e-02 3.1402559822176455e-03
      -1.0605789204142900e-02 -1.6620424829243315e-02
      -9.7015609288092341e-03 1.2350306985376088e-02
      2.3596962537388291e-03 9.3994063891962593e-03
      -1.4634716631682648e-02 1.7158975215814519e-02
      -4.4543145223126826e-04 -2.0902211352482178e-03
      -6.8783950175634523e-03 1.1774471789365378e-03
      -1.8379036168996724e-02 -1.6868878005371832e-02
      -1.8377888480051011e-02 -1.1900373838139723e-02
      1.3258048779452561e-02 -3.0735203850783032e-03
      8.5045283564651585e-03 1.9265527309760673e-02
      8.4322274060932671e-03 -1.6969960780498415e-02
      8.7568318030689374e-03 9.0956301663575956e-04
      -2.9870604831316858e-03 -1.4359839073069092e-02
      -9.7445352570589179e-03 4.9298377327777962e-03
      1.8753747048907005e-02 8.3685937151276348e-03
      -1.8977703213442123e-03 -1.3653349861599771e-02
      -5.7951679457748711e-03 -5.1647854083971597e-03
      -1.9384209879928820e-02 2.8138839644895582e-03
      -9.5955078165568964e-03 -5.6278605010866142e-03
      -1.2963990958234785e-02 -2.0202377150084732e-03
      1.0088027431292350e-02 -3.6969393221346013e-03
      -3.0023889089707692e-03 -7.5644777325343223e-03
      -6.5953580650458532e-03 2.4586334573562202e-03
      -2.3518833162736856e-03 -9.5011181219344393e-03
      1.9715073820272218e-02 1.5319864283550000e-02
      -1.5947818008941867e-02 1.7162450912089192e-02
      3.6358588670931044e-02 -1.6730762992278835e-02
      1.4959822020849547e-02 6.3089561970057087e-03
      5.1897611453637646e-03 1.6885606568893600e-02
      2.1677546627433659e-03 -1.8626151594223803e-02
      -2.2697564285458799e-02 -8.5616696990666787e-03
      -1.4829080483135202e-02 3.4486446466197290e-03
      -2.0086884668361265e-02 -3.5324260364570032e-03
      8.6410864778078567e-03 7.4567784785775203e-03
      9.7158568294800681e-03 -8.3798286186336900e-03
      3.3205294486606526e-05 7.6684718802441680e-03
      -3.1143959013994613e-02 -1.8151809651837384e-02
      1.0049216908640706e-02 5.2381418203292533e-03
      -7.9576840265145263e-03 2.9504107838426299e-02
      -2.6588937399544899e-03 1.7576809714565558e-02
      -1.5663343081652327e-02 9.6503730904742707e-03
      -1.4628528699282779e-02 -7.6711632480930070e-03
      4.6518046257587094e-03 -5.6627423616455869e-04
      -3.4605742749502155e-03 -1.9831044392358582e-02
      -2.6072571274525596e-02 2.1151647099407777e-03
      1.1144127307740582e-03 -6.0281093158253045e-03
      1.1933620820835792e-02 6.9855018261842780e-03
      -2.3831112272146900e-03 -1.7548073363629322e-02
      -2.5995072153098611e-02 -2.4373306018555068e-02
      2.7854709977591770e-02 -1.9429366236862755e-02
      9.1113969716807115e-04 2.8212827453875999e-02
      1.3281421619723828e-02 1.6847944409869111e-02
      -2.7922340652820156e-02 -9.5231693543351356e-03
      6.8404849359691815e-03 -8.2561798199293455e-03
      -2.0113907603770909e-02 -1.0655325538499519e-02
      7.3850040644679558e-03 1.3828252791143502e-03
      1.0284139163982364e-02 2.5332008941778800e-03
      -1.0226569141562234e-04 -3.7892744764403278e-03
      -2.1810910728561641e-02 2.5112962957924119e-03
      -2.0897033670744074e-02 -1.6941244219749723e-02
      1.4557344596802505e-02 -2.4763313854656412e-03
      -3.4821002216139569e-03 -1.1312285513304937e-02
      -1.5320031735955116e-02 -8.7987296455487359e-03
      1.5724286599421985e-02 -2.5980906064802283e-02
      -1.3691255576590509e-02 -9.6238165570368753e-03
      7.9771338237878790e-03 -1.7716392161681978e-02
      -2.1169710585321352e-02 1.1233470583518847e-02
      -9.4649927205317976e-03 2.4664836854464325e-02
      3.6708044043809607e-03 -1.3242700109354587e-02
      -1.3011538798256304e-02 6.1923321581180005e-03
      -3.7365492615141060e-03 1.2197995267280262e-02
      -7.5572580263492291e-03 6.7601991955427336e-03
      -2.6903327871219400e-02 -1.9366659298637588e-02
      9.4234819952459716e-03 -1.5693995507521669e-02
      4.6196334770924512e-03 4.2450324237364931e-03
      -1.2417645464395322e-02 2.1149150815606171e-02
      -2.9534024917831682e-04 -3.7241664339054581e-03
      -1.5939057732963679e-02 1.7728558887729201e-02
      1.5663601086406576e-02 -3.8011787962021005e-03
      1.6401387569616552e-02 -2.3105103855798189e-03
      -1.7453502711147362e-02 -1.5337135712959674e-02
      -2.6974528107859040e-03 -1.1822553365268655e-02
      -9.3365303368524860e-03 1.6921315032838769e-02
      -6.3478368285165201e-03 7.8145286185551995e-03
      1.0987144175073467e-02 -5.1992044487916018e-03
      -8.9396752390181172e-03 1.0201724076885776e-02
      3.4919162177069634e-03 -1.2136752447238953e-02
      -1.8045273802180448e-02 7.2546425053293924e-03
      -2.2484916298134289e-03 1.9827452853045657e-02
      5.7915973791342152e-03 -1.1022924337573641e-02
      -4.6240682911802772e-03 -5.7077075444297871e-03
      1.0138748238182841e-02 -1.0699303843349169e-02
      6.2100972326267316e-03 2.0047716214414788e-02
      -3.6797956106997586e-03 1.1862448122321695e-03
      -4.0040066109111342e-03 -2.3957533974959935e-02
      9.7333797043317617e-03 -9.8550085670821748e-03
      1.5408927403803440e-02 2.8612452002692574e-03
      7.9010610911902212e-03 1.9072354052053823e-02
      -1.3350707682608921e-02 9.8527471233752638e-04
      5.7385532700728146e-04 -1.0864566524613210e-02
      -1.7689009959443239e-02 -2.3890207205818931e-03
      7.9470797779750586e-03 -6.3974501640237191e-04
      5.0815912054414745e-03 -2.7815536783611376e-03
      -1.3550231310289316e-02 8.4727183710037266e-04
      1.3871294021493437e-02 -1.9091263694240444e-02
      1.6604983600120169e-02 -2.7788849960209069e-03
      -1.7429339709102959e-02 1.4326256258307867e-02
      1.0727140877908966e-02 2.0789212350167684e-02
      6.8970619544032443e-03 -8.9583526085618547e-03
      -2.5509244882634834e-02 -4.8875784281420670e-04
      -5.4520668788545449e-03 -1.3445274696810486e-02
      1.4746471195701615e-02 1.3679183723914291e-02
      1.2086778926853500e-02 -2.2672100037014975e-02
      -1.9855987872013916e-03 -1.0312148314532093e-02
      -2.2016293625099163e-03 5.5494757967154227e-03
      -2.0643668871171954e-02 -3.2133561878325135e-03
      2.1626976373239704e-03 9.0993398721427136e-03
      1.0923982835990937e-02 -1.0217624167563824e-02
      -3.6415643040353801e-03 3.0424833358229145e-03
      3.0221480468446628e-03 2.9917070242721604e-03
      1.2865012531264593e-02 7.4657602324937128e-03
      1.0291470896925281e-02 -1.3831492255618331e-04
      1.6734804048936002e-03 -8.7160340622522113e-03
      8.9079361673098639e-03 -7.7907247527415459e-03
      -1.1112551231126642e-03 -4.0451213214137531e-04
      -1.1467745025707675e-02 6.9730129572008600e-03
      2.3987008822562817e-02 1.8308117807227704e-03
      5.9483726879781904e-03 -5.5052398641685443e-03
      1.8587374711610843e-02 1.0059492246796345e-02
      1.0989252475345808e-02 1.5717826849913557e-02
      -3.9740566257025628e-03 2.9665488232320592e-03
      -2.2527696253193254e-03 -1.7070450924333281e-02
      1.6754067800599966e-02 -8.5316858056516274e-04
      -1.5190037915013131e-02 8.3777376549812200e-03
      -1.6015609732100918e-02 1.5705740288810655e-02
      -5.5736592639406774e-03 -8.4670335362058737e-03
      -1.5717423331178617e-02 9.2666762697541146e-03
      -8.3977787167496629e-03 -8.5640050145605589e-03
      -7.8706365884343432e-03 3.9116393971095906e-03
      1.0359620789003837e-03 -1.2996900943750534e-03
      1.2045488132314467e-02 -5.9752158661920234e-03
      5.1754026220957993e-04 1.2088046299799433e-02
      -5.7315807072963786e-03 1.6396605199640719e-02
      -2.1415081730333754e-02 -5.5150055491943904e-03
      -9.0743537190583114e-03 -5.3327471290921819e-03
      6.8915385942389905e-03 1.4265910637730637e-02
      -1.2860254002293216e-02 6.5441256335826660e-03
      1.4724565587322252e-02 5.0604189143154382e-03
      4.7762404792851551e-03 -5.4348217441006555e-03
      9.4044162922620224e-03 -2.1091902214863995e-03
      -6.2670029681609332e-03 1.1355557660312113e-02
      -1.2283089896487633e-02 2.5212400030769967e-03
      -1.6249169436993390e-02 -2.0282992991709662e-02
      -8.6059270553448062e-03 2.7269594431568230e-03
      -5.1267268536490411e-03 -5.3351311176257138e-03
      1.5939098525769104e-02 -1.0174509019116391e-02
      -1.6461247376070281e-02 8.5951347933596947e-04
      3.9193729680303633e-03 -1.4762969150619233e-02
      -1.8596289220927310e-02 -6.0242078516361645e-03
      -2.7109583739817433e-02 -7.6117148448281973e-03
      1.7084299493433038e-02 2.2633964715650719e-02
      -2.2392307484668760e-02 8.4524621967855297e-03
      9.2216933064744287e-03 -1.7891396487551871e-02
      8.9303982772723414e-03 -2.1184524654770193e-02
      -5.5075970758850486e-03 -2.1083153723679436e-02
      -6.2684356997609646e-03 1.6309166310081444e-03
      -1.8493204991874339e-02 -1.5493841343268307e-02
      -1.6412323741863143e-02 4.5880151607110013e-04
      4.2265137686249852e-03 -9.8280246412486890e-03
      -1.6159992799455077e-02 -1.3919114266629201e-02
      2.0804494694455842e-03 1.3650534598771202e-02
      1.3581074551172063e-02 -1.3970879362647137e-02
      -2.7290044968832167e-02 -1.8340231235227992e-02
      3.1358384964213270e-03 -4.5029689171142634e-03
      -5.9109928226136390e-03 1.4483561820434359e-03
      -6.3583448225282523e-03 5.3709358919725690e-03
      1.2863357458598122e-02 7.6000775183797508e-03
      -8.1792844262771249e-03 -1.4673082567723383e-02
      -3.3997038202156554e-03 1.8378994166624706e-02
      1.7642811112612272e-02 1.3333772572913631e-03
      -1.4258008493838435e-02 -1.3665352838543572e-02
      -1.5185757569691255e-02 4.1158276101640788e-03
      1.0397111954607859e-02 -2.1611273863925095e-02
      -1.7381836873320330e-02 1.1361885737440128e-02
      -1.1000411319267142e-02 8.3601988663220481e-03
      -1.9893803507590773e-02 -6.5259196804187051e-04
      -9.5151776604513426e-04 1.3524778175374699e-02
      1.3695522795670094e-02 -2.2564513755391667e-02
      1.2143763716766487e-02 -1.3569171986104354e-02
      1.1868119774420899e-04 1.2096410997150933e-02
      -1.8060138741141204e-02 1.1399105603928856e-03
      2.1408321749946963e-02 3.4492684877777398e-03
      1.1172307021149075e-02 -8.2115451235201633e-04
      1.1659905415462146e-02 -1.3280483951991830e-02
      -5.2122747676914020e-03 -4.8453497464334408e-03
      8.3725931704017389e-03 -1.0538509486700010e-02
      -2.8775523978931210e-04 -1.5710426311500811e-02
      -4.1531733457677977e-03 -1.4437131709735016e-02
      7.5864292252827079e-03 3.7815928326951024e-03
      -1.6408406567724913e-02 -5.3016355970104080e-03
      1.4929021206396446e-02 -1.3474178553621487e-02
      -1.4687374571917747e-02 -8.2088236532601149e-03
      1.1071297972270317e-02 -4.0068264390223920e-03
      2.5465175281962752e-03 -5.5544533657827964e-03
      1.0697284346375326e-02 3.2277200356983417e-03
      -1.4617420511825992e-02 -1.8298417618498708e-02
      7.6009540586310432e-04 -6.1235328197898923e-03
      -9.9912629381610270e-03 3.9874485332981157e-04
      1.0877253443840140e-02 -6.4933439097075475e-03
      -1.7422028019435612e-02 -1.1274187160956822e-02
      -3.4353864392193088e-03 -1.7372787786807415e-02
      -3.5659547760475275e-03 -1.6676335581782765e-02
      -1.3115879069391934e-02 1.4750954618256831e-02
      9.2202477458449925e-03 -5.0209912366346319e-03
      1.2723665444648322e-02 1.9556448412702765e-02
      2.2250870737460949e-03 4.4772173278262689e-04
      -1.7293984875016762e-02 2.2154107942788466e-04
      5.5206591684442690e-04 1.1597159664280534e-02
      -1.5190349346769219e-03 -7.5883757743126510e-03
      -1.5105398877537021e-02 1.9990352188512594e-02
      -3.3661619560163207e-03 -9.0665670466767642e-03
      -4.2805254787337413e-03 -1.5537900018747065e-02
      1.0958638494133798e-02 -1.3151293760179282e-02
      -1.4737471941778000e-02 2.0035239282358137e-02
      8.5762536973450192e-03 -1.9566004772319897e-02
      7.9403485660842852e-03 7.6581136712648729e-03
      -5.1210216775495294e-03 1.1257378732995019e-02
      -1.6661481292081014e-02 -1.5393309143752797e-02
      1.4823522908430108e-02 -1.2732938588081682e-02
      -1.5536725415666711e-02 -4.4391258931988538e-03
      1.4014811631247077e-02 -1.0889531005116079e-02
      5.5724146629606642e-03 -1.7503809526567805e-02
      1.8778794820956905e-02 -1.1708503088087584e-02
      1.2465783566337802e-02 -1.4577954110903780e-02
      2.0851762261271073e-03 -1.7134237817429232e-02
      4.0357802906071400e-03 -1.3967346970791508e-02
      -9.8390742325486086e-03 3.7453069850068967e-03
      -1.5793737087717939e-02 -1.1119909584317021e-02
      -6.9253851132412064e-03 -1.1675144490215930e-02
      7.3283545960688406e-03 -1.4813159500691217e-04
      1.2192659747278204e-02 1.7845025983864872e-02
      1.2484355542071971e-02 -4.3090206336996173e-03
      2.2072320195598048e-02 8.2146849554148044e-03
      1.0406018338286136e-02 -2.3872495613927618e-03
      3.6302150696239198e-04 -4.7880461615831468e-03
      -9.8740641811479214e-03 -6.8102031422002472e-03
      1.8705708146654555e-02 -7.2404783956877264e-03
      -1.4170217359449120e-02 -1.2395853357002684e-02
      -1.3057835681847997e-02 -1.6368822655352590e-02
      2.0770595660043779e-02 1.5322222887437228e-02
      -1.4787366610631333e-02 1.1342483221574580e-02
      4.0285061417159179e-03 1.5429172912192004e-03
      -1.2118707614656673e-03 2.3675751600818239e-03
      2.3962428220149302e-02 -3.6662582694102423e-03
      -1.2903840315884128e-02 -2.4316371616672872e-02
      1.7664178349972980e-02 1.5035027890847213e-02
      -1.0633479573039234e-02 -1.7278074497643015e-02
      -6.2761109354323649e-03 -6.3367034330431525e-03
      4.2979783167577277e-03 1.2171015500061309e-02
      -1.2246553219146030e-02 -9.9752588700035508e-03
      4.6879460633285778e-03 1.9381396197034502e-02
      -9.1485835556416647e-03 -9.1362587695670364e-03
      -3.6795827437595576e-04 -2.0774464039850064e-02
      -1.0168010182858024e-02 -2.4171597401221056e-02
      8.2868139686807403e-03 -1.0959836774048293e-02
      -8.3276622990331173e-03 -7.3350633046406124e-03
      -1.8825828045100159e-02 -2.1968723206024546e-03
      -2.2401574775979148e-03 1.2034029308869876e-02
      9.8831437901838841e-04 1.8108823022687830e-02
      -1.5493052033188019e-02 4.8734610703134755e-03
      1.9381197467283961e-02 -1.4950732393578869e-02
      6.8915214641552050e-03 -9.8599877532986658e-04
      -1.7225741243337343e-02 1.0433406491532505e-02
      1.1906319382969646e-02 -6.9896902515782545e-03
      -1.4704309023946836e-02 1.4497752291724869e-02
      1.5810760788262893e-02 -1.3966720879788171e-02
      -1.7188116619276821e-02 -9.8042790361526581e-03
      -1.0608766407508474e-02 2.1769926497944990e-03
      -2.4870873752409355e-02 -1.5454573845237175e-02
      1.1364702065952066e-02 5.9405875482243676e-03
      1.4224685999999744e-02 1.1251541816273886e-03
      1.4041713601819583e-02 6.2251450041092499e-03
      -1.7484695741303582e-03 3.3520484285559575e-03
      -1.9106045009258756e-02 -2.0574357549929456e-03
      9.7292120195974149e-03 -5.6527890904696501e-03
      -1.6097509836185539e-03 -1.0605020161383148e-02
      1.7816880366549988e-02 6.9671717504375960e-03
      -1.4117209740462688e-02 1.4149521496478927e-03
      -1.4759625264053949e-02 -2.6063925844836348e-02
      1.4046210973594403e-02 -6.5645165832744837e-03
      7.3720886829330458e-03 -1.7513471644675409e-02
      -4.1180396079942118e-03 -4.3264969569447569e-03
      3.9571470516565586e-03 7.4737177997044298e-04
      7.2039153174163102e-03 8.1307342349062513e-03
      1.4983866884516101e-02 2.9306532640183802e-02
      1.0575079600308504e-02 -2.5020004472494106e-03
      -2.0359910349072100e-02 -1.7132220040471151e-02
      -6.2413452116841048e-03 -5.1178748512511803e-03
      2.3634358374688746e-02 2.3496372290771620e-02
      -3.8757567546028136e-03 -1.0774453379709495e-02
      2.5851633297694812e-02 7.3698732025934827e-03
      -1.3996887991690323e-02 -2.0716273572539781e-03
      2.1625216092029984e-02 1.6583694923277256e-02
      -1.3955920674625007e-02 -1.4912982611414327e-02
      1.9721287999879832e-02 4.5860853465029706e-03
      1.4008067333623106e-02 4.8342301415065311e-04
      8.0507553746033307e-03 -6.3102436069299101e-03
      1.4120097782168188e-02 9.0932617877223648e-03
      8.7191381841537421e-03 -4.9726025240947568e-03
      1.8847043709158733e-02 -5.7435949360145275e-03
      -1.6818210087349982e-03 -2.2625226780411546e-02
      -3.9069958845435347e-03 -8.2717775573463894e-04
      -2.3239498166283141e-03 2.0214067996958521e-02
      -1.6858384747638941e-02 3.8127942423283349e-03
      -9.6096970222759594e-04 -6.0635507580854625e-03
      2.2719883325527563e-02 1.5107604966345568e-02
      -1.2799234776811308e-02 2.9152642278651758e-03
      -1.2870864824806014e-02 -1.2583521965423545e-02
      -1.8100685427704204e-02 3.6918003078494029e-03
      8.3008002729966033e-03 9.1325951903032223e-04
      7.6239049766620333e-04 5.0913246761989574e-03
      5.7754517854994147e-03 1.4417142062441690e-02
      -3.3765909013147061e-03 1.0064693894241705e-02
      -1.9039037596563353e-02 -3.6261026005685814e-03
      2.5415406212300567e-03 -9.1748730968825945e-05
      -1.1872675607839915e-02 -2.6930664290517412e-02
      1.1679855524885917e-02 1.2766477847169506e-02
      -1.2115256874963827e-03 1.2162073224301361e-02
      -6.1758532394796352e-03 -5.8738422558144842e-04
      2.0609397328116057e-02 1.6286654943243020e-02
      -3.7669032200326339e-03 1.1767630530164988e-02
      1.1766776644410780e-02 -9.7146840870448847e-03
      1.4124725857312349e-02 -9.8841787244084867e-03
      -2.0104578565166109e-03 1.6106043856290983e-02
      1.3822750381258395e-02 1.6982165209330633e-02
      2.5512195975528451e-02 7.4505757243499421e-03
      9.8106185904457549e-03 1.7686340973682657e-02
      3.6550019034069245e-03 1.2056732784458974e-02
      -1.3484436826187513e-02 -8.4077013742795796e-03
      -1.2400501811471018e-02 7.4832645248320284e-03
      -5.0882727808494845e-03 1.8026716605602972e-02
      -2.9252649676893838e-03 7.6709432960023905e-03
      -1.3065833406738753e-02 2.8010656782799610e-03
      -3.3977592398759578e-03 1.5753989812905090e-02
      1.5082840571424285e-03 1.6272140516269830e-02
      -8.3807939863811166e-03 2.7445681943566742e-03
      -2.1757975371862622e-03 -6.0833237173153025e-03
      3.3943028119487761e-03 -1.8914537644746567e-02
      -6.2437301011164887e-03 -1.2277277852362276e-02
      1.3330135850961090e-02 -1.5693191593925307e-02
      -9.8749488866519634e-03 -2.5545958553718899e-03
      -1.1232753508590780e-02 1.6462363796717453e-02
      1.1998402047071550e-02 1.8571751651054246e-02
      -1.8890545305070318e-02 -1.6247078456382562e-02
      -4.4991784941541667e-03 1.3702745696922723e-02
      -9.9772079521443513e-03 1.0715470741015117e-02
      -8.4806311211309802e-04 1.4125979109002158e-02
      -1.3125923876711800e-02 -1.0914318578771594e-02
      2.7236803435071889e-03 -2.0840401910673875e-02
      1.5356461975185772e-02 2.9734752274513088e-03
      -2.1930204018482738e-02 1.0439640259943588e-02
      2.9776941522083079e-03 2.2920366049446546e-03
      1.2624689164352927e-02 5.0233989808910941e-03
      6.5217913344607741e-03 2.5814321513085377e-02
      1.7732595056670318e-02 8.2842173924268896e-03
      -9.5025389133915217e-03 7.9351941390224494e-03
      8.7598564671943404e-03 -1.8319434376598384e-03
      3.0457884945892756e-03 -3.6194813187323195e-03
      -2.0658205837631057e-02 -8.9627264100655378e-03
      -6.8654373223638893e-03 -1.8658696158435573e-02
      -4.3378509397107220e-04 -7.9887114464694056e-03
      -8.7106370443501609e-03 -8.4935841464751881e-03
      2.2940564095411266e-02 -9.8428280519063174e-03
      4.6818154397418685e-03 -7.5219131022771757e-04
      -5.5233342725721744e-03 -1.4603985606144107e-03
      -2.2021760702107939e-03 -2.0253441116819350e-02
      -2.1687505104927649e-02 4.6558015717353607e-03
      -1.2882344210682295e-02 6.3783919428430230e-03
      3.3025513552693421e-03 1.2067075684534094e-02
      -1.0316272805171131e-02 -6.1182809068679690e-03
      2.7238042728645593e-03 2.5796863064796679e-03
      1.3620655728958767e-02 7.8205461225942952e-03
      -1.1661048630810565e-02 -1.0919381966362161e-02
      2.7429961798243448e-03 1.0557008864116844e-02
      8.9834546246519791e-04 -1.9445836705157711e-02
      1.0426349079802593e-02 -1.6695805372760969e-02
      -1.0834956538505225e-02 4.5549847435801269e-03
      9.1142780717020696e-03 1.2247734902103576e-02
      1.0646691098610559e-02 -1.1079569222052530e-02
      -1.7204712760219870e-02 -2.9191045657059263e-02
      1.9927673160155788e-02 1.4004020535824245e-02
      -1.1767798653511385e-02 8.8077094476217959e-03
      1.4661827322302111e-02 1.3512274372651366e-02
      2.9567106195680867e-02 -1.5930243412354217e-02
      1.0824104573191795e-02 -2.1151759318342976e-03
      5.3347922514585472e-03 -6.4950861300490563e-03
      -1.3864663032017730e-02 -1.5093281739093235e-02
      -2.1987263886159219e-02 7.5394817958906752e-03
      1.1544437281912913e-02 8.1813850920875678e-03
      -1.2638030277134751e-04 1.1827081339543247e-02
      8.6263679541574122e-03 7.1128474213802678e-03
      3.3199558019971335e-03 -9.5855649733913757e-03
      4.5031581119463187e-03 3.2077183724240337e-02
      -3.1829454214827649e-02 -1.9823829958578919e-02
      8.2577402604453662e-03 -2.8202476569699755e-03
      -6.9536368875391689e-03 -1.4906507948682455e-03
      -4.4575405819858322e-03 1.4170695001531289e-03
      -1.4958425288982316e-02 -1.0820084058748298e-04
      3.9476590139961090e-03 -7.1238820451402056e-03
      2.1606026186877497e-02 -1.5286271278666030e-02
      -2.9779725898340086e-03 -1.1557690167259225e-02
      5.3323457958450032e-03 2.3245255175304742e-02
      1.2406309231309250e-02 4.3702467837337762e-03
      9.6312562853842071e-03 9.7086029497484381e-03
      -1.1356820154271195e-02 2.3191235464455305e-02
      3.1092048277414231e-02 2.2081060527474269e-02
      -6.3045327618109952e-03 6.4286712011542299e-03
      1.0102970348284701e-04 -1.7481062472622769e-02
      -3.5435870393971036e-03 -1.1487168510244498e-02
      1.1688761693955933e-02 -1.7289577834944482e-02
      -6.9685911268501854e-03 2.8780881899957873e-03
      1.2285984780879802e-02 1.9927171400242544e-02
      2.9623724078533743e-02 1.2653472750846870e-02
      -2.4235366147477306e-02 2.8996093898684468e-02
      1.1381221829437259e-02 5.0770259597319569e-03
      1.1367428027531171e-02 -9.1832240581452805e-03
      1.0784746571515749e-02 -4.1101158220464814e-03
      -6.6321681658760108e-03 -1.0080565670765415e-02
      1.3013873444246007e-02 1.6349036502159266e-02
      1.7931097183943444e-02 1.8615868727516884e-02
      -2.0999812372003660e-03 -1.7694256281085407e-02
      -7.3512002541647574e-03 -3.1350113717240188e-03
      1.3706515942133957e-02 -9.9855966399153336e-03
      -1.9611064189058499e-02 8.8987305544932557e-03
      -6.6455064179525248e-03 -9.8593493960567793e-03
      -1.5111132346066192e-02 -6.6081993622599724e-03
      -3.9769056941044113e-03 -1.4325119657272838e-02
      9.0799664355593716e-03 1.4633311213901684e-02
      5.8890271617705759e-03 -8.9028977246913502e-03
      -1.0158228164137221e-02 -6.4995237997755645e-03
      -1.6683330564783532e-02 -1.9691315908717675e-02
      -6.1767879038577096e-03 -1.8703048273028960e-02
      -1.8959499979341412e-03 -1.9590561197971368e-02
      1.0911455707244432e-02 1.0933673330427631e-02
      1.8259419630943657e-02 -6.1154035679949273e-03
      -1.3201953197696405e-02 1.3906748048657791e-02
      -2.9012556434466368e-03 1.4579862682295608e-02
      1.5583689911230752e-02 1.2201864289707810e-03
      -2.1324809226051242e-03 3.4013926758783928e-03
      7.6395566826913310e-03 3.5284901213125386e-03
      2.8321396760677274e-03 -1.4079849746058512e-02
      1.1389689221925969e-02 -2.0122705364712584e-02
      6.5921846762445396e-04 1.8044880108759848e-02
      -1.6567370986908688e-02 -1.6122668190936280e-02
      1.6972137216722329e-02 9.2401367193862723e-03
      5.0327850901081160e-03 1.4311459249469608e-02
      -9.5101480241273698e-03 -1.3921750533841910e-02
      3.0786756528902635e-03 -1.2082980598271352e-05
      -1.7687659128644173e-02 1.1649032627817595e-02
      7.6958600070357710e-03 8.2339401320338495e-03
      -7.2830101600295091e-05 -1.8327328952651798e-02
      1.0532411632561834e-03 2.3772049391433455e-02
      4.4597509602715369e-03 -1.3824197347725577e-02
      -3.2432288870887865e-03 1.8972374894485410e-02
      -1.0239602986715321e-02 9.4225716496715859e-04
      -9.1786380279977268e-03 -6.3769627385296289e-03
      5.9698887051144707e-03 -9.7504852716474716e-03
      1.1801011104790763e-02 -2.1705927253578443e-02
      7.8230107292844436e-03 5.5811845905889600e-03
      8.3779317483368941e-03 -5.6837219389067285e-03
      -8.1501387150095268e-03 -1.0697184657299191e-02
      -1.6656967153015085e-02 -9.4353461366130809e-03
      -1.7362726140740914e-02 2.1487653353381955e-02
      -1.2436616425264694e-02 -1.6859515788706849e-03
      -1.1469691246247223e-02 -1.5570411598062207e-02
      -5.5167865089998736e-03 1.0042444895609546e-02
      -1.8209010770959367e-02 2.0694066650049091e-02
      -1.6219118449148834e-02 5.1769240937431620e-03
      4.9608372218570718e-03 -4.6114234988991849e-03
      -8.3021645641901832e-03 -3.5849532045899063e-03
      3.1914058340164107e-02 4.0333877827485138e-03
      -1.0268426243038000e-02 -1.0167476747135890e-02
      5.0595113292356119e-03 8.3261936081218072e-03
      5.8296481273188033e-04 -1.7793034673803804e-03
      -1.1129381798154986e-02 -8.1902573663843303e-03
      2.8951508770915891e-02 -1.0332924994633634e-02
      2.8596617177743092e-02 7.7530195765869187e-03
      6.9273065826164293e-03 1.1207391993271986e-02
      -1.9624003529508222e-03 -1.4141064973486252e-02
      -1.1141192508162661e-02 3.4909160931342323e-05
      6.5136272728261741e-03 8.6607433022558022e-03
      2.1702011289973146e-02 -7.2494329472439704e-04
      2.9005125101063804e-03 -2.6981874490344324e-02
      5.7125535251072012e-03 -4.3781112947246835e-03
      9.6046971294924590e-03 1.1295352604868138e-02
      1.4665604595364192e-02 -1.1777918575983138e-03
      -1.2033127171574861e-02 -1.0092217867138155e-02
      -7.8593459502176045e-03 -2.5874350293802564e-03
      2.1620029436255602e-03 -1.2078695584738458e-03
      -5.5263292672293107e-03 -2.5004132204748336e-03
      2.9637218616607931e-02 -2.3455990408422403e-02
      6.5772773401151507e-04 1.3114811095695108e-03
      -4.6046742524741453e-03 1.6551412003782323e-02
      3.5552335723006805e-03 -9.2905802393826870e-03
      1.9799404114743912e-02 7.7631680030069003e-03
      -1.2070590545534931e-02 1.0622945318656981e-03
      -9.5006795913149186e-03 -5.4481709526949763e-03
      1.3132981835511769e-02 -9.3445441443011784e-03
      4.9915798723880779e-03 -6.1966109716291660e-03
      7.8681813235417872e-03 -6.4394220742013371e-03
      -6.4264714773622396e-03 -8.8840086254357246e-03
      -6.8558912173499751e-03 2.1977206699218980e-02
      -9.3889658410887308e-03 1.4660743774861467e-02
      -2.4559884986781088e-02 6.3150568481404237e-03
      5.7720436806681249e-04 2.2739680213694984e-02
      6.5263020014932225e-03 1.2471441853652397e-02
      1.2966232454434650e-03 -1.0761752576702671e-02
      1.0837198304919136e-02 1.0357052946560608e-04
      4.5016680778616680e-03 1.1572577525923040e-02
      -1.2646842370976194e-03 -2.5032120321402087e-02
      3.7136295809501833e-03 6.1446827488578536e-03
      -1.3039870469191403e-02 2.4225524245145295e-02
      1.8979218810417156e-02 1.2711926182995135e-02
      -1.6699434796038450e-02 1.4529106128626179e-02
      -1.1223469588127465e-02 -1.0094020020615699e-02
      -2.4079635809002432e-03 -4.5659045358354463e-03
      1.0657576552488730e-02 -1.2182336907963989e-02
      -1.8725228493044540e-04 2.2013582719429086e-02
      -7.9457954665614061e-03 1.1568966821937294e-02
      -1.1440876872804201e-02 1.6418837246050890e-02
      5.1429616944768785e-03 -6.0208082118757287e-03
      1.6670287371866200e-03 1.5587854528809239e-02
      1.3780424711924177e-02 -7.3949020665820212e-03
      2.0979470412488530e-02 -2.3905460704838542e-02
      -1.2484167267055029e-03 -7.2383147708362065e-03
      -2.1129093482653526e-02 -1.8898433519196972e-03
      -5.8044682248127380e-03 -1.9423808465241742e-02
      -1.2606770699673380e-02 -1.6095491322187894e-02
      2.4734740541458014e-03 2.6364640175160960e-02
      6.1182433434005725e-03 -1.3689980430345553e-03
      1.2930863714590395e-02 1.9555934344226799e-03
      1.0000510063467534e-02 -6.3230440778681502e-03
      2.3361062620217265e-02 -1.6204954898332104e-02
      9.7177360825802944e-03 -5.9480978318990673e-03
      -1.9435899185468459e-04 1.4591565870034306e-02
      -1.8301706226962550e-02 -1.0918092657289798e-03
      -7.4122309016116340e-03 1.1813494226589508e-02
      -1.2637964248241177e-02 -7.4282435241318943e-03
      1.1290277992889721e-02 8.6575848282805859e-03
      9.7605914187773434e-03 -1.8957743486510869e-02
      7.5967202800740841e-03 2.2470166246739261e-02
      -1.5429947983432311e-02 -2.2280900662556900e-03
      7.7999557228551012e-03 -1.9076788391802667e-02
      -1.2593776910754643e-03 1.3014330156962196e-02
      1.6062573604833277e-02 3.2748069923463536e-04
      -3.7533304602743052e-03 7.7365327837132783e-03
      1.8940227020463531e-02 1.0696901217812390e-02
      -1.5628953332822326e-02 1.7131694936109099e-02
      -2.2675518811322362e-02 -1.6717918559203913e-04
      5.2498657092782588e-03 9.5466170491433772e-03
      1.8323727063117901e-02 2.6797334850123849e-02
      -2.2956134808295368e-02 -2.1072233827275549e-02
      -8.9243299669087665e-03 -2.6708399097353602e-02
      9.2005993836000530e-03 8.9134381643950020e-03
      -6.2314261977413120e-03 -5.4793420301970236e-03
      1.4546442283878500e-03 -2.6100074738231564e-02
      1.4911415379031602e-02 -5.1038966828391898e-03
      -4.6579048439045522e-03 -8.2629848529737291e-03
      1.8526373025788714e-02 1.0040360636519547e-02
      -7.6518673234281971e-03 1.4041180931189067e-02
      1.0737844029987276e-02 2.8206119526562982e-03
      5.1913974034545635e-03 -2.5403640455024232e-02
      -2.8076124529849138e-02 4.4719423480032282e-03
      -7.5942784460799311e-03 -2.2168675642222323e-02
      1.4729650448888220e-02 6.6473854593879673e-03
      -5.9419381117098947e-03 2.3019385472543286e-02
      -1.7875329338137517e-02 -2.6059824133288553e-03
      -1.7103896355186499e-02 -1.3015816454439040e-02
      -4.1701429606639617e-04 4.6677171969073342e-03
      1.1571559820670063e-03 -1.4981681702422565e-03
      9.9936236108824177e-03 -7.2994240241351501e-03
      1.6965754202323814e-02 1.6221038494817482e-02
      6.6624923837857253e-03 1.7352930757393706e-02
      -1.7890224535242874e-02 -7.0176812898236178e-03
      -1.0897375767225471e-02 -1.5232647492907713e-02
      -4.4281399798812293e-03 -1.8812114683933921e-02
      -7.5442492502140468e-03 8.6803174554893007e-03
      1.1947716442889853e-03 8.8187384634538721e-03
      2.1124948624105050e-02 -2.2117533848669105e-02
      1.5355879723064514e-04 -5.7977819550427611e-03
      -1.0130484515329431e-02 -1.4552840104045188e-02
      1.1374442838705390e-02 1.2108724778571658e-02
      1.1787499835338252e-02 6.1786459709206390e-03
      -2.1602045704126088e-03 -1.1105668109356016e-02
      3.8062968711719842e-03 -1.1631366748821379e-02
      -1.1804314352100295e-03 -1.9055458066587906e-02
      -7.2913861723269907e-03 8.3520203194695063e-03
      8.2171087735567853e-03 2.9211458305364968e-03
      -6.8514490539018872e-03 9.4079643069149856e-04
      -2.5000916288769048e-02 1.1624034549541100e-02
      1.8235239955843419e-02 1.8860891187955938e-04
      -2.5428694429611965e-03 -4.1000954434382781e-03
      1.3146878787071378e-02 -2.2852964293241414e-03
      4.3380744251629100e-03 -8.1249054303773622e-03
      -1.3917252261442043e-02 1.9116397685407314e-02
      1.6327767646801335e-03 -9.8294573670731373e-03
      -1.7274253485429353e-03 1.6144690972960309e-02
      -8.0796511782936301e-03 1.5515316302022079e-02
      -8.3319145926898357e-03 -2.7202807981154906e-02
      2.9659456472358042e-02 9.3161747987985689e-03
      1.5716214676176898e-02 3.0362737833547629e-03
      1.1112620989163095e-02 -7.0546829087210720e-03
      3.7308583270324368e-03 5.2792961146605369e-04
      5.4245686642776332e-03 1.4072055029710455e-02
      -2.4110495219284663e-03 7.1742768829573516e-04
      -2.9187875426456089e-03 1.3051104600176383e-02
      1.2972727337597054e-02 4.1085363855975013e-03
      -1.1910262703900939e-04 4.5807056298887375e-03
      -8.6067650599052428e-03 -1.0533810609844284e-02
      1.4498191492457509e-02 1.1394384003010447e-02
      4.1233560211709590e-03 -2.0944526317088447e-02
      -1.4650159601814594e-02 -1.3284776975428835e-02
      -7.8071837972747762e-03 2.6656961879227524e-02
      -1.3917950755227636e-02 1.2976073443340369e-02
      1.6365813811421857e-02 -5.3458742661097259e-03
      -7.1622191080814935e-03 9.4868092878689378e-04
      -5.7899482642632281e-03 1.4424797353808418e-02
      6.3242056528384537e-03 -6.8273271013515359e-03
      -9.6586123275512869e-03 1.4172896408469519e-03
      7.1452606679573592e-03 3.0918342874515013e-03
      1.5137896947451757e-02 -1.1340647292969715e-02
      4.0487304697160277e-03 -1.8598905464101759e-02
      1.7075478411761314e-03 -2.1611131659019277e-03
      -1.5312356851580231e-02 -1.3989115385496010e-02
      -1.0076008381508964e-02 1.0905290506630604e-02
      7.4260027136179730e-03 -1.4631143675448816e-02
      5.9889039710658218e-03 -3.3810206727778050e-03
      -1.2309246129661862e-02 -9.5871070840729024e-03
      1.8149289937596309e-02 1.4384927150426264e-02
      5.6803269593620562e-03 -1.0462059416304723e-03
      -1.3374974525373865e-02 -1.8339336860603371e-02
      -1.5654062223692328e-02 9.3050001262872679e-03
      1.5332152057053077e-02 -1.3781555309426657e-02
      -3.3481499910828845e-03 1.1299710811686259e-02
      -2.9520483301604789e-03 1.4655723379431157e-02
      -2.2736786250427982e-03 1.1875858693380054e-02
      6.0391697384120759e-03 -2.0637590989078811e-03
      6.2476443121789217e-03 -1.2593139148898030e-03
      -7.8159689072543719e-03 9.4191664685431553e-03
      -7.4646228089584798e-03 1.2321469472892298e-02
      4.2874776274066662e-03 -1.4496281095275190e-02
      1.7813573763699471e-02 -1.3651884343659017e-02
      3.9978677870555661e-03 1.2133819749061732e-02
      5.5157884892187677e-03 -1.0636354854462989e-03
      -1.7589834230000444e-02 -1.6513290556694121e-02
      -2.9404767552403482e-03 1.6268970077430944e-02
      1.2077495593703657e-03 9.2620886841384212e-03
      -3.4492497561407409e-03 -3.3891197706581821e-03
      1.2704246951111879e-02 -4.4319521704681113e-03
      4.1982878196209598e-03 1.8782170454109275e-02
      -5.1617283127590313e-03 1.6325959491406018e-02
      8.4860897673098411e-03 -1.8891264357929535e-02
      -1.1800053462616342e-02 4.5577628644299546e-03
      1.1151280084416413e-02 -1.7202941933610907e-02
      -1.4345871388486376e-02 9.2635757230140822e-03
      -9.1162016554327697e-03 -1.3055970964806913e-02
      7.3348237226471356e-03 -6.3592905047479761e-03
      -1.6537641754671536e-02 -7.7700505504549305e-03
      1.5513768840275874e-02 -1.2345978458216506e-03
      1.1463072901560683e-02 2.8203027352952732e-03
      1.4941787412716928e-02 4.4560020061934135e-03
      1.6688653807804679e-02 2.3327969324963226e-03
      -8.3686194597740841e-03 1.4079451735592267e-02
      1.7356100890370294e-02 1.2540804056068037e-02
      1.6596254298780477e-02 -1.2921340710221496e-02
      -6.6718239402629824e-03 -4.7531032917479390e-03
      -6.2936501088091540e-03 -4.0636891684484085e-03
      -1.2701617711862628e-02 -1.4454165218129511e-02
      -9.6163917308228989e-03 1.9591101156117359e-03
      1.2515859886156628e-02 -1.2143475403538133e-02
      -1.1994763322682952e-03 6.8097280448865881e-04
      -1.2625926671956758e-02 1.4629678373847611e-02
      -6.6967222852605413e-03 1.8813055891462711e-02
      -4.1429606954917209e-03 -1.0500849459018090e-02
      1.8454481616188571e-02 -1.4518567462992935e-02
      -1.5135077563566236e-02 -1.1321322161767504e-02
      6.7215676167238728e-03 9.9686617324292997e-03
      1.3244374314750748e-02 -1.0801324731213724e-02
      -1.5348109932869430e-02 2.8548367553610614e-02
      2.3965165871985866e-02 1.9105271037910918e-02
      -5.9433348773432213e-03 4.7027242486720059e-03
      -1.7735508917438244e-02 2.0213493134419256e-02
      1.6162920347141566e-02 -8.3352928917308569e-03
      -2.2745439482797322e-02 -6.1412772007412072e-03
      4.3715944154062063e-03 -1.7223496742540229e-02
      7.0821587636019185e-03 1.6490705665243875e-02
      -9.8949297924969138e-03 8.8188239812143476e-03
      2.5320369472821361e-03 -6.1111984243008444e-03
      -1.0526544919088734e-02 -9.5658547654571876e-03
      2.0129412891646735e-02 -1.4434397547365117e-02
      -3.5191735524193286e-03 1.6021972976451387e-02
      -1.8004956685436183e-02 1.4665858452495019e-02
      -3.5191652428064961e-03 3.3689801505161795e-03
      1.9032957296260351e-04 1.9623204137614671e-02
      1.4390606092787424e-02 9.1801400419052361e-03
      7.0132199376476360e-03 9.7329032014409414e-03
      -4.4815908081933748e-03 4.6246152312948404e-03
      5.3635341840260883e-03 -4.1175493027103506e-03
      -4.3052469049684782e-03 1.5954464918359428e-02
      -1.6206152974824927e-02 -1.1049195559079012e-02
      1.2129345949825187e-02 -9.0152860936055772e-03
      4.0545144108930379e-03 9.3212475326673386e-03
      -1.7105914621517674e-02 -1.8282756684543287e-02
      1.8060542167654788e-02 -1.4731310223280079e-03
      -1.2606975129442527e-02 8.9746826943452700e-03
      7.0089532409765148e-03 -2.6109639134449590e-03
      -5.8940473869880010e-03 -1.1279878164537687e-02
      -2.3391724640603705e-03 2.1841506211879143e-02
      5.3434786402518607e-03 9.4143006636853779e-03
      -1.6206408100824840e-02 2.4807342143864132e-02
      1.0461278429491402e-02 2.3560918367140169e-02
      1.2917746355462454e-02 -1.5060099876267915e-02
      -1.3966986119811071e-02 -6.2725538855392567e-03
      2.1208886982954301e-02 5.5247879239376484e-03
      -1.8802447435698304e-02 -1.1040571514210435e-02
      8.6257701023855979e-03 1.3654526071029689e-02
      -2.4154985441573028e-02 9.7644216890641587e-03
      -2.6581244696978416e-02 -8.1922342252258185e-03
      -3.9167530975048144e-03 1.1098737720791342e-02
      4.2337078958301815e-03 9.6423729262126827e-03
      1.5323779095921117e-02 -4.7848183581674112e-03
      7.1633024889825366e-03 -5.9363842683189307e-03
      -5.2040470483212132e-03 -5.8230380402964303e-03
      1.2482195561593572e-02 2.2915486020093662e-02
      1.5112442796410837e-02 6.1786051006521986e-03
      1.6422762922235094e-02 1.3521287953223039e-02
      5.6193725442764695e-03 -8.6049001141442615e-04
      -1.6220043348494789e-02 9.7512002669427516e-04
      -3.7822892621030297e-03 -3.9747670686895459e-03
      6.5461982045019193e-03 1.0006020114813679e-02
      1.0941423950726935e-02 -8.8612175990294383e-03
      9.3556544687147794e-04 5.0285580950577098e-03
      -8.3654524581602396e-03 -9.8437604541693987e-04
      1.9632419661031242e-02 -4.8703865353909043e-03
      9.3657852509088056e-03 2.1634753446968087e-02
      1.7178764168133572e-02 -2.6233198624893136e-02
      -2.7246320747807396e-03 -3.0068056772963991e-02
      -1.5909056610965474e-02 -4.0738931464234518e-03
      3.9641148549882238e-03 2.1369693786425451e-02
      -3.2088337062989303e-02 2.0894446084705164e-02
      -7.1870888134179531e-03 4.3583723662626852e-03
      1.8305588451130044e-02 -1.6976867810182601e-02
      1.0712625180569420e-02 3.0990402211166670e-03
      -7.7480230257310672e-03 -2.0478903496196004e-02
      -2.6778525242914155e-03 -6.6746091477593566e-03
      -1.4980568778575091e-02 -3.4268602170009398e-02
      -9.1676048264213335e-03 8.7624683295825321e-03
      5.3390842475605355e-03 -1.8949197849236470e-02
      -8.9496253929243260e-03 -2.2180098781569364e-02
      1.7703663628633879e-02 -1.6109965379528763e-02
      8.9306446669021617e-03 -2.0011016211221786e-02
      -6.1655670354875862e-03 1.9585326730485648e-02
      4.6989052253205198e-03 1.4477665508069230e-02
      4.5416310114764821e-03 -3.7241301249259218e-04
      1.5217528404942357e-02 -8.1245049431600495e-03
      1.0749783305605263e-03 1.6704585077945006e-03
      -8.9090205787495172e-03 2.2514944572671249e-02
      1.5041207074652521e-02 -2.6989637013450418e-02
      -5.8554346558916098e-03 1.9390314120049910e-02
      1.7046546964620712e-02 -2.6470693338660665e-02
      -4.6598181622773309e-03 -4.6208994524446663e-03
      -1.2725279699914254e-02 1.3128247426750630e-02
      -2.3106812077096292e-03 2.6417599178096138e-02
      -6.2539581423903968e-03 2.0289161707721996e-02
      2.0138113065878715e-02 -1.2657714265974300e-02
      -8.3384378893300165e-03 -1.6379859908510291e-02
      2.2716390135467850e-03 8.1144363766345526e-03
      1.9917840388999835e-02 1.6427892252922030e-02
      -3.3109245832515918e-03 2.2982849805572698e-02
      -1.6938850413687194e-02 2.4308829374644477e-03
      3.8814434174821652e-03 -1.3451613106474235e-02
      -8.8922312346616395e-03 -8.3961488935728520e-03
      -3.5860621225153886e-03 -1.7783206164440539e-03
      -4.8672186214928923e-03 -2.0708576587256469e-02
      -1.0313164645297751e-03 -5.2887995097490809e-03
      -1.8855843401510763e-02 1.8257757800161360e-02
      -1.8337805232839455e-02 -1.8983416808248686e-02
      6.7394202776515774e-03 9.3293457743752108e-03
      1.1475842848823347e-02 3.6136445379428583e-03
      9.8745100290104299e-04 1.2262765376851486e-02
      -1.9292238626566871e-02 -1.9603128350258906e-02
      -1.1906694645166565e-02 3.3553056637924969e-03
      -2.4898791285882546e-03 -3.5902488908133826e-03
      -1.4339756534309613e-02 -2.0421961287728926e-02
      9.0195985663249975e-03 5.1632755917771986e-03
      1.4486910232579701e-02 3.1273699098490550e-04
      -9.1763341445506193e-03 2.3889444254764605e-02
      1.5659531838783075e-02 1.4093917281535201e-02
      1.0914538683946757e-02 1.4281116870028074e-02
      2.0321553527222230e-02 -1.0760224255912520e-03
      -1.7266484191030895e-02 -1.2967236210101641e-02
      3.4784931490870431e-03 -1.9897274582474228e-02
      1.1319785786446657e-02 -1.6510742078724220e-02
      -9.1859063065567459e-03 2.3089028712390634e-03
      4.1515547469967995e-03 -1.7517179346180304e-02
      -8.0911346011854658e-03 2.3356126396834473e-02
      5.0115154203548120e-03 -5.8683124166478921e-03
      8.9637932900838938e-03 -1.9031021536996366e-02
      -1.7527582197738312e-02 -1.0592260443400796e-02
      -1.4022443072518653e-02 6.7954651920917371e-03
      -1.5244207583858057e-02 1.3491734788068506e-02
      -2.0085768210024335e-02 -2.1908686436076713e-02
      1.6967300000315839e-02 8.7210792150340857e-03
      -8.3259895716323602e-03 -1.1447057554875864e-02
      -1.6179371867519565e-02 6.1409854823301262e-03
      -8.5099129947764575e-04 -1.1655505132123383e-02
      1.2122509885169264e-02 -6.9004432614278612e-03
      -8.3832357892744212e-03 1.0056030554138638e-02
      -9.5957141508819354e-03 8.5717814911676939e-03
      1.6606539875290382e-02 8.8040825839448625e-03
      1.3725849712449036e-02 1.5673131310193938e-03
      5.4646439541322228e-03 1.4017422300919359e-02
      -1.6598159579397590e-02 -1.3037089798298651e-02
      -1.3135289028900275e-03 6.9595142050594980e-03
      5.3997377072353961e-03 -4.9595434168225802e-03
      -9.5430122740565483e-03 1.9781750258169611e-02
      1.5212462104207914e-02 2.0403881262575991e-02
      1.0071781645555451e-02 -1.7103324378050198e-02
      -4.2280448085012029e-03 -6.2457748504347790e-03
      -5.3424938541333598e-03 -6.5041672641384801e-03
      -9.7065157147127427e-03 -3.0932219535177827e-03
      -1.8104274101216105e-02 2.9605041186017869e-03
      -8.7533758005133785e-03 -1.9884729543142753e-02
      2.8447861587089294e-03 1.2207123212738298e-02
      -1.4283767430275039e-05 -1.5089676887427262e-02
      -2.3799214275023852e-04 1.6395571422586040e-02
      -1.3040670063163423e-02 7.8243985066032938e-03
      1.9712590294840609e-02 3.1347471796538294e-03
      -1.6626652954303392e-02 -2.1923515298551161e-02
      -1.3697970421904595e-02 -2.3752126808725795e-03
      6.0155217423420570e-03 -1.3564649065968132e-02
      -2.0223381727626815e-02 7.7862841262161609e-03
      4.0934039391922620e-03 -2.1472367327246774e-02
      -6.8878730827384204e-03 1.7333244770475948e-02
      -6.6567714583197117e-03 -7.9245649131839714e-03
      2.3612922732412956e-03 -2.2073873486299321e-03
      -1.1089657741898795e-02 9.1893702462388580e-03
      6.3865791593646229e-03 -7.1915971175184256e-03
      7.6008946995919403e-03 -2.0734438395637327e-03
      -2.2430199156644091e-02 1.6820747101767921e-02
      1.0505170569600694e-02 1.4397027353484325e-02
      1.7994033137067184e-02 -1.0262724649894639e-02
      1.5657230773030894e-02 -1.0092012542768947e-02
      7.3160508664138636e-03 -1.9213121523362824e-03
      1.5370972630801517e-03 -1.9272467790756812e-02
      1.2893610747760204e-02 -1.8436593480696145e-03
      1.0021673332458077e-02 -2.0795257303043006e-04
      -3.0804241712208301e-03 1.3884622833337686e-02
      5.8035961826245147e-03 -1.3766195813177850e-02
      5.7133639761690054e-04 1.7989085517710682e-02
      -1.6743198252591934e-02 1.3913082477460250e-02
      -1.1915210258020573e-02 1.6391159023645911e-02
      1.3147303846540188e-02 -9.9035159573524403e-03
      -2.3643074720214896e-03 -1.2690924994555588e-02
      -3.0586613495447784e-03 -3.8991687125734284e-03
      -6.7437180528876354e-03 -1.3635658239690724e-02
      3.6940144104067921e-03 -2.8971413826026785e-03
      -2.0829580189649800e-02 1.3733999024228852e-02
      -1.1751842640987208e-02 1.1257997320651802e-02
      -1.4412397069647021e-02 6.0593510115188754e-03
      -4.4335372959445020e-03 -1.2120608545857338e-02
      -1.5127564367870891e-02 -1.7247484936200371e-02
      1.0959371179214738e-02 2.1247480863719255e-02
      8.0792864580239345e-03 4.5832455217256806e-03
      2.1264539854652605e-02 7.9407822036578080e-03
      1.3300154380031497e-02 1.0124306900363179e-02
      1.0874719485613025e-02 1.3141858964988249e-03
      2.2315780082375874e-02 7.4466802054207505e-03
      -6.1703060032589820e-03 -1.1365945859251230e-02
      -3.7007684623571973e-04 -1.4512099204010842e-02
      -1.3219898363117558e-02 3.2086188242964483e-03
      1.1511668592278177e-03 1.6438559751146650e-02
      7.6585652204310779e-03 -1.2142600576485831e-02
      -4.1991002860306929e-03 4.4464255143435577e-03
      -1.3187621933119448e-02 5.1009011316914760e-03
      -3.2511848517275406e-02 -4.3283515317304056e-03
      -2.5716258323701086e-02 -2.5995719612266169e-02
      7.0826575442876957e-03 -2.5402402661027050e-02
      -1.2860200790058387e-02 4.6610114947597640e-03
      1.2384492621076527e-02 -1.5194925998492515e-03
      7.7436276507204293e-03 2.1600398441833520e-03
      -7.3245983978167499e-03 -4.4473458285471659e-03
      2.4621909215020610e-02 -9.0291525910393810e-03
      1.9091622955090580e-03 -1.3141300311177544e-02
      -6.6987591974404731e-03 -1.0021927878585990e-02
      -6.8451641068528754e-03 4.0789802708157989e-03
      5.7341485571630393e-03 5.5063865199140851e-03
      1.1270802199264704e-02 -9.9361448249008447e-03
      -1.4420980372747347e-02 -1.7786361989851993e-02
      1.3087416926874790e-02 -1.8474439209976476e-02
      1.7926748434277779e-03 3.3377459577797540e-03
      1.4053701918766738e-02 -1.2356980688319363e-02
      2.9867520743083258e-04 -4.2615963237375751e-02
      -5.9169606285403315e-03 -1.9376838240524358e-03
      -1.4379994076009813e-02 -1.6607621499086775e-02
      1.8387824356543272e-03 2.5340179709892954e-02
      2.7787220084290270e-03 -1.8380113031474250e-02
      -1.0345203500417460e-02 4.7232885169636212e-03
      -1.5440074731368337e-02 9.4275109627856360e-03
      -1.1328867481705092e-02 -1.8854888359153350e-02
      7.8981433403861045e-03 1.1340219872917974e-02
      -6.7909678141768437e-04 -2.1033010512554198e-02
      1.4205558136567480e-02 -2.3633712101897653e-03
      -3.1852327389356966e-03 -3.3449440436905217e-02
      1.0027519448383369e-02 1.0260803590988804e-02
      -1.5582283402855869e-02 -6.1383607393109135e-03
      1.1886040441306117e-02 -1.7733538542503910e-02
      -1.1095106727838273e-02 2.1859927991325665e-02
      1.7125464658156904e-02 -1.4482044662125187e-03
      8.0260359398605010e-03 2.4878917159066150e-02
      8.4488824785594104e-03 2.8401343358842493e-02
      -1.8586946999417805e-02 -5.9135919254592901e-03
      -2.9435203269673098e-03 -2.0393329378071919e-02
      -1.7929121948699171e-03 -2.3233711658597104e-03
      -1.3789296911899531e-02 2.5078401188426771e-02
      1.6005967198326837e-02 3.2774842792535529e-02
      1.8984137685768898e-02 1.1232153298827652e-02
      -7.2254177872130895e-03 -7.0552272786986265e-03
      -4.9911369095675690e-04 -1.8588436024684230e-03
      -1.1833204048679685e-02 1.3455211485686134e-02
      -1.7438206721548143e-03 -5.8050396588567622e-03
      -7.3110582214853601e-03 -1.6383733150482149e-02
      7.8873390146515839e-03 2.0061252503142991e-02
      -8.3576745376717880e-03 -1.0466363142248062e-02
      1.2675549990295991e-02 2.1608401982949357e-02
      -6.6444090615042179e-03 1.6705568456537360e-02
      -2.7401753820793865e-04 4.9554559777059927e-03
      -1.1828592881074258e-02 -2.5069679946873166e-03
      -4.0672688320942544e-03 2.7915850329195715e-02
      -1.3052595779593947e-02 2.3455985248668879e-02
      8.3724610086496169e-03 2.2489798112614878e-02
      2.1602200449537853e-02 9.2068963220664941e-03
      -1.6526020465929644e-02 1.0694291312476445e-03
      -1.1115729166769716e-02 -1.2565460036974304e-02
      8.1701251947480531e-03 -2.1209814491257438e-02
      -2.1293198472336457e-02 1.1002003985269147e-02
      -9.1725637230216338e-03 1.8767748344464999e-02
      2.1171176844733616e-02 -9.5512821892163036e-03
      1.2284365876351547e-02 -2.5328018975836323e-03
      6.3473835409566465e-03 2.5511270495617085e-04
      -1.9708220095810792e-02 6.1799345858516647e-03
      2.8391838617103705e-03 -1.6374936875792792e-02
      3.8040877785189566e-03 -8.0441384565745396e-03
      2.2047634993363326e-02 2.1655536054068534e-02
      -1.7769099318384822e-02 -7.4112679223882678e-04
      -4.5116873042642539e-03 2.4657435449943796e-02
      1.4445410977924946e-02 -6.5475735269707625e-04
      -8.3021311260368658e-03 1.4994660200709555e-02
      -1.4224825078313600e-02 2.9201531700864182e-02
      -1.3744216145329219e-02 -1.1582840548945539e-02
      4.0080292462844119e-03 2.7405962138329870e-03
      -2.9783400999289309e-02 -3.2454030373221129e-02
      5.1985541178149594e-03 -2.3814132721700833e-02
      1.6628094242898836e-02 -2.6953368989440764e-02
      1.5787386434783356e-02 6.1066018940986178e-03
      -6.5920869358848059e-03 4.6232977149339213e-03
      1.3173596591922805e-02 -1.1503872338330907e-02
      -1.7786595932878835e-02 1.3335259329442036e-02
      -6.1504956530800160e-03 1.4633727610415110e-02
      1.3189266248546683e-02 3.6304979622895804e-03
      -1.5861852598648720e-02 -8.5414162446149165e-03
      -1.7460173244393556e-02 3.5068324185402980e-03
      -5.6213493490511624e-03 -1.8834605725626466e-02
      1.4371395688457698e-03 -1.2206810315813044e-02
      1.2968678721239727e-02 1.2517147123700446e-03
      -1.1994732256148418e-02 1.7735123573417475e-02
      3.9097456974074877e-03 6.9769131455218601e-04
      -2.3881543453718474e-02 -1.1285339040064466e-02
      -5.1459655155330448e-03 -5.4176939575761160e-03
      2.0321980462619073e-03 -1.5092693611085187e-02
      -2.0843166002640200e-03 7.9300756371366993e-03
      7.7438735569010948e-03 1.4687136697323008e-03
      -1.2942461738971622e-02 -7.8038940424219206e-04
