<?xml version="1.0"?>
<opencv_storage>
<opencv_ml_ann_mlp>
  <format>3</format>
  <layer_sizes>
    19 100 100 2</layer_sizes>
  <activation_function>SIGMOID_SYM</activation_function>
  <f_param1>6.6666666666666663e-01</f_param1>
  <f_param2>1.7159000000000000e+00</f_param2>
  <min_val>-9.4999999999999996e-01</min_val>
  <max_val>9.4999999999999996e-01</max_val>
  <min_val1>-9.7999999999999998e-01</min_val1>
  <max_val1>9.7999999999999998e-01</max_val1>
  <training_params>
    <train_method>BACKPROP</train_method>
    <dw_scale>1.0000000000000000e-03</dw_scale>
    <moment_scale>0.</moment_scale>
    <term_criteria>
      <iterations>255</iterations></term_criteria></training_params>
  <input_scale>
    4.8005175838445275e+00 -2.1597859725531099e+00
    9.0192494984054665e+00 -2.1166867714897388e+00
    1.3084190852478983e+01 -2.2131812549620613e+00
    1.7902740756379941e+01 -2.0595461599631628e+00
    2.0448821916829466e+01 -1.9119400746195356e+00
    2.6926031821001970e+01 -1.8903326031143839e+00
    3.3770718200209004e+01 -1.9131937844255511e+00
    3.8019449518868555e+01 -1.7087149273749320e+00
    4.1853775932327643e+01 -1.5992423018194473e+00
    5.5794495715503302e+01 -1.7272590074000373e+00
    7.1961708356323754e+01 -1.8924850119796248e+00
    8.5807462170899541e+01 -1.9188774180048915e+00
    9.2264912266469352e+01 -1.8472575222558902e+00
    1.0398805628485427e+02 -1.8958630963259782e+00
    1.0740693933481275e+02 -1.8047308115755141e+00
    1.1850323783468522e+02 -1.6959086562483165e+00
    1.3226530056470943e+02 -1.7367232875555769e+00
    1.4124669253740990e+02 -1.7429442037934302e+00
    1.6057591966513365e+02 -1.8200664995441682e+00</input_scale>
  <output_scale>
    5.2631578947368418e-01 4.9999999999999994e-01 5.2631578947368418e-01
    4.9999999999999994e-01</output_scale>
  <inv_output_scale>
    1.8999999999999999e+00 -9.4999999999999996e-01
    1.8999999999999999e+00 -9.4999999999999996e-01</inv_output_scale>
  <weights>
    <_>
      -2.0832554729889322e-01 6.2129586144243597e-02
      -1.3534574146772405e-01 1.0740136812358222e-01
      -1.3842064175554145e-01 8.9636264036023025e-02
      1.1248224293317778e-01 6.5707626361951946e-02
      -1.4169733490945483e-01 1.2330744039857874e-01
      5.2247303049452881e-02 3.3541826559044030e-02
      -8.4187199289158535e-02 1.3461689823073575e-01
      -1.8117430896425202e-01 3.6295179796103111e-02
      9.3797164371353645e-02 2.2971814492884534e-03
      1.0474836545547811e-01 6.2737361962966809e-02
      9.9439246143043711e-02 -4.2053350597792798e-02
      -6.9610947278273327e-02 -4.8980978838683589e-02
      3.1453035813033520e-02 -1.1165584740167622e-01
      -5.5312491560309172e-02 -2.5044119374852414e-01
      -5.0485796676191484e-02 1.3260696816939768e-01
      8.6190446174682963e-03 6.4823388534879067e-02
      -1.8415374745688773e-01 6.0962814543370235e-02
      -4.8003469077238833e-02 -1.3499332321094540e-01
      3.6731535619966893e-02 1.6266750740354944e-02
      -2.6245549066076481e-02 -1.2723564388291905e-02
      2.6786273144766570e-02 -1.7346629277527723e-01
      -1.5363176837248463e-01 1.5010821987603618e-02
      5.8760484321247433e-02 -5.7708627406953324e-02
      -2.2622504230603774e-01 3.5729706164132097e-02
      2.7841368578430527e-02 -9.6617639815339690e-02
      2.4307451173677525e-01 -7.0391025509180902e-02
      -1.0300362984247084e-02 7.1013839245668384e-02
      -1.5943947472718145e-01 1.2049585793492743e-01
      -1.5410958117069168e-01 -6.4955722419812567e-02
      -4.7228173395578700e-02 1.1022289463921734e-02
      5.8274112527595456e-02 -2.2367650050081171e-02
      1.2165493752235902e-01 9.8513231978837393e-02
      9.3448554502757505e-02 1.4620159058522288e-02
      7.8971927287683930e-02 -3.8217529418936575e-04
      1.0810383225068887e-01 1.5253229456055287e-02
      -1.1298865889672877e-01 1.0176232302504731e-01
      5.8082947957856672e-02 -1.0930292147695347e-01
      6.0512834283271338e-02 8.8219253138425019e-03
      6.5728691696958524e-02 5.8791695122824159e-02
      1.2942402441700501e-01 3.0936797206404430e-02
      -2.5983818750669806e-02 2.0801722455144780e-01
      -1.5671240629633189e-02 -1.2483774064070960e-01
      2.7016290133257244e-02 7.9319952901798288e-02
      2.1739256694980467e-02 -7.8139900502500220e-02
      4.4733225880969098e-02 -3.5970937644296042e-02
      1.2129322566515801e-02 1.0058011579122204e-01
      2.6974977437270873e-02 6.9039796503145373e-02
      2.5150735162780635e-01 -3.0882882389696959e-02
      -7.7624393904379488e-02 1.5732628268243579e-01
      9.6381105185280772e-02 -1.5506623184510782e-01
      4.4185555693140026e-02 -7.7373180925254831e-02
      -5.1357400497050398e-02 -9.8286647723827780e-02
      -8.2227507068825909e-02 9.9343515569841431e-02
      -3.0773102600383958e-02 4.6870004484733378e-02
      9.1215876946998356e-02 -2.7681742938253151e-02
      -4.3825873195162290e-02 1.0176341952580029e-01
      -9.6138296511582025e-02 4.4389258570673024e-02
      1.1331465567324124e-02 -1.4541667696365555e-02
      -4.2006469191455738e-02 8.0278361154441952e-02
      8.5475447710323896e-03 1.9484516451836648e-02
      8.1194826175781734e-02 -9.9243293781740446e-02
      -8.8144373116483474e-02 9.1310821982577450e-02
      -1.7752855690427263e-01 -9.1251151677387829e-02
      -6.6303987871146358e-02 2.4791863089963562e-02
      3.0628673161711882e-02 -8.5605269828339325e-02
      -8.4028250562880893e-02 -1.3995370179482763e-01
      1.4966020904555957e-01 2.3714785447933942e-02
      1.3022357609378263e-01 9.1243693513419558e-02
      3.4512998146831099e-02 5.3862595510580556e-02
      -7.0915756677449523e-02 -9.8683432613377531e-02
      -6.3903534572118031e-02 6.4591879013638928e-02
      -3.6352094595097154e-02 5.3108978045636614e-02
      2.1392548902769887e-02 2.8180255761998813e-02
      1.1848400987001617e-01 7.1978625359423787e-02
      1.1674718621212202e-01 1.1751788325412814e-01
      -4.2163729284275996e-02 -5.0842581891320619e-02
      1.1493565874624687e-01 -9.7661624196331495e-03
      1.3719742375861071e-01 2.5350850380764435e-02
      2.2605990098710435e-01 1.1421306248534623e-01
      -7.8700708824132021e-02 -7.3175407053399533e-02
      1.2822969308129892e-01 -6.0801235397848381e-02
      3.9160793423735026e-02 -1.8321863699176717e-02
      -8.8797396369095824e-02 -1.3818426376912227e-01
      7.9958173709802419e-02 -4.3635718074517535e-02
      -1.2711900814431154e-01 -3.2062856773468422e-02
      5.1633050449719130e-02 7.6692900592467167e-02
      -6.2992537701318643e-02 -9.1970243244045180e-02
      -4.6261530908844620e-02 4.7992946002953611e-02
      1.3036184570070924e-01 -4.6632960904672838e-02
      -7.7530152100924316e-02 -8.6539617190224141e-02
      8.6741340509976150e-04 -1.3578742131642593e-01
      2.2610978240161332e-02 4.3812582421961191e-02
      3.9352493238501818e-02 3.8980517913489984e-02
      6.9104394290407559e-02 1.0405990586067121e-01
      -1.0527335167891017e-01 -6.3887968457271460e-02
      1.1347012185726414e-01 -1.3364883712395283e-02
      -7.7385732730851156e-02 -4.4890784344652828e-03
      -5.1886515864482660e-02 1.9033623732071302e-02
      -7.1289229286477768e-02 -4.3739711622727238e-02
      4.7736046011384876e-02 -2.7042224288122880e-02
      -8.1670436317744982e-02 -3.9261695677145117e-02
      4.1005947038939436e-02 -6.2647384172137707e-02
      -4.6818874457353853e-02 6.4063212263414951e-02
      9.6629751059877644e-02 -1.6459889204844366e-02
      -1.3240299659053625e-01 4.8286740695895223e-03
      6.7183700168141805e-02 -5.5600512074431931e-02
      -4.1574985273083676e-02 -3.3928122770875799e-02
      -1.4599538540665616e-01 4.5844762670275790e-02
      3.5933904569278877e-02 1.0556345850355146e-01
      -8.1049700698127683e-02 9.3334071126795648e-02
      8.3495815119305303e-02 8.6667860100722582e-02
      3.8336588501974744e-02 -9.2377469080232949e-02
      -4.4914721838368074e-02 5.3996319148133650e-03
      6.1105335054420090e-02 -7.2311746366866228e-02
      2.9429284952822678e-02 -7.3667950793737752e-02
      7.3795968996879374e-02 -6.7664972547978472e-02
      -3.4088265659141199e-02 5.9675084306959440e-02
      8.1360841273408188e-02 -1.0891230278355266e-02
      2.1525402853026003e-02 -7.7923072302752798e-03
      -3.7066087122878483e-02 -6.6415261874617160e-02
      6.8575983734040502e-02 -1.0022587435104603e-01
      -2.4588723863367051e-02 9.0110979952561718e-02
      6.0598246674260607e-02 7.1033269697850746e-02
      -3.4959666702497796e-02 -8.7364875304169642e-02
      -4.7082608063673051e-02 1.8702594163410174e-03
      -4.4706857211645148e-02 -3.2648957542126107e-02
      5.2948558164270694e-02 -2.4185925221347233e-02
      8.1664885522621022e-02 -7.5938901935088746e-02
      6.9481921401696844e-02 1.1375534968221111e-01
      2.9422331826938874e-02 1.4387987165321223e-02
      1.0464650876533066e-01 9.4246764890248431e-03
      6.7702097053418814e-02 -3.4913786206350231e-02
      -6.7788589368721466e-02 -1.0604529298866491e-01
      -4.9300977814363621e-02 -4.1793767965471532e-02
      6.1698564975147287e-03 -2.9891829811264252e-02
      -3.1960021260488580e-02 -8.2075229610519260e-02
      5.3715463774122778e-02 -7.6636580796551109e-03
      -5.7495725568011663e-02 -2.3726579819221504e-02
      5.2589899557460809e-02 6.1946221229384091e-02
      -1.1826497024586806e-01 -7.6929510517856625e-02
      4.2424303850479940e-02 5.3333830782129693e-02
      1.0494754070927081e-01 7.5338964225858474e-03
      -8.1402076371501528e-02 5.9683384730284367e-02
      -6.5576350572121619e-02 9.4167838100481946e-02
      2.9307155443538081e-03 -6.5111493926010927e-02
      -8.9471084178892629e-02 -5.5190943005704401e-02
      3.0436164420720536e-02 -3.8818834306875293e-02
      7.4541153692952042e-02 -5.9872406787368326e-02
      3.0214735103069244e-02 -2.6187896700215062e-02
      -2.6890142339061562e-02 -7.0552566351624380e-02
      -1.3991577990547177e-01 -8.0335503887289439e-02
      4.8270564495804094e-02 5.2527449912617239e-03
      -6.1404756666537878e-02 6.3133121222704716e-02
      1.6401889831801389e-01 6.2883260564648422e-02
      5.0369562774375057e-02 2.2031144342668601e-02
      -8.9935250087650222e-03 6.5100017316188585e-02
      -8.1709106614593352e-02 -9.5758848466105956e-03
      -1.4221513999157054e-01 1.1273437361518593e-01
      1.7983428152035262e-02 4.0519098109871331e-02
      -6.8177823948782551e-02 -8.9396025083808811e-02
      -7.2040974373385622e-02 2.0206498889931809e-02
      -1.8916404319031615e-02 3.2398649941721244e-02
      -8.3450024542250673e-02 -1.0097680368867036e-01
      -6.4317563879518810e-03 -1.8058920832814360e-01
      2.4215713618477849e-02 8.9485298389611716e-03
      7.7331875185770255e-02 -5.0552211637143435e-02
      3.0031558143364966e-02 1.0272765025925051e-01
      6.3783496708036735e-02 -2.7849398329908262e-03
      -3.4657847983662976e-02 -3.1080441494544902e-02
      -1.2136109911099717e-02 -4.5152587952437553e-02
      -4.1226351917212755e-03 1.4700871718065795e-02
      -4.4961212608557372e-02 3.2900946207784193e-02
      -4.7319801704544355e-02 1.0799457011824461e-01
      -5.7744467393632537e-03 8.1025678741838372e-02
      5.1578040298008679e-02 1.2244318775537232e-02
      1.0522454069832775e-01 -1.9078191677357002e-02
      7.2084332824772293e-02 -3.2976027850792247e-02
      9.5540065412963907e-02 3.8109645417305688e-02
      3.6299816087784903e-02 -5.1236665898805912e-02
      -8.4636507220805193e-02 2.1977378272314774e-02
      -4.7213094705270561e-02 -1.0556689525522538e-01
      1.1177993265327873e-02 -2.6975169180625039e-02
      -4.8973945304819182e-02 2.7341937515420595e-02
      -3.9922285890021246e-02 6.6832024526659747e-02
      6.1862542963462552e-02 2.0032719578815295e-02
      1.5559456242789120e-02 2.9967191929798288e-02
      -2.8552350043516327e-02 9.1602232712687692e-02
      6.4532241671662008e-02 -5.9915071245198862e-02
      5.3825475994560272e-02 5.2548694788697621e-02
      -1.7329811971813564e-02 -7.6927426005475849e-02
      -6.5809684401470564e-03 -9.2812571494375398e-02
      -4.5294027945587137e-02 6.2924152521282403e-02
      -4.5111836425055556e-02 4.3229585830626305e-02
      9.5542564049780815e-02 5.6412164079647303e-02
      2.2554508128530919e-02 1.0866584791409513e-01
      -1.5055087619603520e-02 -8.3820097747453012e-02
      1.2520288526595358e-01 -4.6712826193424054e-02
      5.6038739099023974e-02 8.2242934272187915e-02
      7.0422201924249556e-02 7.5086122001345262e-02
      1.4132769853663566e-04 8.0169014308900860e-02
      -1.2885320074525669e-01 3.4879756770490301e-02
      -6.0038816309896985e-02 -8.9057830071984909e-02
      -8.5315226986339920e-02 -5.5574946263159522e-02
      -1.0346458113807182e-01 1.0230205514694216e-01
      9.3915440041414444e-02 -4.3578533980064796e-02
      2.1052657217197446e-02 7.5159564425538852e-02
      -5.4116859840109430e-02 -1.0043905281148617e-01
      -1.3046260515621164e-01 -7.7924527226907916e-02
      -1.8035874130952179e-01 8.3979984149268275e-03
      5.9594298725386449e-02 -8.0516457468788535e-02
      -7.8526276120480770e-02 -4.8182730177779513e-02
      1.9055677700634707e-02 -1.7644119818602508e-02
      -1.5825789119484718e-01 -6.4082076263393337e-02
      6.7486431547670811e-02 -3.5438597895658619e-02
      1.1690555004927546e-01 4.2786057110978874e-02
      1.1810508746194145e-02 -1.5679588283216553e-01
      1.4528582043671995e-01 -9.9463242391500992e-02
      5.6906647226768629e-02 1.5875229193368184e-01
      3.6802337036141525e-02 5.6776867531024136e-02
      -9.6586736179537516e-02 4.1303505722051492e-02
      5.1491577875286888e-02 7.5943725400568665e-02
      8.8974201518205898e-02 -3.9725849371105425e-02
      6.9174063859420334e-02 6.7918674445246088e-02
      5.6553906577717375e-02 -8.1370585747326016e-02
      1.4015956869151094e-01 9.6649994849349982e-02
      -9.3335384454954470e-02 1.2236411187355527e-01
      -3.9805039714092043e-02 -6.1470170113762893e-02
      1.2112220100049613e-01 1.0912610373765608e-01
      1.6924385218662791e-01 3.8943920943205097e-02
      -1.9498564656108056e-02 -8.1612572879198986e-02
      1.1325994446308853e-01 -9.5068530410579319e-02
      -6.8887005718393762e-02 -8.2669773424939488e-02
      3.5836850664387583e-02 -1.1809045682013139e-01
      -1.0273941841874902e-01 1.2230116950434222e-02
      -1.5512740915203391e-02 6.3956827614884443e-02
      5.9405862074830553e-03 -8.2745836552520560e-02
      8.2070766129933873e-02 1.1567982997666715e-01
      4.0921458027510328e-02 1.7048970920287100e-02
      1.1104953531845704e-01 -1.7990189604309238e-02
      9.9095819460533717e-03 3.3286016098414743e-02
      -5.8451188287827659e-02 -1.1934242146304017e-01
      2.8291927996041588e-03 -1.5630275432899306e-02
      -4.9224826978579987e-02 1.2436721356046741e-01
      -7.1849313403564027e-02 4.5102186279560232e-02
      -7.5536847715963973e-02 -6.8796541059886210e-02
      7.9139142631945145e-02 -2.1344551528903712e-02
      5.3529720991851569e-02 -9.1933281750145854e-02
      -6.3235486067301699e-02 -5.9996191690008548e-02
      4.2726972312298883e-02 2.8357722376723585e-02
      -1.3105367328509740e-02 1.2811216738079428e-01
      -1.1917100836409400e-01 -9.0235013125791408e-02
      9.3384838902608375e-02 -8.3053705705395386e-02
      -7.6714021256009665e-02 -8.2056114005802705e-02
      -5.0555564949208230e-02 -5.8760767906052461e-02
      -2.9744605122623446e-02 6.9545030134752522e-02
      -9.2612090717558979e-02 1.0236832664332278e-01
      5.5635500201468874e-02 -8.1999629375214655e-02
      -1.2656371109606232e-02 -4.3311693901082256e-02
      -1.2905595937327255e-01 1.5662098016858295e-02
      -1.3307731439604212e-01 -9.1099116609075718e-03
      1.9017459657962452e-02 -3.8373185558977362e-02
      8.3614319849498353e-02 -3.5374998623086101e-02
      1.7198369686977685e-02 4.2413827353109133e-02
      -5.8914529900733287e-02 -8.1879775094148330e-02
      9.4535860121389564e-02 1.3421206838437397e-01
      4.5220172446771720e-02 -5.2361219404519356e-02
      -5.0921840307483264e-02 -5.8206032555700039e-02
      1.1067141145824778e-01 -4.6389526999174062e-03
      5.7981742483439513e-02 9.8838993991220675e-02
      6.6494034223676682e-02 9.1761235636520264e-02
      -3.8644934910951528e-02 -1.1144406185718840e-01
      -4.2547489671545161e-02 -7.7198742638944301e-02
      -6.5441730341939675e-02 4.2462890055057864e-02
      9.1720163039274119e-02 7.6927668036114893e-02
      -7.4483708310200139e-02 -7.2639831277697062e-02
      1.1018960579861679e-01 -3.9219685031871517e-02
      5.0658103616171790e-02 -1.0035794412677351e-01
      3.3853317397605873e-02 4.3796505321162207e-02
      6.8794398923836098e-02 -2.7711026370142583e-02
      -5.0168813540621839e-02 3.6313363966345137e-02
      1.8091799302488207e-02 7.0206589946960968e-02
      5.2520086525769324e-02 8.4773654801830703e-02
      -2.0251168076509566e-02 -2.1977437287206823e-02
      -1.6162302150755852e-02 -6.5265699748342565e-02
      -9.5274972641434433e-02 9.7122173763717054e-02
      9.2953453788273896e-02 -9.0644437674148107e-02
      8.7471617784954922e-02 7.0638710819647302e-02
      9.8828232365185259e-02 8.3968259037322107e-02
      1.4213601087596504e-02 5.8782676284103746e-02
      -4.8591767564296673e-02 4.8919613457587351e-02
      7.9825588662505470e-02 -3.8604441535912165e-02
      -4.3008954177404038e-02 3.1205408394642385e-02
      1.2376428759068985e-02 1.2062609343673060e-01
      1.0138433331476483e-01 -2.9809097504036094e-03
      -4.7653659775324123e-04 1.0639210280458999e-01
      -9.2499729171563565e-03 5.1177507789838386e-02
      7.1741610312036769e-02 -8.0372251738172543e-02
      6.9322648193291744e-02 9.2751142614793530e-02
      -9.3112223287315055e-02 1.1576849629563728e-01
      1.0086733381333884e-01 1.0322188938913246e-01
      2.6412211187705145e-02 -9.0290450481450998e-02
      -7.7327378329815899e-03 6.0187841687887558e-02
      7.5314570713631471e-02 -9.4562190462507655e-03
      4.3152666743463772e-03 -3.5859769466252897e-03
      4.9712546735785727e-02 -9.2743410261883999e-02
      -3.8752837602649380e-02 -1.2803342349253897e-02
      -8.0045955249608836e-03 -6.3744986560280381e-02
      -2.6720140683266818e-02 5.7235419764082911e-02
      -2.1817025020949378e-02 1.1072730923729858e-01
      -3.7748523282729693e-02 7.2011900427051093e-02
      -7.4925330677623220e-02 3.7801922223999286e-02
      9.5205106948074575e-02 3.2626649082140816e-02
      -6.7183793589179031e-02 9.3078918706587327e-02
      -1.0068972143434654e-01 -1.0228064542952164e-01
      1.2074299358607840e-01 8.2856294078439807e-02
      3.5407356048985379e-02 -1.0605947144951862e-01
      1.0082260039102753e-01 -4.7702633707872741e-02
      9.5958696710073607e-02 4.1296572263907733e-02
      -6.0075186170229070e-02 -1.4859829063307311e-02
      -1.8202382616853377e-02 -7.9147206392926758e-02
      1.0296952342846578e-01 4.5967386749305873e-02
      -1.7016798379460376e-02 -4.5500395283745797e-02
      7.4011689764258662e-02 -7.6350047248706244e-03
      -1.1240781725598972e-02 -4.1158409742604256e-02
      7.5224383397217431e-02 2.6719530807735495e-02
      3.3814333438612378e-02 5.0257939681808653e-02
      9.6165024241126898e-02 7.6609694424566679e-02
      -1.9036610755601310e-02 1.1140870517806464e-01
      1.1706940869958819e-01 -5.1932463278291915e-02
      -8.2403058895569370e-02 8.0804761491900051e-02
      2.1063803762719255e-02 6.0763915823671778e-02
      1.7707485816841340e-02 -9.7557630496747108e-02
      -3.5369238440899446e-03 2.3195130176611328e-02
      5.6677885270021072e-02 -7.0893816775852603e-02
      -3.7380067312426574e-02 2.2592987037165529e-02
      -3.1709064319708387e-02 9.6007383889409395e-03
      7.5886049451643373e-02 -7.5757978127990039e-02
      -5.6160537087570225e-02 -4.0943501740739345e-02
      2.2159933538038752e-02 6.6747644367634473e-02
      5.0280847007849995e-02 -6.8433340965412459e-03
      -4.0160498886341114e-02 1.0270282462241700e-02
      5.9106132109490755e-02 -6.7036338904032156e-02
      -6.5136456954609359e-02 -1.0742054624605193e-02
      -3.5189080732546701e-02 -9.0683231941540182e-02
      -7.3285431195933282e-02 3.2810285040370549e-02
      8.6645816407945789e-02 9.3425483075100541e-02
      5.2220276177321487e-02 -4.7287427815355026e-02
      8.3847866899563292e-02 -6.5087693277240321e-03
      5.8019080506056434e-02 -5.0818356868276869e-02
      -4.3443146048806135e-02 3.9819452636281602e-02
      -9.7579779547618622e-02 -9.1486386451395008e-02
      -8.2039660604706702e-02 -6.1816250608347695e-02
      -3.9135238378791327e-02 3.6169724502771991e-02
      3.2868185049371992e-03 9.8493222291693883e-02
      7.2958234271400579e-02 6.2378161238768229e-02
      -7.3029917260058586e-02 -1.1369115225556355e-01
      -2.1952586576464222e-04 -1.0972558150931760e-01
      -1.2048434600994573e-01 7.6018339691505968e-02
      2.5789474096823077e-02 -6.9619661582004944e-02
      2.2720324635710259e-02 -1.5330974461736396e-02
      2.8351948678687046e-02 -3.6517202889776855e-02
      2.7441668787254502e-03 -5.2132167029974013e-03
      -8.5834817010384229e-02 -7.7100552841973827e-02
      -3.1362539159895980e-02 -1.3592912887517186e-01
      -4.3391298053114528e-02 6.1499129383703235e-02
      3.9655039103774457e-03 -5.4896019557469609e-03
      -8.2208434982335293e-02 7.5302294380699963e-02
      -9.1453129148012874e-02 4.5899115582375659e-02
      -7.5615143681762448e-02 8.4835133209475763e-02
      -1.1112001566220663e-01 9.0909408923417149e-03
      -4.6553245964405597e-02 -6.4224953764439263e-02
      2.7704378797364673e-02 2.8421463022064438e-02
      6.3739631338279076e-02 1.4734439232561137e-02
      1.5106208739955411e-03 -5.1470203892672595e-02
      4.3214486812484118e-02 1.9837455652857574e-02
      -3.9046926656992075e-03 9.4022411574330458e-02
      8.0474219721945656e-02 -9.0716268655630095e-02
      6.0234370658703122e-02 -1.8301991846436199e-02
      1.4964132344321143e-01 -6.2588075360846707e-02
      9.4041418927739845e-02 -8.9139889005660902e-02
      7.4268950002598741e-02 5.6806198745084031e-02
      -5.2979948103856984e-02 5.1047805408922592e-02
      1.0002460698444217e-01 -6.5149515942835926e-02
      -7.3418644179722062e-02 1.0334416413739049e-01
      3.9607188067065459e-02 -7.3987401992129664e-03
      8.5254723764888074e-02 -4.2496070806967226e-02
      -3.0114918586216437e-02 -5.4015584241489577e-02
      3.7845993648101900e-02 8.7513880274060971e-02
      1.0259196629355169e-01 -7.4879202425702465e-02
      1.6683202993274870e-02 5.7263304852735375e-03
      4.4257598364270470e-02 1.0355766925869993e-01
      1.1060327810903299e-01 -6.3980709097680569e-02
      2.6700568404976584e-02 -4.2884876303498264e-02
      2.4746258436759008e-02 6.4112410579396553e-02
      7.3424494436157103e-02 -3.3607566211836741e-02
      -1.7080553031775258e-02 -1.3843472744794506e-02
      6.0596017416748055e-02 -3.3954872834910478e-02
      1.1484621330634887e-01 7.3559703317156389e-02
      -5.8285524406541882e-02 4.0945914745151538e-02
      -1.0616418796553447e-01 -3.9836237095711109e-02
      -6.4158705452620396e-02 4.8092206950037145e-02
      5.4100819207666621e-02 8.3402522828198984e-04
      -6.3516076871310501e-02 1.5976896063522837e-02
      5.4855698920155765e-02 3.7902243038971217e-02
      3.1356466290483019e-02 -8.0185636723907799e-02
      8.7202894098703412e-04 5.0213301497901985e-02
      1.0322974351140390e-01 -1.1020171542701294e-01
      5.7401736459365513e-02 -2.2346746808673192e-02
      -1.1129864611858425e-01 5.8982505516918672e-02
      2.9884320762750875e-02 -1.3780544221351027e-02
      -6.5839735401317906e-02 -9.6226180667726521e-02
      9.4467138399869074e-02 -1.0034715278731426e-01
      -1.5073744207515341e-01 9.6269135157580385e-02
      1.1122808067315757e-02 -9.4587133181782967e-02
      -6.2313047677530424e-02 1.2601482086757226e-01
      -8.1048767116168513e-02 3.9714520609855919e-02
      1.6301535122913488e-01 -5.3915584568877864e-02
      -2.3686207571900240e-02 5.0425597352280908e-02
      1.3891570690675063e-02 8.5024359474182090e-02
      7.9269805922504086e-02 -1.3715114385959590e-01
      -2.1866425918042953e-02 -5.9992662525911011e-02
      1.2252401468962205e-01 -5.2744269327565846e-02
      -7.0298524454435254e-02 1.2545097157341104e-01
      -1.9256048068959357e-02 6.1439364999829667e-02
      2.7329173871318516e-02 7.0812380907044808e-02
      1.0082001460020214e-01 1.0448585498209981e-01
      1.0132632909514382e-01 -1.2296149498198858e-01
      1.3589375366244036e-01 -9.2975697536138172e-02
      4.7849516266420034e-02 3.0093606835982285e-02
      -5.8191279281522013e-02 7.9465826016961033e-02
      -5.3909395497513451e-03 -1.0146890737617893e-01
      4.9127490058586618e-02 5.7925260470671709e-02
      -5.9581471212771214e-02 -5.8658746075002745e-02
      -9.7396841271782265e-03 -1.0816006744561336e-01
      -2.4127777615514431e-02 -7.8945330379313991e-02
      1.2606050971303087e-01 -2.7991147790781164e-02
      4.1963075666033835e-02 5.5471838285879429e-03
      6.8471066658971499e-02 -1.0323083669699415e-01
      1.4659612153973609e-01 5.5597376217554909e-02
      -1.7039675595281571e-02 4.3387220842967908e-02
      8.4761712982432069e-02 -7.1307746643091197e-02
      -1.3076018681614032e-01 1.0821235118776078e-01
      -7.9745832875441888e-02 -3.2114121027669175e-02
      -6.2930785071276987e-02 -1.1468040547211457e-02
      6.4814102904754103e-02 4.9309631000752068e-03
      1.3148419745571879e-01 1.0148071112657495e-01
      1.4545679949984364e-01 5.8928262199633881e-02
      -5.0428726208084085e-02 5.3230700611222100e-02
      -1.9587908232557971e-02 -6.7494662575322148e-02
      6.7360361543759670e-02 3.1700105738226625e-02
      5.1144492725414228e-02 -8.8475132650214061e-02
      6.5792124937485597e-02 -9.4563841138862223e-02
      -5.2927434476503013e-02 9.9743675697956169e-02
      6.5944513116068873e-02 4.5832019621566328e-02
      -3.6966979599592206e-02 8.8417887726543049e-02
      7.7526169453808061e-03 3.3708777416791166e-02
      9.7524454675407837e-02 1.5906266785115582e-02
      -1.3932044695198658e-02 6.7508857836018010e-02
      -2.8032501680242069e-02 -7.1867053221441365e-02
      -1.0872348716336716e-01 4.6385588612365788e-02
      -5.0083247634834696e-02 1.9356233677905905e-02
      6.8194918566437182e-02 -7.1840859683403660e-02
      -3.4287540044520309e-02 6.4530376242045953e-02
      -3.2748102340782043e-02 -1.0863346169629620e-01
      8.5997194985957051e-02 -8.1295959153842953e-02
      1.0379901276259820e-01 -3.5938144695020303e-02
      6.3909869457710822e-02 -1.0325109262611122e-01
      9.9887164727526841e-03 -3.8267017313319239e-02
      -7.5021397758056635e-02 -1.0501599911307528e-01
      6.3931029715939960e-02 -1.8051690281257873e-02
      4.3286003791129686e-02 4.7408518255875845e-02
      -3.3339385267459991e-02 -7.5857996011190823e-02
      -6.3670748478470818e-02 -7.6838606991483779e-03
      1.1378988846663551e-01 -1.5976800200016761e-03
      9.8427920778876743e-02 -5.8101203954165653e-02
      -3.1562047406893855e-02 -3.4691791482894835e-02
      -6.4281439987753687e-03 -1.1955168132038766e-02
      4.4435034259164792e-02 -2.8290047022437845e-02
      -2.0894797500421627e-02 4.3448757147644915e-02
      -5.3768436005685941e-02 -1.0504245506500168e-01
      -1.1154560030966584e-01 -8.7545372331086960e-02
      1.8545554024882867e-04 7.5228068046336902e-02
      -7.7603403525718512e-02 -6.4676173723002175e-02
      -6.2563329646109320e-02 2.5763709078980793e-02
      2.6152475014393349e-02 -6.2546724546912475e-03
      -7.4092227821300040e-03 -9.7726729339242466e-02
      8.2803155592359998e-02 5.5008191526730379e-02
      -9.4212038924414987e-02 -1.0582783449148327e-01
      2.5086493409125004e-03 1.1822287876237811e-01
      -4.3132908998720909e-02 -6.4100563151762893e-02
      1.1181731758050804e-01 -1.1441709880692676e-01
      -9.4464449111015480e-02 -5.0771912914908991e-02
      6.7280246479034023e-02 -2.4799439227017824e-02
      1.4014503621816807e-02 -7.4453661673414787e-02
      6.0355967578619454e-02 2.6405687266071662e-02
      1.1207636355977244e-01 4.7940757257877518e-02
      -7.7612499789593364e-02 -6.5146872758964899e-02
      2.8821181726508348e-02 2.3139454846286295e-02
      -7.3556781140423036e-02 -6.8333484765273858e-02
      8.3001031683567109e-02 -3.4342594008655365e-02
      6.0083225290662699e-02 -8.0233893877032419e-02
      -3.8181412409824068e-02 -7.5257243791159417e-02
      -8.4599429761895453e-02 1.1449730716641676e-01
      5.9929288996986671e-02 1.0731636346975340e-01
      -2.9465344382847362e-02 7.4108195961756718e-02
      -8.6670738010318202e-02 -1.0100985787872301e-01
      -3.2223653519260604e-03 -4.4389886640134714e-03
      -4.3687714043504355e-02 1.0349175053263980e-01
      -6.5192053754950879e-02 -7.1274634263300635e-02
      1.1270084209318876e-02 8.4014139108509953e-02
      5.6445550226091941e-02 -4.8674830668965921e-03
      8.8205786715677539e-02 -1.0807774490426532e-01
      -8.1812363541092226e-03 2.1756255153887304e-02
      -8.5735694508177890e-02 8.3965823864966746e-02
      -4.5156020552421502e-02 1.0289026623510050e-01
      -7.9312192286076208e-02 1.0410780552495677e-01
      6.7285642982365820e-02 -2.5296275863773025e-02
      6.0646902385348672e-02 6.6518529668937246e-02
      1.5050963507561682e-01 -1.2323921674093593e-02
      -3.0174965945348006e-02 -9.2288703091777877e-03
      1.0520409280703810e-01 -2.5902587179229514e-03
      3.8622373420952351e-02 9.4687927394029148e-02
      -3.0315516106033457e-02 -1.5001144717638009e-02
      3.2312284148279892e-02 7.9315496166535798e-02
      4.7675531424799196e-02 -3.7728580268088487e-02
      1.0417003574058104e-01 -7.2619439556116494e-02
      -2.4860426767153047e-02 -2.4699977508649169e-02
      1.1578410207751512e-01 1.1196240095465809e-02
      1.0788118265439352e-01 1.9069982305515085e-02
      2.0098500569246083e-02 7.5932473766818817e-02
      1.8440928710825224e-02 -8.4808782610072436e-02
      9.2217841587870705e-02 7.2030792993951473e-02
      -1.1415524373600801e-01 4.3126851578135457e-02
      -3.2643826961800584e-02 7.6331707598916804e-02
      7.5313860483296149e-02 -8.0517759329056471e-02
      8.4579570169447019e-02 -3.6905051756479443e-02
      -2.9475443280234321e-03 3.5222722023002626e-02
      5.1933170360061148e-02 9.3241065749486915e-03
      -9.2542121494517793e-02 -7.7992037076018761e-02
      2.4015060929375921e-02 -7.3206536723113655e-02
      -9.8708345440242356e-03 -4.0522941878624902e-02
      1.0370267322849856e-01 -6.3732197220286266e-02
      -9.4501380571157936e-02 9.0358482014964176e-03
      2.7708127549079652e-02 4.3776613495014272e-02
      4.6751056089087827e-02 -7.7150371378860591e-02
      -1.4601292795365366e-02 -1.4551942123289533e-02
      -1.0993410300095039e-02 3.7672862525017420e-02
      -1.4816142681313985e-02 -6.1540500186106802e-02
      -2.3729100308059518e-02 -1.0176510699466476e-01
      -4.9609328637481145e-02 1.7582200808251183e-03
      -2.3081789789025097e-02 3.3547752054362737e-02
      4.0431955577725033e-02 -7.4701614822873116e-02
      3.0659047944351241e-02 9.3008981243892397e-02
      7.3804298408802371e-02 1.0170332862736982e-01
      7.0032162836704798e-02 2.5804087953842161e-02
      -2.0022004127635299e-03 6.7462033031261859e-02
      -9.7813973030373036e-02 6.1344946763208785e-02
      3.4399707556835711e-02 8.0621657059820939e-02
      -1.0035896123437975e-01 -3.1489946116898654e-03
      1.0824528248316352e-01 -3.0437481254212917e-02
      3.0985096381792782e-02 5.2980116137831039e-02
      -8.5275071178331052e-02 2.6338461781450512e-02
      -1.1677040482273157e-01 2.7208247718236850e-02
      1.7536193761152029e-02 -3.8906394298295552e-02
      1.1456041984198749e-01 1.3814273319483317e-02
      -8.8824355456244120e-02 1.6220979644827271e-02
      3.2228305962900758e-02 -3.3159274992053504e-02
      -3.4066101686180690e-02 6.7699431948709837e-02
      -5.8479322338735588e-02 4.7047337524413056e-02
      1.1122714321846598e-01 3.6486969681477195e-02
      2.8922411225026510e-02 2.5638626939827160e-03
      4.2179839147105047e-02 -8.6892842739076048e-02
      -8.8226829300086559e-02 -7.3742431468754813e-03
      -1.0921667553378928e-01 8.0669516031768194e-04
      2.6095883483961194e-02 -9.4453371539091863e-02
      1.0953608720505546e-01 8.4159834469716199e-02
      4.7797143429432344e-02 -6.1299417659377541e-02
      7.1731241956432726e-02 6.2844583176798238e-02
      1.2551767549186418e-01 1.0674404086026341e-01
      -8.7159690658809283e-02 -3.1077357352110251e-02
      -1.1498109492851992e-01 5.0614345014762412e-02
      -6.6008086112601685e-02 -6.7003961319826383e-03
      5.4698202731790033e-02 -3.8836902088310622e-03
      -7.6614403336244322e-02 3.7613016594302343e-03
      -9.9200500664724175e-02 -8.4983803466398056e-02
      5.1667260015223003e-02 5.1709595759770362e-03
      7.7467266467414156e-02 2.9112232970891518e-02
      4.3173063445494514e-02 4.3763005958018610e-02
      -2.2383922935591254e-02 1.3505255013308541e-02
      5.4719536302159526e-02 3.9961786816929454e-02
      -3.9061308680444662e-02 6.4348385998263702e-02
      5.1581942928840586e-02 3.4878212343075858e-02
      -1.9722557555792310e-02 -7.7773223952941797e-02
      -3.6935477481444469e-02 -1.7850307017317601e-02
      -6.9365952494569963e-02 6.7917443015304405e-02
      -9.8560271869837998e-02 6.6953915110566503e-02
      3.7628022680572436e-02 2.7446030718265391e-02
      -6.2701666001195450e-02 1.0298955592727170e-01
      6.6800297928603595e-03 1.1015712659104464e-01
      -3.9670158371312672e-02 -7.8917545173884635e-02
      -8.9553408110952956e-02 -2.2390436085059126e-02
      -2.0738321898361400e-02 5.4588111237122330e-02
      -1.0182116232402538e-01 -1.5410250399542929e-02
      1.1861769340122470e-01 -4.5752897618214858e-04
      -3.2486267916248507e-02 -9.0825436071541171e-02
      1.0157543655158391e-01 2.5114994021222928e-02
      -4.7163168335194655e-02 1.4636029758579099e-02
      1.1729867878542402e-02 1.0996053766299452e-01
      -1.4493984791496892e-02 8.7296828865308637e-02
      -4.7634321401934746e-03 -9.9652531323263085e-02
      1.1369939665649008e-01 -5.1309093078239720e-02
      8.2228562648617137e-02 -3.5199319322648101e-03
      -1.4384480340556755e-01 2.1940565869975011e-02
      9.7327365702665550e-02 -1.1822181170561677e-01
      1.7941357041515584e-02 6.4439354443998995e-02
      1.0361777903753361e-01 5.6745500314449783e-02
      -3.4712319568171099e-02 -1.9078463194875908e-03
      -3.6332508817482394e-02 -7.2616666315940409e-02
      -4.7485469435736852e-02 1.0758372767805129e-01
      -3.1001813132468189e-02 8.9053106400739449e-02
      -6.7046572810632615e-02 -8.5370233281565705e-02
      -1.2704389243903080e-02 -6.0878047696668963e-02
      5.0432661455060673e-02 -8.7122101293200277e-02
      -1.0413716395285924e-01 -6.9256523464799102e-02
      4.9711001066451925e-02 -7.9296428711458367e-02
      4.9239160487261624e-03 1.7477551471625240e-02
      1.2143813468813408e-01 9.9004678548872516e-02
      1.6039186621957444e-01 5.8121391856450676e-02
      1.6986684712727837e-01 6.7713977123977170e-02
      4.2820781907747388e-03 -7.8531165366835021e-02
      -8.7118818517925977e-03 3.0971866144425788e-02
      -3.2685632536274919e-02 9.9134512651958703e-02
      -3.0250863726176885e-02 6.3692482627659003e-02
      9.1244715301181889e-02 -9.6269319219075500e-02
      1.3470784740737077e-01 8.9141591039526485e-02
      -3.9289367558743111e-04 -8.5720437662583897e-03
      -7.2105271162347551e-02 -8.6698110354640048e-02
      -1.3956083937106983e-02 -8.9414478669172515e-02
      1.7511879712516533e-02 9.3090453953905625e-03
      9.9382338849932514e-02 -9.6384807135614342e-02
      5.1556959654816152e-02 -1.8878859676342841e-02
      -1.3115640665556165e-02 -2.9791986093314193e-02
      -8.5708362334474791e-02 1.2761082718936453e-01
      -4.1492030694271660e-02 -1.0224613756237294e-01
      -8.6692233132039734e-03 -1.9878547895014458e-02
      3.2589088628549742e-02 -6.9642601587206712e-02
      1.1116177131552804e-01 9.0727800403973768e-02
      7.7087724861126278e-02 -4.6035920021491636e-02
      -9.7559642528126433e-02 8.8830167173234206e-02
      -7.1402094406412875e-02 3.3171639241959708e-03
      -7.1662823268411321e-02 3.3907514626167312e-02
      1.8436532481729044e-02 -4.1462498419709462e-02
      -4.9953013969574397e-02 9.5020602321306685e-02
      5.4534314605317165e-02 1.1048752572347267e-01
      -1.8882892507222768e-01 -6.7123790989852730e-02
      -5.9971592803278644e-03 -5.4549322189976920e-02
      8.4796840526655939e-02 -8.2730995952949651e-02
      -7.4740911092428738e-02 4.5611027681818864e-02
      7.6816404279224690e-02 7.8045908232482114e-02
      1.1742987969762853e-01 4.6529245965663310e-02
      4.0318839157348116e-02 -6.2985869242926734e-02
      3.4473349507850330e-03 -7.4210123763113298e-02
      -1.2674699557678606e-01 -1.0325923773818434e-01
      6.5003937844139104e-02 -7.3161489370740282e-02
      1.3848720035248249e-01 -3.5538277332789747e-02
      1.1473375507063804e-01 2.4925938663447889e-02
      -1.4386828033543531e-01 4.9362544734632037e-02
      5.8551338580521625e-02 -1.7660695265131618e-01
      5.7641825981069483e-02 -1.6023398091846195e-02
      6.5006482295146398e-02 -3.9227117062112515e-02
      -4.1190339146784494e-02 -1.2261516202947138e-01
      -9.9572767047530944e-02 2.6818036579628942e-02
      -4.4676449563603983e-02 6.7945131911232012e-02
      -1.3686781270547441e-01 6.2907934376302044e-02
      -1.3683290071855683e-01 -7.1035353279714414e-02
      3.6542098693314283e-02 -5.7160223242870151e-02
      -3.8817256064596344e-02 -3.0681400477116511e-04
      1.1534500784356008e-01 8.7918613812625043e-02
      1.1745738122689449e-01 8.7705859825171442e-02
      -6.1794872163486022e-03 4.7290148985733506e-02
      -4.7169258352937241e-02 -4.8671734470985648e-02
      -8.9881847093535805e-02 -1.9451641058986432e-02
      -4.6071152875168879e-02 -4.5895297907424353e-02
      9.5523578894532488e-02 -5.5694066985837724e-02
      -4.1579088870118790e-02 9.4413829676534208e-03
      7.4346005780263638e-02 1.7226725771155742e-02
      1.0863747728920160e-01 -7.9803075799424073e-03
      7.7576617249034197e-02 6.1904989086532775e-02
      -7.8953687293482788e-02 1.1610940991760879e-01
      -1.6855254721470845e-02 -7.6782700206536381e-02
      -4.9832779084548064e-02 3.5573913719836099e-02
      -1.4401384422313764e-02 -3.3356345453715373e-02
      -7.8694581873615208e-02 1.5581451982853538e-02
      1.0450946605377331e-01 5.9094293890008691e-02
      1.1365199529816498e-01 -4.2659913262621828e-02
      -5.6244700158284457e-02 4.3686515025626191e-02
      6.5317665775293313e-02 -1.5197258781900366e-02
      4.7037773483066786e-02 -7.6044490621564723e-02
      -1.3701950373898252e-02 3.3055325726104826e-02
      -1.5274800932588357e-03 -9.4457030515119320e-02
      -1.0238377472267958e-01 4.9514431933120051e-03
      -9.8554453251505969e-02 -6.6908948014089420e-02
      -5.7966778085431027e-02 4.3899364987939615e-02
      1.1958262843166138e-02 1.0765832973839744e-01
      -5.0762012640817970e-02 1.0480884465703540e-01
      -1.0255157993692558e-01 8.1261866278839578e-02
      -9.6620942590804490e-02 3.6615811678565195e-02
      -1.0157342833820211e-01 -7.6093860291020221e-02
      7.4821658943178784e-02 9.7586073041075055e-02
      4.5286586891717037e-02 -7.1186746082040994e-02
      -7.7175258756067233e-02 8.3926290282370017e-02
      -2.9175872854588860e-02 -9.9212221957985861e-02
      -9.5772686891435310e-02 -4.9807025052915385e-02
      4.4713449792987164e-02 -1.7398798646666142e-01
      4.9797255324022169e-02 1.0867606410919882e-01
      4.7164753793164337e-02 1.1082122225779939e-01
      7.1416874260000041e-02 -7.8140377123883095e-02
      -5.1389293905367561e-02 -7.9651100769211086e-02
      6.8488148294722231e-02 9.9748585885008012e-02
      -1.0677132483694045e-01 8.8471624257404333e-02
      -5.5811203018532932e-04 -8.3175740189484079e-02
      -9.9273194951818036e-02 1.9409605278118214e-03
      -6.6350692350592169e-02 6.1830746459827259e-02
      -8.0181363539749792e-02 4.9615210045575432e-02
      2.4415696536233517e-02 3.2766691983484808e-02
      1.4303601708435415e-01 9.5862933194919495e-02
      8.9197931361648622e-02 1.0937206307207425e-01
      1.5502089719230591e-01 -8.7052421661895307e-02
      6.1974278460438091e-02 1.5658354608940783e-02
      9.6151916585300781e-03 7.9617834703838292e-02
      -1.0725451345382572e-01 3.6147075277826943e-02
      -6.7732442305095730e-02 9.4272514840886348e-02
      -8.1886687318604170e-02 -8.2748323530974374e-02
      -6.6095015445830241e-02 -7.9282024163181988e-02
      -4.5756046746769856e-02 3.5002574270701768e-02
      8.5880241792794007e-02 9.3524833266522459e-02
      1.0636928041786725e-01 1.0327611652550342e-02
      2.7699861184632281e-02 -3.9981754561346276e-02
      -9.0071802992234024e-02 -6.1066216384035761e-02
      -9.6137646667525126e-02 6.4413159957964733e-02
      5.1883187870095021e-02 6.4043805403681667e-02
      1.4318541635431203e-02 -1.1280880022648343e-01
      7.4908776296982570e-03 8.3607420560675758e-02
      -1.0762993551816327e-01 -7.2620606442698146e-02
      9.7372704909241520e-02 -8.5753035932350549e-02
      -3.7464076211014156e-02 7.1043704377155598e-02
      1.5609782203283858e-02 1.0895363045782475e-01
      1.4061342267038460e-01 -2.3274078232193570e-02
      -2.7747199956124537e-02 -4.7110731807750682e-02
      -5.9004262745504577e-02 5.5428383212232563e-02
      -9.0722769430578831e-02 -7.0839739038984648e-02
      -3.4828605208755109e-02 7.8288351725887100e-03
      -5.9938211473050861e-02 -1.0922235375912397e-02
      1.0873361564432603e-01 8.4427086947172405e-03
      8.5763539048070145e-02 5.9777609747608158e-02
      2.9864876544464809e-02 -7.1224955147900115e-02
      -2.2207441159485107e-02 -2.8090324687812578e-02
      5.1000640459417615e-02 8.9587822033457512e-02
      1.0545304258125545e-02 8.3281969077344656e-02
      -2.3402416861551808e-02 3.6667623253389132e-02
      -4.5109959986659377e-02 4.9583995056609702e-02
      5.8342288774734352e-02 6.9141944311992637e-02
      -1.0388033541693194e-01 5.4263776376052501e-02
      -2.9485200366269306e-02 -1.3756150089606003e-02
      1.3476328613994817e-01 -3.1697622991848272e-02
      -8.7092538988902055e-02 5.8616233989364171e-02
      2.6040863484482316e-02 6.5206314324999626e-02
      4.2253230571690968e-02 -1.1992906753841762e-01
      5.3995144824757471e-03 -5.0306499851861544e-02
      -2.1552716652784611e-02 1.1898318091854096e-01
      -5.7309263129372512e-02 -4.7871380069754617e-02
      5.6982242464935835e-02 -8.5875798270764941e-02
      -5.6075395480289503e-02 -1.1583835557008261e-01
      -1.8606676802481337e-02 2.1051585133174091e-02
      -2.5412958340324220e-02 -9.6555400666737790e-02
      -7.5530043057084892e-04 -2.0577805451423303e-02
      6.5159090473098591e-02 -1.0166071600794241e-01
      1.5568421797387194e-01 5.5003368179024251e-02
      4.9151551543321730e-02 1.0832732533939662e-01
      8.9599445586224499e-02 -7.4080746572414993e-02
      -6.5375907366559856e-03 -1.6823810207251030e-02
      -8.2205903701681751e-02 -1.2446740701093443e-02
      -1.4405832021819498e-01 -9.3293806610414309e-02
      -1.4517371466057104e-02 -4.4135403257983707e-02
      -1.1245182289520218e-01 8.5877521803548448e-02
      -9.4092012152654173e-03 2.3214341491284096e-02
      4.6131587291083416e-02 7.3738900514219840e-03
      -6.6732564383631246e-02 3.2824397776884631e-02
      -4.2618051360511090e-02 -1.3062197722968887e-02
      -1.0813557812196836e-01 -5.2920546667915402e-02
      1.0764375000984754e-01 8.4395362222813866e-02
      -1.1200773110664994e-01 -8.3961906729877328e-02
      8.2090959539275851e-02 -6.8556960039376127e-02
      -1.3376273891932066e-02 -4.3357625891456676e-02
      8.1320922615550559e-02 3.1557155572462192e-02
      6.5061110482422552e-02 -9.0610506479120376e-02
      -6.2488279595446110e-02 -7.4621656058805302e-02
      1.2399226244501342e-01 -4.1859506101776460e-02
      -6.2006343819155568e-02 3.4944274041318807e-02
      3.9667765182780326e-02 -2.5849483249444440e-02
      -6.7790662196081847e-02 -2.3290632740154072e-02
      -5.4722029436878199e-02 7.1497320465261194e-02
      -6.0975984916332222e-02 6.1267015086002782e-02
      4.4865443025567463e-02 -5.2237930390569808e-02
      -6.5931676890356172e-02 2.9435468774940524e-02
      -1.0314772227405392e-01 -9.0267519304391572e-02
      5.8404677191099964e-02 8.7967765985824523e-02
      -8.4547230374458146e-02 6.8512264211670726e-02
      1.5843804988157467e-01 -5.6431740765888354e-02
      1.6731720935724829e-02 -6.4960899974793859e-02
      1.0778705662675249e-01 1.2308620613123128e-01
      8.2843303421438155e-02 -4.6879470992011160e-02
      -2.9475122354272370e-03 -7.1493177921917589e-02
      9.5832962539756872e-02 -1.8950392271159699e-02
      -3.3561544780230778e-03 1.1572769677839287e-01
      4.1808749856938832e-02 1.1592874131497709e-01
      -1.5655553153369234e-01 9.0195626501658646e-02
      2.7796922872388601e-02 9.3443403094109548e-03
      2.1993545284362651e-02 -8.9099888270096392e-02
      9.2793557718685221e-02 4.1361440310187118e-02
      8.0727182086421254e-02 1.9774457110217407e-02
      5.7916147756761739e-03 1.2441110209417822e-01
      3.5114596697754571e-03 9.2250933482477454e-02
      -3.0781378462557789e-02 9.8167776366628240e-02
      -1.1641519515293636e-01 -8.2221843328602121e-02
      1.3135162345513954e-01 -9.0325374021062679e-02
      7.1959658035407950e-02 6.6059487241452067e-02
      -1.4959759504098221e-02 -1.4368284062527506e-02
      3.1195268317558256e-02 9.1434372644383657e-02
      1.2524113421805888e-01 4.1243621061063787e-02
      1.6917793513885931e-02 -2.2967977872287788e-02
      6.3535259517410847e-02 2.2562837179816945e-03
      -4.7893040489175982e-02 5.2605271037507811e-02
      -2.3165514758933279e-02 -1.8797014503239052e-02
      7.6889000805701296e-02 -9.8682159740914266e-02
      6.3109052613050512e-02 -9.9904111825084393e-02
      7.6003311278180399e-02 -1.0506296410815795e-01
      1.0605490227910593e-01 1.1993507099707490e-01
      -1.4712004433819098e-01 -1.9040253830689434e-02
      -1.1122925240084965e-01 7.1711672671606622e-02
      7.6790164783956505e-02 1.8674683948763032e-01
      2.9305289367680239e-02 5.3766400259240316e-02
      9.9442680526452679e-02 -5.6473460386158270e-04
      3.0568749256125453e-02 -9.9326926386376940e-02
      -5.3124248765929694e-02 5.2866197509668873e-02
      -5.7346922875013716e-02 -6.8986489168071263e-02
      -5.3492691087126967e-02 3.3435948862519410e-02
      5.0840915116611943e-02 -3.0170529004107348e-02
      6.7425421279170533e-02 -1.7413850291488550e-02
      -1.0378725777694371e-01 -1.2555324063044646e-01
      -1.1095939392579647e-02 5.9041933977364652e-02
      -5.9726101873365092e-02 -7.0670004497228919e-02
      5.0548381291313747e-02 6.6049123020038736e-02
      6.3366190885398077e-02 -3.6928746730469052e-02
      -7.9901789957827096e-02 4.7437175900315473e-02
      -1.2144664685856708e-01 3.2823165163848374e-02
      1.2864686775957869e-02 6.4677575851772889e-02
      2.1829878260929782e-02 -8.2199849967658806e-02
      3.2091314483284443e-02 -4.5442456665186808e-02
      -1.3180592580740154e-03 8.5618776464334245e-02
      -1.2199287562223236e-01 -8.3548467980878463e-02
      1.1311637255372251e-02 -7.4710057140973882e-02
      -6.1946607723474434e-02 2.2103930363475618e-02
      -9.7438668061753553e-02 1.1970061738601923e-01
      -2.1494803812112162e-02 -2.8964001346078665e-02
      -6.1838866152635471e-03 1.8066315301803297e-02
      4.3323022008441646e-02 5.8718095207876575e-02
      6.4068468475718773e-02 1.5724027549103289e-02
      1.3490376673370444e-01 -1.1269743662238466e-02
      -5.3590298565954269e-03 -1.2531807687258734e-01
      7.9255891791261662e-02 -2.8884382789563276e-02
      -6.7433797903149795e-02 -8.3693681614412568e-02
      -6.1396369568011568e-02 5.4499785106444834e-02
      -1.0039295993459363e-01 -4.1329218912967064e-02
      9.7912648351447071e-02 -2.7950057848061080e-02
      -4.1311907558544495e-04 5.2983694648165540e-02
      7.9861090148336519e-02 -3.8350341768483266e-02
      3.3017880896251399e-02 -2.7289606853780846e-02
      9.9875545617124917e-02 7.7547643444861022e-02
      -1.1073988674559293e-01 -3.2410548998104936e-02
      -3.5787000130723897e-03 3.2774192319017487e-02
      2.2909289623472853e-02 -3.1160304521800655e-02
      4.5421831655253680e-02 5.4705004482205014e-02
      -2.1322572971433865e-02 8.3882175419390650e-02
      -1.6880076151232340e-02 8.3223511532698330e-02
      -8.6658916362463020e-02 3.0438449550717193e-02
      5.2188433565753818e-02 8.9278041959030538e-02
      -6.9258608343262418e-02 -8.5913995136011126e-02
      3.2812423967408556e-02 1.0228213351574980e-01
      -9.8751386268810207e-02 8.8619393517036585e-02
      1.0057414492318092e-01 -1.4066471768368119e-01
      -4.2520141375304639e-02 -8.3453276810286955e-02
      8.1274524343081481e-02 1.2806295364980302e-01
      -8.4984560520336150e-02 6.6186918147770599e-02
      1.0894769506313609e-02 -9.0854585195463397e-02
      -2.8457667884466860e-02 1.8458428702770525e-02
      2.3671748527719000e-02 6.2493598322417604e-02
      4.0691287367623508e-02 -8.9231817961175658e-02
      8.3954479950623051e-02 5.0842354841722122e-02
      4.8749967977556624e-02 8.6102165567336533e-02
      -7.1549470390140479e-02 3.0408269277761888e-02
      6.3522370662209948e-02 3.4515766531775349e-02
      3.2997552947055281e-02 -6.6010516128401406e-02
      8.9800474206066294e-02 8.5445114890147181e-02
      7.1826464228867515e-02 4.9923551830857560e-02
      7.9078216378772159e-02 9.9451518242236678e-03
      -2.7507483845416743e-02 -2.8716311772269340e-02
      -1.7122498309437645e-01 7.0941738998862164e-02
      6.5017568707510062e-02 -7.4042447536794391e-03
      -8.8393548153674492e-02 -4.9328079711089224e-03
      5.8684739262978897e-04 1.9123114251611395e-02
      -6.3178897904200795e-02 7.8799798912036895e-02
      9.1879477232327783e-02 -8.1719656659653469e-03
      6.4920820809870449e-03 -8.1706659044993205e-02
      1.5860976813519695e-02 -2.2861526608959268e-02
      4.2457553424981483e-02 3.4908596552961038e-02
      3.8250550618856988e-02 7.0692177205193177e-02
      7.5789263688518016e-02 -2.6395585004564223e-02
      -6.9190630203696452e-02 -4.7576362670565024e-02
      1.6817632066289716e-02 1.6023473292770664e-03
      -1.0282028392203121e-01 -4.6533011233179371e-02
      -2.8825735149231837e-02 -1.0781563927497256e-01
      -9.0924944884176823e-02 7.3567595152018259e-02
      4.4311540630734142e-02 5.9814749861866648e-02
      4.0620335174534374e-02 -7.2908028628606944e-02
      2.5852962339228528e-03 8.8016949843801831e-02
      8.1291815849800331e-02 -6.7762079608153003e-02
      -9.8111717467989482e-02 5.0310269923741227e-02
      -7.6720784562861841e-02 1.2275004595995635e-01
      -1.0002444716747674e-01 4.9305693329604596e-03
      -2.7169457817665915e-02 4.4160468731710228e-02
      3.6284438396602524e-02 1.0091306136209001e-01
      7.9467042746621409e-03 5.8366762597846164e-02
      8.0306222114224682e-02 5.4636055779425048e-02
      -4.9570773704171421e-02 -9.3459787651927959e-02
      -1.2035232544519934e-02 9.5749073123942360e-02
      3.9169800262465346e-02 7.3021627581612736e-02
      6.9264616058440490e-02 -5.6280445242534560e-02
      -2.1905870567068768e-02 8.7116760587308023e-02
      4.8574312484517901e-03 -2.0104248136274351e-02
      -6.2546417782021094e-02 -9.0780049943037774e-02
      -2.8896757392090588e-02 -3.5629205643471773e-02
      1.6178036510670419e-02 1.4674758124906921e-02
      8.3574143177803956e-02 1.3327896510563497e-02
      -7.4736572019156025e-02 -4.0729339907460207e-02
      5.9907947904094282e-02 1.3084569178582280e-02
      6.0565987348160551e-02 8.3308087967677649e-02
      -7.8638395007108342e-02 -1.0633203451774269e-01
      -9.0791847733408385e-02 -4.7390475319808764e-02
      -2.9822589134543238e-02 -7.0322136303488630e-02
      -3.6281336838817303e-03 -4.8196385432044603e-02
      -1.3646543594726609e-02 -1.3760762374185007e-02
      -2.4889122460670193e-02 -4.6044360019783161e-02
      3.1924918524393484e-02 2.8639383823364832e-02
      -5.1369332041528624e-02 -4.6301346527775768e-02
      -4.6533519028643153e-02 -6.1063201387749830e-02
      -3.3930016674675517e-02 2.1658326849266435e-03
      9.4374504815955967e-03 -1.1221180205335754e-02
      5.8031568905768341e-02 1.1497129639005507e-02
      3.7382743836392528e-02 -3.6371001441392777e-02
      2.6364859351810502e-02 1.2332171162234553e-02
      3.6862769710868395e-02 -1.0343286898068906e-02
      4.2687862957744419e-02 7.7924370579246427e-03
      -1.4516006478656829e-02 8.6341683111261121e-03
      -4.2345167745531972e-02 1.4215720506326180e-02
      -7.3291346734711289e-03 -3.6118836259752853e-02
      4.0159805771050390e-02 -4.0512331361062821e-03
      2.0607997862702312e-02 7.7313929933602353e-03
      -3.0614374735542030e-02 2.3073378766002899e-02
      -2.0495711491229238e-02 -1.7269554581852756e-02
      2.1575650519488988e-02 -1.6802120862096997e-03
      1.2648289252362789e-02 -5.4475606488277864e-03
      -2.9486130963310504e-03 1.5945126686265575e-03
      -1.7616530899157532e-03 -2.2425728980756750e-03
      -4.1625080589351299e-03 1.3985858771020078e-02
      1.9462915216194764e-02 3.5096726337262784e-04
      7.5247703499662982e-04 6.3836392721130925e-03
      1.3942517705876827e-02 2.6979928657255332e-04
      -2.3804109550158471e-03 4.5767003019422884e-03
      3.0546335669658672e-03 3.3746037328008004e-03
      -9.0866356895334015e-04 1.1614741036021973e-02
      -1.0158358059652652e-02 -2.4332317660195344e-03
      1.0309688660776804e-02 -1.1105912335581803e-02
      1.9626868777596774e-02 -1.4971595232509564e-02
      -1.5714030874300398e-04 -1.8070827529459078e-02
      1.9661416304185397e-02 1.5749552092409778e-02
      2.4728469617061551e-03 -1.9568764748854054e-02
      -1.2674638850671256e-02 4.5920592684943317e-03
      -2.4371295928096885e-02 -3.4809940055521488e-02
      -2.2312287143528581e-02 4.7555741704168909e-02
      1.4642639134940433e-02 3.4201267060825415e-02
      1.9028647362595415e-02 1.3946337067258053e-02
      4.9093219073398121e-02 -1.1780078616108199e-02
      -1.5276491449257244e-02 -7.9916043414282757e-03
      2.0483039173868914e-02 -4.5843326748340178e-02
      -4.8380010321515177e-02 5.2167094824673042e-02
      3.9699141849552956e-02 -3.1234794056557939e-02
      -4.5645269394510149e-02 -4.1223650220905626e-04
      4.2971575215816640e-02 -1.9278066128107535e-02
      -4.4209658220549779e-02 -4.6287532618340677e-02</_>
    <_>
      -6.7015710588528097e-03 4.3745946188456222e-03
      1.9616681512862912e-02 1.2451312652719223e-02
      1.2834311533402412e-02 1.5688684976065626e-02
      1.3615162181762771e-03 4.7531312895749151e-03
      -1.2685526874394918e-02 1.2089833608812644e-02
      2.4901094019543532e-02 -1.0874436067906069e-02
      -2.2261717664717816e-02 -1.0675338095980961e-02
      2.8128709695351851e-02 1.5099646146704169e-02
      9.4736086077979904e-03 8.0671195292510399e-03
      2.4535448696307416e-02 4.8140470455903485e-03
      6.6623506660362835e-03 -5.1724972101673070e-03
      1.6373342272832152e-02 1.8015228226747559e-02
      -1.2066328905801238e-03 -1.7549893278568283e-02
      1.5455718775782156e-02 -2.1881676769327507e-02
      -3.8324925323615275e-03 -4.0640941109925050e-03
      4.7800232135668582e-03 7.6030876324687698e-03
      2.7166500257508060e-02 -1.1028688629919091e-02
      -1.5829214798297030e-02 1.5365751369182870e-02
      -4.1400112696338164e-04 5.2198938227622309e-04
      1.0570317826990333e-02 -1.0055485370831802e-02
      -1.8810976775526650e-02 -1.7642029006263764e-02
      -1.3814109266579574e-02 -1.7283252946646857e-02
      1.6437642955863922e-02 -7.0343363904588558e-03
      2.2904051624339627e-02 1.8096379735551001e-02
      -1.5765826481498854e-04 1.6278349929638437e-02
      2.2530693378380803e-02 -2.1703749589615514e-02
      5.2570561065302139e-03 -8.9648365733220881e-03
      -1.8784261261179627e-02 -6.3029981382381230e-03
      -2.1329240331720404e-02 1.0242390287917720e-02
      -1.3482222252546734e-02 -2.5782084627296926e-02
      -2.5162489312607013e-02 5.4646468680969529e-03
      -7.6757364423919953e-03 -2.6013988219813471e-02
      1.8200837628833948e-02 -1.8065872897556130e-02
      -1.8213997173631257e-03 1.4657278234298469e-02
      1.5843801401320537e-02 -2.7974334259708938e-02
      1.7335210895382591e-02 4.2023083643773790e-03
      2.2727679614142182e-02 -1.7394336030406320e-02
      -1.9895929278995635e-02 4.5958742727523405e-03
      2.2522363783291015e-02 -2.3098330058547063e-02
      3.7832042720672913e-02 1.1344134482510279e-02
      2.9779991558046455e-03 4.3008969248350022e-03
      -1.5399537224862685e-02 1.7957367814822985e-02
      2.8665138608026018e-02 -2.6965345982132894e-02
      -2.9067201245532411e-02 -1.0614942038394302e-02
      8.8078122380039758e-03 1.7818753883525121e-02
      -3.5218658994957228e-02 -6.8109825370096832e-04
      1.4545023555589595e-03 -5.9792431788931255e-03
      -6.2263459253880590e-03 2.2914594542297755e-02
      6.5174523442197057e-03 3.7848546944477040e-03
      -6.2050982677458689e-03 -2.4923588823425880e-02
      1.8215610030355952e-03 -1.2121638255137599e-02
      1.5680133141187855e-03 -1.4215254928011388e-02
      -1.1001939923111154e-02 1.0472198200733604e-03
      -1.7207893175127907e-02 8.4025212999657584e-03
      1.2369564592625929e-02 -1.7509347861479625e-02
      -1.3263275583491671e-02 -1.4049768796601129e-02
      1.7802721681996016e-02 1.4996065551764404e-02
      8.0521682535371428e-03 9.2223634893926591e-03
      1.1610133609359358e-02 -2.0604186535436321e-04
      -1.6742863469740034e-03 -5.2339653340844261e-03
      -1.3620008964903401e-02 5.1149669501956204e-03
      -1.5891497856467672e-02 -1.2112231161082152e-02
      1.4044528121475785e-02 -8.6315159244252943e-03
      2.4880922303026042e-03 3.4163629125038663e-03
      -4.2249446189711317e-03 6.1749887316670318e-03
      -1.0676279727898667e-02 6.4407408825299653e-03
      5.0790805076919143e-03 2.0956395137393469e-03
      1.0451717972607346e-02 -2.7980019769594014e-03
      -1.1665902469607118e-02 1.3575447975833366e-02
      -7.5676754893953483e-03 1.7790358763760693e-02
      1.6938815533658474e-02 -1.4527123696889462e-02
      1.4166753659595336e-02 -7.6348755679164337e-03
      -1.0201458417651145e-02 -1.2136452597887615e-02
      9.7775335178551803e-03 -1.5746407292211651e-02
      -8.9641589508689772e-03 4.6080669204719730e-03
      -2.9130922065719487e-03 6.2303120017941438e-03
      3.6321439550011190e-03 1.3878846801818895e-02
      -1.7912827226979314e-03 -1.4547905245981036e-02
      1.6973384774625098e-02 -2.0615831457818656e-02
      1.2296335902779064e-02 -1.3978032664297353e-02
      -8.8655011256662166e-03 -1.2723960845052226e-02
      -2.0767569284882242e-03 1.5510059640748908e-02
      -1.1385959739169180e-02 -7.6185474479616233e-03
      9.7869020081969953e-03 1.4735220185921405e-03
      1.1760942775911023e-02 -5.8590326559839409e-03
      -6.2615264550284731e-03 -1.7754534101037365e-02
      1.1670024370067280e-02 5.8038412072290583e-03
      -9.3187263107061911e-03 6.5594368147785737e-03
      -1.6132389201218667e-02 -1.2583540987828618e-02
      1.4669355541033241e-03 -7.6975366066961287e-03
      2.5793087534815664e-03 -2.0152784051976135e-02
      1.9105830526694283e-02 1.7852478544014470e-02
      -1.1193889128860780e-02 -1.0814372161914656e-02
      -8.2649008097203831e-03 -1.5036223968220861e-02
      1.0483335143029085e-02 8.6063191979328206e-03
      1.1555216861966486e-02 -1.1625970989646430e-02
      1.4606057829357007e-02 -7.1080868128168204e-03
      1.4613930167890171e-02 -8.9354445597502729e-03
      1.8129114679406068e-02 3.0193960570413349e-03
      -1.4109160246659808e-02 1.3666989877073711e-02
      -1.1042999502003183e-02 1.0438383409236111e-02
      -7.3918689368180045e-03 1.6221926618137577e-02
      1.1738494079079001e-02 5.8108677157182112e-03
      7.8255483749883675e-04 -1.1394922441379887e-03
      -1.9560303174830568e-02 -9.5268952665116067e-03
      1.0785197046737312e-02 -9.4335205736722424e-03
      -9.9517432542831612e-03 1.5694367819452215e-02
      1.5384983696681120e-02 5.2880575102632679e-03
      1.3307228843157236e-04 -1.9453772377513907e-02
      -1.7070584886527407e-02 1.5769898166090774e-02
      -7.9235168163683152e-03 1.6445305975734677e-03
      -1.7310464409389881e-02 -5.1192419389313481e-04
      1.2938956251398534e-02 1.4401364254614470e-02
      2.2169529461297274e-03 7.2073542300071826e-03
      -1.2991407823663524e-02 -9.1677050752356753e-03
      -1.9918419452020643e-02 -1.8625821516473021e-02
      1.2280067671717035e-02 -1.3314717697079474e-02
      1.4875725630542777e-02 -3.0419201755593657e-03
      1.1010227898525678e-03 -1.2610638048368787e-02
      5.6337067217075501e-03 1.5533889704474552e-02
      -1.4030535006354856e-02 4.8287200880830026e-03
      1.1985920160292669e-02 -1.7651642759966883e-02
      2.1238744884179782e-02 -8.4930352715457541e-03
      1.5982268342662215e-02 -1.0890915590554478e-02
      3.0478122197932288e-03 6.6514499678775822e-03
      -1.2904966760478540e-02 -1.5887946953405147e-02
      -1.7668002556013192e-02 3.5240755046179939e-03
      -1.2903729139030337e-03 1.1784380102488806e-02
      -9.8286813454358819e-03 8.3685586213477162e-03
      -1.8961769058489331e-02 -1.3822879317359670e-02
      -7.7228031733985849e-03 1.7926504368055051e-02
      2.0494267269183302e-03 5.1884448579602380e-03
      9.1350600339851311e-03 1.4017134057725979e-02
      -2.1415946325958860e-03 -5.4952563657351336e-03
      1.5127193486778963e-02 -1.1884873522870841e-02
      -1.3259694372900080e-02 -1.8467622871651813e-02
      -3.4397181017175311e-03 -2.5671454858964739e-03
      5.0431210396034475e-03 5.1450493670827145e-03
      1.5433559476943663e-02 -1.7360308332259204e-02
      -9.2408098507730269e-04 1.6941114862875199e-02
      -1.6863984204772451e-02 1.4040842469561112e-02
      1.7187676953206582e-02 5.6289124686828623e-03
      -5.9177119861285217e-03 -6.3090784723886786e-03
      -1.2696440430106204e-02 -1.0393061116198206e-02
      -1.8252017744139974e-02 1.7896364677708054e-02
      2.1849228169816284e-02 -2.0994155286522865e-02
      3.4746775439052934e-03 -1.3299703853052685e-02
      2.7590258030681255e-03 8.3711463889208030e-03
      1.6231108567110338e-03 2.9549439001963717e-03
      7.1379649305087396e-03 -1.4997855049162014e-02
      6.1650448848099507e-03 -2.3478604115780972e-02
      7.8010424347202218e-03 1.0483276277649506e-02
      -1.7255692274219039e-02 -2.5953043394113938e-02
      1.3153549492482711e-02 2.2406272036297930e-03
      -2.0285819303883977e-02 -1.7876236726029730e-02
      -1.0454218952479987e-03 6.7772184018568393e-03
      1.2357931495708019e-02 9.5039369346353354e-03
      5.8687700896576031e-03 -1.0303275896485494e-02
      -2.0875893907213561e-02 2.9172102757282011e-03
      9.3423447156821930e-03 -1.1820492597888404e-02
      8.8763492407753202e-03 -5.3281684049973155e-03
      9.4664449444533446e-03 -1.7333047523322872e-02
      -1.4489008831593033e-02 -1.1504130481486968e-02
      3.8776141410432441e-03 -5.7428092783353936e-03
      -6.1528882500800335e-03 7.2511221948350739e-03
      -1.2297084609419787e-02 6.1754925159468836e-03
      -2.5242880321296689e-02 -4.1142253729514510e-03
      3.7834430620840875e-04 -1.3937525928068278e-02
      1.2581572272176706e-02 -1.7185168684747667e-04
      -1.4583355776163183e-02 -6.3648842234151843e-03
      -1.6633177365079903e-02 1.0588175427607857e-02
      -1.8104968570225921e-02 -1.0967561444640977e-02
      -2.2015062856342034e-02 5.4442509611002388e-03
      -1.9092686420425064e-02 2.7954673863829996e-03
      1.6503638297520544e-02 -7.6205880321997075e-03
      -1.9057056529156839e-02 -1.1118293423954987e-02
      1.5208790903390062e-02 -1.1778611397585076e-02
      -1.8414362656007453e-02 -8.7518873666032580e-03
      -8.0395405150348580e-03 2.9919883452368635e-03
      5.4171574698855703e-03 1.7637489167551985e-02
      -1.4098125407593066e-02 1.0851998611664356e-02
      -2.2747657784572967e-03 2.1586921592692786e-02
      1.7086606383223020e-03 2.5616291042848540e-05
      -7.1854517970555611e-04 2.0458271549210268e-02
      9.7382622701766026e-03 2.8167964269978840e-03
      5.9501485741921666e-03 5.9979410742098359e-03
      -9.6704262026352204e-03 -8.6839972631840567e-03
      1.5057752398797360e-02 9.6441843214253292e-03
      -1.8838327748021275e-02 5.8617543126562605e-03
      -1.5805117641592020e-02 2.2114385779573784e-02
      1.0061720983800522e-02 1.0463342199247005e-03
      1.5619630316941538e-02 1.0396788191605309e-02
      -1.7758591230852241e-02 2.0692037396447200e-03
      3.6090319461599134e-03 -1.3114427120656746e-02
      -1.0272604932977243e-02 -2.1157539169161296e-02
      4.7123983825096471e-04 -3.0748511168093308e-04
      -2.3920972309831312e-03 -1.0728192026326555e-02
      -1.4659163603131863e-02 -2.8327860406441713e-02
      -1.4556980108261406e-03 1.3530910401037922e-02
      -2.0031490018580584e-02 1.1538092708153211e-02
      -5.3018933380453983e-03 -1.0425765044242245e-02
      1.6215265851551652e-02 2.2092712502765087e-02
      1.2651162618280948e-02 5.6682860982639567e-03
      -6.8862768196721290e-03 -1.9024561158849394e-02
      -2.9039258392866262e-03 2.5877363639028963e-03
      1.9447557241266514e-02 -7.7151695221221762e-03
      -9.6507653704417159e-03 -3.9554855071580975e-03
      -1.3423738377246544e-02 4.7509015264919326e-03
      -2.0870920491661650e-02 -8.6489989966057543e-03
      7.1130012035092042e-03 -6.4994989971634241e-03
      -8.2388684552273210e-03 -1.5962204823687667e-02
      5.7731783777150705e-04 -1.6794976500087199e-03
      -7.5533896949591247e-03 7.0482298761961422e-03
      -7.7413027584924462e-03 2.9435769708038842e-03
      1.0667912407812138e-02 -3.7570208975342525e-03
      -1.0741186437581353e-02 5.6206495072207751e-03
      1.0188498760325907e-02 2.7205994956410896e-03
      -3.8816544462988082e-03 -6.8403336583276082e-03
      -1.6777874358073732e-02 1.6839982410251714e-02
      -2.2618179675751179e-03 9.9461945066451236e-03
      4.3704060332476228e-03 1.4086828243569873e-02
      -3.2061890673422203e-03 1.6334726006198685e-02
      -4.2325284142453908e-03 3.9519771376926296e-03
      2.1259975660444697e-03 1.3678560391004538e-03
      1.3072094751980980e-02 1.6279467258909868e-02
      2.3563004460614052e-03 6.0271172464192602e-04
      1.4597652292836875e-02 8.1451226916637604e-03
      1.4406391533157918e-02 -4.8354023462795310e-03
      3.8454770221675052e-03 -1.2847891372975508e-02
      -5.9739876010257266e-03 -1.0424948950291809e-02
      4.6036538903987062e-03 8.5730616781668541e-04
      -8.1220156231860848e-04 -1.4928515536706114e-03
      1.6329274923406432e-02 3.1944810124607836e-03
      3.7832956421507691e-03 9.2081133694313089e-03
      1.2757317123947469e-02 3.2566077366267096e-03
      1.2642330662367599e-02 -1.7361104101424055e-02
      2.1661090257474744e-02 1.1161272078028332e-02
      -7.2669062378962028e-03 7.1894728426081037e-03
      -1.8020079640272474e-04 -1.0336737590018753e-02
      1.3845017288432735e-02 -1.2833520075014327e-02
      -4.0184830739642295e-03 4.9048735098312880e-04
      -1.3349458776774294e-02 -7.7901318051316780e-03
      1.0091018744712806e-02 -1.5563362088574976e-02
      -7.5844046208209228e-03 -4.9579932100895954e-04
      -1.5210778477885260e-02 6.5558291185916547e-03
      -1.1527485163663486e-03 -1.4233914368617972e-02
      1.4143000305224855e-02 5.5886449493460508e-03
      -8.2238408674385043e-03 2.1309952943579031e-02
      1.7127377535435521e-02 -2.2693731511070070e-03
      -4.6216094500564960e-03 -8.3992554146316758e-03
      -1.1714849945423347e-02 -5.6387953282998702e-03
      1.3314128572086716e-02 -2.5027163602252361e-02
      -9.8747662898770929e-04 -1.0119901628161208e-02
      -6.3944491807736850e-03 1.1793667785421945e-02
      -9.2697214646075988e-03 -1.5879252535730571e-02
      -2.2951105823993467e-02 1.9480400270758001e-02
      1.4730918262283434e-02 -3.1511897683252094e-03
      -1.8581750629024451e-03 -2.3006404055658427e-02
      9.2113479284885377e-03 -1.6510731536071719e-02
      -1.2363746620196453e-02 -1.8381156624031267e-02
      1.0311179374943052e-02 1.0466125355488090e-02
      8.2687442192936420e-03 -1.7371564522207367e-02
      -1.2316559058813171e-02 -2.9814199563489513e-03
      -6.9036867770978132e-03 1.7436888124855845e-02
      -6.2716071700123809e-04 1.6299370728200695e-02
      9.8357316302753340e-03 1.2567362366167328e-02
      1.2768549510504509e-02 7.2856237080373603e-03
      -1.5129411767149006e-02 -6.3838094552948563e-03
      5.7135846118152823e-03 -9.0270409837218939e-03
      1.3929315918201315e-02 5.8049851181013842e-05
      -1.4510797714393762e-02 1.2332277556709173e-02
      -1.3596492231766436e-02 -4.3333917901369279e-03
      -2.0421158373433682e-02 -2.3583630974271029e-03
      -9.4651814802322425e-03 -1.4713938569884686e-02
      1.1978287521800060e-03 1.4629345816096361e-02
      -2.2723232956327246e-03 1.8596563051844574e-02
      2.0568884739314286e-02 -1.3354926912395903e-03
      8.4353848379382934e-04 -1.5799254757064406e-02
      -5.2793722211131565e-03 -1.1832264434426270e-02
      -7.3072144044741731e-03 -1.4694830988360738e-02
      2.1994848262961920e-02 -1.3684416155126885e-03
      -2.3779496043853484e-02 1.4751176962451972e-02
      1.1102014438144441e-03 -1.4582630931001060e-02
      2.5562732494361663e-04 -1.7463175693122990e-02
      1.2095309809149916e-02 2.4367110448857057e-03
      1.2877067908921814e-02 1.2630909613913765e-02
      1.0557028356557892e-02 9.6739242182579347e-03
      1.2994772963433373e-02 -1.8745314103526013e-02
      1.1311773193089647e-02 -1.2450198297595656e-02
      5.7234221885600622e-03 2.1209474610443545e-02
      7.6694480232290920e-03 -1.7454368437154668e-02
      1.5362900491264514e-02 -1.7470139147761320e-03
      -2.0947998115218567e-03 1.8121162708416097e-03
      8.0692049689697135e-03 1.8314315872164311e-02
      1.9326904628143918e-02 8.4223756933151858e-03
      1.3524590836636962e-02 -1.9585981033634601e-02
      -2.6796127852986716e-03 -4.5294972381657401e-03
      -1.8434950278264278e-02 -1.2292931490849512e-02
      6.8244618520026321e-03 1.9960025444709765e-02
      1.0603080324644619e-02 -1.1287233875204718e-02
      -7.1922498586247706e-03 -2.4032629960390024e-02
      1.0445379439673396e-02 -1.4163516617793040e-02
      -1.7523443028083067e-02 -7.9134501425361329e-03
      1.1744582496017269e-02 1.9328967286751649e-02
      -8.3598036014820541e-03 -1.7933896695634968e-02
      -1.2479837676519959e-02 -7.6325022677749994e-03
      -1.2612126406199065e-02 2.0751291582756043e-02
      -1.5495165792399289e-02 -2.3758477593665055e-02
      1.3118430436424527e-02 -1.8604144385994874e-02
      7.3770371455987738e-03 -1.5935505858810650e-02
      6.0464007940928665e-03 -5.9968248541971995e-03
      -1.4925824588555897e-02 1.7033470100183766e-02
      -4.9004195876663544e-03 1.3496088605975502e-02
      2.5524344066369668e-03 8.9939349644994459e-03
      -1.4467088957399512e-02 -1.1803553335502474e-02
      2.4930911340934704e-02 1.1403624883729303e-02
      1.2026264748209563e-03 -1.9942325530301782e-02
      1.8181514154156812e-02 1.9245467117041915e-03
      -1.0541056647138959e-02 2.0726724310740432e-02
      -3.2561775119773237e-03 8.3139958014473211e-03
      -7.7086955483163045e-03 1.7274038437301152e-02
      -1.1369188035208809e-02 -5.5508948173164496e-03
      -4.7116219920885919e-03 -5.9478074442788885e-04
      3.6607342768775033e-03 -1.1484130689919506e-02
      9.1662511792492928e-03 1.7338620319607904e-03
      -1.5521286197554898e-03 1.6405851239828025e-02
      1.7734228941529505e-02 9.7353329655134394e-03
      -6.8055714184723417e-03 1.0140494426341240e-02
      -8.4375316253176135e-03 6.8765358157925555e-03
      -1.9263131300968610e-03 1.1865986575832134e-02
      3.1983185324429308e-03 -8.4615741293630406e-03
      1.4523530253739184e-02 -2.8053295554612877e-03
      8.0746887314474703e-03 1.0036872002540637e-02
      -1.0285316048314995e-02 1.4774136162505409e-02
      -1.6541638977983344e-02 1.9967500293795373e-02
      1.4767783223313102e-02 2.7121470686476815e-03
      1.0454403267459449e-03 3.0190189443806015e-03
      -1.3951261065783420e-02 1.8814356746836330e-02
      -1.1366095905959880e-02 -8.2044587469379399e-03
      -1.7392466535611432e-02 6.5010414455408559e-03
      -2.1082570679101652e-02 4.4482523289798674e-03
      5.1502424891302634e-03 -2.0325656273495748e-02
      8.5738066837171296e-03 2.4613663178764834e-02
      2.0514148987735153e-02 7.7773846494323604e-03
      -2.9475544728698546e-03 2.7321596897960671e-03
      3.8351803425597376e-03 1.6790290479144963e-02
      -2.9704753589779097e-03 -1.4195414933666229e-02
      -1.8452977298942803e-02 -7.4374039452129379e-03
      -2.9267911713048884e-03 1.1516564621959539e-03
      -1.4134477465016972e-03 -9.3945457637919869e-03
      -1.0675618089538074e-02 2.8565456395384086e-03
      1.7449321754628315e-02 -2.3818967101888184e-03
      -1.2665397708254013e-02 -8.4679490420636466e-03
      -1.4211100000946308e-02 1.3056979809557468e-02
      -1.6879845275098865e-02 1.7144343341870379e-02
      4.3783653799463317e-03 9.5794792628170668e-03
      1.8148856599743309e-02 -2.1206811984220218e-02
      -1.9142244236295094e-02 1.6428223878325543e-02
      4.8723612597764568e-03 -9.0727585778640069e-03
      1.6313477949957390e-02 -2.1611042853597176e-02
      1.8117482298878312e-03 -3.9274731233891929e-03
      -5.8438800209732892e-03 1.9761824550364498e-02
      -3.6884457193833401e-03 -7.6684291457907103e-03
      -3.9531729317677667e-03 1.7853044947164404e-02
      -7.5697570223518537e-03 1.5307960029364291e-02
      6.9912140830011137e-03 1.2333409221820293e-02
      -1.0488523927483758e-02 -1.5287071982812706e-02
      1.3289032514556562e-02 5.9587400134584589e-03
      2.0609287611011960e-02 -1.4872208645133683e-03
      5.6763549456323526e-03 1.7670909943641389e-02
      1.3298990774027703e-02 -1.7603273509069761e-02
      -2.0476900677831672e-02 -1.2519485256840567e-02
      -1.5960465623294250e-02 -1.6166166161502099e-02
      -2.0748279543233394e-02 -2.2146175444377834e-02
      9.6495742793951272e-04 1.5731518749020210e-02
      1.1788118024327903e-02 -1.4382293445475905e-02
      -6.8482312213691606e-03 1.0046690078779527e-02
      -9.0829670494333283e-04 1.6815697386053343e-02
      -1.3451048160053271e-02 -1.9143750171380227e-02
      1.1075880979947649e-02 -1.6994180238739574e-02
      -4.1570292636057592e-03 -8.4434177150731014e-03
      -6.3633654848371472e-03 -1.6174241804787243e-02
      1.8626468096326908e-02 6.8824337842649241e-03
      -1.2386835209955266e-02 -2.8106111804537936e-03
      -7.3194876352225529e-03 -1.5297487166725441e-03
      5.0856972218553016e-03 3.6532823869207683e-03
      5.5668522964097021e-03 -1.6955311954382213e-03
      -3.0523261741836108e-03 -1.0057222306815231e-02
      -1.0101245777440170e-02 2.1869460859306748e-03
      -1.9483423770795961e-03 -1.3706697106825955e-02
      -9.9001463181760171e-03 -2.3049124925985993e-02
      1.4625664622972304e-03 3.7950228089098305e-03
      1.9841595215124786e-02 8.8420282966183428e-03
      -3.1916084189734231e-03 1.4034900197786715e-04
      -2.2142544713276186e-03 -1.5365487670851354e-03
      7.5181887176191285e-03 8.7757356027510103e-03
      -2.9417016325307055e-03 2.4026531693700777e-03
      1.7622551707962234e-02 -1.4740576129065515e-02
      1.0062771128158206e-02 -1.5606799492688440e-02
      -4.5757589977367050e-03 -1.5595320480867959e-02
      -3.0739099237461671e-02 -4.0302586248125308e-03
      -9.8130147261573058e-04 3.1163718098714675e-02
      1.1013858675918402e-02 2.1720529888183633e-02
      -1.2214383746951381e-02 -2.7234564501664980e-04
      1.4154166354146198e-02 2.5377682100943873e-03
      1.0703396245136738e-02 -2.0371733553626013e-02
      -2.2702648587667740e-02 -7.3328220151634592e-03
      6.3264063352469211e-03 3.6027777845869229e-03
      8.5231585858778058e-03 -1.0543235202051811e-02
      -5.1875770987758595e-03 -4.7703993626557299e-03
      3.2089092111051783e-03 -1.0491803417282919e-02
      -2.8291561585809841e-03 2.8700200041368189e-02
      2.0499998953883554e-02 4.2482983927808063e-03
      2.9443428382072098e-03 3.5240750405784969e-03
      -4.7514046489322394e-03 6.0290814119679144e-04
      -1.3748946292970309e-02 5.6970367093427511e-03
      6.2551261988215900e-03 1.8274681729519477e-02
      -7.1712727724989687e-03 1.0872936820657094e-02
      -3.3472301447628142e-03 5.9045415828350954e-03
      1.3644512705601726e-03 2.0398253699642713e-03
      1.2247541121924284e-02 -1.8347091763651559e-03
      2.2122048430179363e-02 -1.3570697793180342e-03
      2.6583788483026293e-02 6.0906972538857023e-03
      1.0177463047174189e-02 -4.7758632114207698e-03
      -2.5429798912506841e-02 -6.2122978144684054e-03
      2.1955936801765139e-02 4.1520831312606031e-03
      -1.6312762304168234e-02 1.2747710963062210e-02
      -2.1288614367868129e-02 -2.5699686684528215e-03
      -2.3795410483491790e-03 2.1246935249064514e-02
      -1.5627612760561932e-02 -5.0908138706776381e-03
      1.2232168739972408e-02 -7.3213303915927797e-04
      1.2444430209647352e-03 -1.8188654807127537e-02
      4.3463406930016688e-03 -3.9381391790243494e-03
      1.5292959354682627e-02 1.2104420466656917e-02
      -4.1738197746096191e-03 -1.6707274165782757e-02
      -1.6768008411295780e-02 2.4642326962612906e-03
      1.1298311440657788e-02 -1.5486749384300294e-02
      -2.2051624911950739e-02 1.3506187608839643e-02
      2.0562467245859226e-02 2.0297649655283876e-03
      9.6408916644964409e-03 1.2012481315352650e-02
      2.5578062612249521e-02 3.1751209376999413e-02
      6.4226171698116129e-03 5.0020801873293065e-03
      1.5040635557064695e-02 -1.8434307608291227e-02
      -2.4095547483166217e-02 1.1469351011949718e-02
      -5.5565825502088004e-03 1.7255314262897285e-02
      -1.3374144252195470e-02 1.9876080882606281e-03
      -2.4241011506129232e-02 1.8035929366890489e-02
      1.1103973629508870e-02 2.6335554259587762e-02
      -2.3341727046583192e-02 1.1699550627674879e-02
      6.7660164075765529e-03 -1.7744249010169758e-02
      -1.3052203942504009e-02 -1.8083227099194826e-02
      3.8767208580321776e-04 1.4757501283083090e-04
      1.5547424387992528e-02 3.3283304358820761e-03
      -1.4777397951044279e-02 -1.2072563984085853e-03
      1.3659911025427227e-02 -1.5043118888192174e-03
      7.7934925414652385e-04 -6.0227874660764092e-03
      1.5767464478353522e-02 8.0043560730807834e-04
      1.7242080396480928e-03 -1.9896221512846441e-02
      -1.8665447923114014e-02 -7.7085321969028592e-03
      6.1392314591441908e-03 -1.2754389559679958e-02
      -1.8134652985589934e-02 4.2954131861798247e-03
      -1.9619043199416618e-02 1.8143521970910865e-02
      -2.1116482516047339e-02 -1.2361097439328096e-02
      -3.1474714181992450e-04 1.6940743596341573e-04
      1.0133053075187165e-02 -1.5803521042530650e-02
      1.0556336918710205e-02 -7.5363011362320235e-03
      -1.2354775612442638e-02 4.3785959859872752e-03
      5.8784489270116980e-03 -8.7064139178020701e-03
      8.2465151250625379e-03 1.4555508981732294e-02
      5.8111985098364743e-03 9.6975713634849803e-03
      6.9917420991863835e-03 4.4978831818428145e-03
      -8.5135409250497885e-03 -1.7037281642078121e-02
      4.3022514241366295e-03 1.0014053610791497e-02
      -1.8418543503876637e-02 -1.6601123501852711e-02
      -9.2863737436395116e-03 1.3310282106956254e-02
      -5.0632144936107338e-03 1.5484432092718643e-02
      1.8218419161184326e-02 -8.4883571606277491e-03
      -5.9421070305844725e-04 1.2644944137824129e-02
      8.6137546783354431e-04 -6.6962079908321759e-03
      -1.1441580240498366e-02 1.6311237700045330e-02
      1.4079940392854247e-02 -9.3591563592349981e-03
      -3.2557582347900573e-03 -9.0034669049958709e-04
      -9.8890146580336482e-03 1.2908310321452248e-02
      1.1720416035754836e-02 -2.5818726648401159e-03
      3.4208213045438295e-03 1.4870141828692441e-02
      -8.8679036360584367e-03 -1.0716144338322872e-02
      -1.0494236298077652e-02 -1.6670054470434691e-02
      3.5308281746181860e-03 -7.1221610052728656e-03
      -7.9956396588183563e-03 3.6474165348550167e-03
      -1.8686005377881239e-02 -4.8969156753490752e-03
      -8.6367998207940617e-03 -1.2690476043848648e-02
      1.2562263800867510e-03 6.2180879235425339e-03
      1.5088005516556783e-04 -1.4297250554597761e-02
      -9.3581348845740535e-03 -6.0238551738479203e-03
      -5.9098375783542191e-04 -4.7637605289966022e-04
      1.5842976808198361e-02 1.3514621530550374e-02
      -1.0924447909320543e-02 1.4785379054594813e-02
      -7.8036794461142202e-03 5.9187830343958893e-03
      -2.3326682998789632e-03 -1.3469555846681488e-02
      1.1212018657342834e-02 1.1237920344522125e-02
      -4.6805200233073418e-03 9.3354246560006324e-03
      -1.8724799254620460e-02 -3.2242090411513770e-03
      -7.3965694011110016e-03 8.3507566710458257e-03
      4.9618233222100544e-03 -1.4128106398181458e-03
      -1.3709281979622148e-02 7.0247581157410113e-03
      5.1206272993186358e-03 -7.0174847237379923e-03
      -1.7194314873146418e-02 1.3137875551622581e-02
      -3.4003675214465483e-03 -4.3055623600680446e-03
      -1.1674329389267593e-02 -5.3714945121526303e-03
      1.3620320898434088e-02 -2.9730919031367570e-03
      -1.0261982238917854e-02 1.8528195614612039e-02
      7.4182396672635839e-03 1.4101132843740882e-02
      1.1455599082267927e-02 -9.6400470201634043e-04
      1.6074696136070838e-02 -2.8409084186533980e-03
      -1.8172800555736376e-02 -3.6638539070582691e-03
      1.5784422963172767e-02 7.9754217293112259e-03
      -8.4668163939471425e-03 1.8636689119775181e-02
      2.8561198557682408e-03 -1.4464226658699657e-03
      6.7420939807321095e-03 -2.7684990573953730e-03
      -7.9593432828101562e-03 7.8009566990097281e-03
      -7.1207677973475084e-03 6.5493841670281909e-03
      -3.6338357153072845e-03 -7.8218145286220089e-03
      4.0209045400175121e-03 -1.1205002698522321e-03
      -5.1661316863077479e-04 1.6247252083595294e-02
      -2.9731733247600426e-04 1.5620419801713340e-02
      -1.0811254066449233e-02 -9.8698896003900517e-03
      -6.4435464918705769e-03 2.2754251221618804e-04
      2.3174060624461517e-03 8.3775334936394032e-03
      4.3762903455409436e-03 -9.7432104274571395e-03
      8.5948188241102182e-03 1.5241236024615724e-03
      -8.5092955240794708e-03 1.2757006967106582e-03
      -1.5502607950753044e-02 5.8951455036211848e-03
      3.6807598878646807e-03 -1.3919847631075611e-03
      -7.2776313058521194e-03 5.8420016293322732e-03
      -1.7174351237910418e-02 -1.7508918250186811e-02
      -6.5457222741630320e-03 6.5444481654329482e-03
      -1.6698270892161751e-03 7.2647404138083838e-03
      -1.2893307622481731e-02 1.9520186553810229e-02
      1.0802908703882586e-02 -4.6462304805779415e-03
      -1.9041714682031002e-02 -1.5488254036638992e-02
      -7.6693370398303040e-03 1.2733386393235986e-02
      1.4737966265496871e-02 1.2859248363210979e-02
      1.6884300774720314e-02 6.0098407880676205e-03
      -1.5370987538684471e-02 -9.3266299301609165e-03
      -1.8497099872783071e-02 9.7821021120275305e-03
      9.2851674949752053e-03 -2.1678958011810152e-02
      1.2789806218716209e-02 -9.4454645032279148e-03
      3.9759624743124101e-03 1.7082268551442837e-02
      -1.6284663096547732e-03 -1.3609961106987728e-02
      1.6076913133859273e-02 7.5198961835046549e-03
      -2.3366018724148410e-04 -1.8056444507180463e-03
      2.1300920909919391e-02 1.2252764581617641e-02
      4.2496096321050277e-03 1.1426387794367285e-02
      -1.2976980634671955e-02 -1.7952585272152197e-02
      -1.6687198192932316e-02 2.4672988197233767e-02
      -9.1442390926198096e-03 -2.2371200212468165e-02
      3.4271442829094867e-03 -2.5427139516199855e-02
      2.2507955085617561e-02 4.6895108117862025e-03
      -5.2225791850241581e-03 2.1899086064609379e-02
      1.6017293736712686e-02 7.1433122360237784e-04
      -2.3470618876919109e-02 -5.1329254744307429e-03
      2.3691533457715741e-02 1.7277524846751262e-02
      -1.2676742432388895e-02 9.3117153633313597e-03
      7.2792126325590912e-03 9.2311526450242279e-03
      -7.4124547015145719e-03 -8.1017683477755537e-03
      -6.1195089959535968e-04 2.3277937661585018e-04
      1.8331432366672485e-03 1.7995156589729670e-02
      -5.0544367965398918e-04 -1.7226523626859436e-02
      -1.9988896232567849e-02 -1.9872578421884422e-02
      -9.5035555664514538e-03 1.2589258929429725e-02
      -1.7880647705660051e-02 1.3159739907227529e-02
      -1.2252060888904822e-02 4.8217828461717092e-03
      7.2833918133187840e-03 -3.6344315329367512e-03
      6.8620129361984033e-03 -7.8898952927131446e-03
      -1.8092875681804267e-03 1.4518793475799074e-02
      1.2630064202230005e-02 -2.7130202201402911e-02
      6.6297433004030189e-03 -7.8851097574042031e-03
      -2.2452625620320830e-02 5.2855238170542440e-03
      -3.4648508832984971e-03 2.8734074010442902e-02
      -2.7398772575588926e-02 -1.4882311484964411e-02
      3.7499961738924150e-03 -1.0197382820919604e-02
      -4.2819947019629061e-03 9.8130795614764718e-03
      1.9150214596539959e-03 7.1439010124770544e-03
      -4.0044402987220893e-03 -2.2129359906656959e-02
      -8.7031514906818052e-03 -4.6573936178214608e-03
      1.2702907162910749e-02 -1.9476253589140635e-02
      1.4189929184810369e-02 -1.3764631273881337e-02
      -1.4519733482499960e-02 -7.7966953944244724e-03
      9.1962782365298187e-03 -1.9846783533557486e-02
      7.3768310949727722e-03 -9.8792704570905710e-03
      2.3740923964316797e-02 1.2523829718507025e-02
      7.2937926099414015e-03 -1.2279093016511367e-02
      1.2272517865526139e-02 -1.6883359228714426e-02
      8.9919857253862555e-03 -1.7329068567643199e-02
      -5.5293651933752226e-03 -7.1865757990513882e-04
      -2.4754925940970361e-02 -2.7809463601677288e-04
      -2.0154461899691721e-03 -1.4352548234076848e-02
      -1.4595261987279683e-02 -1.9249616631237814e-03
      9.1488481630780123e-03 8.7926744486299807e-03
      1.8340428148514571e-02 -2.2346299263349668e-02
      -1.8002708956282368e-02 4.1101198630987172e-03
      8.0891722934556167e-04 1.1154676703844424e-03
      1.0401358139061177e-02 2.0157548787376630e-02
      -5.1491532539655206e-03 -6.7436517287773326e-03
      1.5489061887314170e-02 -1.3682186756068833e-02
      -9.3247192446955611e-03 -1.3444593861334422e-02
      1.4230804607198722e-02 2.1969644045473823e-02
      6.0305949981180064e-04 1.1272239267340783e-02
      1.6424422418701106e-02 9.6914365431602489e-03
      1.2758686076528192e-02 1.9340833960731330e-02
      3.5268292232282111e-03 -5.6042860367538326e-03
      -8.6257545165055703e-03 -4.7372820788361024e-03
      1.0145298156256527e-02 6.2234952623513879e-03
      -1.3228757376024577e-02 -2.7969384862400618e-03
      1.8388515328463736e-02 -1.5443120323994853e-02
      5.0813346116591850e-03 -1.2993702574944501e-02
      -8.1786961316395752e-03 1.8274711792836476e-03
      -1.7894586862019595e-02 -4.5960798417252922e-03
      1.1608797173451738e-02 -1.8911064695469784e-02
      1.3524762898860381e-02 -1.3084294144119159e-02
      1.7704900105194070e-03 1.0907953477774512e-02
      1.0099023908288384e-02 1.6958541706135876e-02
      -4.4027123014374588e-03 -9.9933599788504541e-03
      -5.0738143584326046e-04 2.0669468681259868e-02
      -1.2731087610400798e-02 3.6963749392035497e-03
      -7.5726103376932037e-03 -1.5771728086884311e-02
      5.5737060779784027e-03 1.9281292260118765e-02
      -1.4259151630085575e-02 -7.2545768294572880e-03
      9.7769491492443548e-03 7.6444649391174142e-03
      1.6822509324172667e-02 4.2065591159847109e-03
      -5.4724055767709466e-03 1.7275183339207207e-02
      2.2568743911505814e-02 3.7214112831036529e-03
      1.7621702987160894e-02 -3.4123338677724346e-04
      1.8300753151937150e-02 4.5595939231500397e-03
      -6.8878679559425688e-03 -2.0601804821546547e-02
      1.5724719390224741e-03 5.3751071680512236e-03
      -6.3451469586347361e-03 -3.2668609916883934e-04
      -4.3954453196990333e-03 -1.8669974471318969e-02
      -1.2430728880189385e-02 -6.6860848766645527e-03
      -3.3256895441931581e-03 -6.8474650733278148e-03
      1.3115899189093928e-02 -1.2046247963247275e-02
      6.7183503942110688e-03 -1.3579079758428434e-02
      -1.1953944186576207e-02 1.6481873243346962e-02
      -8.4369757440033125e-04 -5.9625278300325958e-04
      -6.2281607426870030e-03 9.1252834409874320e-03
      1.7056091339044569e-02 -2.3129361609020935e-03
      -1.1563051062986846e-02 1.0281434151231878e-02
      -5.3005325945771420e-03 -1.4804720686597547e-02
      2.8519184992791523e-04 6.7297352366231800e-03
      5.8780590743079137e-04 1.3544930252203628e-02
      2.8164293677523421e-03 -2.8350135782859939e-02
      -3.0324457222800664e-03 1.0073386447049368e-02
      -9.4938311658611593e-03 -2.0339563061791816e-02
      1.5752306440216100e-02 -6.4595681700881421e-03
      -8.5587808970223438e-03 -2.3253896302528308e-02
      -9.2356458750704716e-03 -3.8555899330143216e-03
      6.2607048097901097e-03 1.5124696565200015e-02
      -4.4003075561341283e-03 -1.6247819040133428e-02
      -7.6852743706693248e-03 3.3047158533717298e-03
      -3.9952165596167473e-03 -1.7859001532665567e-02
      -1.0101996337421329e-02 1.0645485677540766e-02
      3.2730810904770835e-03 5.2876806573624226e-03
      4.4849994906937642e-03 1.9101026383717624e-02
      1.2798672087162668e-02 1.7675801443069988e-02
      -9.9230728167412630e-03 2.1887762167348553e-02
      1.8636322626049018e-02 -6.1330555394999045e-05
      -2.6181338705597679e-02 1.7996966565521316e-03
      3.6751210161223742e-03 8.2822341170319305e-03
      4.3930999491317924e-03 4.0620598603467376e-04
      6.1198776594103867e-03 -1.9733749515438513e-02
      2.7332743806886182e-03 -8.7675201034469550e-03
      -9.9334908602626403e-03 -3.0645410744277539e-03
      -5.4787404897571265e-03 -1.2662419978875780e-02
      5.2110946861509602e-03 2.3592230774307626e-04
      1.4344298529486460e-02 -1.1570279853503069e-03
      -1.2416184830081372e-02 2.6389405250304719e-02
      2.0005135936701182e-02 1.3459703787175108e-02
      1.1553854956239906e-02 5.2409780452838135e-03
      8.8137052004062869e-03 -2.1450346113856704e-02
      9.9951159682054366e-03 -8.0467151603604847e-03
      5.3657984661082542e-03 5.6900701180819732e-03
      -1.0032274902581285e-02 -1.2562857833848817e-02
      8.6477779054406605e-03 6.9848005034203395e-03
      8.2192619385219184e-03 2.1165264403255305e-03
      3.1375675528700323e-03 -1.8863364968950576e-04
      -1.5548976249561712e-02 1.7202151886667533e-02
      -2.8064671241575093e-02 3.0112466858917726e-03
      1.3656596590896172e-02 -6.5390360053679472e-03
      2.5573517716077329e-05 -1.0153643055308211e-03
      -9.4418319508080151e-03 8.8466495247512926e-03
      -1.1540078756243582e-02 -1.2022928229138030e-02
      -6.1963550935816769e-03 -1.2766843693636960e-02
      1.8447275627098997e-03 -8.8005831662029722e-03
      1.9702985456521688e-02 5.9295530136234762e-03
      1.9326805433867486e-02 -1.7220332707665119e-02
      1.6082240856642539e-02 -2.1784917695465023e-04
      -8.1019627968859313e-03 8.1136551523388490e-03
      -8.0123360969134791e-03 7.3142375366279629e-03
      1.5378143576353538e-02 -6.2824058057543855e-03
      -1.0045471698453181e-02 1.2396484548635652e-02
      -1.4503375441811959e-03 2.6601337740374140e-02
      1.5795378760599055e-02 1.0011285338155118e-02
      2.1950326909326398e-02 3.4223861476601121e-02
      1.5572944220196276e-02 -4.6168357034082133e-03
      -4.7048775209462598e-03 1.1751005762179385e-03
      2.2334975645545686e-02 9.9503714727718316e-03
      -8.5928222271467614e-03 1.2212877064446006e-02
      1.0833030343722074e-02 1.2003605383833153e-02
      1.5420111939043597e-02 6.9694458982749209e-03
      -2.6498942065959004e-04 2.5402485808932278e-03
      -1.2418938892776218e-03 1.1781498362231852e-02
      4.6139433038142989e-03 9.6989883537859176e-03
      -1.1435489232996905e-02 -8.9089648586185212e-04
      1.0790481631492226e-02 -2.3811788117447719e-02
      6.5145204635766564e-03 -5.7462300094904897e-03
      -3.2288059135959653e-03 -7.4526972593318124e-03
      1.4316072315627024e-02 -8.9669502382831844e-03
      3.3835873743744707e-04 3.9780473488905104e-03
      1.4140514714506431e-02 -2.5346751223907019e-02
      4.3299256396500466e-03 1.6623854952408611e-02
      -5.5984882877055742e-03 -5.3481657433880857e-03
      1.6597844119573609e-03 -6.0249809881185706e-03
      2.7596665676529381e-02 -3.7058353731498934e-04
      5.7460842276250449e-03 3.7174533262132447e-03
      -3.1496674332968412e-02 -1.1538627199545079e-02
      -9.5467825827072125e-03 -1.2577914383162758e-02
      -2.5624848432032450e-02 -5.1443634063097774e-03
      -2.0561131567661331e-02 4.6537571564011669e-03
      2.7367773378512211e-03 5.9464282498674749e-03
      -4.4445165568039848e-03 8.0636810572214529e-03
      -2.4633584660818122e-02 -1.7600953306029090e-02
      -3.5447463256783182e-03 -8.9980450147545393e-03
      1.9199537418264578e-02 1.2316978595975003e-02
      -3.6338188370686171e-03 -1.1986527572748972e-02
      1.3407765467002172e-02 -1.0699585307563556e-02
      4.5969734909227320e-03 -1.0725902033264371e-02
      2.7838695278453743e-02 -9.1121417022808522e-03
      -1.1321760181030488e-02 1.3533245331482995e-02
      -2.7818361663239258e-03 -3.2313401391606607e-02
      3.3964046776071413e-02 -1.7883259085877134e-02
      1.6938557711854388e-02 3.2585475481053505e-02
      -1.3238476950017758e-02 -7.7361975283706261e-03
      7.5207479669868365e-03 -1.7198074304599166e-02
      -1.0430733545001741e-02 -3.2601358739147868e-03
      1.4167357220222412e-02 -7.3632144984528457e-03
      -7.7764874255515553e-03 -1.3819320089488451e-02
      -1.6337688234625017e-02 -2.4893401977151469e-05
      1.8728091916419901e-02 2.9825371978432953e-02
      -2.2362952928377665e-02 1.0795808251655256e-02
      7.2305429514865479e-03 -4.3338004629319190e-03
      2.2135664558989354e-02 -2.7538622665281752e-02
      3.3812664598120009e-03 2.5617904475340753e-03
      -1.3658025713546105e-02 -1.1767200815142213e-02
      -1.0216006187947517e-02 1.0951814962679409e-02
      -1.3639715610623788e-02 -1.4175083993434064e-02
      -1.9391764223507392e-02 1.4697653042806123e-02
      1.8950568784503484e-02 1.0638168417534701e-02
      -2.5273803994679298e-02 -1.4322546820727314e-03
      -4.0177597186183646e-03 5.2395052751417290e-03
      2.4709720518021443e-03 7.2259836773095115e-03
      4.7051484636911900e-04 -7.7404651847346601e-03
      -2.6034492376843771e-02 5.5644000667279918e-03
      1.3259596951112056e-02 -1.0384885984402820e-02
      -3.4417017194181224e-03 9.7411532269968126e-03
      -1.5225200694739677e-02 1.0358031854035962e-02
      -2.8083723746094862e-03 8.1980044112589540e-03
      -1.0667342168365757e-02 -5.7213888738037915e-03
      -7.1144921704429966e-03 2.0587315955075552e-02
      -4.5658417308569151e-03 1.2408895233241426e-02
      7.0899414195165046e-03 -1.9972084454529491e-03
      8.0420847025180001e-03 2.9807026492879359e-03
      -1.9326504424921551e-02 1.6220631292289425e-02
      -1.7747507314204776e-02 1.2346283810563938e-02
      -1.5549682892569772e-02 1.7104500016981213e-02
      1.0603064526329592e-02 9.1341516751591318e-03
      3.5918702549009663e-03 1.6062411982911150e-02
      -9.0706724011504290e-03 -7.9613042109623333e-03
      2.9380623049984891e-03 -1.4453781842462262e-02
      1.8807819159756701e-02 -1.6046699237311245e-02
      7.2904417284370493e-03 -1.0545619080173442e-02
      -1.3865578615431850e-02 -9.6766648470102083e-03
      -1.3022445882367647e-05 -1.2463070488325206e-02
      -1.8603893301290944e-04 3.7790992503015986e-03
      1.1775586115342823e-02 1.2613816199745689e-02
      1.3004966228010291e-02 2.3498095652722921e-03
      -1.7901391048563468e-02 4.4633791070579085e-03
      3.9507121250529614e-03 1.8459350874069525e-03
      9.6728459114379783e-03 -2.2305082726564850e-03
      -6.3994306681299596e-03 9.6353444590190560e-03
      -9.1871479109500147e-03 -9.2914017533545466e-03
      -1.1638863108834706e-02 -2.7196077825047661e-02
      3.8660051486654459e-03 1.2793257146213044e-03
      1.3347004542479562e-02 1.2661392392104112e-02
      5.5622714255009979e-03 -1.4390824056174654e-04
      -9.5205640555737405e-03 1.1601502819441136e-02
      -2.4568901571978279e-03 -1.9305322658436291e-02
      1.5467611679290548e-02 6.3414583285491440e-03
      -1.9494406802935724e-02 -2.5060791357869212e-02
      3.4598190892348719e-03 1.7919901839927497e-03
      1.1635835805104662e-02 -1.2250151430206288e-02
      2.3218629121676194e-02 -2.7851528206035571e-02
      1.6429748588031888e-02 -1.9524038393472855e-02
      7.0083760841070366e-03 -1.9903039900379550e-02
      1.0132951756382045e-02 7.0514074695675966e-03
      2.1830841176132933e-03 2.1714705958128500e-03
      -7.4494410190047025e-03 1.6176251832804597e-03
      8.9913467947471716e-04 4.3772874560181084e-03
      -2.1504316962266994e-02 -1.1953950094675734e-02
      1.1354186981555157e-02 -2.7630333940207533e-02
      -6.2705757451202923e-03 -2.5856574808453638e-02
      1.2249606225927667e-02 -3.6971771718214189e-03
      -3.0570112423360066e-02 -2.3773707243887773e-02
      3.3866074077510457e-04 1.6684978808927883e-02
      -1.0944551625785439e-02 2.7864867757163576e-02
      9.0123187845329855e-03 -3.8276935632746050e-03
      1.4965407369408840e-02 1.6120132831962630e-02
      -1.1792203657510891e-03 -1.1238248099487818e-02
      -3.9603109757890649e-03 -1.1257973412676868e-02
      2.3469872107568382e-03 2.3128056502169092e-02
      -1.3477467573435551e-02 -1.0435146598967266e-03
      1.7002890367633271e-02 2.1303047217556955e-03
      4.1573705924894747e-03 -1.2139649897875591e-03
      -1.9603336900424314e-02 7.2332115881457669e-04
      -3.0103175848682682e-03 -2.4945454975920929e-03
      1.8838234499696658e-02 -1.9808439083398171e-02
      -2.0170137758799469e-03 1.0486537507109173e-02
      2.3875795041820979e-02 -1.3706051735070359e-02
      2.3183298309039261e-02 9.5518328050389362e-04
      6.9496427982589076e-03 -1.2477125732461219e-02
      2.3697519022332362e-02 1.1918999688939167e-02
      3.1773007664159516e-03 2.2179451169215741e-02
      -2.5749036563087704e-02 -4.0486966178769207e-03
      -1.5651841088002345e-02 1.4989353988100947e-02
      -2.6765096936415393e-03 2.9123629560068201e-03
      -2.7051195096336859e-02 1.5175578117549304e-02
      -1.0537031221519411e-02 -9.0005287059539713e-03
      1.1905893726262334e-03 -8.2337148444265118e-04
      9.5163378259035918e-03 -6.0613910544302790e-03
      -1.6640204411894535e-02 2.2128457978222354e-02
      -1.8089832925838933e-02 1.4820543892996968e-02
      -2.2707369101118039e-02 -1.9977031855554449e-02
      9.6480698109152122e-03 5.2457638016403961e-03
      -1.6949715155993385e-02 3.2167172348717471e-03
      2.8861216963720196e-02 -4.0278368347497961e-03
      -5.2716885377536004e-04 4.6352060424332108e-03
      1.6879280698359152e-02 1.6647463731393954e-02
      6.9389895777344076e-03 -2.9536793888721668e-02
      -3.2947613127577843e-03 -1.2977764180076127e-02
      2.4257671697175921e-03 3.5454496890407541e-03
