<?xml version="1.0"?>
<opencv_storage>
<opencv_ml_ann_mlp>
  <format>3</format>
  <layer_sizes>
    19 100 100 2</layer_sizes>
  <activation_function>SIGMOID_SYM</activation_function>
  <f_param1>6.6666666666666663e-01</f_param1>
  <f_param2>1.7159000000000000e+00</f_param2>
  <min_val>-9.4999999999999996e-01</min_val>
  <max_val>9.4999999999999996e-01</max_val>
  <min_val1>-9.7999999999999998e-01</min_val1>
  <max_val1>9.7999999999999998e-01</max_val1>
  <training_params>
    <train_method>BACKPROP</train_method>
    <dw_scale>1.0000000000000000e-03</dw_scale>
    <moment_scale>0.</moment_scale>
    <term_criteria>
      <iterations>15</iterations></term_criteria></training_params>
  <input_scale>
    5.1165078248977318e+00 -2.2770991891143013e+00
    9.0907379355297824e+00 -2.1323755991749058e+00
    1.2990453224575710e+01 -2.2040561760111106e+00
    1.7338959514655556e+01 -1.9880920735196133e+00
    1.9512756180210847e+01 -1.8365283469401639e+00
    2.5692507328635603e+01 -1.7945212054472000e+00
    3.3355062496464342e+01 -1.8973837953317618e+00
    3.6249958983571084e+01 -1.6606453592916635e+00
    4.0973891908826204e+01 -1.5837441491579123e+00
    5.5325834395431492e+01 -1.7192935033616616e+00
    7.2320593177770121e+01 -1.8959255465702867e+00
    8.2631011956396279e+01 -1.8729672651072640e+00
    8.7443881214687792e+01 -1.7467393393512352e+00
    1.0175227676342723e+02 -1.8500883352891575e+00
    1.0476047675895073e+02 -1.7420079772922243e+00
    1.2061973308655371e+02 -1.7457534763999674e+00
    1.3071276157234701e+02 -1.7207386356343362e+00
    1.3247287480385762e+02 -1.6600419374862783e+00
    1.5442784045983379e+02 -1.7739872003379376e+00</input_scale>
  <output_scale>
    5.2631578947368418e-01 4.9999999999999994e-01 5.2631578947368418e-01
    4.9999999999999994e-01</output_scale>
  <inv_output_scale>
    1.8999999999999999e+00 -9.4999999999999996e-01
    1.8999999999999999e+00 -9.4999999999999996e-01</inv_output_scale>
  <weights>
    <_>
      -9.4795602783290175e-02 7.2214600736929369e-02
      -1.0583206265264350e-01 7.7153153307675054e-02
      -9.4605042779869752e-02 6.0554956041624086e-02
      4.8686316345088645e-02 4.9137209724249460e-02
      -8.7394185221141146e-02 9.4202054481350508e-02
      6.3245653314019851e-02 3.6355125889369629e-02
      -8.0207392693249072e-02 1.1692241156003799e-01
      -9.2690698816752862e-02 -4.1953351439520904e-03
      6.2130260522362910e-02 -1.9673814035745512e-03
      8.8795788712400056e-02 5.6523464017572141e-02
      7.3757769265167528e-02 -4.9742208128383480e-02
      -7.9631290901080842e-02 -2.9964008821211575e-02
      -3.8201629305693999e-02 -8.3339988572699045e-02
      -4.6045786196770411e-02 -9.8252942976173069e-02
      -5.5044198593028636e-02 6.1246724371123017e-02
      -2.4331024230912011e-02 3.8515086215242987e-02
      -1.1463236119706151e-01 4.1560879239604026e-02
      -4.7885196076909844e-02 -7.6927337168867460e-02
      3.3779494438577529e-02 1.7255966869760820e-02
      -2.6906082342749903e-02 -2.5626826050774494e-02
      1.5961470849111571e-02 -1.0405075221641268e-01
      -1.0838775113859808e-01 7.7217703268936998e-03
      4.9879007181094441e-02 -5.2595017665477903e-02
      -1.2073451258796583e-01 1.7487309667960780e-02
      5.1661668821651796e-02 -4.6865142394878039e-02
      9.9891739321448944e-02 -4.8144275318761524e-02
      -1.1370464303200829e-02 4.4330228015113472e-02
      -1.1516911112815091e-01 7.8923909793341754e-02
      -9.2122458945069846e-02 -5.3768892566237368e-02
      -5.5781816141293648e-02 -3.1240567071025567e-03
      5.0270937020639304e-02 -2.3892792471102649e-02
      9.8716363662895476e-02 7.5622018285141854e-02
      8.9841995267773603e-02 2.0180535112905061e-03
      6.2333590571781734e-02 6.4604099841660849e-03
      8.0530565689161115e-02 8.2356097488992964e-03
      -1.0714879877156476e-01 9.5904183817677804e-02
      3.0654816553686428e-02 -8.7250494654352806e-02
      3.0604155330994951e-02 -6.1251278493426103e-03
      6.8959480263941789e-02 3.9176506256882494e-02
      1.0452389245200036e-01 2.9666296653414026e-02
      -2.8222707850140728e-02 1.2821737995861515e-01
      -1.8385568018399530e-02 -8.8746613959609658e-02
      2.7518610124673198e-02 6.2836839924952481e-02
      3.8731564433320067e-04 -4.5654890511634315e-02
      2.3162386608684665e-02 -4.6177386462876759e-02
      2.4027786795276604e-02 8.4793984840485351e-02
      1.2241593245933251e-02 6.6550032264482487e-02
      1.1459211595582137e-01 -3.0535219389359953e-02
      -6.8120282370584637e-02 1.0549152276334019e-01
      8.9715948487046324e-02 -1.1435623126235353e-01
      2.3087088057171048e-02 -7.2107820870120562e-02
      -5.3946635450104391e-02 -7.5416074198940863e-02
      -7.8333871508284789e-02 8.5591795350339367e-02
      -2.6942996888942399e-02 3.3218392145129484e-02
      7.6256568565678931e-02 -2.6426131013833707e-02
      -4.3329717254623652e-02 9.2501727555232394e-02
      -8.5338866960844056e-02 5.1835705068856763e-02
      3.0412588635537890e-03 -1.1366224845875664e-02
      -9.7576515623300688e-03 6.3704023455243702e-02
      7.0121797844396186e-03 2.0424483491747560e-02
      7.6019362716150243e-02 -9.3081902772093661e-02
      -8.6198990782352408e-02 9.2930846895885766e-02
      -9.9924862865259076e-02 -9.2591838416994782e-02
      -7.2126018424644611e-02 7.9595837727519214e-04
      8.9713288043806894e-03 -7.1654274888109645e-02
      -7.1990619312351248e-02 -1.2836012587749329e-01
      1.0473301627650217e-01 2.7781725344099114e-02
      1.1876654327121564e-01 6.4469225497876870e-02
      2.9234120426326837e-02 4.0917543647295170e-02
      -6.3787271096652970e-02 -9.1638725420318520e-02
      -5.9926337874706505e-02 5.4805105001093604e-02
      -5.0170432977471695e-02 5.8566044262198150e-02
      2.8553729507057278e-02 1.6955298414376666e-02
      1.0373197086994979e-01 7.3638703029986222e-02
      1.0502808454360446e-01 1.0096110023375741e-01
      -3.2633731778956412e-02 -6.6336265065075159e-02
      8.5386995402583751e-02 1.9697819003744116e-03
      3.4021794728361254e-02 3.1919081517348562e-02
      1.2657045567294131e-01 7.5621448774572858e-02
      -8.0194510309242226e-02 -5.9881381578383790e-02
      1.2364545024721157e-01 -5.1293838359355859e-02
      4.3723056457492956e-02 -1.5926554382759087e-02
      -6.2386305464171843e-02 -1.0535849099076730e-01
      8.3726164612124510e-02 -3.8535247256888269e-02
      -1.1020434071762805e-01 -2.6962947203519293e-02
      3.6622177891470466e-02 7.6091816669872636e-02
      -6.5516591471207988e-02 -9.1706643030644991e-02
      -3.8788369819829305e-02 5.1704288881054557e-02
      1.1076039287309278e-01 -4.4759612473859366e-02
      -4.9841642423309955e-02 -7.7628579889086821e-02
      -1.1299492457244075e-02 -1.0699713502604692e-01
      2.3559502031966936e-02 3.9577086827389946e-02
      4.3252860948732437e-02 3.1866615712612643e-02
      7.8462667297652222e-02 9.0925033552809023e-02
      -9.9355215363877064e-02 -4.8743050179100585e-02
      1.1214081235935032e-01 -7.4560152991514578e-03
      -8.0931575211864823e-02 -7.6007120500090758e-03
      -1.3179743265527675e-02 2.3486478808782320e-02
      -6.5128179363468056e-02 -3.0723053348127673e-02
      4.8981147529627608e-02 -3.2545477371646495e-02
      -4.7879069350821389e-02 -2.2069228340715286e-02
      3.1573885666873414e-02 -4.0208485141119042e-02
      -3.0476591957634098e-02 4.9788966516035038e-02
      7.6033074120367944e-02 -3.4320044965431437e-02
      -1.1731551339035151e-01 2.9036784924164226e-03
      7.0811293784211846e-02 -7.1156469518145332e-02
      -3.3362353577296722e-02 -1.5928248444080549e-02
      -9.7257594393594077e-02 4.0205114615703641e-02
      5.7357307224649635e-02 8.7174139493266689e-02
      -6.6185808243690997e-02 8.8489034853963061e-02
      8.6750442214672457e-02 9.7522895019487799e-02
      2.7498097367326075e-02 -7.9270493874688958e-02
      1.8662882831004365e-02 2.1172852757340736e-03
      6.7542823011242259e-02 -2.6233060878528853e-02
      9.6137517657752906e-03 -7.2166632990225799e-02
      6.1548149518742171e-02 -4.7339282024310064e-02
      -6.3195211206585361e-02 6.1480264484475737e-02
      5.8882998736975049e-02 -1.9028298697788260e-02
      1.6312588691837576e-02 -1.7791229730281823e-02
      -2.7815261720894446e-02 -5.1385827834344755e-02
      6.0660649387181707e-02 -8.4792355746588291e-02
      -2.3752937695859549e-02 9.3814666238593553e-02
      6.4369296729571188e-02 5.2564001857658749e-02
      -4.2837162790596010e-02 -8.3875108594464121e-02
      -7.1476878667418295e-02 -5.0711734596876161e-03
      -3.9905082292460765e-02 -4.0447318501885383e-02
      2.9337591878403377e-02 -6.7682710002635246e-03
      3.3733841180322223e-02 -8.0450312003819011e-02
      1.2108290778488145e-03 9.3324017118330327e-02
      5.4636886389973362e-02 2.0065883756419600e-02
      9.7396633662990298e-02 2.1259271379380284e-02
      6.6554669165622513e-02 -3.6306231405553314e-02
      -4.7896732180290474e-02 -8.0701248430103137e-02
      -4.1356780288038728e-02 -3.5962347561233794e-02
      1.7230034889377261e-02 -3.2992186388138667e-02
      -4.7336407016017400e-02 -7.4086380957914824e-02
      3.4488313394072344e-02 -1.7961417817048523e-02
      -5.1357240070045426e-02 -1.2234577366434367e-02
      1.9700515631034782e-02 4.7787228824254867e-02
      -9.8350178466139332e-02 -6.8377525679564830e-02
      3.1367388761201417e-02 9.1905188727196649e-02
      1.0586234727978970e-01 1.3474040322937850e-02
      -6.9010775378697764e-02 4.3907738343466958e-02
      -6.1938904371912837e-02 8.3441095209333668e-02
      1.2979396897713064e-03 -5.7456564011161684e-02
      -1.0664634735878999e-01 -5.9468845243179844e-02
      1.1997715424051054e-02 -2.9044025735460707e-02
      5.3982037368024600e-02 -5.7777584296409321e-02
      3.4832882469937571e-02 -1.9791249019768531e-02
      -3.0837026504222289e-02 -8.2062111825735140e-02
      -8.7598681334924391e-02 -7.1324915818736345e-02
      5.7819902979134183e-02 7.5955751853193868e-03
      -4.0620113264206746e-02 4.2621426891804176e-02
      1.1236032898705552e-01 3.9638316220795590e-02
      5.7966620564302046e-02 5.4804019114629053e-03
      -3.1336259767998130e-03 6.2394746455082604e-02
      -7.0804508004722377e-02 -7.1215845190428983e-03
      -7.3248554689103892e-02 7.9319715460732743e-02
      1.2374471468269047e-02 2.9322295813011170e-02
      -6.9267413949537296e-02 -8.8458961381877643e-02
      -8.2563008325588785e-02 1.7530443566291815e-02
      -2.3537605065354884e-02 4.2961470266902141e-02
      -6.6255182427285245e-02 -8.5181306031776247e-02
      -5.5065520605626144e-03 -1.0590756290468281e-01
      1.3662599187349432e-02 -3.7560947507956206e-04
      6.1279793790887306e-02 -5.6310364984353378e-02
      4.7338177888698277e-02 8.9572898608612714e-02
      5.0034039629680456e-02 1.5592813936602683e-02
      -3.7597100586907642e-02 -3.5387843856196886e-02
      -8.0135537706167818e-03 -3.7788135573207295e-02
      -6.9465334548733208e-03 3.6558538030240346e-02
      -2.9858301572155875e-02 3.4579566378628038e-02
      -4.0294622009035094e-02 9.5226086441598745e-02
      3.0222046486563570e-02 7.5391225090545771e-02
      5.8744953643646056e-02 3.2994949104455287e-02
      6.7524856928170063e-02 -2.4289899988831968e-02
      5.0160933427680784e-02 -3.2623763980596354e-02
      7.0589993550699476e-02 2.8125024961562942e-02
      8.8854616608373283e-03 -6.7600076034950163e-02
      -8.0836746731005993e-02 2.2612110238638860e-02
      -4.6628043130265848e-02 -9.5207611454972779e-02
      7.3182756968969151e-03 -3.7894548502504892e-02
      -3.2887964130275310e-02 3.6115558079025188e-02
      -3.7638139232791253e-02 6.7510030859145975e-02
      5.9650844840725352e-02 2.0171370078542836e-02
      7.9272190286466971e-03 2.5353747302296566e-02
      -4.5726711290433923e-02 8.9973119943341145e-02
      5.6456758747516246e-02 -5.6920645034281583e-02
      4.0888011245686424e-02 3.8189067403755605e-02
      -8.1781880005700486e-03 -6.9180575201936698e-02
      -1.6790253386234012e-02 -7.9730736409798733e-02
      -4.4731142790512490e-02 8.1935452291736377e-02
      -4.0986563869525379e-02 2.9856711675834733e-02
      9.4941401005351519e-02 5.5768278035034778e-02
      1.3076947789929485e-02 1.0964522380666762e-01
      -1.2595254905891945e-02 -8.3964805253314748e-02
      1.0817723910994287e-01 -5.1197196402760770e-02
      1.5651128190168739e-02 8.7147397434178264e-02
      7.3349644456651666e-02 5.8972176527094383e-02
      2.1233911826187557e-03 9.1504215844051967e-02
      -7.5120750752610377e-02 4.2852175661232485e-02
      -6.7354254307218767e-02 -5.7355696038285497e-02
      -7.0006472697134919e-02 -6.4254851054756354e-02
      -1.1165616498693791e-01 8.0033863608747410e-02
      6.3952071551770032e-02 -3.8882390558017267e-02
      2.3100178517347716e-02 4.7562389316395219e-02
      -4.5859209394578472e-02 -8.2447320612692832e-02
      -8.7082676586911684e-02 -6.7560943233836698e-02
      -1.3854939266559205e-01 -8.5950482152653291e-03
      6.6917445121543212e-02 -7.8156066933513471e-02
      -5.3976315614818221e-02 -3.3597048261996977e-02
      1.1610325312765441e-02 -9.7561708271166319e-03
      -1.0301290683341130e-01 -7.2833330166844165e-02
      6.9718922491019353e-02 1.5402127873224031e-02
      9.7282933641053240e-02 2.6083702141902310e-02
      1.6603669127542253e-02 -1.2200323137449812e-01
      7.5315108485270191e-02 -7.9742072587593457e-02
      3.5998458977325822e-02 1.2235925394108105e-01
      2.9606339522666468e-02 4.2283269523425565e-02
      -8.4830953452031219e-02 5.1670987619286825e-02
      4.6036315000437457e-02 7.9195426314457446e-02
      7.0644269621563435e-02 -2.2487275719886596e-02
      8.2619635128935623e-02 5.2332764379775208e-02
      3.6544944679962478e-02 -7.2993783545968360e-02
      9.8378301315182354e-02 7.8300526247543412e-02
      -1.0218913897789092e-01 9.3691331276945136e-02
      -6.2086979978009285e-02 -3.8336119169563178e-02
      4.3940561308045745e-02 1.0611443687213976e-01
      9.8670914792956865e-02 -7.8014923599584451e-03
      6.3667380650038029e-03 -6.3736597365058267e-02
      1.0823060706716080e-01 -8.2034259833392686e-02
      -5.8321417038263657e-02 -8.3050689951489870e-02
      6.0381589424626458e-02 -9.1017398286084961e-02
      -8.5753963338046330e-02 1.6980168354342084e-02
      6.8741542890141559e-03 6.0789729303149638e-02
      -1.0856338968672861e-02 -7.3466820280228801e-02
      6.3059018740457190e-02 8.9399585925490355e-02
      4.4820315704789511e-02 3.8611684638468619e-02
      6.8062858778988627e-02 -2.7947252048139616e-02
      3.4710295320369733e-02 3.7369880211067456e-02
      -7.3749951746238940e-02 -6.3711991334866241e-02
      1.2155666862978639e-02 -1.3368562888276250e-02
      -3.5078815455014574e-02 1.1052616027113639e-01
      -4.9991273205102243e-02 3.1465157628795704e-02
      -6.8000697853577999e-02 -4.8571719173170526e-02
      5.1895086356339201e-02 -2.2492056468665745e-02
      3.9581515239179618e-02 -8.4697941547526023e-02
      -7.0467360191715026e-02 -5.3925367692236013e-02
      4.7498802623514726e-02 3.4507822794569099e-02
      -1.7116838273460340e-02 9.5943938210806781e-02
      -5.7694076700748310e-02 -8.7206710222356335e-02
      9.6854687999578234e-02 -6.9942253554558603e-02
      -5.2066022669450956e-02 -8.8666642897134371e-02
      -4.9343791158237761e-02 -6.9684544011255192e-02
      -2.3202986268452880e-02 6.4940106611918305e-02
      -8.3754745536446448e-02 9.2344212681038748e-02
      5.6312457250066665e-02 -8.4538795263067873e-02
      1.4585161896835001e-02 -4.8493413424495653e-02
      -1.2258444204961100e-01 8.4822455726291813e-03
      -1.3143407622561784e-01 -1.0087489803757311e-02
      1.6881170267398854e-02 -3.8834246145630094e-02
      7.5009916783803254e-02 -2.1183477037152183e-02
      1.4977025112235889e-02 3.7114713648073283e-02
      -5.8621332865902022e-02 -7.6326894018666405e-03
      8.6789554014605655e-02 7.7759426833337128e-02
      3.4491638572192569e-02 -4.3675803290089160e-02
      -6.4252139709073425e-02 -5.0816847049409732e-02
      9.7334021284206443e-02 -8.4097105470387276e-03
      4.9569992585579620e-02 9.5653132341917982e-02
      6.7397867168951700e-02 7.8366695493724131e-02
      -4.0840895101577068e-02 -8.4183494098246880e-02
      -3.8181601762043570e-02 -7.1325999376716021e-02
      -5.4605447114644219e-02 3.1094904291381915e-02
      8.3740116583406909e-02 7.4978718519440574e-02
      -7.6192718024540210e-02 -7.3941606278195807e-02
      8.2769176790395152e-02 -3.5429666152057102e-02
      4.1068676995150821e-02 -9.8742755277047886e-02
      2.5237842183876022e-02 3.2897422931341180e-02
      1.0819963336493293e-01 -5.9358478623638897e-02
      -4.1598871091033385e-02 3.8590544369276995e-02
      1.5141682183040848e-02 7.2616022810617825e-02
      4.9439428622195469e-02 7.2192227748022988e-02
      -7.8049267986774525e-03 -2.0256697777957893e-02
      -1.3563556363425306e-02 -5.5855959219296834e-02
      -8.8466282516994912e-02 9.2422244896129477e-02
      8.6624327331013898e-02 -8.5317338688749300e-02
      6.5557251273433467e-02 6.2494224950154914e-02
      8.4740994207407910e-02 8.8001118075159132e-02
      1.2735175054849902e-02 4.4698106506500211e-02
      -3.5779917664689610e-02 4.7992299061881259e-02
      6.6964052464708892e-02 -1.9909030649535420e-02
      -3.6662323153544424e-02 4.0443757581060759e-02
      1.4379087986215556e-02 1.0755178986948932e-01
      1.0395929981831602e-01 4.1465853480933743e-04
      -4.7695450230560363e-03 1.0896681291798803e-01
      -5.3698008588637068e-03 4.5798149337613385e-02
      6.3734604214780360e-02 -8.0489634774987481e-02
      3.0776237440919018e-02 9.6690420092948579e-02
      -8.5046516947472950e-02 1.0092734294612654e-01
      9.5987287203651489e-02 9.4087853064637114e-02
      7.1494684840392508e-02 -8.7057062056439330e-02
      -5.8947962993573660e-03 7.3326280308030942e-02
      9.2975634237532342e-02 -2.5056660989949259e-02
      -2.2773539423917008e-02 -1.9659308939257467e-02
      6.0597827641719303e-02 -9.5437316911372846e-02
      -3.3156060227531675e-02 -2.5408152054266900e-02
      -3.5773183170425570e-03 -5.5003275212109730e-02
      9.3133371185978413e-03 4.6800286582644277e-02
      -1.1910365528907500e-02 9.8812518409436001e-02
      -3.4831908012370558e-02 6.8774787479619098e-02
      -7.6868279012119053e-02 3.4837836138515682e-02
      8.7089681395765381e-02 4.6467741612160204e-02
      -6.2251780596231342e-02 8.6295534804066903e-02
      -1.0080369744859947e-01 -3.3213018234589921e-02
      1.0785771877983825e-01 5.4901266343726100e-02
      2.3524979719617433e-02 -1.0037100964172004e-01
      8.4009624182148662e-02 -4.3442211512679151e-02
      8.8751574124706092e-02 3.0677326606590331e-02
      -6.2926409884779544e-02 -2.0836595995899675e-02
      -1.3899994335593382e-02 -8.0571506710979790e-02
      9.7839973012521314e-02 6.5641872679576135e-02
      -1.2898785883533489e-02 -3.6873238623317345e-02
      8.4232867167170627e-02 -1.9420998583695337e-02
      -2.8877126633527047e-04 -3.7459895036543116e-02
      6.6058881693610030e-02 3.6881209952944777e-02
      -8.2629654362388130e-03 3.4706610017918298e-02
      7.5441341415380933e-02 8.2273114601897152e-02
      -4.1037608767489853e-02 1.0353311683140179e-01
      9.0265772747557205e-02 -9.0103831397612813e-02
      -8.7661848775204027e-02 8.5821459452227439e-02
      2.0577970848784564e-02 6.2750347753800881e-02
      1.7010099593460802e-02 -1.0609659242335681e-01
      1.1708616232164628e-02 3.3861454062479000e-02
      6.0323866783066546e-02 -6.3093016827004925e-02
      -2.7169834791502721e-02 2.3764337474673533e-02
      -3.9506402669238376e-02 1.2979342164582871e-02
      5.2866275897706927e-02 -8.0373893654955425e-02
      -5.5211402144873196e-02 -3.6527612395860790e-02
      9.6039132794294661e-03 5.4251562246489041e-02
      6.0831401558478174e-02 -4.0861228638161126e-03
      -5.2265241270760668e-02 1.8218682575665422e-02
      6.4190298647183980e-02 -5.2845662283983415e-02
      -6.0056259365406532e-02 -1.7440490877411279e-02
      -2.3811985611315131e-02 -8.0496032333714981e-02
      -7.6815274163472724e-02 4.3536471587060928e-02
      9.8212206928466994e-02 8.8598295720017012e-02
      4.2496370321289056e-02 -5.2780936742752228e-02
      4.9639818196514543e-02 3.1420365854878205e-03
      6.2230210648727878e-02 -5.5812528880008060e-02
      -4.4711219994582677e-02 3.8427441172316681e-02
      -5.0737687781594175e-02 -8.0441085898607392e-02
      -7.3124211357621802e-02 -6.2775002579779096e-02
      -1.8487151689226839e-02 2.1271921974893370e-02
      -1.7167221775238311e-02 8.3224139639893766e-02
      7.9390429968934889e-02 4.7796338582154964e-02
      -6.4168918322700497e-02 -1.0585978402385242e-01
      3.6177097381343750e-03 -1.0726025812703041e-01
      -8.0241521891759371e-02 5.7520960265629764e-02
      1.6125034179673516e-02 -7.2696398478462709e-02
      2.0924038322682845e-02 -1.7135997358650686e-02
      1.9846351840989322e-02 -4.2686188242440186e-02
      -4.0140592104979285e-03 6.1576823921744277e-03
      -5.1083565862069982e-02 -6.2958658980227344e-02
      -2.9261149434916985e-02 -9.2862588660115333e-02
      -4.0298505733835026e-02 2.1598709014908155e-02
      -8.9275241079483127e-03 -1.0647912154314813e-02
      -8.2869547636419502e-02 6.4508410848734779e-02
      -8.8359321696114962e-02 5.4457182631108290e-02
      -7.5186355064869065e-02 8.0613330655428264e-02
      -1.0576594283292531e-01 6.2732734221205956e-03
      -4.9525357266241507e-02 -3.9392012646669097e-02
      4.0730122220875881e-02 2.4565372951328376e-02
      6.1475161818685647e-02 1.0739866593046647e-02
      9.6456598978793568e-03 -5.8443272965372217e-02
      3.1943474779841885e-02 3.4022165323259711e-02
      -5.2693164833857851e-02 8.4438238946863295e-02
      5.6159916732617741e-02 -9.9852852708904399e-02
      3.2805657012880546e-02 -3.0679633674795030e-02
      1.0376214673980091e-01 -6.2619202607465757e-02
      8.7040018423871379e-02 -9.0618095286904191e-02
      6.9156247129832676e-02 5.4566893680846364e-02
      -5.8757244994537258e-02 3.7330079513094444e-02
      9.9364791865737434e-02 -6.3370774036410601e-02
      -7.3217256224495861e-02 1.0303128346673912e-01
      3.0692881844524064e-02 -7.7999987302514789e-03
      8.0000321437003877e-02 -4.1712038273080086e-02
      -4.6769863893101948e-02 -4.9117078016317088e-02
      1.9156152338248956e-02 7.8802135720683522e-02
      8.9561748471119224e-02 -8.0687797719072335e-02
      1.8558528116610972e-02 7.7273260565655479e-03
      3.7091729334556137e-02 8.1190233053944683e-02
      1.0536906399500487e-01 -5.1963816762637019e-02
      2.6358007070474566e-02 -4.9992814217127812e-02
      1.9763999313101088e-02 6.9276629410380181e-02
      6.5817390535817158e-02 -3.1943367739372550e-02
      -1.2371781625827423e-02 -1.7206802636931806e-02
      4.9367144347065704e-02 -3.4228511635246803e-02
      9.1882438541208616e-02 7.3731340234299697e-02
      -5.1584344824294019e-02 2.2235260085209929e-02
      -1.0273785500203253e-01 -2.4443028807617350e-02
      -5.1139861169160215e-02 5.5183485285967039e-02
      4.4924750054711096e-02 3.6158165533646668e-02
      -4.9104377364918267e-02 6.4260784016004057e-03
      5.4197224010560950e-02 2.0429104456570247e-02
      6.7690339346296253e-03 -7.5977522514028978e-02
      3.6501348848057419e-03 3.0120528344234416e-02
      1.0623753632604509e-01 -9.3063282881349671e-02
      6.4044018514878481e-02 -1.5902356088817241e-02
      -8.9210282277449385e-02 4.2316923933656540e-02
      3.5325080817410551e-02 -1.5270512298876052e-02
      -4.4521730851161907e-02 -8.2149730840675339e-02
      8.6667931829160119e-02 -9.0164033979621513e-02
      -8.8394868561798359e-02 8.5436008926604995e-02
      1.5412636418227550e-02 -6.1410850543643571e-02
      -8.4818258858002399e-02 1.0646457725367268e-01
      -7.2311914441546110e-02 6.0324132044183805e-02
      8.3498396525155838e-02 -4.2494169502332951e-02
      -4.6000377321773853e-02 2.9859571436011041e-02
      6.7097724751916136e-03 7.2545460306909546e-02
      8.6245015956704557e-02 -1.1324935559898418e-01
      -2.4738593396378926e-02 -5.8323098551050050e-02
      1.1013811055768927e-01 -3.1269898683596968e-02
      -5.4236058973013535e-02 1.0257354412743559e-01
      -3.2200149837691379e-02 6.5495979180086941e-02
      -8.4250566897204580e-03 5.0548985537468151e-02
      9.2694732261336107e-02 6.9812866720439182e-02
      7.0985279709142368e-02 -9.9627777437113388e-02
      3.3140756643992395e-02 -9.0475311137165684e-02
      -2.1906829945165254e-02 -1.2305571579925996e-02
      -3.6727909483067894e-02 9.1823409985140714e-02
      -7.8415976999464954e-03 -8.4626800426192389e-02
      5.4773496120681345e-02 5.4270068228152273e-02
      -3.2154459318469067e-02 -3.2466411622926135e-02
      3.4952614743494945e-03 -1.0223482550882330e-01
      -6.1539481385580489e-03 -7.8117252284031505e-02
      1.0691979995345309e-01 -2.1899598974866399e-02
      2.8047117751189527e-02 -1.4078164830013050e-02
      7.2726859348225703e-02 -8.2331237986444289e-02
      1.1257399720580419e-01 4.6080071774825912e-02
      2.7537540418531392e-03 4.9248369291776589e-02
      6.9234510205986560e-02 -2.1371689481800772e-02
      -1.2118109104051245e-01 1.0602252047932999e-01
      -6.7498107911336397e-02 -4.3162789921314546e-02
      -4.5618862913071989e-02 -2.0392974563318754e-02
      6.8193211310207530e-02 2.1599570309656736e-02
      1.1570731516808989e-01 9.8692050936069670e-02
      1.2943156730093180e-01 6.3242662073865863e-02
      -5.7083014512341351e-02 5.6392835263262421e-02
      -1.3061031880452840e-02 -5.2964437076966041e-02
      6.2011837606394109e-02 1.4853118980642307e-02
      6.7610101139729331e-02 -8.2848992864998319e-02
      6.1206566750825558e-02 -8.2428934148256791e-02
      -3.2964425785298429e-02 7.7380948869637506e-02
      3.7027521253530406e-02 2.6340601065851253e-02
      -1.8095899491532279e-02 8.6986261941602250e-02
      8.1974916646175809e-03 1.9873116153079878e-02
      9.9207134037770803e-02 2.2341989709851823e-02
      2.1797963893537501e-02 4.4129196759937428e-02
      -2.6745425730116891e-03 -8.1380246422973701e-02
      -1.0202248925543224e-01 4.2617054678563748e-02
      -4.3059923071665972e-02 2.4477508675996188e-02
      6.1902102262572326e-02 -5.7254614484584555e-02
      -3.6526880362447819e-02 5.7952752174803383e-02
      -3.1037278147800357e-02 -4.2614406209009699e-02
      6.4450935666547152e-02 -8.7991022556088830e-02
      9.2657395239054682e-02 -2.5616030741184900e-02
      4.4800260660954487e-02 -9.5047428355176933e-02
      -1.8821254333819370e-03 -4.0953453554727626e-02
      -7.8246380758633105e-02 -1.0934259910496841e-01
      6.7291221212647481e-02 -7.5380445860496748e-03
      3.9427602140892380e-02 6.0127588451083278e-02
      -3.3616842714919243e-02 -5.2448255296833876e-02
      -4.9974272905678394e-02 -1.6120083016784175e-02
      1.1375813444648078e-01 2.7097781912547669e-04
      9.3707476021330532e-02 -6.3664711629328227e-02
      -5.0258685260333787e-02 -4.6625910212548874e-02
      -2.7107735467574393e-02 -5.8551152677159450e-03
      2.2463968727249178e-02 -2.9555293784965422e-02
      -2.2986930006548806e-02 9.3149164123522005e-03
      -4.4227819281759825e-02 -9.6115918788052312e-02
      -1.0854863881717094e-01 -7.9201508845293089e-02
      2.3002376934940236e-03 6.7929471578739437e-02
      -5.7071997634996166e-02 -5.0493480609872292e-02
      -5.5776261104345616e-02 2.8921458862967889e-02
      3.2111406119491141e-02 -5.8782725436183582e-03
      -1.6592363927113225e-02 -9.1656760075226690e-02
      6.6937196139184446e-02 4.6174227630771281e-02
      -8.9563221531180112e-02 -9.2043783388865208e-02
      -1.2103308247408849e-02 1.0608217592780132e-01
      -2.3348459510803412e-02 -5.6968042947607898e-02
      9.4769400803585743e-02 -8.5888033492793892e-02
      -8.5445907400409013e-02 -4.3288105697329743e-02
      7.3510777740063232e-02 -3.3169543023437068e-02
      2.4383536989391823e-02 -7.7838117200178428e-02
      5.4677637157561541e-02 3.6076192400126987e-02
      1.1031392961952689e-01 4.5237945017886062e-02
      -8.4233054141840777e-02 -6.4587618760414037e-02
      1.4320844059452229e-02 2.9810543804950150e-02
      -6.5181860979527176e-02 -5.4447011419310486e-02
      7.9631596507699187e-02 -3.6195513898804932e-02
      6.9646081495550738e-02 -7.0025489416963946e-02
      -3.5676181742029328e-02 -6.9818906510268897e-02
      -6.0857768875935081e-02 8.7864966364146327e-02
      3.0564051279552175e-02 8.6142512333317628e-02
      -6.5439212124618765e-03 6.4417181101585702e-02
      -7.8226834708672893e-02 -1.0026000071173459e-01
      2.4603701900615305e-04 -2.6174394960884512e-03
      -1.5353205525081680e-02 7.5192393244976091e-02
      -6.4943789663817170e-02 -8.0159584475488543e-02
      1.1940000479321594e-02 7.8967662611235431e-02
      5.1325639324833604e-02 -3.9140757938688747e-03
      7.8154430181602369e-02 -9.1057009822153825e-02
      2.4974013846520260e-02 2.5280317395820477e-02
      -7.9644820960115756e-02 1.2236380816676450e-01
      -5.9439918513403474e-02 7.5162368491046766e-02
      -8.7991613292093498e-02 9.9480255325946274e-02
      6.1255074901528581e-02 -2.6607649622496985e-02
      4.7037555767133594e-02 8.3458868270436609e-02
      1.4169032147576827e-01 -1.6036911520686564e-02
      -2.6179168060502682e-02 -1.2119111118936974e-03
      9.8407650567386817e-02 1.5471454834254812e-02
      5.2467198724145257e-02 9.8295229146468960e-02
      -2.3527381989819893e-02 -2.8817132967158456e-02
      4.4634839250726886e-02 7.3067077605229458e-02
      4.5410443292155600e-02 -2.5508617227101783e-02
      7.4925451767274137e-02 -7.5684182950849263e-02
      -4.7556756442947580e-02 -2.4776604341638132e-02
      9.2519658091747212e-02 2.6573773768947341e-04
      8.8937666923156286e-02 1.0095927381356517e-03
      2.4265756458868509e-02 7.6463821798457912e-02
      1.6468321279570916e-02 -7.5500164780800239e-02
      8.8033558738868908e-02 5.6475853910895539e-02
      -9.7146862705040221e-02 5.2426377232722629e-02
      -3.1722423128954270e-02 7.8760790510133821e-02
      6.2415362393893906e-02 -7.9711863744243008e-02
      7.4553103891114386e-02 -3.4947814001615528e-02
      -1.8409385877467717e-02 3.1479068524607870e-02
      4.2999383037166064e-02 1.3591604455051013e-02
      -1.0310560887143889e-01 -8.5899491841819178e-02
      2.8594427368262235e-02 -6.4713603508515682e-02
      -1.9264160125072431e-02 -2.9367958637601648e-02
      1.0245335657235198e-01 -5.1253183738379421e-02
      -8.7849248034308325e-02 -3.8417864404447313e-03
      2.6739134016889890e-02 4.6660720911639128e-02
      3.9522838574679565e-02 -6.9511381531333058e-02
      -1.9623433006687594e-02 -1.8255448780700477e-02
      -2.3991956220204742e-02 3.7668587917845435e-02
      -3.7176400420042777e-02 -5.6243907117049630e-02
      -1.5849443044813546e-02 -1.0173226993052140e-01
      -4.7767912339878205e-02 1.4090724540860073e-02
      6.7362348071872431e-03 4.3013203356634812e-02
      4.4273672312255756e-02 -6.7544114928696525e-02
      4.3266385121451596e-02 7.5433762414831199e-02
      5.6042914357775274e-02 8.3685044529481639e-02
      5.6867267524370074e-02 1.8587002179963365e-02
      2.9293366868159668e-03 6.2565355942661757e-02
      -8.7694002498505536e-02 6.4253546531259476e-02
      6.5364379244707685e-02 6.0894018482060913e-02
      -9.2185438777104084e-02 -1.3171826246880758e-02
      1.0274911411819840e-01 -3.1675308084280165e-02
      3.4056841619179150e-02 5.2970858771859225e-02
      -9.1465757807997566e-02 2.9669934282014580e-02
      -8.0591252586070972e-02 3.3346721407979195e-02
      2.2762697363980015e-02 -3.3179191926857865e-03
      8.7929822708754560e-02 -4.0571394308360001e-03
      -8.9062630962894046e-02 2.6486711508212465e-02
      2.6812194922586421e-02 -3.8088529086243904e-02
      -4.6245347218933607e-02 6.3897959698707457e-02
      -5.9871799013545508e-02 4.2042996148544905e-02
      1.1182783875998231e-01 3.5371455959038081e-02
      2.2213293634023093e-02 1.2828116505542230e-02
      4.6015178633769825e-02 -7.6511483877975919e-02
      -8.1033822836647021e-02 -1.6316687301294912e-02
      -8.9107965122910138e-02 -5.1531603172200718e-03
      1.8465668598553302e-02 -9.8822812030618531e-02
      8.0730835430461140e-02 7.4698071185096707e-02
      2.8141972894009024e-02 -5.3237034583791518e-02
      3.1469050322217328e-02 4.4579922792944170e-02
      7.5394483315322891e-02 8.8157680689892770e-02
      -7.6837263300797182e-02 -2.9772337020105906e-02
      -1.1537789195221600e-01 5.0587558133129727e-02
      -6.5362160725325261e-02 -8.3457303541963068e-03
      6.0104791555304474e-02 5.3467852310197473e-03
      -7.3858161377568760e-02 4.8893855680632254e-03
      -9.0349753845612793e-02 -8.5046330602641010e-02
      4.0596965828372945e-02 6.8534899312658803e-03
      6.2371886524357524e-02 3.1078669661523495e-02
      3.4452487362362894e-02 4.0779837063926565e-02
      -4.3586832588816724e-02 2.9811166667877299e-03
      5.9796874271432383e-02 4.2159035265309758e-02
      -4.4693649976504601e-02 3.8165816686285804e-02
      4.8719351131429604e-02 4.2972958267423415e-02
      -9.6168332675394506e-03 -8.6835311527619391e-02
      -4.1426191230769002e-02 -1.4158538360824580e-02
      -7.1184743307310547e-02 6.5334017731020863e-02
      -1.0520286112855810e-01 6.1840874857227120e-02
      2.3088310823178432e-02 3.0313902847540566e-02
      -8.7134840289859530e-02 1.0082053953465513e-01
      1.0927629057516867e-02 9.3183548439617916e-02
      -3.6814251479262781e-02 -7.6873106151626541e-02
      -6.4222402755730573e-02 -1.0716875477357758e-02
      -1.7986979924201049e-02 7.3385456399443078e-02
      -7.6356167664981919e-02 -3.2640375310977937e-02
      9.7438019919494315e-02 -1.9444273626366290e-02
      -2.1522614304122951e-03 -9.2003540758377203e-02
      1.0663054268100047e-01 1.8978860238004002e-02
      -3.9741444235629059e-02 1.4083662587949720e-02
      2.9187049107826275e-02 9.0939421557502717e-02
      -9.0074995615057746e-03 7.0862424346236519e-02
      -8.2679229026872240e-03 -9.8339659988750799e-02
      1.0138051328260902e-01 -4.6381454988397262e-02
      6.8930820435215895e-02 1.2193402466324086e-02
      -5.4003019600999735e-02 2.7592411929850392e-02
      9.8141370292453539e-02 -6.0236493020830874e-02
      -6.0083620389657080e-03 2.0353077381404371e-02
      8.2024865094948538e-02 5.7371659847551847e-02
      -4.0067901375020705e-02 -7.5390904133853832e-03
      -5.2385576937864595e-02 -5.4766051770967959e-02
      -5.3397930981923719e-02 9.7959518231375831e-02
      -2.5979875869764728e-02 8.4257512151421576e-02
      -6.9522614883555295e-02 -5.7098809656920949e-02
      4.1310477346153595e-03 -5.4909248165935849e-02
      5.4785873196914393e-02 -1.0101985592818587e-01
      -7.0548026036134442e-02 -7.4582315470513014e-02
      3.0054247597498796e-02 -6.6608942242508254e-02
      -4.1705451266798227e-02 1.6816301246976979e-02
      8.6676297216957757e-02 1.0190029093796676e-01
      7.3069737427378684e-02 3.7779818349410271e-02
      5.8819553670029223e-02 3.5489112744314710e-02
      1.2434222049226494e-02 -7.5592596520799235e-02
      -1.1200649470168671e-02 3.7503586664237372e-02
      -3.4839765262806334e-02 8.3190798530140386e-02
      -1.2168937099474935e-02 7.8042651059590074e-02
      8.6036776323579617e-02 -8.6136111239491733e-02
      1.1493584977601509e-01 8.3392493791421468e-02
      -1.3439101180216377e-02 -8.3669235993811264e-03
      -8.9946003367510116e-02 -8.3259136847452009e-02
      -2.6151206460621995e-02 -9.2234360028848300e-02
      -5.5616615691673728e-04 -1.3961653824011053e-03
      9.9756654966501129e-02 -8.7852032701341939e-02
      3.9694775452933831e-02 -3.3203486032986437e-02
      -1.2183177841456155e-02 -1.6990591342376037e-02
      -7.7059530079918268e-02 1.0766208623819885e-01
      -4.4329204610793482e-02 -8.8788781119963842e-02
      -1.6822539350459458e-02 -1.2977646750937480e-02
      3.1159779131140972e-02 -7.3403833307804506e-02
      9.2022635438235856e-02 8.8373159707769239e-02
      3.2880584928854394e-02 -4.0867838407002956e-02
      -8.5828396141480967e-02 6.8963653108699063e-02
      -6.9223122858018613e-02 1.0269490700369111e-02
      -5.8556410097217494e-02 4.3601164798530927e-02
      2.7647861064856668e-02 -4.3530911479396646e-02
      -2.7184705451055922e-02 6.9357273615754847e-02
      3.5768456062735321e-02 8.9328932700400876e-02
      -1.2607401567034143e-01 -7.9185882244043701e-02
      4.1218066961361951e-03 -4.7281240583601669e-02
      8.6055909486388305e-02 -8.1010813361226272e-02
      -2.7590146589483028e-02 2.2814360645898358e-02
      5.9615767142382925e-02 6.2681736481527958e-02
      1.0887125319506299e-01 4.2146891865734899e-02
      1.6544052512959567e-02 -6.9178871458638658e-02
      -8.9873720448062407e-03 -5.3857284835104137e-02
      -6.3015519872666931e-02 -8.3493859960207709e-02
      6.3842096624109945e-02 -9.6839390386321781e-03
      1.0398656135640072e-01 -5.8899952222505984e-02
      8.3425948063512806e-02 1.2551176798864649e-02
      -8.5671330389725325e-02 3.3489579828731512e-02
      3.7948690326806242e-02 -1.3443237529068264e-01
      4.8918120519172131e-02 -1.8019548909544429e-02
      6.2398289708430664e-02 -4.2475979030131540e-02
      -4.5649586833103460e-02 -8.8209027401996251e-02
      -6.9154832405873057e-02 2.2232794091353827e-02
      -4.0465576799998099e-02 5.3852855810435855e-02
      -1.0170695084190053e-01 4.9092838182440993e-02
      -1.0100970341143596e-01 -5.9771487568714782e-02
      -3.4566351661079421e-03 -3.7424547765394757e-02
      -6.9696019194771891e-02 -8.2938447938952081e-03
      4.2950186443739165e-02 6.7902591898812675e-02
      1.9991587147951049e-02 6.0822911882622850e-02
      -1.0102830435245793e-02 3.9046829971513111e-02
      -4.6541010124413647e-02 -4.3412662645544588e-02
      -9.5030316633836445e-02 -3.2046011021010241e-02
      -2.8482739384739501e-02 -4.1112250656593484e-02
      8.4872801064719436e-02 -4.7556600013039400e-02
      -5.4348270931250837e-02 7.2594964777358091e-03
      6.1823846676553558e-02 1.5597084925139998e-02
      8.7719502489059187e-02 3.5469746854354138e-03
      6.0754336195156182e-02 4.6992104126809028e-02
      -7.1822905674503279e-02 9.9623362290223991e-02
      -1.2138646309865529e-02 -6.9933059931593544e-02
      -5.9703644359173802e-02 2.3847694258142989e-03
      -1.5069241252325343e-02 -1.3905332426370404e-02
      -7.2657057950353501e-02 4.5131627582382401e-04
      8.8618152302009007e-02 7.0888714738201034e-02
      9.5358933571364157e-02 -4.2872805991604694e-02
      -4.3927495018743823e-02 3.7064037778902756e-02
      4.8272299571120988e-02 -1.9241951550606082e-02
      5.7156160780922772e-03 -6.9784932918079620e-02
      -6.5582915566239266e-03 1.2006612164350472e-02
      -2.3647030132859846e-04 -7.0168771009668451e-02
      -4.3211849044382897e-02 1.5599655764098467e-02
      -9.4857374739498942e-02 -5.1448940791590896e-02
      -4.2133137505182668e-02 3.1536713490345564e-02
      -4.1839823855432980e-03 8.9997882676050009e-02
      -4.0374655279103069e-02 9.5682511829159531e-02
      -9.4275952929374823e-02 7.4124897625128250e-02
      -8.9656814984083635e-02 3.6550589819818055e-02
      -4.8027451404600283e-02 -8.0323261372305194e-02
      7.4947328592954776e-02 8.7870185554933006e-02
      4.4181367590058453e-02 -7.1499207107091303e-02
      -6.8784711698077247e-02 8.5141006804280925e-02
      -3.6637430858319386e-02 -8.7331912965461070e-02
      -6.7503364361977694e-02 -4.3023862159661322e-02
      4.7114335902738037e-02 -1.0153381178916593e-01
      3.5517234872292788e-02 8.3090295986915808e-02
      3.5018078509046070e-02 1.1396035144662074e-01
      6.0233248703143380e-02 -7.9768223027819593e-02
      -6.5576558569284071e-02 -7.3650786912375810e-02
      6.2687859541251015e-02 9.3475476540115190e-02
      -1.0069687821884463e-01 8.8242702207735224e-02
      -3.6729498632694412e-03 -5.7388418587419408e-02
      -8.8995882945466273e-02 1.3240200343256259e-02
      -5.6169618998444644e-02 5.2272095547892798e-02
      -5.5116262557702071e-02 4.5516748742958198e-02
      1.6826503173136026e-02 3.0356305078643453e-02
      1.0425765708267308e-01 8.2056062606110619e-02
      6.2588458781893300e-02 1.1557909206337191e-01
      9.9374191367307782e-02 -9.5182409756474545e-02
      5.4246591328529319e-03 -1.1330080997891302e-02
      1.7959223298287016e-02 7.9461190224030337e-02
      -1.0593978658285928e-01 4.0309567196778341e-02
      -6.4715276739848893e-02 8.9246659743950837e-02
      -6.3677531196720441e-02 -7.0533189380391909e-02
      -5.9991289618358437e-02 -7.3581998710418386e-02
      -3.7872051907004364e-02 3.1928564609296883e-02
      7.2123557090504095e-02 9.1585885770489289e-02
      8.5733981173045412e-02 8.3913311304519549e-03
      2.1336397313948367e-02 -3.6670968822804476e-02
      -9.7127306781365205e-02 -6.9537602498692355e-02
      -7.8707754194664414e-02 6.6053224902509422e-02
      3.8177068570724594e-02 4.6743509093780194e-02
      1.8791407003601338e-02 -1.0047842832938220e-01
      1.3852308695630384e-02 7.3366902806827061e-02
      -1.0243082194087182e-01 -6.9984282038322007e-02
      9.0477010603172855e-02 -7.8169589626944855e-02
      -5.1612574753443496e-02 6.5314196044911371e-02
      5.7742424751658743e-03 1.0893431564503694e-01
      9.5483722445186422e-02 -1.9697138816175092e-02
      -2.1790989939139031e-02 -5.9100055078525705e-02
      -5.9486413853767357e-02 4.9345640077938367e-02
      -6.5522298583240296e-02 -5.9088818948683987e-02
      -2.9225234534104784e-02 1.5238523473200122e-02
      -5.3272501273454460e-02 -1.6976818129890926e-02
      1.0935721166312783e-01 -4.7249596337495883e-03
      8.3726417179239260e-02 5.3599043795791827e-02
      3.5251402377776068e-02 -6.9796731220062289e-02
      -1.6244839518444645e-02 -3.0347045696561548e-02
      8.8558411049655422e-02 9.0175050889073308e-02
      1.7794659317463303e-02 7.2599718116201681e-02
      -2.9848010518998942e-02 3.5976573170478421e-02
      -4.4363523529156568e-02 5.0589093610042137e-02
      4.8850622845683978e-02 7.2917061881677667e-02
      -2.9827568169907680e-02 6.2109409400859288e-02
      -2.7467671603763760e-02 2.9868790894638113e-02
      1.0373137141099519e-01 -5.2880661076203886e-02
      -9.0680775569057306e-02 6.2645474443931828e-02
      4.3806554562988848e-02 6.1887056649280174e-02
      2.3607427050949956e-02 -1.1840946451395434e-01
      1.2926963603814236e-03 -5.2712598068685335e-02
      -2.0033076439360482e-02 1.1368830911405110e-01
      -6.0696684918232297e-02 -3.0178209202493589e-02
      6.3636867523149454e-02 -7.5018393577175727e-02
      -4.8754965025132019e-02 -1.1967195795493797e-01
      7.1374533313284493e-03 1.7379375275724012e-02
      -1.7656117136388486e-02 -1.1678737636616081e-01
      -1.8457061817637871e-02 -2.1139663974028469e-02
      3.7584032025149330e-02 -9.5670776139829064e-02
      7.0212854065042699e-02 4.2957008834123261e-02
      -4.1163893528462642e-02 7.2455591537529521e-02
      8.7708861054580908e-02 -7.2165982822028601e-02
      -7.4539480059922104e-03 -1.1317933292902841e-02
      -8.1379343456057934e-02 -1.7256136938042909e-02
      -1.2100500339123683e-01 -7.8882048385825188e-02
      -1.3820743371151549e-02 -4.0304373065679799e-02
      -1.0162371364876847e-01 8.3376186322232593e-02
      -1.9584458099990824e-02 2.3002228643353020e-02
      3.4394524943619574e-02 1.5537894457101463e-02
      -7.3481679425633092e-02 2.6129309154944942e-02
      -5.3883030379662022e-02 -2.0170087577197508e-02
      -8.3042130786981208e-02 -5.0879524893588803e-02
      9.3703716780213248e-02 4.2270224203253291e-02
      -1.0839762658120114e-01 -7.6127492329843088e-02
      9.1074898344404978e-02 -7.5590547779456924e-02
      -1.6696059583127528e-02 -3.8844319232814596e-02
      7.6510767291111198e-02 3.1429978556056275e-02
      5.6729036792909672e-02 -9.1909354621924247e-02
      -6.9606246058427926e-02 -7.2829810286832081e-02
      1.1329950612860978e-01 -4.1028170957268476e-02
      -5.6332288183814638e-02 1.8229376248939416e-02
      4.1296169079079771e-02 -2.6440410197702633e-02
      -5.5849528001474247e-02 -1.6749258156092708e-02
      -3.9365194165774449e-02 4.8761586907447939e-02
      -5.1789054541687529e-02 5.1930487814442150e-02
      5.6172181193643013e-02 -5.6121387676671540e-02
      -2.9725826505099192e-02 1.3428852647097032e-02
      -9.0859538320175320e-02 -6.9352833628853930e-02
      5.7806455199597435e-02 7.2856269799173243e-02
      -3.9346262697769363e-02 6.2280650872641723e-02
      1.1679019604332103e-01 -5.9058874983135917e-02
      6.4463569650546875e-03 -6.5313329915645230e-02
      8.1719622358264563e-02 1.0527518527524087e-01
      7.4096347765161510e-02 -3.6549840857143301e-02
      4.6223820800432004e-02 -4.6347764007736707e-02
      9.1347661097994970e-02 1.5516350084061775e-02
      -2.3613210114845028e-02 7.0591568008403674e-02
      1.8708232169750691e-02 8.9150187187322302e-02
      -8.9561923954705788e-02 7.0453547839094119e-02
      2.0452117026267709e-02 3.4366803675531070e-02
      1.9658562790489751e-02 -8.1308495498017608e-02
      8.4406785179349228e-02 1.6954920809657683e-02
      7.5499908011545352e-02 4.1568390178284918e-02
      3.5954941520288143e-02 1.0508812195663665e-01
      -5.1528965192111544e-04 9.3868460282851590e-02
      -5.2629147129830958e-03 8.1134279829563144e-02
      -6.6360592701336027e-02 -8.4997083562930148e-02
      9.1138517250581350e-02 -6.2109714357959915e-02
      5.6916097243157687e-02 4.2631700399395824e-02
      -6.3875326188843742e-02 -3.3436028930350928e-02
      -1.1485679996030524e-02 7.8486346283576022e-02
      9.6670274061891964e-02 2.6346428405540315e-02
      1.5968642002871122e-02 -2.8371063700836089e-02
      4.9131846225685803e-02 -9.6810581650044695e-03
      -4.1627457445637513e-02 4.3291996740927902e-02
      -3.8307001937579119e-02 -1.4922165946296322e-02
      5.9896390725731948e-02 -9.7191441162816125e-02
      6.3209163373677199e-02 -1.0320677397969878e-01
      6.3265648713403108e-02 -7.5499209628537595e-02
      7.9849433865867722e-02 9.1785147555295737e-02
      -1.1480768080325995e-01 -2.6128016720235341e-02
      -1.0672096175492855e-01 6.7700054069728691e-02
      7.2371572575792659e-02 1.0356994540926509e-01
      2.4260631349308913e-02 6.7064008892856269e-02
      9.6220073292608121e-02 -4.7532869489872705e-03
      8.5981187536954065e-03 -7.5030962980306426e-02
      -6.5049140542096137e-02 3.8290254198450439e-02
      -3.4370462168871518e-02 -7.2231711057907919e-02
      -5.7243966726224074e-02 2.7049870485189503e-02
      3.4551975635891539e-02 -2.9469223582397158e-02
      6.9081298267634650e-02 -4.4262261972905864e-02
      -9.8260775735092176e-02 -9.4402335945494326e-02
      -6.0629177196559248e-04 6.3713111686845639e-02
      -6.1311425551420475e-02 -4.8107139136229063e-02
      5.7008066312885811e-02 5.4219554659305308e-02
      6.2676725164948113e-02 -4.9890668954111123e-02
      -9.3547163821168525e-02 5.0095939543836322e-02
      -1.1658359137636971e-01 1.9165612515698243e-02
      1.8149542487013868e-02 7.2333306574997314e-02
      3.6180918920927667e-02 -7.8067562687017492e-02
      5.1871974505836894e-02 -5.2236861531154873e-02
      5.8186547336412696e-04 8.3639670189935220e-02
      -1.0768185218987440e-01 -7.1417072888512248e-02
      5.3714063142732086e-03 -6.8684563368879861e-02
      -2.1068356530562118e-02 1.7635710274084424e-02
      -9.4120442278508812e-02 1.2945038334349768e-01
      -4.1897136509828424e-02 -3.2975045371051941e-02
      -9.1858044468927987e-04 3.5641104567377235e-02
      1.5915456693373832e-02 6.4045238877017310e-02
      4.9065128297378476e-02 -1.4265301759138489e-03
      1.2663547673087142e-01 -1.9145203819552977e-02
      -1.3594705241908584e-04 -1.1209207639606016e-01
      7.6441366977972602e-02 -3.5661106787261226e-02
      -7.3411479551542688e-02 -5.8371633768770435e-02
      -4.6972324830526234e-02 4.2638406149759188e-02
      -9.5593575547817097e-02 -3.7831767718881561e-02
      7.6905239376464471e-02 -5.6585029002178981e-02
      3.1597211790244306e-03 3.1579666435054513e-02
      5.2281646942552752e-02 -1.9946565729166595e-02
      -2.6981425536414694e-02 -2.8644325395051257e-02
      3.6513285559259277e-02 4.5491281075079347e-02
      -8.7335484256483464e-02 -2.2586365387618802e-02
      -5.0810689763158704e-03 3.8405807293809026e-02
      2.7746364828371749e-02 -2.9357923939663053e-02
      5.9336123174541261e-02 6.7689583286662705e-02
      -1.2346661130556141e-02 8.4047789296545147e-02
      -3.9757030379215744e-03 8.0266238152144356e-02
      -9.6525243074657471e-02 3.3255131916717202e-02
      4.1139207721515809e-02 7.0486409147640511e-02
      -6.5974301333360005e-02 -7.0373118455549791e-02
      3.8963273804550609e-03 9.2229335193692003e-02
      -7.7193745381324619e-02 8.9499013142530920e-02
      8.4829769758506202e-02 -1.0310794027931598e-01
      -3.4841594899640282e-02 -8.2513884714722416e-02
      8.8798102367208490e-02 1.1433990690227122e-01
      -7.4740973618556042e-02 5.5782742542020952e-02
      1.4980584813109257e-02 -8.0014315654259566e-02
      -4.0426357996733858e-02 1.7844755677228919e-02
      1.2878410538895302e-02 6.2063036216454828e-02
      4.6369888490149024e-02 -8.3674687973812542e-02
      8.6530375034608795e-02 5.5893461137054581e-02
      4.5414877615559276e-02 7.1263382525370483e-02
      -4.0742738983551997e-02 3.5127831961786232e-02
      5.9206575819042845e-02 4.1944784044901137e-02
      4.1118678286348395e-02 -7.4545825323861545e-02
      8.1550177084637659e-02 7.2022066334438917e-02
      4.9443611791574589e-02 4.6076036287192784e-02
      7.9796727014851201e-02 -3.3769833415736509e-03
      -2.3035558388722129e-02 -2.2087586537579553e-02
      -1.3325385505010370e-01 6.2510776662424619e-02
      8.0127838819959232e-02 -1.3261885297596355e-02
      -7.6767653497606128e-02 -6.5168621059263181e-03
      1.4582234227328182e-02 2.4826780315297586e-02
      -6.7050601135726376e-02 8.0140882819594514e-02
      9.1103614175871289e-02 -8.7968552275458928e-03
      1.0636852476219214e-02 -5.0216988679666445e-02
      6.1747592480293559e-03 -2.8463176906371439e-02
      4.3535848122374966e-02 5.0384517395512377e-02
      1.4180106113102447e-02 7.3284360365641732e-02
      6.2986329014783515e-02 -4.1463572934337264e-02
      -7.0469164359880695e-02 -4.9718843857407373e-02
      1.8637281477001048e-02 6.5301584897433634e-03
      -1.0337315955993678e-01 -4.7418235522101594e-02
      -3.4801475486760082e-02 -8.5346922321596352e-02
      -7.7810113939230610e-02 6.2992063926013239e-02
      3.1868062904221742e-02 6.0163837976932998e-02
      2.8184453751588481e-02 -8.8165479933796434e-02
      3.4096447359282878e-03 6.9037136996559473e-02
      6.0998571569063534e-02 -5.6245051501498979e-02
      -9.7561956804139330e-02 4.3446291758840801e-02
      -7.2514430168030039e-02 9.7330941457838743e-02
      -7.9697182569236719e-02 8.0418311962980986e-03
      -2.5193494539175434e-02 4.5880809545793919e-02
      3.6301082840783976e-02 1.0101889078875873e-01
      1.6987878992170621e-02 6.0970482436774429e-02
      8.3799125865659949e-02 5.3973440793895364e-02
      -3.5282183962714000e-02 -9.3117071149780684e-02
      -1.9318566095511722e-02 9.6273092873966293e-02
      2.6438997042211334e-02 6.2101146744541882e-02
      6.8009633364209315e-02 -4.3276268146660996e-02
      -4.0876255640509743e-02 7.5268303834326353e-02
      1.9950887868317644e-02 -1.8566842356123714e-02
      -6.9688026460611063e-02 -6.9302833547771212e-02
      -2.0727694808539691e-02 -3.3744467912743985e-02
      2.5207326730209062e-02 6.1641646830400956e-03
      8.6425177668220013e-02 6.6741876315355537e-03
      -7.4370823276000655e-02 -3.4527396489967985e-02
      4.3036259281082970e-02 9.3976311941725340e-03
      5.0220182682077487e-02 8.6459774179532004e-02
      -8.2591971983250870e-02 -1.0119223810646091e-01
      -8.5226387322838576e-02 -4.1963159308359983e-02
      -3.2624214498549103e-02 -8.5945608103652302e-02
      2.1167639358927761e-02 -4.6415148120717765e-02
      -1.4666367328810751e-02 -1.4624114601569054e-02
      -2.1814790336986800e-02 -4.1761340391550002e-02
      3.8008722837725391e-02 2.9381745822710588e-02
      -4.6790024274988462e-02 -4.1197585287044550e-02
      -4.3142969776026885e-02 -5.5864948538731141e-02
      -3.3045346840024727e-02 -3.0177763890752280e-03
      2.6638089774192440e-02 -8.4840072160110858e-03
      5.4980183199368191e-02 1.2511794590585094e-02
      3.3178697585573257e-02 -3.2900837406136578e-02
      1.8835461572893095e-02 8.2091598706266183e-03
      3.6243642549483417e-02 -9.2971779748729153e-03
      2.7124742888153669e-02 7.5091156323168476e-03
      -1.3408257334264942e-02 4.5248338649153313e-02
      -3.4130017831389220e-02 -6.1756540520546931e-03
      -1.0810402607410790e-02 -2.1963954370086285e-02
      1.7952382936013707e-02 -8.1458814991415313e-04
      2.1628031512996169e-02 -1.6513743276120116e-04
      -2.7730858775889908e-02 2.3373584889447185e-02
      -1.6523324335904983e-02 -1.7303562089484803e-02
      2.0728853776812665e-02 3.0675858279393862e-03
      1.1793966256136774e-02 -8.1048359247491604e-03
      -6.6893298391221387e-04 2.6321817931378713e-03
      -4.1125063787409311e-05 1.8648445775657472e-04
      3.0389479135655545e-05 2.8870630932917090e-05
      1.5774491580662284e-03 1.1628575080672135e-03
      7.3650416422711690e-05 -2.7534593639177195e-03
      1.9639167831659349e-03 -1.1038381687375860e-03
      1.4517520032412607e-03 -8.0991326932295035e-03
      -4.7137905942257387e-03 1.7587778284597526e-03
      -2.4209384103221865e-03 9.2141474658862191e-03
      -8.8703248588506943e-03 -1.9264007449250877e-03
      1.3723372782944740e-02 -9.7155678057995586e-03
      1.5626801670581583e-02 -1.4353048365926737e-02
      -1.3139056672554197e-03 -1.6283549066723881e-02
      1.8672121262337849e-02 1.3330206197673710e-02
      4.7537489533952624e-03 -1.3956373531773947e-02
      -1.4501810003848821e-02 2.3110362092096121e-03
      -2.7461756055699092e-02 -2.8558483532976943e-02
      -1.8066787008902345e-02 4.2953024562905846e-02
      1.4877574864213716e-02 3.1843135577590512e-02
      1.8161086251785176e-02 1.0872666275265171e-02
      4.6862769342364788e-02 -6.0150583620638401e-03
      -1.4615958477688975e-02 -4.8756390387082191e-03
      1.7982430148118993e-02 -4.1916582512969536e-02
      -4.1953639431372841e-02 4.9055843489046569e-02
      4.1355900228422914e-02 -2.6746752569240265e-02
      -5.8797197855849546e-02 -2.5236283016331321e-03
      3.8385046680693237e-02 -2.4203423550634536e-02
      -4.2197593261167787e-02 -4.9721035030757366e-02</_>
    <_>
      2.9224433798462398e-03 -6.0430520839457923e-03
      1.8374372978874433e-02 5.8048947636700973e-03
      1.0310777701565179e-02 5.4485430410791263e-03
      3.5347706024290609e-04 8.0172670161831518e-03
      -1.3227287885169125e-02 7.6396469887053606e-03
      1.8627191921832018e-02 -6.9915685009500619e-03
      -1.9491751647249412e-02 -7.3022965792057968e-03
      1.9549300963558322e-02 7.0003658905496667e-03
      1.1237765884720826e-02 3.6157862588863544e-03
      1.8265381667312536e-02 2.0651092148715131e-04
      8.4077751232075684e-03 -4.1285275988912403e-03
      6.9219073378948811e-03 1.1055347887090663e-02
      -5.3473127476123339e-03 -1.5243991133841140e-02
      1.3141929821979750e-02 -1.7453437100070066e-02
      -3.7592208025451265e-03 -7.7127582957991451e-04
      1.0804313247490867e-02 1.0382766460861123e-02
      2.2411185157430968e-02 -1.0576484252548294e-02
      -1.5507683685101963e-02 1.8343866983548705e-02
      -7.7036770447189458e-05 4.9736569354908878e-03
      1.1486412709793605e-02 -1.1546241108195677e-02
      -1.7958855161557041e-02 -1.3055353471449520e-02
      -1.6455158174028452e-02 -1.5161316622580868e-02
      7.3817755241136953e-03 -9.4397100475049085e-03
      1.5979331553919320e-02 1.8298707660452208e-02
      7.3125729393182914e-03 1.5905485851051941e-02
      1.7563647460039706e-02 -1.6279694930608577e-02
      1.0047956729910325e-02 -9.8129793745547044e-03
      -1.6226334968523246e-02 -1.2772961910573158e-03
      -2.0337306073111763e-02 -4.0055200206310352e-04
      -8.8301009363155290e-03 -2.0727391018328489e-02
      -2.4052040806451697e-02 7.7046536450150228e-03
      -1.1512794189248212e-02 -2.2516232570702368e-02
      1.7586580935393330e-02 -1.3517651434192446e-02
      -4.9899212712842030e-03 1.7416401688162147e-02
      1.0019157604439289e-02 -2.1524020422808599e-02
      1.7856399257804273e-02 7.3751562794771037e-03
      1.7156236627879805e-02 -1.8733726683557307e-02
      -1.5849935358391510e-02 7.4134161652708941e-03
      1.8668389005030497e-02 -1.4709533658462210e-02
      2.6461936291071485e-02 1.2366935251082688e-02
      -1.6452758279829501e-03 -6.0404923753908648e-03
      -1.4371005877160859e-02 1.5408150522898323e-02
      2.5303551793029237e-02 -1.9530204625217672e-02
      -2.3091713378924687e-02 -1.0281870137288445e-02
      1.0526900293052182e-02 1.3979744418855362e-02
      -2.8472737924157998e-02 1.9165122234260849e-03
      6.9117560389233635e-03 -1.0411307037050748e-02
      -8.8216680076500815e-03 1.4268648237951962e-02
      1.0169712102538385e-02 6.5859005746085669e-03
      -9.2566715937929273e-03 -1.9814941658110142e-02
      1.2854790274521943e-02 -2.4121450614726866e-02
      1.7516167749854373e-03 -2.2278531858039376e-02
      -1.3874076539190788e-02 -1.0135920862811214e-02
      -1.7442839910921354e-02 9.9453414295820712e-03
      1.1666412099567135e-02 -2.3330050780294612e-02
      -1.8907811521474416e-02 -9.3959851848176117e-03
      2.1766405149091460e-02 2.0664115174335872e-02
      -2.8495999057516065e-03 3.3507205626803126e-04
      1.1564190437386455e-02 -7.2926534075120793e-03
      -9.7163544837586564e-03 -8.6343296450601438e-03
      -9.7367932384816291e-03 4.5755138248677390e-03
      -2.7032263586420677e-02 -1.9629005614671322e-02
      9.3341909984115227e-03 -7.5087530066755654e-03
      1.8839186754939902e-03 8.5721099577515756e-03
      -3.2833976232313458e-03 9.5238945189446301e-03
      -3.6814880585360503e-03 6.9187499154758350e-03
      -1.7952693707765045e-03 2.5475327512150510e-03
      1.1608258079657643e-02 -8.7259455324805791e-04
      -1.2275573099519084e-02 1.9632908840619037e-02
      -6.3682814000876496e-03 1.6571340320754979e-02
      1.9238158546353693e-02 -1.0813337848248188e-02
      9.7087556200520456e-03 -7.7773084650841493e-03
      -2.0390643484758168e-02 -1.5364634634047136e-02
      2.9430785860026969e-03 -1.5544989837841496e-02
      4.2026881235402677e-04 4.2849123749949198e-03
      -9.1197507939701217e-03 1.2833905549409004e-02
      1.0490883671435200e-02 1.4498431716438916e-02
      -1.5613300425109241e-03 -9.4201863802198475e-03
      1.9892008918239931e-02 -3.2915800979703459e-02
      1.9091798771495749e-02 -6.9778935168980771e-03
      -5.9243886894751879e-03 -1.0378491315753614e-02
      -6.8024201356858644e-03 2.0430736404413924e-02
      -1.4783027045259699e-02 -4.0181458067270557e-03
      3.9708416798310605e-03 2.4553802900904665e-03
      5.6942800989644542e-03 1.2757934792774700e-03
      -7.8865733518606682e-03 -1.4544932856643350e-02
      4.8989095071141327e-03 5.0591995902577328e-03
      -6.6595105406273324e-03 8.2507448476013684e-03
      -1.9063415348125907e-02 -3.6741614285046727e-03
      -1.0694294609763367e-02 -4.4368641490219055e-03
      -1.1277150910664552e-03 -3.1794384480020033e-02
      2.2426269452983476e-02 1.4878140209399740e-02
      -1.6085101098183077e-02 -1.3694144660138206e-03
      -5.5679540849999990e-04 -1.4000671032475528e-02
      1.2217901814095915e-02 3.3337851772619500e-03
      1.9560869550054191e-02 -8.6650040582409403e-03
      2.2255498632557214e-02 -1.3462080256653533e-02
      1.0710957398508747e-02 -1.8692927280952294e-02
      2.4447746503331660e-02 7.0683324525679676e-03
      -1.9914978837620955e-02 2.0244963400706369e-02
      -1.4253938749868788e-02 1.3977080190514541e-02
      -7.6986897134048663e-03 1.8712436983552919e-02
      1.2608324832938250e-02 8.7790398334727168e-03
      7.0510107807876087e-04 -1.2599417871956783e-03
      -1.9335842903299542e-02 -7.6984535667615119e-03
      1.2117178160105631e-02 -1.0840864309768746e-02
      -1.1302927359444144e-02 1.3638245140061131e-02
      1.8845043520535811e-02 7.7253917863235400e-03
      4.7344697184712587e-04 -1.6966081670723533e-02
      -1.4498584620081564e-02 1.6461362908931913e-02
      -9.4150991994442282e-03 2.0847989784010101e-03
      -1.3997767252987970e-02 1.6451770496170497e-03
      1.4344278579092240e-02 1.4281904454733738e-02
      2.0856032529114180e-03 5.6336257787324932e-03
      -1.3414651820145285e-02 -1.0121096767142113e-02
      -2.1999858095355478e-02 -1.8325332371371964e-02
      1.4557788540412160e-02 -1.3442488197018269e-02
      1.4392228808655981e-02 -3.4114301382382954e-03
      1.4441838967681692e-03 -1.4603441190760102e-02
      5.2460974963300638e-03 1.5835051828646477e-02
      -1.4937700089730336e-02 3.9982102374302043e-03
      1.3569141182759309e-02 -1.7199466513770748e-02
      2.4112328775002079e-02 -7.4090676920281770e-03
      1.7676476558879814e-02 -1.0949475466807331e-02
      7.5416684639299759e-05 6.7338547635271747e-03
      -1.0938065502693464e-02 -1.7860007048295497e-02
      -1.9985098178466873e-02 3.0829023086241174e-03
      -9.4287452833468656e-04 1.0325175655755504e-02
      -1.1016775228533794e-02 1.2004032242689281e-02
      -2.1260180566468962e-02 -1.6226863677449164e-02
      -8.8762639230192918e-03 1.7224676729566454e-02
      3.5228526018036524e-03 3.5008015531480170e-03
      1.0619991039575550e-02 1.3214713898489274e-02
      1.0793865627984009e-05 -5.4526268869160696e-03
      1.6855915564228167e-02 -1.3969894101968344e-02
      -1.2414665894089400e-02 -1.9359456614693193e-02
      -1.4391670415455919e-03 -2.4708088996558924e-03
      4.5761658738958516e-03 4.8790821678662676e-03
      1.6068134986862964e-02 -1.9834805048815990e-02
      2.2108539364280497e-03 1.5597654052434717e-02
      -1.6050058588325648e-02 1.7389038037762729e-02
      1.5798780172936264e-02 6.5466405172357744e-03
      -4.2565255116668709e-03 -9.2812864344400219e-03
      -1.5065842686158216e-02 -1.0807997992946584e-02
      -1.8743813381068657e-02 1.9662631637598755e-02
      1.9403132346676760e-02 -2.1877549374143483e-02
      8.9946743315176818e-04 -1.1153512531823988e-02
      4.1156339339241815e-03 1.1102403079591410e-02
      -7.8430742686708859e-04 1.5719982602175439e-03
      9.3062408946098501e-03 -1.7076447922177097e-02
      8.9524934130199452e-03 -2.6424159746916018e-02
      7.6528527257324584e-03 8.4576689975985851e-03
      -1.8057432035231285e-02 -2.8435856948352923e-02
      1.2973496508481976e-02 2.9345937359607434e-03
      -2.0474209473236984e-02 -1.9339213950312042e-02
      -2.7551669512917935e-03 7.9800582576076452e-03
      1.3351639512465827e-02 1.0831106621914617e-02
      3.1944182853276726e-03 -1.2601760351339596e-02
      -2.0634550801325032e-02 1.2113038017818004e-03
      7.3078684858834779e-03 -1.2940008327475190e-02
      9.7321703642053933e-03 -5.2725016467782080e-03
      6.7274458606761574e-03 -1.9335444894971264e-02
      -1.5756855432821799e-02 -1.1008973778931447e-02
      3.4539936350631065e-03 -4.3551795815945076e-03
      -6.0076440251755374e-03 8.2471544404649228e-03
      -1.0500801295612773e-02 6.6239758971420913e-03
      -2.6861698136956394e-02 -3.9817104024850039e-03
      6.0667541436294293e-04 -1.3214256305200444e-02
      1.2532767950709206e-02 1.3600243929267285e-03
      -1.4260980954659785e-02 -6.7627661738663058e-03
      -1.6138786349776883e-02 1.1765645804843666e-02
      -1.9159158268464555e-02 -1.0699923464762832e-02
      -2.4527086311981493e-02 4.6091808615643763e-03
      -2.1076088038316492e-02 2.8516617081693354e-03
      1.8715173874066345e-02 -7.7160848537927472e-03
      -2.0646882136437412e-02 -9.5511560910151571e-03
      1.6852632393376137e-02 -1.1798637417297090e-02
      -1.8014968448765635e-02 -7.2583200852994068e-03
      -7.4433252853058881e-03 1.6690553452937301e-04
      7.0375299175120384e-03 1.9392458491732288e-02
      -1.3456556262214805e-02 1.1527103017554427e-02
      -3.5157854202909401e-03 2.2792886192598477e-02
      1.0901497981744390e-03 1.1896094786882781e-03
      -2.0195798099149390e-03 2.0993228013841722e-02
      7.9787725187787702e-03 4.6989114992279854e-03
      5.7522012249581131e-03 6.9418835515309800e-03
      -1.1407218432523620e-02 -8.9792930794955587e-03
      1.6031514972690602e-02 1.0291940119760833e-02
      -1.9804102986423839e-02 8.1642884799838326e-03
      -1.8624395393897198e-02 2.2765624667322407e-02
      8.8599963204060925e-03 -1.5134496656250701e-03
      1.6278749321416111e-02 9.5848643794982768e-03
      -1.8996863720365735e-02 4.2894942970932602e-03
      5.4676834189980430e-03 -1.2913237883300437e-02
      -9.7670511882187640e-03 -2.2449227205839670e-02
      2.5214855283169986e-03 5.0804046735841951e-04
      -6.6585569414479517e-04 -1.2261340477708495e-02
      -1.5615782670764342e-02 -3.0825726629184477e-02
      -2.7967510759768310e-05 1.4540096836653331e-02
      -2.1306161286409189e-02 1.3262899484418300e-02
      -4.5472655788355238e-03 -1.1391839025421929e-02
      1.5321915389680626e-02 2.1750707850773029e-02
      1.2394866406823628e-02 4.3692704000786722e-03
      -7.4346541481125706e-03 -1.7653508478746596e-02
      -2.9278824250076095e-03 2.4932739952597711e-03
      1.7894910865246760e-02 -7.4212980782667366e-03
      -9.7952549341514643e-03 -4.5548867425036794e-03
      -1.3605573716815348e-02 3.7295187212443666e-03
      -1.9693731361081282e-02 -8.1049328430776515e-03
      7.0082975879934232e-03 -7.8729164863697385e-03
      -8.9925393938277368e-03 -1.5021536319018789e-02
      -5.3735566277193133e-05 -2.5577576924302016e-03
      -7.9588973051703035e-03 7.9629096054713942e-03
      -8.9439560749257126e-03 3.3087423840850688e-03
      1.0250929393110940e-02 -3.2551011186107296e-03
      -1.0206422272951448e-02 7.1989920807323891e-03
      1.0456418033813458e-02 2.7974703732989892e-03
      -4.2399155896559078e-03 -5.8292717702892920e-03
      -1.6263958327349674e-02 1.6787195536649334e-02
      -2.2437951328094312e-03 9.5846669315158058e-03
      3.8170652614787307e-03 1.5301065111982180e-02
      -2.7509970982797761e-03 1.7780072048743555e-02
      -5.1773627651694760e-03 3.9767230332240092e-03
      5.6897148129552181e-04 1.3955795075595108e-03
      1.3267831465224684e-02 1.6200896770791430e-02
      2.1905042996150739e-03 8.7895703778690867e-04
      1.4357031919113170e-02 7.2946259054095354e-03
      1.5939423601316033e-02 -4.0464885576652117e-03
      3.0801688144318599e-03 -1.3520620287807615e-02
      -6.3075746376025773e-03 -1.0629445562015224e-02
      3.9081476670287585e-03 1.1455804004328340e-03
      -1.0257831708285357e-03 -1.6643741859070067e-03
      1.7581523195797585e-02 4.4226324467027704e-03
      4.5892694303661394e-03 1.0507752889252627e-02
      1.1864962935468081e-02 3.9376731718892407e-03
      1.3754386636498694e-02 -1.6838674717456231e-02
      2.1193101062314781e-02 1.0645036691556357e-02
      -5.9075012969928200e-03 8.2142758786307394e-03
      -1.2560509419598522e-03 -9.2278351636518544e-03
      1.2234813218667127e-02 -1.3741640254392559e-02
      -5.2563712755581979e-03 -4.3010865459933785e-04
      -1.4324679285090371e-02 -7.9962898332858016e-03
      1.0276677453882501e-02 -1.5410379626967927e-02
      -7.4022024983864190e-03 -7.7831510160038752e-04
      -1.4945412581920180e-02 6.6939943617040972e-03
      -7.2315201660682433e-04 -1.3944718610916304e-02
      1.3848909646863581e-02 5.8218708352731985e-03
      -7.9891824919765663e-03 2.0234598477438068e-02
      1.6281321510023226e-02 -2.4292295768537863e-03
      -3.7085294879356219e-03 -8.2431242761948197e-03
      -1.3077407831967652e-02 -4.1062774941170773e-03
      1.3582862096947410e-02 -2.4195020829368752e-02
      -6.5892490737740300e-04 -8.2741304422903755e-03
      -6.2069748313009964e-03 1.1240963527814760e-02
      -9.2036923256205369e-03 -1.5316399267482808e-02
      -2.1952376732853215e-02 1.8973805491565531e-02
      1.4463137554918629e-02 -3.4142683672611037e-03
      -7.9235063307899433e-04 -2.1789466629350256e-02
      8.8479575720576617e-03 -1.6099608185416534e-02
      -1.1660059896673212e-02 -1.7630570240520560e-02
      1.0263805849597520e-02 1.0210250523814883e-02
      9.4313779886773530e-03 -1.6408527923893166e-02
      -1.1800466811343259e-02 -3.3434717403794749e-03
      -6.4828563048141708e-03 1.6925131156096951e-02
      -5.4593784847254767e-04 1.5915274526933011e-02
      9.0103902626761101e-03 1.2035744386806716e-02
      1.3294372855329244e-02 7.2343712821517098e-03
      -1.5103733169732781e-02 -6.8378209729215347e-03
      5.6020535141796815e-03 -9.4969222451061000e-03
      1.3832705394207069e-02 2.5001692302416495e-04
      -1.4512785919743407e-02 1.1628164947865468e-02
      -1.3383814838561780e-02 -4.7719026223855517e-03
      -1.9024622906614247e-02 -2.1683057163692319e-03
      -8.2418991152732272e-03 -1.4722731039761992e-02
      1.4841860878195775e-04 1.4670038154025664e-02
      -1.6837818539193450e-03 1.7847045344104345e-02
      2.0190376270045458e-02 -1.1155499740441352e-03
      3.5112712857400069e-04 -1.6396939408737720e-02
      -5.2349023597250558e-03 -1.0561913439198795e-02
      -7.7974626935565627e-03 -1.5131021698475865e-02
      2.1952006499437592e-02 -1.6232383032917768e-03
      -2.3336858671753665e-02 1.4458264174668089e-02
      9.6964937780066808e-04 -1.5236076517666014e-02
      4.4962545991621041e-04 -1.7923749215036387e-02
      1.2886563847598105e-02 1.6408372559749461e-03
      1.2656962267633380e-02 1.2204325550132036e-02
      1.1391951479922269e-02 9.8912588235071791e-03
      1.2364162560993644e-02 -1.9176832782399952e-02
      1.1902914823673507e-02 -1.3596801761517893e-02
      7.9281451927098318e-03 2.1282955122611670e-02
      8.3574411058231889e-03 -1.5677158096802851e-02
      1.5442842213106833e-02 -1.4573041436363398e-03
      -1.8113829231764635e-03 7.4508413059700416e-04
      7.1632150500369422e-03 1.8330605277286607e-02
      1.9128844430312712e-02 8.7708614016470798e-03
      1.2706285071787143e-02 -1.9931522891025157e-02
      -3.2463267070097696e-03 -4.0442510147596618e-03
      -1.8185851942940649e-02 -1.0795898888157742e-02
      6.7238926027486335e-03 1.9745485663788653e-02
      1.0727284719700922e-02 -1.1838790716532583e-02
      -8.4491152261148648e-04 -3.0755957283097126e-02
      1.0200318721674245e-02 -1.8853432836109001e-02
      -1.9220248408308955e-02 -1.3308964525950876e-02
      1.1404778919392997e-02 2.0802392505201106e-02
      -8.7424956992555036e-03 -2.1067237337557710e-02
      -1.5696051419063127e-02 -4.9941371448574811e-03
      -1.0364541501909883e-02 2.3747368262376310e-02
      -2.1637097527170107e-02 -2.8600333317021213e-02
      1.3563208943634353e-02 -2.2386845084006970e-02
      2.7376497586331593e-03 -1.8211539388819895e-02
      8.0463475480272526e-03 -5.9591417532391250e-03
      -2.1450772743915995e-02 1.2474522898230644e-02
      -7.7225191139572201e-03 1.4584791432019016e-02
      1.7210994556893650e-03 1.2108399274780144e-02
      -1.4025251704765136e-02 -9.5844341172092225e-03
      2.8923952062707720e-02 1.2275889119449880e-02
      -2.4258418664778432e-03 -1.9633136723424309e-02
      1.8715806858368111e-02 3.4736278832344209e-03
      -1.0676998243725417e-02 2.4144223767062090e-02
      -2.5506742896355332e-03 7.4106579388894516e-03
      -6.5947816406437491e-03 1.9841997267819794e-02
      -1.3726037561094232e-02 -5.0690656812363913e-03
      -1.0245521526879842e-02 -2.5846286511954203e-03
      1.7556421034615002e-04 -1.1312322409960720e-02
      1.4150134663643173e-02 1.4866923410849500e-03
      -5.1435603371899220e-03 1.9956802117488973e-02
      2.1544513074782074e-02 9.7525323560272836e-03
      -6.0742792160676422e-03 1.3563095042802346e-02
      -6.9917831228974350e-03 -1.1637895884889482e-04
      1.7131949632562481e-03 1.6046206118635220e-02
      4.5583024192114487e-03 -6.8991278593345442e-03
      1.1785648407278835e-02 7.3486028907928915e-05
      6.5723816747022346e-03 1.2577810692710056e-02
      -1.3310608014973838e-02 1.5963352847275968e-02
      -2.0313578318364670e-02 2.4336536849073689e-02
      1.4290778082074429e-02 4.7004579255055549e-03
      -2.3758282345456823e-03 2.4169469811867630e-03
      -1.1962126566321929e-02 2.0196700242512102e-02
      -1.3489564940690840e-02 -3.0356023650405387e-03
      -2.3093213114442734e-02 8.0261656510057997e-03
      -2.3558318592350164e-02 -1.5190663756220997e-03
      6.7838090304619151e-03 -2.2135838898412124e-02
      5.7672734576000879e-03 2.9548963930093500e-02
      2.4302599896341408e-02 8.2817621454917365e-03
      -1.7775335143128824e-03 -3.5506738060668894e-04
      8.4950354676629689e-03 1.8468844423082383e-02
      1.2078451908881711e-03 -1.7677716329085061e-02
      -2.0601378864265437e-02 -1.2271245689260876e-02
      7.2506522186259611e-04 3.5520474879812327e-03
      -4.5492841865675477e-03 -5.5083083498867142e-03
      -1.2988741016844482e-02 5.3522912717831571e-03
      1.7853474468238466e-02 -9.0480883272648358e-04
      -1.2078943003328820e-02 -5.6524436863968795e-03
      -1.3910919688192280e-02 1.2156360104727889e-02
      -1.6754248456656132e-02 1.8168395947924788e-02
      6.1368105520640849e-03 8.6710053009459043e-03
      1.7604227339396677e-02 -2.1800564235888061e-02
      -1.7202993254741672e-02 1.8498130892972628e-02
      4.3169439913009798e-03 -8.1967253094016278e-03
      1.7647508633267917e-02 -2.0345649867934971e-02
      1.5896034991433950e-03 -4.3013343976509169e-03
      -3.7503669407308740e-03 2.1383102206338028e-02
      -2.7471856778527254e-03 -8.2773035647841636e-03
      -3.2755878610547557e-03 1.6862277920111957e-02
      -7.4967869149499804e-03 1.4552785569600896e-02
      5.5592368486981399e-03 1.1485513026873515e-02
      -9.4474763585799919e-03 -1.5385886990202701e-02
      1.3284073012791549e-02 5.1883383317831416e-03
      2.0457527101192124e-02 -2.4139845085047276e-03
      5.4823593086816644e-03 1.8023453707148935e-02
      1.3207723044760504e-02 -1.8782719149163195e-02
      -1.9987855612963113e-02 -1.3192288609190150e-02
      -1.3698729939146915e-02 -1.5707098925682939e-02
      -1.8703472484950173e-02 -2.2182386652125959e-02
      -7.3764752083908781e-04 1.5810393493264886e-02
      1.2878020626575368e-02 -1.5673700875887389e-02
      -7.7561445596625225e-03 1.0361158244512407e-02
      -1.6858937608874615e-03 1.5682821366948034e-02
      -1.3512565841297132e-02 -1.6809506215215292e-02
      1.0104894711230451e-02 -1.7927833667248080e-02
      -4.3094592882138736e-03 -8.9280846787323977e-03
      -5.5145617006655285e-03 -1.6823490339233162e-02
      1.8525146074187055e-02 5.7324507015182602e-03
      -1.1871536908730634e-02 -3.5689908599303962e-03
      -5.9182305978141394e-03 -2.9929759745294555e-03
      4.8071015012470346e-03 2.8782519897989872e-03
      6.9969146285047759e-03 -1.3268400315493815e-03
      -4.1323993349778260e-03 -1.0802739872109180e-02
      -9.1141083142191898e-03 8.2090460762358370e-05
      1.2747100268814602e-03 -1.3754265649104130e-02
      -8.6879659020363161e-03 -2.0376053053700389e-02
      1.4346384592129877e-03 4.3598851657187868e-03
      2.0492160926191053e-02 7.1022965502890133e-03
      -4.7461780125363879e-03 1.2900705979716686e-04
      -2.5989622448802201e-03 -7.9116025983605443e-04
      6.0079467742168253e-03 8.1407975133604635e-03
      -4.0373604121118085e-03 3.3133955678260126e-03
      1.8128194974892372e-02 -1.2405606507718254e-02
      9.5619542123460827e-03 -1.6122851101836973e-02
      -4.1574783836207602e-03 -1.6681565590272455e-02
      -3.2337064730292610e-02 -2.6929925169845606e-03
      -1.1022958004203345e-03 3.2344321172247135e-02
      1.1453334061064717e-02 2.2475270423458236e-02
      -1.2229256110963406e-02 -4.1960150050763623e-04
      1.4268836244414444e-02 3.3895465158830600e-03
      1.1288273461619442e-02 -2.1025801496784850e-02
      -2.3377597969510645e-02 -8.2811186228338683e-03
      7.8870170142977293e-03 4.7492430780376538e-03
      8.6515535447582934e-03 -9.3748928102692312e-03
      -3.9155921646958029e-03 -4.3798483207091107e-03
      2.4517839934670126e-03 -1.0291287023616397e-02
      -1.2620694789663076e-03 2.9731875128397076e-02
      2.1232367297416323e-02 4.1316235030155147e-03
      2.9336987931465317e-03 2.6986633446155327e-03
      -4.9646596632353145e-03 3.9443411617523420e-05
      -1.4688732784813018e-02 5.7786047226058889e-03
      7.2916900681307467e-03 1.8202811150271166e-02
      -7.4145354847590340e-03 1.0637425349188561e-02
      -3.1886397889415285e-03 4.9069699834663524e-03
      1.1544338469324975e-03 2.2284373942301179e-03
      1.1777615655003369e-02 -2.3227910097905788e-03
      2.2916817106211653e-02 -1.1741142623197820e-03
      2.7773798687023777e-02 6.6788870210149768e-03
      1.0755425128862468e-02 -4.8190041362318687e-03
      -2.6494002758899328e-02 -6.1608596767037853e-03
      2.2925640286368364e-02 3.2881186835361648e-03
      -1.7381072631985212e-02 1.2552380707352449e-02
      -2.1170405630320927e-02 -3.4220340799050396e-03
      -2.9727472171513108e-03 2.2760167134183225e-02
      -1.6679212869806614e-02 -6.2712999792532203e-03
      1.1651875902818890e-02 -1.1151279722248690e-03
      2.0010527540204196e-03 -1.9031087226878241e-02
      5.0541363400709001e-03 -4.4362296330442636e-03
      1.6296412177493773e-02 1.2038032429348184e-02
      -3.2505422569420717e-03 -1.7808228880319972e-02
      -1.6358368448692862e-02 1.9763407486658685e-03
      1.2108879598339865e-02 -1.5420306150580935e-02
      -2.2372641730913773e-02 1.3322193090720415e-02
      2.0944786334103186e-02 8.6660741592343852e-04
      1.0453789861821373e-02 1.1390250722071168e-02
      2.6068396821735403e-02 3.2477737504992575e-02
      5.7412992424072436e-03 5.4964629463050444e-03
      1.5921100616714718e-02 -1.9524536747834716e-02
      -2.5012057461455607e-02 1.1260601055201588e-02
      -5.8432076591035656e-03 1.8139376909782647e-02
      -1.4555974864282669e-02 1.5767216811885276e-03
      -2.5300110973547198e-02 1.8994542412906584e-02
      1.1760326733412934e-02 2.7231822630897375e-02
      -2.4471853629886145e-02 1.0950639483578996e-02
      7.8254926677015762e-03 -1.8874723919585366e-02
      -5.8882494752444262e-03 -2.6150019169471427e-02
      3.7832184389474861e-04 -5.2369307370743389e-03
      1.3584725746847586e-02 -3.7841591765287890e-03
      -1.5010736613056330e-02 7.1607856744666511e-05
      1.3189481518815134e-02 -5.3348301882269146e-03
      -2.9111797835811746e-03 -2.8808220882057282e-03
      1.8424623342853143e-02 4.5157243911476963e-03
      -5.6046944918841345e-03 -2.5786274798423204e-02
      -1.8518744731624025e-02 -1.2395049355971854e-02
      7.5216944830293082e-04 -1.5174751179862606e-02
      -1.5595872394154825e-02 4.0598318093737233e-03
      -2.6955402956322511e-02 1.2958528880173887e-02
      -2.4324942282434654e-02 -1.1428991630332957e-02
      -9.0366662385708526e-04 3.7174005774440544e-03
      1.0724737209358256e-02 -1.3445875591290951e-02
      1.5264388410192377e-02 -6.9867486287160602e-03
      -1.6875488016558110e-02 4.7004345391404344e-03
      6.6128585438962970e-03 -7.2411324691534851e-03
      7.9172943517693550e-03 1.8628140719617457e-02
      6.6271198227612774e-03 8.7979899115636501e-03
      8.4652178073260659e-03 7.1984396779174150e-03
      -1.1454775097211592e-02 -1.6918580559561962e-02
      -2.3697346676389173e-03 7.7868667984239250e-03
      -2.2789892603175474e-02 -1.6440614975555112e-02
      -3.2377044195716722e-03 1.3066523484036257e-02
      -9.2305532638609477e-03 1.9800208394914805e-02
      2.2657631435582651e-02 -8.1996101474097159e-03
      -2.1065309098286972e-04 1.6312268646457025e-02
      2.7496744917956182e-03 -1.4574080285990011e-02
      -6.9690710552626654e-03 2.1056746142262522e-02
      1.5945561568090131e-02 -7.6901891660018885e-03
      -6.4485006448938243e-03 2.4161225861311342e-03
      -1.2019449200968098e-02 1.5528394518203670e-02
      7.9524957202457107e-03 -1.6702700976145592e-03
      -8.3588820824063916e-04 1.9724227710003261e-02
      -9.7952400303433461e-03 -8.4916266192527606e-03
      -1.4851147902930316e-02 -1.7239552493239163e-02
      5.5036990881849844e-03 -5.8380688533377625e-03
      -1.0170310345245631e-02 9.6572100459564325e-03
      -2.6264324054977917e-02 -2.8756175818179194e-03
      -1.1281541130258345e-02 -2.0168333426817463e-02
      3.3883692791541902e-03 4.1622892374524583e-03
      -3.1551878587492612e-03 -8.1729582091383170e-03
      -4.4255090815782027e-03 -5.3559647014141303e-03
      6.5116701800601640e-04 -3.9930144029263360e-03
      2.1226910803200761e-02 1.5502504906455427e-02
      -5.9251143248876407e-03 1.0582304316037594e-02
      -1.0415104027956149e-02 -3.0097634032250986e-04
      1.7591916125648242e-03 -1.0703190392620049e-02
      7.4062767919614919e-03 1.5600051110225315e-02
      2.5453806546768144e-03 1.5316929452277954e-03
      -1.8549691321202870e-02 -8.4923203849462878e-03
      -9.2565190039565429e-03 1.2156892770448921e-03
      4.8435479892028795e-03 -4.9963994779279506e-04
      -1.4160283580949080e-02 3.2158481432591384e-03
      1.5382078473171724e-03 -4.0124073374520819e-03
      -1.4581627409480108e-02 1.6900735688996825e-02
      -1.0521116977490981e-02 -1.0050932195065669e-02
      -1.1781364913075973e-02 -1.0024510626106310e-02
      8.3466329736241150e-03 -5.0833929706174535e-03
      -7.6816883743898263e-03 1.8113593531375219e-02
      4.9549553213206130e-05 9.2061350158380330e-03
      8.3887157358877480e-03 -2.7578392550955179e-04
      1.5757596442657409e-02 5.1904920226049573e-04
      -1.7530500761002314e-02 -1.4941813778454494e-03
      2.0321210538883902e-02 8.1793685632384552e-03
      -1.2970088412966315e-02 1.8926206446590679e-02
      3.6328996364508957e-03 -2.5194557266942170e-04
      6.3092609865183719e-03 1.2064224047802889e-03
      -7.1760426696838757e-03 7.0260696110000494e-03
      -5.5751001895224901e-03 8.9040287056163028e-03
      -6.5765826904807898e-03 -8.0058089279392633e-03
      -2.6559477549736332e-03 -3.2326706808840605e-03
      -4.8314422849878814e-03 1.6377970386561230e-02
      5.8769867428259265e-03 1.5415798609286725e-02
      -1.4872050897938196e-02 -5.5539537390350670e-03
      -1.9020793155203235e-03 6.9052741787587455e-04
      2.3660395829409775e-03 1.1678680376124552e-02
      6.3241089359387112e-03 -1.7873290168053359e-02
      1.3070806388434768e-02 6.1486863947055655e-03
      -6.5288601266388670e-03 2.8049129064006660e-03
      -1.8594487092446238e-02 9.1265139619984281e-03
      1.3720801753977204e-03 8.7158709276736036e-04
      -1.1143533409523300e-02 6.4132717420257611e-03
      -2.1075057897995381e-02 -1.2868107234564370e-02
      -7.6827029451657612e-03 8.6204540202795606e-03
      -6.0397252970435288e-03 6.8126635267260231e-03
      -1.1217298496509992e-02 2.0548102632943061e-02
      8.9465688453462359e-03 1.0897685240996613e-03
      -2.6874203087894843e-02 -1.3285379320923930e-02
      -1.0015510870318317e-02 5.1638754629188908e-03
      1.6988234445588037e-02 1.0923584834128631e-02
      1.3666465269784319e-02 1.2197739650599263e-02
      -1.0370973177493741e-02 -8.6325952428419565e-03
      -1.7374951099509740e-02 6.3149134171738130e-03
      1.4530708106993076e-02 -1.9775264877260040e-02
      1.7828312734069842e-02 -1.3631925739754034e-02
      1.4011971225372289e-03 1.0772285563529002e-02
      2.5635186282896593e-03 -1.0970464975044251e-02
      1.2211720149788450e-02 1.1817237637417679e-02
      -2.3030749593574377e-03 4.1007301916106732e-04
      2.1374320893127716e-02 1.3744960995519187e-02
      4.8074324425222024e-03 1.3614122565964011e-02
      -1.2872599030886644e-02 -1.8396873726397953e-02
      -1.6554758794550317e-02 2.5746261834981389e-02
      -7.8261921215392483e-03 -2.3250112686000666e-02
      2.7191143808554504e-03 -2.6368267845821261e-02
      2.4523587312398641e-02 6.4647474676521165e-03
      -5.3561402972024481e-03 2.3117340999833372e-02
      1.7479738246429219e-02 1.5507011902195051e-03
      -2.4090244764578765e-02 -5.1423995500555382e-03
      2.5702264279598087e-02 1.8670837350342868e-02
      -1.1765170233221855e-02 9.0027308800852898e-03
      7.5274955873665880e-03 8.2633516907961117e-03
      -7.5446496868269534e-03 -8.7844014636697214e-03
      -1.9134828968640626e-03 -4.9007572105208748e-05
      3.0568388242802193e-03 1.7901090935168777e-02
      -6.7443133791334007e-04 -1.7703485783296856e-02
      -1.9930779179119770e-02 -2.0969992445408391e-02
      -9.7214670011743411e-03 1.2853174282478914e-02
      -1.8242653733651647e-02 1.2341377979575532e-02
      -1.1486064222506257e-02 4.6753555234285609e-03
      9.1349010137225777e-03 -3.0260028734343867e-03
      8.3340134179222033e-03 -7.9326040014612194e-03
      -3.4266919856270278e-03 1.4585191450530931e-02
      1.3790145363366089e-02 -2.8346820858603412e-02
      5.4703506037068073e-03 -7.9044908269040991e-03
      -2.2667643926430777e-02 4.2642979379865697e-03
      -3.9197684635076096e-03 3.1024322293941871e-02
      -2.8595060633369199e-02 -1.6155945689224720e-02
      3.2980701548363635e-03 -1.0657738263938496e-02
      -3.4049522258655586e-03 8.9196961019357580e-03
      2.3920413798570565e-03 6.3280678870153055e-03
      -3.0469129634989388e-03 -2.2453278789586341e-02
      -7.5219395286894065e-03 -6.0554140309201131e-03
      1.2880384767617067e-02 -2.0125295248640908e-02
      1.5507387151131573e-02 -1.3565298402101408e-02
      -1.5189003139836057e-02 -8.2472364046165085e-03
      9.8615810959225975e-03 -2.1711840354812360e-02
      9.6953695139552539e-03 -1.0387652865220125e-02
      2.4576937873605979e-02 1.4562939446223113e-02
      6.7833761974840038e-03 -1.1700025382272862e-02
      1.3149850919973618e-02 -1.8547190601809770e-02
      7.5333266489033147e-03 -1.7477029043316907e-02
      -5.8770534542915013e-03 2.2081686745983249e-04
      -2.6287525027869775e-02 -8.6142042700379084e-04
      -3.3588268053208964e-03 -1.3257355646300300e-02
      -1.3914833920507274e-02 -4.7838242063015030e-05
      8.0286796026030373e-03 8.0720399629810105e-03
      1.9276500686033426e-02 -2.3521902032723314e-02
      -1.8973647971118213e-02 5.2851705112360297e-03
      9.2683330574827528e-04 1.8997045494142141e-03
      1.0697330180644673e-02 2.0798661779053117e-02
      -5.0503295841585541e-03 -7.0869415035271863e-03
      1.5545712878502821e-02 -1.3215244643507219e-02
      -8.7970932594710859e-03 -1.3865260363454888e-02
      1.3852828919339383e-02 2.1474295600301268e-02
      1.5502056257872760e-03 1.1935606008677086e-02
      1.6245464762033333e-02 1.0264606725178196e-02
      1.3517110287502087e-02 1.9712983855465466e-02
      3.2620889805399975e-03 -5.6888795710882470e-03
      -7.4890478118649750e-03 -3.9046790540435816e-03
      1.0629504552336227e-02 5.9590744061910842e-03
      -1.2990706773843662e-02 -3.3269460457038499e-03
      1.8348514145390033e-02 -1.5841329496641243e-02
      4.4085885404276460e-03 -1.3239052617552019e-02
      -7.6868884245491920e-03 1.7685552272039278e-03
      -1.7946361258436842e-02 -4.9497790585640274e-03
      1.1582395710193557e-02 -1.9460178852190070e-02
      1.3412115571076929e-02 -1.2902630908804244e-02
      1.6350543788836225e-03 1.0419096440273386e-02
      1.0431762772864272e-02 1.6758260888119252e-02
      -3.5056607471872395e-03 -9.6533487181769805e-03
      6.9824951630625376e-05 2.0635016778962661e-02
      -1.3648129212708887e-02 3.7432650172775882e-03
      -6.9805845681463700e-03 -1.6266426036437805e-02
      4.8760618804056010e-03 1.9348423575083082e-02
      -1.4504570304514755e-02 -7.8828004222338544e-03
      9.5951276931995535e-03 8.8267792968435149e-03
      1.6282624485405156e-02 3.4589324899996247e-03
      -5.6318850669416368e-03 1.6975038467252550e-02
      2.3028109391919585e-02 3.2384961043183278e-03
      1.7788488546915435e-02 -8.0731292637524271e-04
      1.8769616687793558e-02 4.2533698868119528e-03
      -6.1993444105290403e-03 -2.1332327683069835e-02
      1.5552339826195288e-03 5.0252708358330348e-03
      -5.8824380958172693e-03 -1.9202602761699309e-04
      -4.8008507070422986e-03 -1.8961918900632667e-02
      -1.2026394248815330e-02 -7.3597368754984857e-03
      -2.5983421429686664e-03 -7.0580251345278644e-03
      1.3553190955579754e-02 -1.1009111317486086e-02
      6.4906991204761776e-03 -1.3275910267315266e-02
      -1.1505432215851080e-02 1.5672531567598208e-02
      -1.2985200533332871e-03 -6.4878522142366361e-04
      -6.4394353579938432e-03 9.6324391305075800e-03
      1.6289321093907683e-02 -2.5864459111724198e-03
      -1.2262806235302712e-02 1.0863034719223152e-02
      -4.9597210579085593e-03 -1.4074677440162522e-02
      -3.2102783316293517e-04 6.3487453548242440e-03
      1.0824573167694394e-03 1.2881988143977450e-02
      6.3482249004425187e-03 -3.2365357422135026e-02
      -3.0199651665765550e-03 7.3741007782709284e-03
      -1.0526105229447909e-02 -2.3722406785388055e-02
      1.5635751405042912e-02 -5.8476968432749172e-03
      -8.8109229151435986e-03 -2.5232598588584839e-02
      -1.1283583101187865e-02 -2.2391594281284074e-03
      7.6501878097435605e-03 1.7103872374806203e-02
      -8.1241589873082189e-03 -1.9232524649587589e-02
      -7.6297518124937092e-03 8.3695675558343233e-04
      -6.7620605180006028e-03 -1.9094305867722264e-02
      -8.7479403492237272e-03 1.0501852031965459e-02
      -4.0484400361597770e-04 2.7196765147471129e-03
      2.8314832920758341e-03 1.9549337208379609e-02
      1.2509946916543018e-02 1.9522739914515683e-02
      -9.6069232276275538e-03 2.3122218820420846e-02
      2.1027123495932019e-02 1.9631365899394257e-04
      -2.8511958650147173e-02 1.9684032201145634e-03
      4.0687395843754812e-03 9.0314502055698562e-03
      4.2048491435996626e-03 2.5314208389704777e-03
      6.5513005599052397e-03 -2.0190034584064383e-02
      3.5350812513565530e-03 -7.4228951669155488e-03
      -1.1487694749936096e-02 -3.0310794735212468e-03
      -8.8175410270179919e-03 -1.3833535453019323e-02
      2.7716089192065438e-03 3.1321716910164070e-04
      1.7394076821248682e-02 -1.2716564203932017e-03
      -1.4549873690260300e-02 2.8528883552412003e-02
      2.2439654482513737e-02 1.3637448907805992e-02
      1.1733184336619551e-02 7.1188853700515668e-03
      9.8362152994729835e-03 -2.5396952599852744e-02
      1.2310285644913214e-02 -5.5843292411747510e-03
      6.3755861519522198e-03 6.5430205939315984e-03
      -1.1708352281532958e-02 -1.0836832139868342e-02
      7.5013692476905095e-03 8.3340330016958876e-03
      6.2171714096017809e-03 2.5304284933987233e-03
      9.5653438631388451e-04 2.2651610467926335e-03
      -1.6076773016583463e-02 1.8368017191902185e-02
      -3.0348319536060913e-02 2.7165654470111167e-03
      1.4671801227755375e-02 -5.8666141054602725e-03
      -1.0270864114339006e-03 2.0471190753177746e-03
      -1.3119576306983492e-02 9.9838898125423764e-03
      -1.2916376018113636e-02 -1.5585871945060486e-02
      -5.0484174581608820e-03 -1.3830729121554896e-02
      9.5148636922202199e-05 -5.7378093589871655e-03
      2.2263931466048742e-02 6.2848520659875614e-03
      1.9953354428684247e-02 -1.9023431401260969e-02
      1.8813473226702127e-02 8.4859352127483376e-04
      -5.5891870140282011e-03 5.9450562982685164e-03
      -9.3737796551936984e-03 4.1432202302149907e-03
      1.7549662911057348e-02 -4.8162998914575480e-03
      -1.2036585986052954e-02 1.4706222823348783e-02
      8.7857771852350042e-03 1.5521226986874109e-02
      1.5247608518121370e-02 2.8287829357418336e-03
      1.9338834456684825e-02 2.3438437589867651e-02
      1.4952301720339036e-02 -2.2525979580563936e-03
      -5.3029924032112078e-03 -3.8119806452113010e-03
      1.6438223903115549e-02 1.4118099751918807e-02
      -5.3575032531730663e-03 1.6553680096289491e-02
      1.2946152652630373e-03 3.6544491672080254e-03
      1.6295995650787907e-02 1.4295670461282189e-03
      -7.2062888180651954e-03 -1.4285200541883582e-03
      1.4159976066844618e-03 1.2070243327568800e-02
      -5.4622374578921331e-03 2.6499852481679403e-03
      -1.5713235934909565e-02 7.9633779609819782e-04
      9.3338822645905508e-03 -1.9168859945025825e-02
      6.9837319723524294e-03 -2.5358374150574181e-03
      3.1338918880715683e-03 -5.8019197826344390e-03
      8.6582734251898184e-03 -8.5315544550399556e-03
      1.0301574493617276e-03 6.3700711381408943e-03
      1.4027378072600028e-02 -2.0265904134084797e-02
      5.3423898829596753e-03 1.5310754747078431e-02
      -4.1123255001216394e-03 -1.3032062765972064e-03
      -1.7300089183901477e-03 -5.0074703312911056e-03
      1.8102733946265864e-02 -3.0700340987848528e-03
      -1.0735112614108327e-03 3.9066322725001277e-03
      -2.3162589272008937e-02 -1.1874180936011043e-02
      -1.4976659607602600e-02 -6.6551685764389655e-03
      -2.0005977136411467e-02 -5.2913408145574149e-03
      -1.9146873818984431e-02 9.5340587054957952e-03
      4.5805353830138161e-03 -5.4291338963432618e-03
      1.1142739662876107e-03 1.3869529121680532e-02
      -2.2716716137681232e-02 -1.5389718138460374e-02
      -7.6728889802427638e-03 -4.9350339951873762e-03
      1.7334976804127572e-02 1.6297288767064218e-02
      -7.9298705412791225e-03 -1.0152043490505023e-02
      7.6525134870961495e-03 -4.0984673414347838e-03
      4.1249011378267295e-03 -7.6332235075858819e-03
      2.1772113668800181e-02 -1.0136379910185934e-02
      -8.0539605166912269e-03 1.5760699031993942e-02
      -6.0962354477015123e-03 -2.3724668153844792e-02
      2.2133643635586182e-02 -1.5856494526015980e-02
      1.2857559622052268e-02 2.1429021626761743e-02
      -1.1192910133866241e-02 -1.0396577549287061e-02
      3.5817822120212651e-03 -8.8638923498029938e-03
      -3.6131929933557743e-03 -2.6144771801193405e-03
      1.5828364230504932e-02 -1.1784002184675986e-02
      -5.6790946929734807e-04 -1.1100889416603213e-02
      -9.9236513234134596e-03 -5.2599605709290082e-03
      1.5597160345880393e-02 2.0711500615326332e-02
      -1.7506113805940367e-02 1.4082317684308074e-02
      3.0084867448214791e-03 1.3010085134537860e-03
      2.3880351968538018e-02 -2.9324161288166433e-02
      3.1066272516059651e-03 1.2712293166873884e-03
      -1.4150028930020653e-02 -1.2871593069006763e-02
      -1.0431090859199722e-02 1.1682470616206456e-02
      -1.3732871593185474e-02 -1.4944022747713752e-02
      -2.0389162216162559e-02 1.5411182552661365e-02
      1.9531663206022058e-02 1.1294971717057817e-02
      -2.6881351471637824e-02 -2.7096702476475357e-03
      -3.6210767485074500e-03 4.3875162694584193e-03
      1.2201631118501696e-03 6.3807428049633347e-03
      8.4597406820374451e-04 -7.5161852788311247e-03
      -2.7898372577417896e-02 4.1949461395576074e-03
      1.2426818860368333e-02 -9.8378737137533034e-03
      -3.9536678639441013e-03 1.0654426184502590e-02
      -1.5178520834446943e-02 1.1116611270719938e-02
      -1.7200049577853834e-03 8.7939695943498111e-03
      -1.1489742930031627e-02 -5.6134996846862453e-03
      -7.0556966290586587e-03 2.1253369925475253e-02
      -4.4772673895542552e-03 1.3301576213721206e-02
      7.2828744013797254e-03 -2.3494474291481790e-03
      8.2153013994938004e-03 3.9301657906545846e-03
      -1.9842926811920951e-02 1.6691968654409403e-02
      -1.9160636259798931e-02 1.1766820622112033e-02
      -1.6417855474234484e-02 1.7174534346908760e-02
      1.1775541033709799e-02 9.0367956551123778e-03
      2.6155316212608378e-03 1.6937265631583081e-02
      -8.1229836602965209e-03 -8.1576218478784258e-03
      3.5021171540007352e-03 -1.3295444889129721e-02
      1.9035002822896194e-02 -1.8012792774193643e-02
      8.1370337287811467e-03 -9.3664400517092378e-03
      -1.3683810764375347e-02 -9.1446175792623974e-03
      -7.7076033046907387e-04 -1.1680444710565591e-02
      -3.1307898623027702e-04 4.7417925108738258e-03
      1.1168342910007329e-02 1.3286032914562349e-02
      1.1824450765157346e-02 3.6887592904092242e-03
      -1.7760297527339052e-02 5.0950646017194077e-03
      3.1708791286503705e-03 1.5747622489832600e-03
      1.0504836988705937e-02 -1.6138284047706147e-03
      -7.2291019979401740e-03 1.1130169563253602e-02
      -1.0314503484167221e-02 -9.0832778373233797e-03
      -1.2542500173411490e-02 -2.8548941143684132e-02
      4.1179478455228759e-03 7.3728289973446284e-04
      1.2615976099348537e-02 1.3807038173814746e-02
      6.3756708359343287e-03 -7.1136228273967360e-05
      -9.1143759630431739e-03 1.0761204110192045e-02
      -1.1442347796268861e-03 -1.8838324287639843e-02
      1.6459452613077574e-02 5.4958073923806802e-03
      -2.0013681960800691e-02 -2.6143333657254644e-02
      4.3990190023268242e-03 2.4329043711866266e-03
      1.0958104508643698e-02 -1.1174881123007479e-02
      2.6186562327928369e-02 -3.1106725261447324e-02
      1.6095428746977232e-02 -2.1742928226346402e-02
      6.1129894440932067e-03 -2.2578951352502208e-02
      9.8350467499615027e-03 8.0815457740475022e-03
      1.9798101491272585e-03 6.5613827617636239e-04
      -9.5310580518764738e-03 2.9319428653674664e-03
      1.9358533252062801e-03 5.6550078346171723e-03
      -2.4396190156759201e-02 -1.4489867956445728e-02
      1.1854331876579405e-02 -2.9315942748588585e-02
      -8.4497777497492873e-03 -2.7335059215621783e-02
      1.3041102878398093e-02 -3.4602098426535929e-03
      -3.3498016797712069e-02 -2.5995157582200969e-02
      -1.1031446844611747e-03 1.7400008264075093e-02
      -1.1628896098123096e-02 2.9445247777961377e-02
      9.1228024671948342e-03 -2.6286431852158127e-03
      1.6944664090324264e-02 1.6921346388126091e-02
      -2.8458942472998332e-03 -1.1071997082682247e-02
      -3.7789517603039808e-03 -1.0260729163212469e-02
      2.3969025965497838e-03 2.4736659018904979e-02
      -1.3127848100920233e-02 -1.5556312294001684e-03
      1.7425012137364297e-02 3.6278320030794283e-03
      3.1224530878636489e-03 -6.4124277039053260e-04
      -2.2238170140055479e-02 -2.5002842679698064e-04
      -5.2825615989638662e-03 -2.4102439194952992e-03
      2.1042762801865261e-02 -1.9934335981811064e-02
      -3.7451455999902663e-03 1.2166138432506860e-02
      2.5620663803085853e-02 -1.3891716066632221e-02
      2.3894738146276379e-02 2.7828562567519966e-03
      7.4970247555495913e-03 -1.5513083668665419e-02
      2.5308025901752833e-02 1.3826274864719488e-02
      3.6815798954948002e-03 2.2972931820920389e-02
      -2.7119325226718179e-02 -2.7260747892324088e-03
      -1.6074160163095270e-02 1.6515322018723310e-02
      -3.9589537817313223e-03 3.7581991353340355e-03
      -2.9061495314957643e-02 1.7366578134137507e-02
      -1.0528879317931920e-02 -7.9045302134404093e-03
      -6.0579187311381806e-04 -1.2427932870699248e-03
      1.0814866229096203e-02 -5.1318777335657272e-03
      -1.7876924345919063e-02 2.4836719751914892e-02
      -2.0923560985928898e-02 1.5369819974584187e-02
      -2.4212332427938112e-02 -2.2507592361464390e-02
      1.0215967387227293e-02 4.3147594784656374e-03
      -1.8274985736534771e-02 5.3920201891295566e-03
      3.0707329415642338e-02 -3.8526145893462115e-03
      8.6789693747944642e-05 3.2425383400943326e-03
      1.9113257271217540e-02 1.7555805903314181e-02
      8.7519560708533700e-03 -3.1078810942130761e-02
      -4.2634714873695644e-03 -1.5459530922765361e-02
      3.9745343758413572e-03 4.6765666137625807e-03
