<?xml version="1.0"?>
<opencv_storage>
<opencv_ml_ann_mlp>
  <format>3</format>
  <layer_sizes>
    9 100 100 2</layer_sizes>
  <activation_function>SIGMOID_SYM</activation_function>
  <f_param1>6.6666666666666663e-01</f_param1>
  <f_param2>1.7159000000000000e+00</f_param2>
  <min_val>-9.4999999999999996e-01</min_val>
  <max_val>9.4999999999999996e-01</max_val>
  <min_val1>-9.7999999999999998e-01</min_val1>
  <max_val1>9.7999999999999998e-01</max_val1>
  <training_params>
    <train_method>BACKPROP</train_method>
    <dw_scale>1.0000000000000000e-03</dw_scale>
    <moment_scale>0.</moment_scale>
    <term_criteria>
      <iterations>55</iterations></term_criteria></training_params>
  <input_scale>
    4.8005175838445275e+00 -2.1597859725531099e+00
    9.0192494984054665e+00 -2.1166867714897388e+00
    1.3084190852478983e+01 -2.2131812549620613e+00
    1.7902740756379941e+01 -2.0595461599631628e+00
    2.0448821916829466e+01 -1.9119400746195356e+00
    2.6926031821001970e+01 -1.8903326031143839e+00
    3.3770718200209004e+01 -1.9131937844255511e+00
    3.8019449518868555e+01 -1.7087149273749320e+00
    4.1853775932327643e+01 -1.5992423018194473e+00</input_scale>
  <output_scale>
    5.2631578947368418e-01 4.9999999999999994e-01 5.2631578947368418e-01
    4.9999999999999994e-01</output_scale>
  <inv_output_scale>
    1.8999999999999999e+00 -9.4999999999999996e-01
    1.8999999999999999e+00 -9.4999999999999996e-01</inv_output_scale>
  <weights>
    <_>
      -1.6730547946356597e-01 1.9080938898487776e-01
      8.7162739318027455e-02 -2.0502675713634716e-01
      -1.6533428023555288e-01 -9.6979142498631196e-02
      1.3339388742134983e-01 -1.6014092376889041e-01
      -1.9444049886896630e-01 -1.5642859211710339e-01
      1.2952278489355634e-01 1.8632417872460419e-01
      7.3810705965364903e-02 6.4594023730298086e-02
      1.2151715523562930e-01 1.5880599905545320e-01
      -1.4096094182888552e-01 -6.7614101603230645e-04
      2.2053121430763037e-01 1.3610089142298867e-01
      1.5843223061730088e-01 -1.3388665660283955e-01
      1.0204151366784897e-01 -2.5652293674391724e-01
      -1.6230582013600195e-01 9.5077156270597322e-03
      1.7841771002781373e-01 -8.5701980519774634e-03
      -1.9182808185085928e-01 -3.5781134396727476e-02
      -4.9717412161792145e-02 1.2566949832540353e-01
      8.3199435631766669e-02 -1.2873783664175251e-01
      5.3414084314374766e-03 -1.7177189582688021e-01
      1.3547985673046395e-01 2.5518667756615095e-02
      1.4005728868932574e-01 1.6730081816486164e-01
      1.0438619229004967e-01 1.1249200153471788e-01
      -1.4710718380997340e-01 -2.8607925649405695e-02
      -1.6226742753176399e-01 1.8686286890942944e-01
      -6.4303151496234515e-02 -1.8109083513439203e-01
      -1.2095644500758239e-01 5.5644671646398775e-02
      -1.3721953696941727e-01 7.3556692555204237e-02
      -1.3890346655767447e-01 -1.6882476526712745e-01
      -2.5698057916464040e-01 2.6068098878852741e-01
      -8.6027480866742528e-02 -1.3285869441501719e-01
      1.2653612594452984e-01 1.8739317295021593e-01
      -6.9883361624499221e-02 -1.7651202863154425e-01
      -1.4574724523687770e-03 2.3267265689995231e-01
      -1.4444398139171194e-01 1.6182917775487773e-01
      5.8679231580776925e-02 -5.8387212750193346e-02
      -5.7355308675076155e-02 1.3062682312273385e-01
      -1.7824795715104533e-01 1.4586896223479701e-01
      9.7327156799903114e-02 2.6536562920567158e-01
      5.2579777351594643e-02 -3.3667034109132334e-02
      -6.8112324952750505e-02 -6.8135321217452596e-02
      -9.7177586913045982e-02 -1.4925598747014511e-02
      6.2836339673164904e-02 1.8412522689307737e-01
      -1.6306603406806688e-01 4.7843367394162541e-02
      -2.1405912915925979e-01 1.2366753248738259e-01
      7.7364708800485215e-03 1.6923351298233433e-01
      1.0979324493058129e-01 -4.2945599632737579e-02
      -1.1136559262020193e-01 -5.1209674600781713e-02
      -2.4151149516934650e-01 8.9638004259172593e-02
      2.4854495476485643e-02 1.6936726005519820e-01
      1.4553816607893405e-01 1.2862656165263239e-01
      -4.4485872043638762e-02 -4.1075324890924934e-02
      3.1156698646952592e-02 1.2693476120533179e-02
      -9.3920863574290386e-02 1.0868338993063519e-01
      -1.3204991596461904e-01 1.2444696943976523e-01
      -1.3305909366936480e-01 -1.6488201233468400e-01
      -1.4755975115096429e-01 1.0734011280008608e-01
      2.0823768938260456e-01 1.5048081896144436e-01
      -2.9336644572935913e-02 1.0286727854732625e-01
      7.5050776777185746e-02 1.5525694212172317e-01
      1.2354611638793651e-01 1.2639595407942170e-01
      -5.2522004101138199e-02 2.6189898229247523e-02
      -1.1321124378664453e-01 2.3993866905653231e-03
      1.4442818880459959e-01 1.6349892688725753e-01
      -1.8239647527819622e-01 -2.2011024675564700e-01
      1.1091816804350792e-01 1.5390594989952677e-01
      3.2829785781376452e-03 1.4638269216313490e-01
      1.8324123412181718e-03 9.9909152993119574e-02
      2.8139800090002019e-02 -1.7963491481927596e-01
      1.5155563614801107e-01 -9.8820994885960370e-03
      4.1545375436419660e-02 2.6338428425022986e-01
      3.8233780497784371e-02 -7.2704988456698372e-02
      1.9967806479910566e-01 5.4087331258557532e-02
      -1.6151144808938600e-01 1.0901809075959333e-01
      -1.9827839205476513e-01 -1.9819678973203131e-01
      2.2078703012087450e-01 6.2231330796315577e-02
      -1.6469314300820775e-01 -1.9229087799187800e-01
      -1.5902602948322844e-01 1.0429488606997901e-01
      -1.2616306435115818e-01 4.4529338432611670e-02
      7.4354000104122765e-04 -1.4622862182297552e-02
      -1.0130874583136277e-02 2.0727936383497486e-01
      -1.4217489875259504e-01 -1.8456080076694682e-02
      -1.7781326517266380e-01 -1.7060072916232555e-01
      -1.9926322926309670e-01 3.1505266888887440e-02
      1.3569636989235534e-01 9.4864543738691826e-02
      8.5579964144763418e-02 -9.6499366529596856e-02
      1.9242003311145134e-01 -1.0334007932664376e-01
      1.5481273093335277e-01 1.1025554098726333e-01
      8.4797534064539465e-02 -1.0641525169170976e-01
      9.1489862071539793e-02 9.4724418280515754e-02
      -1.2896094727598137e-01 2.5527121352262039e-01
      -1.3557068793088980e-01 7.3853631353959448e-02
      -1.6817087454986707e-01 4.0793690006926564e-02
      7.8370656451942730e-02 3.9932258011442782e-02
      -1.2101355859972734e-01 9.4022967538568175e-02
      1.7303241563612148e-01 -1.3563515148865779e-01
      4.9358468532354642e-02 -1.9463943972914488e-01
      3.5728631907647329e-02 -2.1653933447214054e-02
      2.0581635066586385e-01 -1.6334051279364839e-01
      1.3628190050677391e-01 -1.0397615686161639e-02
      1.5198321556803304e-01 7.4031759102017286e-02
      2.2546860923848977e-01 -1.6160776054941092e-01
      -8.9899368153084802e-02 -1.5830159581972478e-01
      -4.7591187561172768e-02 -4.0531260537574568e-02
      6.1091051983770246e-02 -4.2601930887555893e-02
      -9.2079465460067636e-02 1.5612504496740517e-01
      -6.0641089365636169e-02 -1.7920939691023297e-01
      1.1232544418977237e-01 -6.8012398693302806e-02
      1.5831815370835756e-01 1.9587480686172484e-01
      -7.9948121841286662e-02 -3.1669022434929299e-02
      -2.2540803266736562e-01 6.0668986356843197e-03
      -5.0752458439791703e-03 -1.8751856238908460e-01
      1.8133082293645872e-01 1.7416073800799495e-01
      -1.2466028294101739e-01 4.6412698377230444e-02
      -7.0785444546776197e-02 -9.8554862325925946e-02
      -3.4771571112358728e-02 3.1268174858747687e-02
      -2.0278626674228539e-01 6.4705501377118765e-02
      1.0569936606302270e-01 1.5330166284655000e-01
      1.1704305356026348e-01 -2.4028757247670795e-02
      2.2062672905065300e-01 1.4192462209841758e-01
      -1.3382056275349685e-01 -2.5945633850643676e-02
      2.0015983101526597e-01 -1.9325772872468791e-01
      1.7183437504897606e-01 2.0248894934416437e-01
      1.9751799505330747e-01 -1.0167481216941439e-01
      6.1855892938529000e-02 1.5307906060261955e-01
      -1.9037709560055835e-01 2.2407699729056509e-02
      2.5050859436045909e-02 -1.2195864841506023e-01
      3.5568787540389926e-03 8.1728069818858551e-02
      1.3742509532191771e-01 1.8989477170462388e-01
      -6.6982569004912826e-02 -1.1706313219813191e-01
      2.6301471411150971e-02 -1.7011817251097634e-03
      -1.4758073488636902e-01 4.6681183454517848e-02
      1.6499320966771350e-01 1.5451389854330272e-01
      -1.1083747480323068e-01 1.1725917338638486e-01
      -9.8116947488678802e-02 -8.0033085104481372e-02
      1.2787587808295062e-01 -2.2081712646570693e-02
      1.1088405776297870e-01 -1.1764920709807224e-01
      -3.3566336423513143e-02 -8.3250599779400344e-02
      4.5155538383891920e-02 -8.8598859554269688e-02
      -3.6859613211327844e-02 2.1566281731776857e-01
      -6.2682582583192231e-02 -5.6536721935383456e-02
      -1.0602311471461243e-01 1.7055443794864827e-01
      1.5116084550587333e-01 -1.2492828875682728e-01
      -1.4800558083662535e-01 -1.4002919071353723e-01
      -4.4970873146528499e-02 1.4932968764034979e-02
      2.5524610473007364e-01 -9.9225478069930512e-02
      1.2937349883857577e-01 1.2426556750869017e-01
      1.3580694394146825e-01 -1.7378377070804857e-01
      -9.0673081071685563e-02 -1.3467728315812671e-01
      -1.5217493929496559e-01 -1.6692897365826109e-01
      -1.2028268308598697e-01 9.4036315222128838e-02
      1.0015875584151549e-02 -1.1153850476768624e-01
      -1.6892894083425625e-01 -1.3865097753939551e-01
      -1.2229233676825631e-01 9.4485041918531576e-02
      9.8561060568706615e-02 8.1667110533458806e-02
      2.4581034358024941e-02 -1.1585734401277416e-01
      -8.0341682821109581e-02 -6.9857896427348867e-02
      1.0126066985985020e-01 1.4212980075948492e-01
      2.5671626588709839e-01 5.7727312591217321e-02
      9.3992713306366896e-02 1.6661423948390422e-01
      1.0909330971416996e-01 -2.4306106098795352e-01
      2.1743042234970245e-02 -1.6821034501772075e-01
      -8.7504524829621535e-03 2.3411861048342362e-03
      1.1088776429107335e-01 -1.0144676806252426e-01
      -1.4727951963093244e-01 2.0818553294613384e-01
      -8.2137597616904392e-03 -2.2551289532042645e-01
      -1.6330842520101610e-01 -5.2675389526075866e-02
      2.3037169681286537e-01 2.9904877287605998e-02
      3.9113088079408276e-02 8.7321662724190161e-02
      7.1571828127484360e-02 1.2410963966178315e-01
      -1.3133036103845935e-01 2.7015469297433459e-01
      -1.9949367905346407e-01 8.6475772107046683e-02
      -1.6492960751540797e-01 1.6684854676372745e-02
      4.4364101421474185e-02 -1.6361151034456728e-01
      -5.6552702495392258e-02 -4.0788859595954083e-03
      1.0336180179758153e-01 -1.0503014393511505e-01
      -1.2340748921019028e-01 -1.5464311037254952e-01
      -1.4829992103903278e-01 -2.3853967554387098e-01
      -7.4534285847663358e-03 1.0955259780862041e-01
      -2.5994938392854189e-01 -8.6451553658942106e-03
      2.2644100351349582e-02 2.3570166093414957e-01
      2.2543821539023506e-03 -1.3990289796615255e-01
      1.7212017359572065e-01 1.5212671670787750e-01
      -1.0181092067940530e-01 5.7526182161229513e-03
      6.8177800354877263e-02 -1.6780919627310709e-01
      2.0144035424967965e-01 6.2129148880406562e-02
      8.3435230926998977e-02 1.1517619050010040e-01
      3.7624147687031061e-02 -2.0258579284028294e-01
      -1.1312843775667496e-01 9.3422551186482877e-02
      -8.3440821303549836e-02 -3.4423895227925660e-02
      -1.7451610984731782e-02 1.3716366786867096e-01
      -6.4534991217373633e-02 -1.1036796690856952e-01
      -1.8083674898756966e-02 -7.7302769785625225e-02
      5.9790511615211539e-02 -2.0810520148863462e-01
      -6.9053890701711099e-02 -1.3077678975597187e-01
      9.7821649044132000e-02 3.5206036211606964e-02
      -7.6447094714260103e-02 -9.3244315897696356e-02
      2.3298479604675662e-01 1.0176747954380784e-01
      6.1112015818334114e-02 -1.8165648874651880e-01
      1.3440401701845872e-01 1.1333972277332109e-01
      9.7594343298408479e-02 -2.3867414652307598e-01
      8.2736771487595145e-02 -8.5138651136366497e-02
      -1.5339263797589298e-01 -1.0940456212094496e-01
      1.0577315750113284e-01 3.9812362905803901e-02
      -1.5120206455106244e-01 -2.3218814166850033e-01
      -9.9978962968827648e-02 -1.2149867450072785e-01
      -1.3429132002480568e-01 -9.4639329328270516e-02
      -1.4103189993745022e-01 6.3752448491682157e-02
      -2.1818323487981262e-01 -9.4222562673076798e-03
      1.8629833515132746e-01 1.6727906193350303e-01
      1.0847945754543978e-01 -8.4075606554695023e-02
      -9.3950722199955469e-02 1.8896332379005967e-01
      5.9156582716935344e-02 -1.5750433536913330e-01
      6.8040496129309389e-02 1.7326267674000209e-01
      -9.7651810165570618e-02 -2.2390451932383651e-01
      -1.2482909687861557e-01 9.1983339189784838e-02
      -1.8727145742701756e-01 -9.6130070566672846e-02
      -1.6035963747940907e-01 -1.3568882167815779e-01
      -2.6930056523831070e-01 1.3641651840100608e-01
      -2.7030860440988968e-02 1.8336911388615068e-01
      1.5194443246641134e-01 1.1515969948431291e-01
      -1.8531247253463251e-01 -1.4960549298237927e-01
      -7.8320678665321650e-02 -1.5250983663467169e-01
      -4.4517746091265915e-02 1.7892804799289333e-01
      1.5012552897717949e-02 -7.7427935552840749e-02
      -2.8745272336956302e-02 -1.6435210115810348e-01
      -1.7666112116638841e-01 -1.5396653333789900e-01
      -1.2490469238732423e-01 -1.2402099952162421e-01
      1.7165598205358595e-01 9.6153124606877791e-02
      1.7139074225535407e-02 -2.0235411729329705e-01
      1.8580318540843418e-01 8.8832006114231324e-02
      6.2038610950799156e-02 1.9282080943075020e-01
      5.5169731230558017e-02 6.7459097048160138e-02
      -1.9491750144249317e-01 2.4481579474777490e-01
      9.4978464974495344e-02 1.6181040224105009e-01
      -1.5165219585635012e-01 -1.8248584652282979e-01
      5.0907013529657992e-02 -1.5583628325074378e-01
      3.3299667915202652e-01 -1.2163828876655218e-01
      8.5776852648057428e-02 1.1345846018123615e-01
      9.6016818318173117e-02 2.0302390295136777e-01
      -1.7321460006075781e-01 -2.2078358055153274e-01
      1.2828532529020692e-01 1.8849124430224995e-01
      9.4489803673851416e-02 -6.0401189195484033e-03
      1.2624984609552958e-01 -1.4649468961085144e-01
      1.3839853822828249e-01 -1.9103110191092182e-01
      -5.1497437732476156e-02 2.1470702645975809e-02
      1.5561209172738874e-01 -1.3570222790926473e-01
      1.2004596417087146e-01 9.6043318949142698e-02
      4.8670215852929577e-02 -1.0508072609791347e-01
      -1.2801504698064203e-01 1.0776494633558799e-01
      1.4667782861081341e-01 5.4672987350806904e-02
      1.7543198205519264e-01 5.5395723730449112e-02
      -1.1454313084225654e-01 -1.6042899753765646e-01
      -1.4839157292352240e-01 -1.7446482811309433e-01
      1.6854400580898801e-01 -6.4964684417006327e-02
      -1.4018627929505129e-01 2.3978307983003964e-02
      -1.0279287210151507e-01 -1.2437105591151636e-01
      -2.0251369855236709e-01 -3.8105793617002510e-02
      -9.7852733513887541e-02 2.1358616523799154e-01
      -1.6547182313684150e-01 -5.4563925991324138e-03
      -5.4361799680037057e-02 1.8955505976823750e-01
      1.5927056223831321e-01 1.0435381087777218e-01
      -2.2088645978852731e-01 5.7088148470164995e-02
      1.6517734027953729e-01 -1.4806713072059766e-01
      1.1720364735958511e-01 -4.2401792811739142e-02
      -1.3581120216322509e-01 -8.6511560360998829e-02
      2.2018818242272968e-02 1.9202497992069517e-01
      -1.2478020611158601e-01 1.4885345594191293e-01
      -2.5438306477552602e-01 1.8309340513017112e-02
      2.0256903030186617e-02 1.4838338249272279e-01
      -2.4716293441245502e-01 -8.4088581898566134e-02
      -2.5497007385518380e-02 6.6063633627046550e-02
      4.7492762636176133e-02 -1.0380609716264415e-01
      -7.2752898362004673e-02 9.3683481572359770e-02
      1.5706551609300839e-01 1.0984663049975062e-01
      -5.3833096861644281e-02 1.4270292374796470e-01
      4.4396313789065216e-02 -8.0677184511543529e-02
      6.1656337362636753e-02 1.8744639598338009e-01
      -1.1773378325665490e-01 -5.8533917926439062e-02
      -3.3420612248240777e-02 5.5801933591144971e-02
      1.7854062372701351e-01 2.3362792223867374e-01
      1.6627752744879182e-01 -1.2573264016455707e-01
      9.6708141822112306e-02 -1.7818724057581015e-01
      -7.1477494420173454e-02 1.3799606220986932e-01
      -1.2816606156062477e-01 1.3737142800529301e-01
      -1.0400823337862419e-01 1.3148712837648577e-01
      1.6633269785907073e-01 6.9160720715124566e-02
      -4.0558039459003783e-02 -1.8538660884163510e-01
      1.4556480955421169e-01 6.8627864841531629e-03
      2.2634544096871939e-01 -1.1101284860677034e-01
      1.3956900984606538e-01 -4.7252337004364271e-02
      1.5783733189194465e-01 2.3059678950339535e-01
      -1.0498659183258328e-01 -1.0875160374796258e-01
      -1.5788685376759343e-01 -6.8259501431518793e-02
      -8.3580527725270318e-02 1.3722615886201342e-01
      -1.9239967980874509e-01 -1.3283229678757888e-01
      -1.0558578924246197e-01 -1.0900870807134606e-01
      7.4292677500798640e-02 -2.0497323155314165e-01
      1.9614352870852225e-01 2.7320998338025700e-02
      1.3632264688062828e-01 4.1700832030686197e-02
      -1.5235294611809813e-01 -2.4013675824148695e-02
      -2.3185464737515440e-01 -1.9107144577953006e-01
      1.2131880745978675e-01 -1.3261175542539158e-01
      -1.3558390844301160e-01 -8.5340560429467346e-02
      -3.2227799615987977e-02 -7.1265205435801268e-02
      1.7282391465355607e-01 8.1146591534354703e-02
      1.8155782305700213e-01 -1.2234731188393495e-01
      -5.3244838323064335e-02 9.8290647739664602e-02
      -2.9349996115309859e-02 9.1197053992232990e-02
      -4.8292750548069960e-02 -9.7172653135338474e-02
      1.0492799885141739e-01 -2.8678887102930328e-02
      -2.2977210924912875e-01 1.0364848769434725e-02
      -8.7336556065665052e-02 -1.5430868495139682e-01
      -6.3809764478500244e-02 -1.3388890864083633e-01
      -8.9088304512554457e-03 1.2925064434260206e-01
      -8.3076138802594013e-02 1.6025023298186120e-01
      8.0382713639907451e-03 -7.2152301645008216e-02
      1.5260695182353856e-01 9.1537094614218981e-02
      7.9444582677783843e-03 1.8199753266877658e-01
      2.3951787752739051e-01 -1.0053058824581462e-01
      -5.0096602734927879e-02 -6.5176288383325528e-03
      1.4871692547391183e-01 -1.3697447763293030e-01
      -1.3331304670910146e-01 1.3492048655210881e-01
      9.5190148949471268e-02 1.9089237152803334e-01
      1.8039293390401595e-01 1.6645859501599802e-01
      1.0845713538211690e-01 -6.0897787874288477e-02
      -9.9046759591359140e-02 5.5300450962536246e-02
      1.4041337368817505e-01 -1.2447064474671636e-01
      -1.9619729558957452e-01 1.6583210480466570e-01
      -8.8786990645732380e-02 2.4287645349934120e-02
      2.1433805472672079e-01 -1.8568833760039115e-02
      1.2046520710224869e-01 1.6143089325276300e-01
      7.2453755627881269e-02 2.9470349776159463e-02
      -1.6189791277597312e-01 1.4908462282470647e-01
      1.1513634691259443e-01 -1.4992072722862762e-01
      -7.8204231172885774e-02 1.3513829623924695e-01
      1.4306652374744439e-01 8.0568320366852797e-02
      6.6913191705692376e-02 7.9256621984212267e-02
      -1.8757876563598963e-01 3.3163593595624520e-02
      -5.0856303034797108e-02 -1.6548138039927537e-01
      -2.5655944838799419e-02 1.8416942050417121e-01
      -1.2898861718319438e-01 4.5509113636734337e-03
      2.2619279182074414e-01 1.4455071622762247e-01
      1.0414835321670374e-01 1.3246042923962037e-01
      -3.4706880872490770e-02 8.6565043825224036e-02
      -9.3588128247456562e-02 1.7147872805882780e-01
      1.6020667832696650e-01 3.3507821056419835e-03
      -5.5604677062818436e-02 1.7821254041483239e-01
      -3.4924315255329054e-02 2.8288675508993170e-02
      -6.4617655875968696e-02 1.8754776664747425e-01
      9.2581021048240411e-02 -1.2332612638721042e-01
      6.3852048136061379e-02 -1.1446118998464894e-01
      -9.5538413835455971e-02 -7.7350270036074757e-03
      -1.5041229301993109e-01 1.9031043500321682e-01
      -1.3577919544715536e-01 -1.6507465261601081e-01
      -1.3699632295244218e-01 -9.7527449149013928e-02
      -3.8092051675943664e-02 1.2036631136174053e-01
      4.6099172763048563e-02 1.1688389854329542e-01
      -4.0584242469312713e-02 1.4243757063381626e-01
      1.9776739520155368e-01 -9.1039984486196976e-02
      1.7200469932786677e-01 -2.1288935412279561e-01
      1.1033809175295863e-01 1.1227521040812781e-01
      -1.7268931916027921e-01 -1.9256536200844362e-01
      -1.8994928933913816e-01 2.5702682156887941e-02
      8.6724172061519236e-03 4.4519287519658488e-02
      -1.9349892179700859e-01 2.0275643156474824e-01
      -1.6175890008967425e-01 7.2365909399922823e-02
      1.5593594418406806e-01 -1.2621364189170067e-01
      3.4257047253056290e-02 1.1558657284595650e-01
      -1.7750523643317481e-01 -1.0715203133388522e-01
      3.4575674141237508e-02 1.3591206572086597e-02
      -4.1702253078672112e-02 1.6553660527421507e-01
      3.4452730217050420e-02 -2.0978758741677178e-01
      -9.5235834378775433e-02 -1.3996154435055702e-01
      -8.2183529478175293e-03 8.0548553384555792e-03
      1.5797949952540181e-02 -1.3461680063133691e-01
      -1.0792298530173074e-01 -2.9664343716005789e-02
      -1.0552118221815500e-01 4.6245325842020166e-02
      -6.8533888986232111e-02 -1.8046131088550124e-01
      -2.1615923129061021e-01 2.5257777300267459e-01
      -8.4880652763575037e-02 -9.7162184407417376e-02
      4.7315476947232996e-02 -7.4976426318556846e-02
      -1.8662381783006159e-02 -7.0986496906453038e-04
      -3.4911581601654078e-02 1.1144162334074663e-01
      -1.3973745370368956e-01 1.3436826812423881e-02
      1.3379576076632166e-01 1.5642190001219095e-01
      -1.5043194192371337e-01 1.0673876641991770e-01
      1.8074030451891171e-01 -1.4873620781996767e-02
      -2.2710813164434579e-01 2.2498742608217520e-01
      1.9670943161167792e-01 -4.6686533744926643e-02
      -2.2418949595908311e-01 6.9682330454076992e-03
      5.9668945448857558e-03 -2.3223945446769706e-01
      -1.1708091421119463e-01 1.3775372915226691e-01
      -6.7775906416954981e-02 -1.0690028173169280e-01
      8.8815543918842485e-02 -1.6217177247567183e-01
      6.3007703653565381e-02 -9.7740454179245956e-02
      1.2309021769885667e-01 -1.1209713088931017e-01
      3.1101246224649898e-02 7.1268973102890890e-02
      3.6242508548052735e-02 -2.1378706894161242e-01
      -1.0628945701566501e-01 -8.2581135829192034e-02
      6.5499217389258554e-02 1.8695454858260291e-01
      1.1713730282956736e-01 -1.1854878582488861e-01
      -1.0559587844031787e-01 -1.1150783560739115e-01
      1.1865547713703233e-01 9.5414648244481218e-02
      6.3885354632567823e-02 1.5254937461137025e-01
      9.1014137542964488e-02 8.8951996506005868e-02
      -9.5129055804982876e-02 9.3108671643134591e-02
      2.0422434798839647e-02 -1.5424391657927339e-01
      1.3501214950742615e-01 1.6496620624125288e-01
      4.7157262606861157e-02 1.3452463892824978e-01
      3.6259131430275347e-04 1.0306666244489610e-01
      -1.8495604329844725e-01 9.1431205616088251e-02
      8.9254317340126572e-03 1.3237853883009570e-01
      4.1626298451502251e-02 -6.1443533145329309e-03
      2.1878812657081961e-01 -6.2390080425936169e-02
      -1.4993796573638904e-01 -5.5755629843737692e-02
      1.2077051859750870e-01 -2.7854435445348041e-01
      -2.4516049011272020e-02 1.0701440198622794e-01
      -1.7028087941696995e-01 1.4865744002519954e-01
      1.0221064627610871e-01 -1.4507539528539710e-02
      8.4109325677935817e-02 -1.9875392988573912e-01
      -4.1242887640025219e-02 -2.0972017801829744e-02
      -6.8506535163129614e-02 2.4389440775460569e-02
      -1.5365056901257299e-01 5.2023138370484175e-02
      1.8100613209632968e-01 -1.4392359998946669e-01
      -2.2438368329750169e-01 1.5358190031812718e-01
      -1.5572586974638919e-01 1.7938985779841510e-01
      1.3952713544496650e-01 -2.4868523072904620e-02
      4.8988655611712117e-02 2.6115735686727742e-02
      -1.5499504919105761e-01 -1.0422053371104738e-01
      -1.9910420982623389e-01 2.7777657207410999e-02
      2.2568502940947277e-01 -7.0065631109559212e-02
      -1.8241489442261249e-01 8.4402117750908390e-02
      1.5322654265075866e-01 1.1667408856321367e-01
      1.2143852922611290e-01 4.4635616569273118e-02
      -7.7984576214097726e-02 1.6324395462139837e-01
      -8.8393209087042110e-02 1.5428828532891434e-01
      7.2069859612922324e-02 -7.1831579235845724e-02
      1.7692970799739780e-02 -1.1738970214278602e-01
      1.7050563594621307e-01 -1.0580555620128727e-01
      1.7925437185141377e-01 4.6939739929322107e-02
      -1.9336657977212832e-01 1.7410793577047400e-02
      -7.1694039213722582e-02 -1.8895441983878816e-01
      -1.1830122921494816e-01 -1.2600692950335793e-01
      2.2318241036877187e-01 -7.9105696798250136e-02
      -7.8207898649479024e-02 -1.4818576286658050e-01
      -1.0634282088531043e-01 -1.8317656324406295e-01
      2.5129162371694902e-01 1.1392649108784116e-01
      -1.1135013723588943e-01 6.4411715156340005e-02
      1.2111312030464688e-01 1.4090939008232867e-01
      -3.8337786659763104e-02 8.5109065143559426e-02
      1.1225050535951853e-01 -1.5289042578369355e-01
      -9.1652745199330879e-02 5.3617831126625118e-02
      9.2504087212882100e-02 -1.0703896413484029e-01
      -6.6528644291068362e-02 -3.2719912884776110e-02
      1.0017892626682083e-01 -2.6144223110026434e-02
      3.7585019178577865e-02 -4.5650573055845474e-02
      -1.0610959789367112e-01 -7.4401713665722347e-02
      -5.7163737623463641e-02 6.2751827571608049e-02
      -3.1038745928049487e-02 4.0159748775073445e-02
      3.3655140400220440e-02 -8.6400314217156271e-02
      -1.1032001262396440e-01 -6.2724183708397663e-02
      -7.3036870871424483e-03 -5.1774542330761036e-02
      -1.0385122505174765e-02 -8.6736299975971390e-02
      -8.0859103854013306e-02 -5.2200971888979666e-02
      -1.6430082840040806e-02 -2.9615929071620936e-03
      -1.6147132314685526e-02 3.3854190842567917e-02
      -4.1485027646369521e-02 -7.8774120070620995e-03
      -2.4563868597563257e-03 5.0235769030751685e-02
      4.6727224199423448e-02 1.2975970777327438e-02
      3.9877065142767495e-02 3.8187013107251720e-02
      -1.9102684037693173e-02 -2.1882832283998000e-02
      1.1441352752263401e-02 1.1391700147409783e-02
      -7.8376224340207697e-03 3.6134489238270934e-03
      -1.0936173510501869e-02 1.4693378613791927e-02
      7.4168096586403835e-03 -3.2806515047968305e-03
      2.1507819232698881e-03 1.5590014737446214e-03
      2.1961792752926436e-03 -1.1550043822972866e-04
      -2.6790741583250103e-03 3.3843851578242590e-03
      -1.4410542191069003e-02 -2.1359794399962346e-02
      7.8272265352542815e-03 2.4807678086352331e-02
      -1.6752387046107854e-02 2.2564468617441518e-03
      3.6007677138447367e-02 1.4998988530385603e-02
      -1.6668970064639678e-04 3.8443777461171724e-02
      1.2423745326586336e-02 -3.3526942919134821e-02
      -4.3386319074246685e-02 -1.0561808354669204e-03
      -1.9350408250403102e-03 -5.7187253321327042e-02
      -3.6702217881805665e-02 -5.5134983931309093e-03
      -7.4982730347764689e-02 8.3743303781217374e-02
      -9.2531602416235370e-02 -7.6354974583468807e-02
      5.2234737466828801e-02 9.0100423691413273e-02
      4.0150864601747518e-03 8.0071264329933931e-02
      3.6330206339203482e-02 -8.7212489856018163e-02
      4.2360218793506606e-02 -3.0839077485323586e-02
      -3.6964151996441277e-02 -9.8034025629355454e-02
      -7.0991597747570759e-02 5.3338808928277338e-02
      -5.4750863039034044e-02 2.5806900092634904e-02
      -2.9372931567073917e-02 -6.3223517968505172e-02
      1.5006255425983381e-01 4.8904104852700761e-02
      1.9204404118820944e-03 5.9692030640803570e-02
      9.8399295721697103e-02 -2.3452980041740904e-02
      -1.5284950906678407e-01 8.5373228672516260e-02</_>
    <_>
      5.8140712489776576e-03 9.4883017011330260e-03
      1.2473105596150188e-02 5.0063444108467119e-03
      -7.1161881467834915e-03 1.4618736488131603e-02
      -7.7631168486470871e-03 -5.7855100314481225e-03
      2.9079994279842106e-02 9.2803804429258865e-04
      -6.5952750414895699e-03 8.9875351298848126e-03
      -1.5910206355203415e-02 -5.0405827968619764e-04
      -1.0296691279664694e-02 1.5881998958235579e-02
      4.8147765006370143e-03 -4.4134763710500062e-03
      -8.0714037402548379e-03 5.7161459260210790e-03
      1.1625138002488957e-02 -3.7757302076294724e-03
      -1.8987348025256180e-02 2.0124396021506327e-02
      3.6597199438788723e-04 -1.1837352675690582e-02
      -1.5297109949320162e-02 -8.4287818218984293e-03
      1.6998953754087394e-02 -2.8472496558186789e-03
      -9.7830064683925976e-03 1.3496073968265561e-02
      7.3867966489863249e-03 1.3309932013088272e-02
      1.7977287930710843e-02 6.1393952679460824e-04
      2.2384562089958343e-02 8.3391174947993526e-04
      -1.5207688835221472e-02 -9.3700518780838963e-03
      1.0266821054395255e-02 -3.9799762297852004e-04
      -1.0675720349655254e-02 1.9060868443429514e-02
      7.5298485258169555e-03 -3.1532869267029924e-04
      -1.0407587234603870e-03 -6.9708739079915745e-04
      -2.7331406682788275e-03 3.5201340145112913e-03
      -6.0704493277662901e-03 6.0260358889254609e-03
      1.3752283197893762e-03 2.4218806312829690e-03
      -2.1189883167276467e-04 -4.0968752616475385e-03
      2.3193498017065562e-03 2.1440766604559843e-02
      -7.5906543081544773e-04 8.5544939525885478e-03
      -9.5356287282189912e-03 -7.2596619239879995e-03
      -9.6812342948347715e-03 -4.0324428158943176e-04
      5.5103445701965327e-03 3.1161927732007100e-04
      1.2865751969135038e-02 -7.6662419183353078e-03
      4.4316805791971333e-03 -5.9834369741087468e-03
      -3.1927406260375754e-03 8.9020756640860628e-03
      -1.4655199787612471e-02 1.2633346409089374e-02
      -6.1476587211654849e-05 4.1565182886136622e-03
      -8.5160534892461792e-03 8.5527296369417201e-03
      -1.0359228725669873e-02 -1.2182560972090941e-02
      -4.7187424637087950e-03 9.7935975865545456e-03
      -3.0303144732886653e-03 2.6766350947370686e-03
      -1.6801979072831874e-02 2.1020794756354582e-02
      1.2885651663274987e-02 -1.0822237592102822e-02
      -1.7609294009732178e-02 -2.0413365408539750e-02
      -6.2054498599727580e-03 1.8982676867780410e-02
      2.1855936904766518e-02 1.9931529388612073e-02
      1.5358419604109141e-02 1.2035419594208577e-02
      -1.3896459931105614e-02 -1.5530003729333589e-02
      -2.1946632086043128e-02 4.6266080743651685e-03
      9.0650307368991129e-03 -2.2172836122360040e-02
      -6.3950347713089700e-04 -1.2774707127516808e-02
      2.0609393602924728e-02 -2.0524795840722531e-03
      4.0363454721090552e-03 -1.2076118264895894e-02
      5.9337832734874529e-03 -5.0738530667072818e-03
      1.2370451934408043e-02 -1.1916205445256380e-02
      1.6500933115452615e-02 1.3002289990762797e-03
      5.5647360403154912e-03 -8.7373106924263696e-03
      -1.3943383180264703e-02 -1.0385774153179244e-02
      -2.6383326039888376e-02 2.1950075791313944e-02
      -2.3593032261408461e-02 -2.1853230584551558e-02
      7.6122121989956647e-03 -3.1010418424891176e-02
      8.0299911619206993e-03 7.8006637920590384e-03
      7.6789724138776223e-04 2.0733097432906907e-02
      5.6487889554114748e-03 -3.6445128843823984e-03
      -2.1679881900638468e-02 2.0713526984987257e-03
      1.3850973603577078e-02 1.1675597809579240e-02
      -2.5998394136095473e-02 9.9349215131066520e-03
      -4.6776555840872961e-03 9.1486599478426932e-03
      -1.0519138509229498e-02 3.2993156480233699e-03
      1.4522809425986298e-02 1.4265208423795949e-02
      -1.0176224241018706e-04 1.7193342467844028e-02
      -6.3071288319324331e-03 -1.6127325768791386e-02
      -8.4799678715354911e-03 -1.8251842271921091e-02
      -1.5070938666532739e-02 1.7074115061025734e-02
      -1.8333710081657736e-02 1.8651105228009179e-02
      -2.2577346815740505e-02 -8.9215447063976973e-03
      4.1724618116603576e-03 -2.2206607402607409e-03
      -3.2346740012101196e-03 -1.4332468457999056e-02
      7.0244379954537122e-03 2.4861192277232099e-02
      5.9225939880207679e-03 -2.5289998382193972e-02
      1.6986994664836205e-02 -7.6570222895138360e-03
      -2.4863718596757269e-02 2.2283363294840097e-02
      -1.4040600314982899e-02 1.5115146858901472e-02
      -1.5884506876914815e-02 1.6286753499225191e-03
      -2.4868528810632162e-03 -1.8887601178010680e-02
      -8.0155485392115772e-03 4.5762272047286624e-03
      5.5124639456473872e-03 3.7187672840784045e-03
      -6.0627862466959325e-03 -2.3666873456159320e-02
      -2.5575748167238805e-02 -3.7979556647605127e-03
      1.0354428239234267e-02 -2.0839019634422407e-02
      1.0347078048886866e-02 -7.9906166273679448e-03
      -4.7780627260765752e-03 -7.8384770994104260e-03
      3.1089983003827351e-03 -3.1789109430797585e-03
      -3.8723810217677120e-03 -1.3811687864883826e-03
      1.7468955243635977e-02 -5.8541926063569736e-03
      -9.8215658151125265e-04 -2.4916225275370820e-02
      1.0188314869741352e-02 -1.7780201893536365e-02
      1.2395574261352401e-02 -7.3513266456109398e-03
      1.4754045613522265e-03 2.2956474923165561e-03
      -6.3191898700005363e-03 3.6254629699334641e-03
      2.0270307040944197e-02 -2.8644092758332408e-03
      -7.9492806307511991e-03 1.6645119973288727e-02
      1.4038606565790236e-02 -7.1204144891614633e-03
      -5.6315162290247996e-03 1.9946114950132668e-02
      -1.5629022102606131e-02 2.0774382335976378e-03
      -6.6119895634499310e-04 -1.0402637474326850e-03
      1.0952900389093218e-02 1.5715494490560752e-02
      -5.9372894608487213e-03 -4.4526116810375237e-03
      1.4234328152379938e-02 -1.3845404731935908e-02
      -1.2449143098004004e-02 -1.2881659695411168e-02
      1.5414704136776033e-02 1.9692002454449482e-02
      -2.0033442576917362e-03 1.1405153261815959e-02
      1.8264554579965685e-02 9.7594282753103462e-03
      1.1531487869777165e-02 1.8352732081178175e-02
      3.6790202466806467e-03 -3.5227352882903642e-03
      -1.0576614514686960e-02 -6.3920238778249908e-03
      7.7118325591870188e-03 7.5074704233673746e-03
      -1.5696320736652385e-02 -2.3877147520859916e-03
      1.7072003408159026e-02 -1.3039527100197354e-02
      8.2619080394098331e-03 -9.1397233056394987e-03
      -8.1918375597004652e-03 1.8487124970345404e-03
      -1.9515519050331658e-02 -3.6385914654496940e-03
      1.3318279247736377e-02 -1.9124816904293424e-02
      1.2412449176300263e-02 -1.2083207919742874e-02
      1.6201462951568118e-03 1.2992441773810461e-02
      8.7927514696325131e-03 1.5892443874621631e-02
      -5.6757726162866432e-03 -9.7365834846487882e-03
      -2.8582502693853141e-03 2.0352577595055189e-02
      -1.1113877005416094e-02 5.4100126677726424e-03
      -8.2418401946766917e-03 -1.5375771536847636e-02
      7.2235951799249623e-03 1.8720730702868671e-02
      -1.3363847167328032e-02 -3.6673234740944353e-03
      7.0668184487920399e-03 5.1408939149776151e-03
      1.7646218084425541e-02 7.0684056453889383e-03
      -7.3157757302864720e-03 1.6129056748056234e-02
      2.0898787459855000e-02 2.7981815937519125e-03
      1.9506352719562747e-02 4.9378996313718661e-05
      1.7781066846854834e-02 5.4037479510796139e-03
      -1.0541490757108248e-02 -1.8532720285117977e-02
      2.1911530363693597e-03 5.8648438328369260e-03
      -7.1296273771608888e-03 4.0139658911965176e-04
      -1.5867972638987590e-03 -1.7594473321012050e-02
      -1.4735894835481047e-02 -3.0057202110363706e-03
      -5.8374870662858706e-03 -6.0978515330729361e-03
      1.1132683862544176e-02 -1.5294701518174338e-02
      4.6182698715807975e-03 -1.5828282375900435e-02
      -1.2259327599763675e-02 1.6297776179675896e-02
      -4.9362710795669996e-04 8.2692700310081049e-04
      -4.7546767960262885e-03 9.7741512946050903e-03
      4.3640151551940952e-03 2.4956697719228697e-02
      -4.1271227023820184e-03 5.0689082805605084e-03
      1.1434960749464771e-02 -2.0082243189357554e-02
      2.2452028843623396e-02 2.3454634979050404e-03
      -8.2591442726480720e-03 -1.0952519112053813e-02
      -9.3891030465029311e-03 -1.8518577808438855e-02
      8.4780240003079672e-04 2.1225895078926141e-02
      -1.0590536832498278e-02 -1.3547081719363114e-03
      1.7172993898319566e-02 -1.1570989039723114e-02
      -8.4294365447776395e-04 -2.0626445665260118e-02
      3.2525587537483472e-03 -3.4882212982897576e-03
      3.5328089889520944e-03 1.9011003361888476e-02
      9.5703629213217140e-03 -1.7255201891526059e-02
      -1.2529219094096929e-02 4.2133169102062003e-03
      5.0995921806652007e-03 -1.4362278604028063e-02
      -1.3284020829907274e-02 4.2685580723938223e-03
      1.2991623099606600e-02 1.1429207308290000e-02
      1.5783252712475385e-02 1.9145873372468748e-02
      2.2413851053891414e-02 1.6693729131830606e-02
      -7.0119742852023442e-03 1.2208937239796474e-02
      4.9563650438541407e-03 -1.2191273579251642e-02
      -2.3927882140702444e-02 1.8976475096140412e-03
      8.2254508034974375e-03 6.8871116705994870e-03
      -4.4833241235669999e-03 -2.8998744450929367e-03
      1.0188260940863518e-02 -2.3475528806912491e-02
      1.9361657326533821e-03 -1.4917871834098352e-02
      -9.2992199512100210e-04 7.7293402402843674e-03
      -6.6659963158872547e-04 -1.3207642462286321e-02
      1.4430617149694038e-02 4.7543010169885267e-03
      4.9541533292970013e-03 -9.4951660067970345e-03
      -5.9148257809265954e-03 2.4133259213737233e-02
      1.1712328232152607e-02 1.3608269767878144e-02
      1.3815257714605915e-02 -9.7582322906923490e-03
      1.7026761875759116e-02 -8.0356666855680332e-03
      1.1028336138753108e-04 -2.3183198251584138e-02
      1.0689690896652322e-02 1.2543658109743209e-02
      -6.0866628046405604e-03 -9.2590838150492637e-03
      6.7876512277796211e-03 9.1022937568627903e-03
      1.1074227095015597e-02 2.8526580855747336e-03
      1.7712993194079572e-02 -2.2605169726074479e-03
      -1.4143271732358326e-02 1.7408361406674136e-02
      -2.3208909153167735e-02 -1.8798399563070682e-03
      4.6273274666510256e-03 -6.5278423837434232e-03
      5.9728486681963509e-03 -1.6903595305902484e-02
      2.8683179020112027e-03 1.1211632085761460e-03
      -6.1344223722034734e-03 4.8520296919831217e-03
      1.5241007544401048e-04 -1.0964699476933382e-03
      4.4631240345772366e-03 -9.8767693282284241e-03
      1.6596920738131616e-02 -2.2009588023805967e-03
      1.3054114247399622e-02 -1.8859869919893957e-02
      -1.3795474503675850e-02 4.8629224027558135e-03
      4.0118307121125227e-03 -1.2697900329840386e-02
      1.9873931319958599e-02 -1.7701018665171275e-02
      -4.6291720462405166e-03 -1.5423130433264026e-02
      5.2353844287354933e-03 -1.0902609468539361e-02
      1.4389047460344070e-02 1.0269026315993062e-02
      1.5144773456020800e-02 -1.3995673846485838e-03
      1.9344606046685690e-02 1.5834158276956729e-02
      1.5629623529516815e-02 -1.6840936682157273e-03
      -6.9119630354595521e-03 -6.5742672814642893e-03
      1.2933325381719749e-02 1.4985059597070379e-02
      -3.1676514632033156e-03 1.7820152820902459e-02
      -4.7773422408341889e-03 1.3613115400249269e-03
      1.6261479249156181e-02 -1.7574720843462086e-03
      -1.2226880563196421e-02 -2.3653865165341645e-03
      3.4874898021676095e-03 1.1648711367604533e-02
      -1.0627054582974207e-02 -2.1127429533357260e-04
      -1.9078982272784987e-02 1.4372567019775494e-04
      8.3080504015651709e-03 -1.7964225395982598e-02
      7.0517515619761212e-03 7.2304920201326156e-06
      7.4340076293218024e-03 -5.1397353289236395e-03
      5.3568607071570393e-03 -8.4417605300274121e-03
      8.9345716344365320e-04 6.2611389360214429e-03
      1.4383602409248247e-02 -1.8532966063128636e-02
      4.6752668086190059e-03 1.5367599542435148e-02
      -3.1013448284616246e-03 -5.8576509294888614e-04
      -5.2668013442009705e-03 -8.2927415163284082e-03
      1.4918391729077007e-02 -3.9413767788691731e-03
      -4.3674053144039495e-03 2.8954083247877279e-03
      -1.8406528239803648e-02 -1.0788976939951810e-02
      -1.7050302739459334e-02 -3.7766316343952814e-03
      -1.6730920917446618e-02 -4.1674479130942447e-03
      -2.0233011755673658e-02 1.2906767414015797e-02
      4.6651321533563196e-03 -1.2084325549029922e-02
      5.3711287914850392e-03 1.9160953992827301e-02
      -2.2122416545741454e-02 -1.6105292480414885e-02
      -9.5529824225433872e-03 -3.9056329270811363e-03
      1.6106674070957887e-02 1.6204767983251479e-02
      -1.0513868904288822e-02 -1.1355991479535119e-02
      4.0380424542670115e-03 -2.0857933296920842e-03
      2.0178433303170594e-03 -7.3620710175900965e-03
      1.8594776651407581e-02 -9.1428917951239860e-03
      -6.9465178405665262e-03 1.5166388227380900e-02
      -7.2062450923297333e-03 -1.9040950049155538e-02
      1.5655193253351990e-02 -1.3013574345735589e-02
      1.1365581895641115e-02 1.4521523938578872e-02
      -1.0378919847718686e-02 -1.2766153980823741e-02
      1.4955201634527413e-03 -5.3806281500267212e-03
      2.1838606939550946e-04 -6.0680813326322274e-04
      1.6966470556616993e-02 -1.3397616558690860e-02
      1.2047795484521026e-02 2.1471628786817624e-02
      9.9384001034832845e-03 -6.8317286229594345e-03
      -5.9921901865170784e-03 8.4888413145907653e-04
      -8.0358415377929909e-03 2.0447977172635128e-02
      -1.2580181675845537e-03 -5.0462345342773499e-03
      1.6177162869609345e-02 -2.2201822122860128e-02
      3.5310667959811259e-03 8.2439529405835994e-03
      -1.4332351287265867e-02 -1.1624763730436478e-03
      -1.0789717784259103e-02 9.5256742615151737e-03
      -1.0350447940422921e-02 -1.1708305903722616e-02
      -1.3853248663953365e-02 1.3439918083287246e-02
      1.7611701649399725e-02 1.0709275337332099e-02
      -1.7591957528180217e-02 -1.1193839601234313e-03
      -4.6075338219341089e-03 7.4487822778797445e-03
      8.1828774006974820e-03 8.2068332770054708e-03
      -2.1579913095137217e-03 -8.8201612935272389e-03
      -2.0844117668740659e-02 8.2778076982094398e-03
      1.8671002824119331e-02 -9.6619295817458595e-03
      -5.3085443416466351e-04 9.3558331778397091e-03
      -1.4330925012780145e-02 6.1043052066250712e-03
      -9.6498890144117409e-03 4.8925035277794845e-03
      -7.8226735296872043e-03 -5.3860318882842755e-03
      -5.8724661468357456e-03 2.1327831395007237e-02
      -7.5749395116628373e-03 1.0576555110113819e-02
      8.9395706489805594e-03 -4.0714177445844782e-03
      6.9662331224675991e-03 1.7713482693529428e-03
      -1.3873842661076963e-02 2.3596978967495186e-02
      -1.5182402736494830e-02 1.2230263984813642e-02
      -1.0933133077750401e-02 1.9924222309895094e-02
      4.9144581274834101e-03 5.2995325374868476e-03
      6.6858148592697708e-03 1.3805443996551620e-02
      -1.5192439045301931e-02 -9.5282047901919936e-03
      6.1356803110544349e-03 -2.0508694562908870e-02
      2.0660353244667088e-02 -9.0026410062129820e-03
      1.0821211761181926e-03 -1.8517694474383641e-02
      -1.3485996835517778e-02 -6.4386662028376000e-03
      2.1810301577473218e-03 -1.1777676933744133e-02
      9.7374452636440185e-04 6.1460925256713395e-03
      1.4545218603110317e-02 1.5063518626722597e-02
      1.9677370677356504e-02 1.5468061831522316e-03
      -1.5397265489557428e-02 4.9129537160189137e-03
      6.9038357747570308e-03 -8.0861355930785385e-04
      7.2153357817626744e-03 -9.7138207934500031e-04
      -5.1874594763742258e-03 2.3901196734871337e-03
      -1.7983971638787346e-03 -1.4727072953755237e-02
      -1.0024136956375978e-02 -1.7750610430199903e-02
      4.9614941755337424e-03 6.5827776999097922e-03
      1.5253662875546220e-02 1.0462828936629110e-02
      2.0566446092477107e-03 -4.3365172984605920e-03
      -1.1927119375288422e-02 1.1773342473385290e-02
      7.7435291666359141e-03 -1.0338549240026104e-02
      3.1113506712873054e-03 -6.6404352352633523e-03
      1.7085364968335362e-02 1.0891455563931668e-02
      5.9841408207264701e-03 -1.6982438608163326e-03
      -1.7512483893719833e-02 -3.7754732921294969e-03
      -2.5603367234109189e-04 -8.3014904886549658e-04
      1.5589687927887480e-02 -4.7201833714966826e-03
      1.6406222894355570e-02 -1.8744712834521304e-03
      1.1887254366443219e-02 2.4869301733629065e-03
      -1.7831698431807256e-03 1.5323279672537441e-02
      9.2808456327001583e-04 -1.0804326233399870e-02
      -7.2298315841048469e-03 -1.1721344442007366e-02
      -2.1951098328541491e-03 1.4557329242446489e-02
      1.1196508259465315e-02 -1.1306430902161855e-02
      8.8685829820763038e-03 -1.6525357979380598e-02
      6.6932336465552926e-03 -7.6437728753746747e-04
      -5.6426542090713848e-03 -5.3179549897536356e-03
      5.3800632537982116e-03 1.1454149066193886e-02
      -1.2561084737309880e-02 1.3889617346924968e-02
      5.6533975029399285e-03 -7.1394911754656988e-03
      5.2826341007099157e-03 1.8502909727703978e-02
      1.4093634754282843e-02 -1.2629427909556451e-02
      -9.2821029866027652e-03 -1.8788864437140392e-02
      8.6294548258357105e-03 1.0074257433879956e-02
      -1.9529082380074086e-02 6.4825869786054513e-03
      1.3726736818390350e-02 -7.0645100982681397e-03
      7.6550086133863968e-03 -1.4053293169424009e-02
      6.6588039380764859e-03 9.7708943476546520e-03
      9.9156205815354691e-03 -6.8253955831401730e-03
      7.2878418948955703e-05 -1.2931698721776623e-02
      9.8685132135483689e-03 -6.0757431742110022e-03
      1.4113102473720954e-02 -1.2492499235773552e-02
      1.5031783926483093e-02 -4.2911226668169086e-03
      -4.4995871106412602e-03 1.3494876690532070e-02
      1.3678954705349099e-02 4.5551056893342583e-03
      -5.9844781135495913e-03 9.8487486820623034e-03
      -1.4859869299352230e-02 -1.9626579919745753e-02
      -9.5223076841363646e-03 2.3123816200431761e-05
      7.4519689239077981e-03 -4.9954182780302487e-03
      -1.9322967461755391e-02 -4.4188009898500462e-03
      -1.1984046828661839e-02 -1.9380790491369072e-02
      1.5550062814728829e-02 6.2314419363073432e-03
      4.7711498819193246e-03 -1.3472956697685022e-02
      -9.7169887251023837e-03 7.4066827661840966e-03
      7.7002827467084123e-03 1.5476812014557716e-02
      -1.3085042783951430e-02 1.4869115586570248e-03
      -8.2328843607859677e-04 5.1570422447999656e-03
      -6.5939993481900572e-03 -2.1682590108017458e-02
      1.1678733832377653e-02 3.6240295036731285e-04
      -1.5422363042115693e-03 1.9941051463585539e-02
      -1.2536897785231815e-02 -1.6866695626279026e-02
      -2.1259463696652083e-02 9.6480599069898292e-03
      7.0526040448064733e-03 -2.0838746715840538e-02
      -1.1640938648625110e-02 1.3793979378036919e-02
      1.5139963350104277e-02 -4.4184002718636768e-03
      5.4026447782030713e-03 -1.4875387780811732e-02
      2.1328043632666892e-03 8.8445936474717737e-03
      -5.8239697874671822e-04 9.3092386806845027e-03
      -4.6592709121294189e-03 7.2845015779104917e-03
      -1.5818736162690278e-02 -2.2022247580502875e-03
      -2.6168644272277805e-03 1.7855810428208697e-02
      1.7842387841516989e-02 -1.0769197892500330e-02
      -1.2835585479480749e-02 1.5626463415341182e-02
      6.3373042448297643e-03 -4.6171766722526431e-03
      1.4397642115652923e-02 -1.4660122700158347e-02
      -9.2627590907931514e-03 -1.9241062907472445e-03
      -5.1829573677042388e-03 -1.6848598535798332e-02
      1.5126952114552763e-03 -7.1769958690109615e-03
      8.5152319173278264e-03 4.9217071842578477e-03
      -1.2268263576723289e-02 -1.7777351584129013e-02
      1.3137030300379724e-02 -4.2317204357628230e-03
      -1.3730723433920476e-02 1.4260408726403318e-02
      1.4963051854662564e-02 -1.2553407697690502e-02
      1.1878632036564626e-02 3.7227883308175950e-03
      -9.9450871405768696e-03 -1.7433046488187807e-02
      -9.4650456541455832e-03 1.2426181299890197e-02
      3.1423389536290500e-03 1.0768380387800576e-02
      -1.5942256388801489e-02 1.6444666468064844e-02
      -1.9744918751385697e-04 -1.2059790668689507e-03
      -6.6373964403343179e-03 -1.4632330670379378e-04
      -1.8421703926744661e-02 -1.6155938707941363e-02
      -1.8676687399325775e-02 -1.2032872834830980e-02
      1.3896759583705412e-02 -4.1952584826190110e-03
      9.7842297113573066e-03 1.9214378082843413e-02
      7.9270458186272222e-03 -1.7816175282854046e-02
      9.6157913622503463e-03 2.2429999040530671e-03
      -3.0720483339426235e-03 -1.3117621067659541e-02
      -1.0494582237908823e-02 5.8886840884807617e-03
      1.8346015195215882e-02 9.0238780373711816e-03
      -8.4686310526223491e-04 -1.2559103326315846e-02
      -5.4183339061932663e-03 -4.4315188090392425e-03
      -1.9859830745759793e-02 1.8857553301788485e-03
      -1.0239550612966169e-02 -5.2819585234041106e-03
      -1.2811109693390560e-02 -2.6984647300854385e-03
      9.7194546089850540e-03 -4.4477968243126836e-03
      -2.9504267750378927e-03 -6.9538632258024126e-03
      -5.3704734680075517e-03 3.4924018452036653e-03
      -2.7458477361907551e-03 -8.0144432898959402e-03
      2.0224671644325540e-02 1.4431466285162871e-02
      -1.6463939492948904e-02 1.5768566328864399e-02
      1.7327898262807749e-02 -5.4246264215231585e-03
      2.1086519587326705e-03 -2.2683826920522608e-04
      -2.9693896377777397e-03 8.2724411118615220e-03
      8.3903554643649774e-03 -1.2209493647219278e-02
      -7.3830989640313210e-04 -1.6634922142998231e-02
      -1.3104861035961165e-02 -4.0223992502069353e-03
      -1.5404449699103965e-02 -1.1260400841247703e-03
      7.4431978382880819e-04 1.9619697096994536e-02
      8.9903870984854931e-03 -1.3369076483735372e-02
      1.4097079152016656e-02 1.7183812439497028e-03
      -1.9223342382551287e-02 -8.6938263431634993e-03
      1.0518859696969364e-02 2.3202720719663596e-02
      -4.1794031715214931e-03 6.2518895208476602e-03
      -9.7076348135781802e-03 7.2942584495879290e-03
      -1.2919336465473649e-02 7.3816199325878731e-03
      -1.2651205728881532e-02 -1.7760259618551703e-02
      -1.1160054632413715e-03 -7.1881554791722070e-03
      9.5353177522533288e-03 -1.4913630944978936e-02
      -1.0971354039296001e-02 1.3139326864383190e-02
      7.3527020889102368e-03 -1.7474449395255425e-02
      1.2745017015522236e-03 -1.1428351223494197e-02
      -1.0738069303959367e-02 -1.5651640915967695e-02
      -1.5011236649164327e-02 -1.9814209613735392e-02
      1.0143983483599068e-02 -1.1872206647834222e-02
      1.2666046220025476e-02 1.7116558362257162e-02
      1.6283703545114235e-02 1.7632862985725608e-02
      -1.7660245594161336e-02 1.6350436485139026e-02
      -8.8874099184105011e-03 -1.6800440517342630e-02
      -1.7086735603414137e-02 6.0712910341068646e-04
      1.0333262381339232e-02 -1.6371926578547909e-02
      9.1930883189661108e-03 1.2164342795679640e-02
      -4.3625563093224549e-03 -5.5516278705697603e-03
      -1.2483992760877501e-02 -1.3867470186047238e-02
      -7.8449062692326855e-05 -1.7862738801373974e-02
      8.0805520929466829e-03 -1.7127478704410903e-02
      1.0200661326681229e-02 8.1505427461498366e-03
      -1.7287763304855135e-02 9.0410215614160194e-03
      6.5944397033980062e-03 -1.0452460382553482e-02
      -1.8555025746690976e-02 -1.4963785637221725e-03
      2.1847009829087646e-02 -4.2901447770172406e-03
      -1.6299209815779560e-02 2.0266268181877708e-02
      -1.5616364648644330e-02 1.2866849523314782e-02
      -4.1124947775443609e-03 -7.4505962662686481e-03
      -1.1024547353123306e-02 -3.4809848039461509e-03
      -8.3861367083808685e-03 1.3518683194555477e-03
      -7.1424636599237562e-03 1.4508655861848390e-02
      -9.4354839711972161e-03 -4.0169367427087387e-03
      4.2418289157622130e-03 3.3564393252639973e-03
      1.2500627506435396e-02 -1.0457381528663936e-02
      -1.9951789105287363e-02 5.8365439172303277e-03
      -1.4786949055101020e-02 5.2536494570653309e-03
      -2.6133405501211352e-02 1.2503237992947220e-02
      9.1458287155811325e-03 -1.0625287214924905e-02
      2.1321032846309627e-02 2.7724391743585409e-03
      -3.8065142977035507e-04 -2.1757752149477762e-02
      -1.3115130653122617e-03 -1.7803059005573604e-02
      -5.5682649373295107e-03 1.8818597911275652e-02
      -1.2598894383850655e-02 1.7417528578499323e-02
      1.0418728605875836e-02 -9.1393697036312414e-03
      2.1720646733249202e-03 5.4464513689789938e-03
      1.2801391240459094e-02 -4.6605847235164054e-03
      -1.7645215377228254e-02 2.1192768755606221e-02
      7.7266780355061732e-04 2.4210418840538541e-03
      2.5483166664336650e-04 -1.9183360236409690e-02
      -2.4764022035684103e-03 -7.5338048774826099e-03
      1.1669028365485766e-02 -1.8682280016267858e-02
      1.5791559283622879e-03 1.4740233983253968e-02
      6.6302246179937808e-03 5.0816331236737157e-03
      7.9267690141091012e-03 -1.5232634445046104e-02
      1.4683530765398484e-02 -1.8947748976634982e-02
      6.8904142268548301e-03 -1.1807668134685152e-02
      1.2444058247413950e-03 2.0565330483225456e-02
      -4.6021382223454758e-03 4.5860552606429485e-03
      -1.3433711625981727e-02 -4.8959660388237071e-03
      -8.3685926811487669e-03 -1.1187059389338019e-02
      1.0319015198897545e-02 -5.5224048070596581e-05
      1.3185864582343648e-02 1.6926945268153450e-02
      -2.5725083063658803e-02 -5.8593098385421724e-03
      1.6269873229572931e-02 -1.0141897050906748e-02
      1.8913770805534396e-02 -1.6526861440051225e-02
      -1.8302571302592503e-02 2.1993617463321707e-02
      7.3063275147260418e-03 1.9394841803318529e-02
      1.4312758319295059e-02 -2.1863784425558565e-02
      -9.0961116818633510e-03 -1.2377326097211298e-03
      -1.0576450695676242e-02 -2.4916581828088216e-02
      2.5629706688082156e-02 2.8904878463460053e-02
      1.0464190693609439e-02 -8.6750766791596316e-03
      -9.1219919979515802e-03 1.7838095694071568e-03
      -6.0354187508513003e-03 1.1977037861947730e-02
      -9.8775772876968908e-03 7.3532850769595804e-03
      6.0309945726483190e-03 1.6247969761155286e-02
      6.0601751435474778e-03 -1.9559921932983532e-02
      -9.7741517522050014e-03 7.6601388734783230e-03
      4.6111086652678218e-03 -4.7252371981265830e-03
      9.1785538417991971e-03 -1.1421263873235919e-03
      1.0600569372901041e-02 6.0065141601574725e-03
      1.5470748643015573e-02 3.3952934055227510e-03
      4.7671702525654627e-03 7.1653685600932739e-03
      5.2187031610478789e-03 -1.2024212364048981e-02
      -1.7483210765952894e-02 -4.6406976993059994e-03
      2.0061543230837378e-02 4.5038315771880619e-03
      2.9831378372123687e-03 -7.0171034141057517e-03
      1.6726731450256993e-02 8.0871815043658118e-03
      1.2356781915705049e-02 1.7128186803293970e-02
      9.3265366859816184e-04 1.1184853060129207e-03
      -1.8703673607618305e-03 -1.8813452015665179e-02
      1.7839378132955788e-02 -2.3243845051383632e-04
      -1.6938482325999794e-02 1.1210275469367493e-02
      -1.6175762252693564e-02 1.4528045595612406e-02
      -2.3593522545449978e-03 -9.8362448245255113e-03
      -1.3018185726786936e-02 1.1359994415714073e-02
      -8.2173735985137265e-03 -3.7491207508772665e-03
      -6.9953504157337330e-03 -4.7683412431135698e-04
      -5.9385335364155742e-04 -3.7705151651403349e-03
      1.2643373574767624e-02 -6.5273208711958269e-03
      9.2365568503846108e-04 9.6223426135415464e-03
      -7.0804379051702063e-03 1.4877490772473764e-02
      -1.8431989689887206e-02 -4.3966703612656598e-03
      -5.5198300211173456e-03 -2.8627714830553163e-03
      8.2769697677533543e-03 1.1620471679303761e-02
      -1.5380403959855798e-02 2.3138744928266094e-03
      1.2819847196869624e-02 5.5114497407646465e-03
      7.2540150579560418e-03 -4.4666541544857085e-03
      5.3211970041925748e-03 -4.1802269810668242e-04
      -3.3867833327074961e-03 8.8454222076542344e-03
      -1.1595039676305059e-02 2.7099748218479421e-03
      -1.4113725421822624e-02 -1.3999692397570070e-02
      -1.1955271451331014e-02 1.0308630277348079e-03
      -4.4936560861867517e-03 -2.8175372906350088e-03
      1.6602731605971439e-02 -1.3879596783693594e-02
      -1.6741840643006142e-02 2.9835559937313886e-03
      2.9317132671919112e-03 -1.5150390096806115e-02
      -1.6419492633101353e-02 -9.7951388423067817e-03
      -2.2262940169263636e-02 -7.8322957478773325e-03
      1.5646715834144922e-02 1.9076387844157952e-02
      -1.9088457201827305e-02 1.2798566159527460e-02
      8.7389805510459852e-03 -1.3800428963164193e-02
      6.9729214067359175e-03 -1.7498115022063967e-02
      -6.5807538189695943e-03 -1.9326503185190077e-02
      -3.2787435299266544e-03 4.4332767412624315e-03
      -1.7394801831923469e-02 -1.3518073125274803e-02
      -1.7799876428416798e-02 -2.0960698683380988e-03
      2.5910516886128721e-03 -8.4731713718790430e-03
      -1.5702829621141511e-02 -1.6164869863932011e-02
      1.0275371972607577e-03 1.1168244602591288e-02
      1.3646309245062976e-02 -1.2270491040017994e-02
      -2.3281700303392525e-02 -1.5073687934709755e-02
      1.9970525793219173e-03 -3.3671943243718488e-04
      -4.0525305338666284e-03 -2.1098469485843238e-03
      -8.1189769782823804e-03 2.3008984843661388e-03
      1.9329791877087849e-02 3.8797824332023434e-03
      -3.9262544377056310e-03 -1.2501263504998401e-02
      -6.4033315965009185e-04 2.1246753080695749e-02
      1.5522099654400844e-02 -8.4058567609459711e-04
      -2.1564966253807574e-02 -1.0950863532639701e-02
      -1.5771240992756157e-02 6.5888574086866011e-03
      8.8258561070632784e-03 -2.2371602990525055e-02
      -1.4697891045533878e-02 7.3621621939219751e-03
      -1.0770005620818738e-02 9.9908678572334705e-03
      -2.4570582670784422e-02 1.3309351951296916e-03
      -4.8944635906297803e-03 1.0336128664541129e-02
      1.3578799788281002e-02 -2.7954009434628297e-02
      1.0870306100139860e-02 -5.3953991961506092e-03
      2.4215918097517672e-03 1.5460849796957910e-02
      -1.8971416623474409e-02 1.8911306556742410e-03
      2.0728625038269079e-02 6.7176998386618801e-03
      1.3106998504468661e-02 1.3928900253220608e-03
      7.3285743957980714e-03 -1.4927071080354634e-02
      -1.0188752188702089e-02 -8.5363742552772830e-03
      6.2707519484442049e-03 -6.7253030230044258e-03
      3.2360925428870793e-03 -9.6409355014983444e-03
      -1.3608090133070188e-03 -1.5054356188111838e-02
      3.8600224808908279e-03 2.2263415647735736e-03
      -1.0515415549030089e-02 -7.8346058273357881e-03
      1.1141561733533020e-02 -9.7232900686587149e-03
      -1.5674726903822156e-02 -8.4413010921276527e-03
      7.5621241119382477e-03 -1.2045646503012319e-02
      7.9212769468045754e-03 -2.5848839321016802e-03
      9.6551281057662749e-03 -5.9068647989795687e-04
      -1.5600414322530193e-02 -1.2344803455716530e-02
      1.1011235766579962e-03 -9.3996588537616776e-03
      -8.5562963916372605e-03 9.8790001466072565e-04
      7.7553901077706353e-03 -1.0800717530729685e-03
      -2.4193022533752807e-02 -1.0968842104894719e-02
      -1.2244116233825705e-03 -1.2661107912271858e-02
      -8.0412153359529417e-03 -2.3139243291904456e-02
      -1.2471692015024367e-02 8.8488796914106653e-03
      1.2336473888240629e-02 -1.0068327964375672e-02
      1.4382499177159619e-02 1.6775301389044490e-02
      -2.4354510475263790e-03 -4.1631637884346371e-03
      -1.8936592163547813e-02 -2.8621037238360509e-03
      2.6259421959386590e-03 1.5645953853986653e-02
      1.2033882465922764e-03 -9.5114342044020604e-03
      -1.5787181190686252e-02 2.3211747211304787e-02
      -1.7885238993448642e-03 -5.4392942837956024e-03
      -4.4190654921058177e-03 -1.8150142494289430e-02
      5.1528954772782345e-03 -1.8317152612281392e-02
      -1.2972311371046073e-02 1.3583712934719763e-02
      5.9507422275652854e-03 -1.4783019022589794e-02
      1.0455472954833322e-02 1.2917547936774033e-02
      1.4283412099498822e-03 7.2794009864702294e-03
      -1.2168126348595017e-02 -1.3099358812425669e-02
      1.7679713037289355e-02 -9.7399833323045196e-03
      -1.7712135915556017e-02 -6.6875600854379514e-03
      6.5297246485647650e-03 -8.0504594402158684e-03
      4.9487402198232578e-03 -1.4849329092190684e-02
      1.7114168069718511e-02 -1.2542949336329129e-02
      1.5221245030763469e-02 -1.8828033586418200e-02
      2.3334757036290515e-03 -1.5407094018426057e-02
      -8.9034720973285954e-04 -1.1861454325731626e-02
      -1.3943052709418247e-02 4.3247926376755168e-04
      -1.5962745935214549e-02 -1.7165426633700655e-02
      -8.2558145073706492e-03 -3.7159168250923665e-03
      9.7813001747058381e-03 3.3916903424193699e-03
      1.1243443649805038e-02 1.8632794344281486e-02
      1.1825427422624095e-02 -8.2119528909301042e-04
      2.4096702477487721e-02 1.0560201584148480e-02
      5.8710047023599367e-03 -4.0930133467063090e-03
      -4.8662297799185756e-03 -8.6525113031217533e-03
      -1.2063145674770201e-02 -2.8437734652682445e-03
      2.2471508012384504e-02 -7.4323300672622617e-04
      -1.1232121006201221e-02 -1.3042638989386393e-02
      -1.6874843644455829e-02 -1.7976961587307553e-02
      2.6872834967124025e-02 1.2687977223304864e-02
      -1.8786747743546311e-02 1.5210523000737402e-02
      2.9948423402282481e-03 1.2971826970020685e-03
      -4.9294742707512518e-03 -6.2470177207792727e-03
      2.9335740914825326e-02 -6.2085173622011347e-04
      -1.3980848252522800e-02 -2.8233065626801737e-02
      1.6652857987413706e-02 2.1393542438638159e-02
      -1.0239709332380876e-02 -2.0681694374529623e-02
      -4.7806239614054547e-03 -5.7057073497375080e-03
      1.0484904649934817e-03 1.7850067018990060e-02
      -1.9535327837671590e-02 -9.6324377270602720e-03
      6.9565161380671561e-03 2.4338893811020654e-02
      -1.3883041557289803e-02 -1.5909515571449893e-02
      3.6307261187219764e-04 -2.6851898303730179e-02
      -6.9997078616198258e-03 -2.9458305854128772e-02
      9.9504477456305914e-03 -1.3801590723520083e-02
      -1.3137220506554442e-02 -1.2093007595584947e-02
      -2.0520092527225500e-02 -5.3287677027388678e-03
      -1.0121293295916940e-04 1.6130414297362370e-02
      3.7361586988695944e-03 1.6041593798046889e-02
      -1.6183573227350579e-02 8.2582201211906184e-03
      2.0975950800454477e-02 -1.1171900257315679e-02
      6.7469897203966808e-03 -3.6995367780260245e-03
      -2.3298746833345499e-02 4.8921945713010766e-03
      1.3755831909121170e-02 -1.3508711411699915e-02
      -1.7490116418289084e-02 1.9495673958576289e-02
      1.8443976995201169e-02 -8.7896246418628955e-03
      -1.8887842646138468e-03 -1.8670833300836343e-02
      -3.6980318973342703e-04 7.2792302257556297e-03
      -1.8493143553361364e-02 -8.8065048304375570e-03
      6.4854183702268446e-03 9.1520765636004836e-04
      -3.4412039672866066e-03 7.4407745820705574e-03
      1.2613160193143557e-02 1.2052303846823926e-02
      -5.4202136213885562e-03 1.5028361858461720e-03
      -1.2744130435187828e-02 -1.1503655139529285e-02
      1.0217036778034854e-02 -1.8640067436935261e-03
      -1.2802429992707823e-02 -5.8262939683597107e-03
      8.4137363773995992e-03 -6.4697325299558587e-04
      -1.4564675064520900e-02 -1.3177636258811886e-02
      -1.7744645937762128e-02 -6.2010239512063515e-03
      1.9380086917690449e-02 1.5377769379021752e-03
      5.3994021682128180e-03 -1.5693336160328222e-02
      -5.4893839263792871e-03 3.5150249520974407e-03
      8.5266847736912895e-03 5.9620431991278880e-03
      -2.9296153169144743e-03 4.3582131710585593e-03
      3.0269279173981444e-03 2.0697160711585724e-02
      5.6421983278099165e-03 6.4140105823187092e-03
      -1.1911963277792042e-02 -2.3992614742048960e-03
      3.8636188264123896e-04 -6.5402785810324566e-03
      1.5054766404027997e-02 1.9861063704396626e-02
      1.0201976043336629e-02 -1.6621820750929436e-02
      1.6637685531348367e-02 1.6290835955619063e-02
      -1.6230164441435508e-02 -2.5064191796935037e-03
      1.3542181938110734e-02 -5.1129253751594737e-03
      -1.2631589917304347e-03 -8.1738105403253557e-03
      1.7367357730626157e-02 -4.2079820088174458e-03
      1.1795158549198817e-02 1.4736123375915084e-02
      8.8563821336238874e-03 -1.4025007466826797e-02
      1.7483849564767881e-02 1.0410179002871235e-02
      1.2913770565875662e-03 8.1687354228441623e-03
      2.1620928572820175e-03 -4.9789678093264175e-03
      3.4807911555780665e-03 -1.0742615855144749e-02
      -1.4765536475202215e-02 -1.6627383640592477e-02
      -7.4486990483045373e-04 5.8998781923400682e-03
      -9.7194506113379136e-03 -8.6782994068593539e-03
      2.7353493547770638e-03 -1.2538730365849432e-02
      1.1550381590505365e-02 4.5135583624898836e-03
      -1.6557520956759702e-02 -4.1532190837789635e-03
      -8.0755873862411436e-03 -3.1418580494746657e-03
      -1.1888841519442776e-02 -8.1413707946796404e-04
      6.7467185086287447e-03 8.5263829139783347e-03
      4.3206529999168424e-03 1.3804205753691364e-02
      5.5206677945028116e-03 8.3956247519092163e-03
      -1.7260380203141055e-02 -2.0842499162861392e-03
      -1.5057443138911799e-02 -1.8914616510030392e-02
      -3.7009832764544641e-03 1.1510562759311846e-02
      -5.9909542856804426e-03 -1.4537819674157555e-02
      1.8638101428576352e-02 8.8232777147704538e-03
      3.3091134874484430e-03 1.4437378867803660e-02
      -3.2985493261530122e-03 2.4119233319764097e-03
      1.8365598031184711e-02 1.4017931471686161e-02
      -1.1535750686723890e-02 1.4638926764761102e-02
      1.1147497290983790e-02 -7.1086772656951949e-03
      1.2479639713766505e-02 -1.0703842902903285e-02
      8.4658968176555788e-04 1.1836031677970206e-02
      1.4052553345604808e-02 1.8712351535031081e-02
      2.0507042775895087e-02 9.5452891333407362e-03
      5.6242178189223691e-03 1.4322194010885995e-02
      3.5015269243169303e-03 6.0798828985297862e-03
      -1.4833866047925777e-02 6.0355355357736423e-04
      -9.9600677905589217e-03 1.1073827267774084e-02
      -6.0179842163236843e-03 1.8820950888562404e-02
      -3.6003677542254444e-03 1.1170285646882137e-02
      -1.1021502395285564e-02 5.1192147699332859e-03
      -7.9809585014510506e-03 1.4027036994169339e-02
      -3.8195824889217501e-03 1.2383053004458307e-02
      -1.0588898408712948e-02 6.7569460226134586e-03
      1.5657536604521379e-03 3.1795932039123571e-04
      6.3355925367111687e-03 -1.9562514850365632e-02
      -1.0127763228351074e-02 -1.3898707389276555e-02
      1.9565846408243607e-02 -1.8358267771259679e-02
      -1.3865554768943997e-02 1.4477688833454821e-03
      -1.2257600830042343e-02 1.6231080063751312e-02
      8.3455362734515919e-03 9.4699084543807491e-03
      -1.3106759369078800e-02 -1.3163191912307538e-02
      -5.5639813977141506e-03 9.7392755660133772e-03
      -1.1009526017536873e-02 1.7017281466193468e-02
      -4.8570391383879693e-04 1.0652856876926620e-02
      -1.1622850206348956e-02 -1.0306178695072750e-02
      -5.9184269754855980e-04 -1.4997284213250535e-02
      8.1317199068450703e-03 3.3004405058193920e-03
      -1.9587913795771097e-02 1.5569984643122408e-02
      -1.8216533048351709e-03 -4.5992307283887314e-03
      1.3303585022113104e-02 -1.3234504892431398e-03
      9.7930001648899572e-03 2.0345880975353444e-02
      1.9451087077872922e-02 5.3620490212279524e-03
      -1.4443490967634953e-02 3.0582593416495383e-03
      7.0478778077284702e-03 -5.0451211316360402e-03
      5.2368719103783792e-03 6.1202973451602292e-04
      -1.7793664447801578e-02 -1.0994012391284431e-02
      -7.5755498127394764e-03 -1.5239478650008317e-02
      1.1895668856240164e-03 -4.1245260129501972e-03
      -8.8415879514944940e-03 -1.1208855966788138e-02
      1.6693475273773323e-02 -1.5245142663451831e-02
      6.5001413940924757e-03 -7.6251005747636422e-03
      -8.2960828638635777e-03 3.6423310950819002e-03
      4.3547764565909230e-04 -1.4618069135383977e-02
      -8.3808257614036343e-03 -3.0249390168017327e-03
      -4.0619169855707835e-03 1.0846286938603684e-02
      8.9137862476970382e-03 1.8002914193784275e-02
      -1.4608194079715852e-02 -1.0549972013286377e-02
      -1.2461705386037861e-02 8.1183148377713971e-03
      1.2441916658969791e-02 1.2929421832358109e-02
      -1.4862622985247475e-02 -1.2527490105084509e-02
      8.1757362213325784e-03 2.2235667661613993e-03
      1.4034371306135855e-03 -1.6016393652235686e-02
      7.5583308650112118e-04 -1.2621358205897314e-02
      -1.9031287887546294e-02 -1.9407260207424369e-03
      8.8332852309081500e-03 2.1552723514387488e-04
      8.0566239747593762e-03 5.2316735452047729e-03
      -1.2370197391242276e-02 -2.2177579572769626e-02
      1.8014234418759583e-02 1.5537808257181086e-02
      -1.3158139393685066e-02 1.5651472391621058e-02
      1.8610163238135663e-02 1.8056599378928413e-02
      2.0634711185584104e-02 -1.9312315253019904e-02
      4.9361370841605548e-04 -9.7007850273385290e-03
      1.0416446682362974e-03 1.3756783268864686e-03
      -6.6044822860884421e-03 -2.4129763141939966e-03
      -1.6246803405820576e-02 6.2434703624408986e-03
      3.9974342405082811e-03 5.0337422522818568e-03
      1.2048303053459773e-02 6.6108285742158355e-03
      6.5936425401393267e-04 1.4726395728946476e-02
      1.2441526053239816e-03 -1.0136363108723298e-02
      -2.6076763301118144e-03 1.4247011684782597e-02
      -2.0919560362235919e-02 -1.3892748964437849e-02
      6.1713320771011482e-03 -1.0600099524270025e-02
      -8.9880473849863560e-03 1.0878792353556347e-02
      -3.7211203703407495e-03 -5.2004751142803608e-03
      -1.2045035495984452e-02 1.1070798974880383e-03
      -2.4357236570013542e-03 4.1183573301412915e-03
      7.2929210986680979e-03 -1.4659777372613951e-02
      1.4743529420240067e-03 -1.5672994957978913e-03
      -4.0170069509666848e-03 9.7778111663802264e-03
      1.3734945196893184e-02 -7.8939129072523335e-03
      1.5963427891409764e-02 -9.1463057702338008e-04
      -7.9968543814843349e-03 1.7576962387327186e-02
      2.1473647158227055e-02 1.2782701499515409e-02
      -9.6533008870171213e-03 1.8578537854765614e-04
      4.3347770206585952e-03 -9.3531019554282859e-03
      1.8238924357024163e-03 -1.5419106272462060e-02
      1.0322146423639019e-02 -1.0671048338983627e-02
      -3.7552019411085822e-03 1.0317106428865781e-02
      1.1988510310690512e-02 1.4552717947985851e-02
      1.7628828404883227e-02 2.0462665517223286e-03
      -2.0667027494715676e-02 1.5835382803805309e-02
      6.0078077131201588e-03 1.5047168574129277e-02
      1.6527424842991845e-02 1.5122214314084459e-03
      9.9116782461477603e-04 2.3792034558814358e-03
      -1.3812778145812211e-02 -1.3847449012014314e-02
      8.3946757694435166e-03 1.1454831229464628e-02
      2.1384093320212832e-02 2.2195365866315792e-02
      9.5975068618578911e-03 -2.2264228904848953e-02
      -6.3954052173864403e-03 -7.4643273092280180e-03
      1.6411402064659370e-02 -8.5398492316454532e-03
      -2.3887186108022835e-02 1.5815930115712837e-02
      -7.1120154819551262e-03 -1.2733870447354554e-02
      -7.3190118181221241e-03 -9.9640351557907705e-03
      2.5851695294452637e-03 -9.1484277166956236e-03
      9.3959988908200297e-03 2.4587517808634631e-02
      8.0300774047763878e-03 -1.9378075377690616e-02
      -1.4267886400773708e-02 -1.2340824879367924e-02
      -1.5075697003180483e-02 -2.0987141396682542e-02
      -5.0395887306944765e-03 -2.4541483807008539e-02
      -5.1619797657306270e-03 -2.3376869522334844e-02
      1.8278274798388904e-02 1.3746361626349820e-02
      2.6706445555014047e-02 1.2254651058049004e-04
      -9.7008159622898466e-03 7.4288226209741747e-03
      -9.0047497368991643e-03 4.3425558538029724e-03
      1.0871304326989583e-02 2.3423283564376228e-03
      4.0689112261058655e-03 5.9083154283882987e-03
      -2.1650638341940373e-03 7.7916965794691080e-03
      9.5952173229463117e-03 -2.0162226607083649e-02
      1.3145353674021124e-02 -1.9594913140294424e-02
      6.3621805369775512e-03 3.0916687610544464e-02
      -2.4729868220894798e-02 -2.0753056530332954e-02
      1.8675966524546291e-02 1.5545262777940860e-02
      6.7205217216323651e-03 4.8043275713728090e-03
      -1.0191207468933533e-02 -8.5908370796246459e-03
      6.4687292391332155e-04 -1.0511076070444361e-03
      -1.2466710371949881e-02 2.6972839805945478e-03
      1.9120208655478903e-02 7.7082354653077749e-03
      -3.6376150455449752e-03 -2.6227820420289118e-02
      8.7402845077521538e-03 3.4105048079607826e-02
      3.2758265627782536e-03 -4.1977289410329134e-03
      -8.1872484900068487e-03 2.7404471463454545e-02
      -1.2979645985134111e-02 5.3768249132841936e-03
      -1.8545340592242365e-03 9.0172579993028394e-04
      8.7509154175005287e-03 -4.7391208364829995e-03
      8.3460403326825958e-03 -2.8198179269402209e-02
      3.6105138776575140e-03 8.9521557409077985e-03
      9.4871664261614620e-03 -1.1216327680969765e-02
      -1.0780347800621596e-02 -1.6694230090970201e-02
      -1.6406744543580050e-02 -5.1034722624264733e-03
      -7.7762822397084664e-03 2.9950351942916644e-02
      -1.5403671423278312e-02 8.4750452320447710e-03
      -6.9390122186576931e-03 -2.3941633639230367e-02
      -9.8257861925539168e-03 2.2987662009207352e-03
      -6.7534850438540949e-03 1.3575532652772103e-02
      -8.3091920392379896e-03 9.2130907478833960e-03
      9.9536991301321862e-03 6.7834895441606122e-04
      -1.2027214408104803e-02 -7.4809857308799233e-03
      1.8434481308030059e-02 8.9701595933887445e-03
      -1.1305538122074797e-02 -5.5183457818063202e-03
      2.1593107885881785e-03 6.7111005933966714e-03
      5.3084069613975162e-03 -9.2876837020630897e-03
      -1.0663092952938298e-02 -5.0932243171568229e-03
      2.0366315684626816e-02 -6.6484781951981703e-03
      2.1262672760506338e-02 2.0141283140139481e-03
      6.5419835535981000e-03 -7.2488939120316561e-04
      -4.2765034655464869e-03 -1.2223621739557238e-03
      -6.6935089050170395e-03 6.4697508181728574e-03
      4.8369374977072282e-03 1.0093887091327693e-02
      2.0508042996109182e-02 5.6895118155212152e-03
      6.4323383338577480e-03 -2.2897090923061383e-02
      -2.2460412830085149e-03 -7.3960151627099182e-03
      2.7492196033051484e-04 4.5353853892881055e-03
      1.0866303340842702e-02 5.8599751767368351e-03
      -5.3915052813645363e-03 1.1503645626244139e-03
      -2.7205848919012060e-03 -3.8008744022421407e-03
      -4.5353880542945762e-03 -3.9473416254189701e-03
      5.3544796525375514e-03 -7.1162069992105580e-03
      2.2101426571585283e-02 -1.6766871815020654e-02
      -1.1984660267852268e-03 7.8143863645020273e-04
      -1.0824833241214754e-02 7.1596836493070608e-04
      1.2832771432989535e-02 -4.2242376489085047e-03
      1.7978558729875305e-02 9.1497221332631756e-04
      -1.3877743206247638e-02 1.1922077968007221e-02
      -8.7598471192853380e-03 -1.1235347501490741e-02
      1.5757444582917810e-02 -8.2446843592929985e-03
      -7.6898502331741920e-04 3.7322061305172169e-03
      -4.9538495750623534e-03 -5.8687555190628498e-03
      -2.5417668647655838e-03 1.8739630682729664e-04
      -1.5334073276875925e-02 1.0117983579758898e-02
      -8.1299096125670781e-03 3.8244211930707215e-03
      -1.9083647959090927e-02 -3.3849375085718953e-03
      3.5325489962350445e-03 1.7890460139553779e-02
      -1.8783468944302006e-03 4.5947963127541819e-03
      -1.6866393683734322e-03 -1.6219572046191677e-02
      1.4574331928891487e-02 7.2906829585185941e-03
      9.1393339837586608e-03 7.9142474345935930e-03
      -2.4716508961242925e-03 -1.9067885461335574e-02
      6.5827635490016455e-03 1.2777926693756563e-02
      -1.3282249600833636e-02 1.9534908641605054e-02
      8.4663080895798354e-03 3.3358050798137397e-03
      -1.3553876513345190e-02 3.1841707017709621e-03
      -1.6126186007200869e-02 -7.7010316739329959e-04
      2.2792150282968798e-03 4.5262919456201343e-03
      2.0991078209566208e-02 -1.9003225738731380e-02
      7.3340467560361567e-03 2.5986359484756458e-02
      -3.0762915768491501e-03 1.6735266277492687e-02
      -1.5094967566914589e-02 1.2643924359886517e-02
      -7.1575167088361383e-03 -1.1809645452392340e-03
      6.5727531721794790e-04 2.0123276014988169e-02
      1.0942527134899103e-02 -8.9159833218391410e-03
      2.5477870810868459e-02 -3.1210710168000741e-02
      -7.6805941834153088e-04 -4.2174301776246896e-03
      -2.9302057765476095e-02 1.6254499559627434e-03
      -1.2726874740593615e-02 -2.4881054553687762e-02
      -1.2921522089110472e-02 -2.6307699125584099e-02
      2.0912900926103878e-04 3.7491321355870438e-02
      1.0449248761448574e-02 4.7614477443051317e-03
      1.1232510481443381e-02 3.3140817759880407e-03
      8.7879378108787244e-03 -1.6181268057967926e-04
      2.6803318834266038e-02 -1.2240584997678518e-02
      1.9512403204707781e-03 -8.9207495030571987e-03
      -9.0934935820006085e-03 8.0399573469891843e-03
      -2.1992743686420069e-02 5.7230072103758309e-03
      -1.0003103289683778e-03 2.2471910318013804e-02
      -7.6910825270163005e-03 -8.6121563836611733e-03
      4.7181373550713359e-03 6.0049885749389343e-03
      2.0065805948637935e-02 -2.3450899613263926e-02
      5.5357598337402820e-04 2.8901825070940784e-02
      -1.7273654985195393e-02 -2.7793726843442254e-03
      1.8391409186268939e-03 -3.2301954982509921e-02
      7.3870142674835578e-03 1.7878432420473461e-02
      1.4253614824116023e-02 -6.3313893448906288e-03
      -5.5456683484060246e-03 1.7626363312562607e-02
      1.9636623985133838e-02 5.0895937229189043e-03
      -1.3063162837228630e-02 1.8222981644236112e-02
      -2.8185218104331947e-02 9.2162555660153436e-03
      -6.5835259808529273e-03 1.0098843664964717e-02
      2.2117568541593042e-02 3.5040264284821661e-02
      -3.1009648545040198e-02 -3.1809392633409206e-02
      -7.7128495592400405e-03 -3.6777072904097007e-02
      1.4436355985032307e-02 8.9205152357708613e-05
      -3.3224579708188919e-03 -1.0174465547758251e-02
      -6.2362825783464602e-03 -3.3770662512678844e-02
      1.1967088680054189e-02 -1.0404025142300311e-02
      -9.9710162053819377e-04 -1.4190387231648566e-03
      2.3022465692151838e-02 6.5061977640904272e-03
      -8.8336076458514368e-03 1.9867234548058815e-02
      1.3514830787851822e-02 9.1119598040424517e-03
      4.9269612237475661e-03 -2.9945930771166626e-02
      -3.8163957369779490e-02 -4.2583818441198967e-03
      -4.4668297565514849e-03 -3.2845502845769523e-02
      9.9677273336662847e-03 1.5430290607262446e-02
      -1.4110235414231270e-03 3.1260713349309195e-02
      -7.0780210197503666e-03 -9.0330425674755663e-03
      -9.8083551539414338e-03 -9.2930111929884901e-03
      4.2413277758448541e-03 9.5987489491034146e-03
      -2.4020865106931808e-03 -5.1338538538577812e-03
      -2.4706321577248097e-03 -2.6851113435711425e-03
      1.6000191354204808e-02 2.0470057885848065e-02
      4.0034649614144593e-03 1.5953602211024747e-02
      -1.3439092609578946e-02 -1.3969739260760262e-02
      -1.0468593028850059e-02 -1.2361509763994966e-02
      -1.2413336032824147e-02 -1.5445791914074627e-02
      -1.4330395541384277e-02 3.3690558924479191e-03
      9.1821374195771692e-04 -1.3975554582281819e-03
      1.8963774257076002e-02 -9.3900422185932454e-03
      4.2145509541358832e-03 1.1846436410912029e-04
      -1.1709952590350901e-02 -1.3254860696355680e-02
      1.0223483310646615e-02 1.7926295403494111e-02
      1.5064886593030617e-02 9.9453101332299503e-03
      -9.6149971825615285e-03 -1.3937463013622173e-02
      -4.8371038549115449e-03 -1.7935142740707011e-02
      -4.7258572264389119e-03 -1.2489360809246250e-02
      -1.2194967571291782e-03 1.8672988246704148e-02
      1.2964549069900829e-02 1.8104110890273179e-03
      -1.3134183412767739e-02 -1.6190129564633638e-03
      -1.4871021971105432e-02 7.2933664937196441e-03
      1.1461283952762686e-02 6.4935776156360954e-03
      -4.2852109692777755e-03 -4.5867724228626167e-03
      7.4431189403805741e-03 -1.6672869261886759e-02
      1.3261045589087595e-02 -3.4196251708344988e-03
      -1.5625857753562424e-02 1.2707004133725219e-02
      -7.6308047427337206e-05 3.8176861020940278e-05
      -1.1044506175202692e-03 1.0702353833645309e-02
      -5.6408998960910681e-03 1.6510423546038502e-02
      -1.3684625938982151e-02 -1.7929813569737444e-02
      1.8041907285350760e-02 9.8255538592207821e-03
      1.9425218829206503e-02 1.1318067006549366e-02
      3.3075334233938383e-03 -1.7909558525550651e-02
      4.8246392911705785e-03 -9.5651810987833555e-03
      1.0570169387820133e-02 5.1803967462181934e-03
      3.9801071031625001e-04 -3.8611965035292711e-03
      -1.0669754028978941e-02 5.5823708052394911e-03
      1.0173392914458939e-02 -1.0324912076263946e-03
      3.4230292178278831e-03 1.1292128314096520e-02
      -4.2153452819737513e-03 -1.3832720200723915e-02
      1.3361721593458293e-02 1.6947252460929582e-02
      6.7948847855750245e-03 -1.4790765750615033e-02
      -1.4882789344960623e-02 -1.7655710595902908e-02
      -1.7697237695294028e-02 1.8317613872888702e-02
      -1.1012496806499149e-02 2.2439690713475314e-03
      1.1875781648889515e-02 3.1726352307660504e-03
      -2.8498704683136062e-03 9.6643142224241904e-03
      2.1311733358067514e-03 9.2386452399710016e-03
      1.2092436936262944e-02 -3.7989201530356002e-03
      -5.9351330161369759e-03 5.3385038241979830e-03
      4.3339039520273320e-03 2.0442546753103718e-04
      5.8406363212675626e-03 -7.6452186891220542e-03
      3.2682939079835627e-03 -1.5104944362775815e-02
      -4.8232236219777241e-04 -3.2980514489727342e-03
      -1.1843730884569862e-02 -1.9547290140734832e-02
      -9.7024109016236072e-03 1.3204860985925677e-02
      1.1291622458466039e-03 -1.1922332383959674e-02
      7.6802963615069152e-04 -7.5494744947643489e-03
      -1.2551526850572170e-02 -1.7105734621259694e-02
      1.6410149126256889e-02 2.2968725162154015e-02
      8.9801210523349929e-03 3.6126868672989188e-03
      -1.4657711119162723e-02 -1.7308845010500968e-02
      -1.6557556218871210e-02 1.3951969691609932e-02
      1.7975322394381692e-02 -1.0726694248245180e-02
      -9.2859535187937679e-03 9.0341309166108719e-03
      -9.7112148673100512e-03 9.6186437521517763e-03
      -5.1062299563420987e-03 1.7073844174658105e-02
      1.0951083853108882e-02 6.1320522356892882e-03
      1.0052084257649998e-02 -2.1493300957757394e-03
      -1.2816561323923788e-02 7.3883909866611381e-03
      3.7364273300703917e-04 8.8829290914524666e-03
      -1.0056830716949341e-03 -9.5666166749718718e-03
      1.6411201310638283e-02 -1.4055470118305961e-02
      -6.6745291334136111e-04 2.1438139166551351e-03
      1.2133745462823536e-02 2.7535261717519435e-03
      -1.8961468546433637e-02 -2.1593936378892176e-02
      -4.2956862863066944e-03 2.3934598501009180e-02
      1.7465608346023947e-03 4.9119958418702703e-03
      -1.4887415223387667e-03 -2.5456904428381140e-03
      8.5066455603630339e-03 2.7700097784722302e-03
      -4.8998069996745936e-03 1.9211062600841655e-02
      -2.2760631171469307e-03 2.2546812808810348e-02
      2.3428514578706294e-03 -2.7156715375181804e-02
      -1.0832494478290409e-02 -3.1659944784652541e-03
      1.5153599396509671e-02 -2.3857858917152058e-02
      -1.2145743852441026e-02 5.6563543205457555e-03
      -1.4972854189238686e-02 -1.9042034596594204e-02
      5.0937245874229185e-03 -1.0412701305531184e-02
      -1.3746691514787468e-02 -2.5086508469584915e-03
      1.8979633281508260e-02 -3.9464230662167171e-03
      1.0569099334672113e-02 7.2959230101386757e-03
      1.7045928327466715e-02 9.2962586459965271e-03
      1.6491595747499671e-02 -1.1695016755002069e-03
      -1.6112179674923649e-02 7.1459059540380536e-03
      1.9768051014082647e-02 4.3039307388208648e-03
      1.2936772479740894e-02 -6.3078851040232250e-03
      -3.2120423012214632e-03 1.4785805812934938e-03
      -1.5644209419826166e-02 1.5774409777596927e-03
      -1.9070352555792969e-02 -1.7698489352218669e-02
      -1.3698334433215047e-02 -2.2759274314707125e-03
      1.5637251914113661e-02 -8.9744051739213196e-03
      9.5118459033086307e-03 -3.3757835741290662e-03
      -1.1756437405672920e-02 1.0903330409305870e-02
      -4.3363075316564170e-03 2.0039073926332654e-02
      -8.1072056175599694e-03 -4.4906962893300406e-03
      1.8121380685048514e-02 -1.6972232779033567e-02
      -8.1292301079676933e-03 -1.4295659914754731e-02
      1.2544240948090651e-02 1.4656179298979563e-02
      1.3525065667673001e-02 -2.2071448373296538e-03
      -1.3427341510724699e-02 1.7033860695667129e-02
      2.0501903060888747e-02 1.3977703387545266e-02
      -4.6436016356018756e-03 3.5487994792852626e-03
      -1.6805439031088925e-02 1.5179721293190304e-02
      1.3251160427024632e-02 -1.1635074489888412e-02
      -1.6282059665249086e-02 -3.7001978977008365e-03
      1.1891203691383337e-02 -1.1753942369924171e-02
      1.0181538423833224e-02 1.0815551721445167e-02
      -1.5244202229510565e-02 -1.6931154178003208e-04
      -1.6260243757054585e-03 -5.1717871081776584e-03
      -5.0306549655106279e-03 -7.3263590112649501e-03
      1.1359399463021521e-02 -1.0702214414317748e-02
      2.2640936926336657e-03 1.0423897207205010e-02
      -1.6552008613411353e-02 1.5008504393959480e-02
      1.5308630086794919e-03 1.5570548186651944e-02
      -7.6424310818534310e-03 1.5437408116004556e-02
      1.5871151446212234e-02 1.4751182443865158e-02
      8.4620712239141561e-03 1.1304073076876795e-03
      -5.0300195155903310e-03 9.4747032492933855e-03
      3.2134976169290422e-03 -4.9800481358926816e-03
      4.0428242042653240e-04 7.8199654512300012e-03
      -6.1065239647418420e-03 -1.1522362393600660e-02
      8.8586866841854038e-03 -1.6194868340079667e-02
      1.0875860533684008e-02 1.8807471113976498e-02
      -1.8111864654009612e-02 -9.4847422829640229e-03
      1.3570493685070382e-02 6.1790891552335045e-03
      -1.5016102794409715e-02 1.3018554265599636e-02
      1.3749025253061995e-02 4.0326689170394553e-03
      -3.4726425499797117e-03 -6.7959436948960717e-03
      -5.4135320794665258e-03 1.5911116802364532e-02
      1.3865429002383341e-03 1.2335741416813669e-02
      -1.5197796669343471e-02 1.9940739528390233e-02
      8.1545295824134671e-03 1.8125218073290005e-02
      1.3082689041671248e-02 -1.1281348385958482e-02
      -5.3101333423941563e-03 1.1995583269828868e-03
      1.8645056421295773e-02 1.4957719794400777e-02
      -1.4817950040543518e-02 -1.8367422734499064e-02
      4.8520856218153881e-03 6.1321004698715363e-03
      -1.1688886733069287e-02 2.3414571181675555e-03
      -1.8148737393165863e-02 -3.8828405232974430e-03
      1.4656593965438991e-03 1.6815226139397298e-02
      1.7585429465044616e-04 5.4120064801895388e-03
      8.6060245716075069e-04 5.1696454110067281e-04
      6.0472442653849504e-03 -1.0091231682881538e-03
      -8.2847557873030556e-03 -7.4201064082444366e-03
      1.7588415732630314e-02 1.4905798415604195e-02
      1.5613915143143500e-02 9.4896063450702912e-03
      7.2302950172285453e-03 1.7428179454241407e-02
      -2.2191074053127344e-03 -7.0266187008071372e-03
      -1.6517707715392682e-02 -1.0795191094515691e-02
      -6.2600761877798314e-03 1.0545164903331163e-02
      1.1243067346101763e-02 1.6767191856520834e-02
      9.0854770409259603e-03 -7.3786456405432362e-03
      -4.1084516594429272e-04 1.1687739959594380e-02
      -4.5842200123048914e-03 3.3822322129699947e-03
      1.1075411088283993e-02 -8.1204561056118525e-03
      -5.3048590161982787e-04 1.4382042657615703e-02
      1.3081739687751550e-02 -1.8674040812270649e-02
      4.2652496233663191e-03 -1.7952594546914606e-02
      -1.0409601581988554e-02 -5.3438175081040934e-03
      -3.2685341964827255e-03 1.8382276769324142e-02
      -2.0439624202485268e-02 1.5902686622197005e-02
      -1.4951038257756254e-02 1.1557751735159385e-02
      1.6292734825906152e-02 -1.7543560946543135e-02
      3.9660457651308012e-03 -1.3608896376583914e-02
      2.4057181308392451e-03 -1.4911506245905282e-02
      -4.6700417949918048e-03 -1.4127591350484879e-02
      -1.6937640020169186e-02 -2.2558459695662315e-02
      -8.4330880599565693e-03 2.5170437574727482e-03
      8.1396106034758667e-03 -1.7771369008876242e-02
      -1.5064688590916774e-02 -1.1552193534785073e-02
      4.0541549348970373e-03 -1.5509238224135826e-02
      1.3144101782242443e-02 -1.0503120654264442e-02
      -1.5134194096319825e-02 6.8472664788603987e-03
      5.9875895480272518e-03 2.8818686168759406e-03
      1.0536254277185261e-02 -1.0524350697447232e-02
      1.8435295127460317e-02 -1.3428634473250392e-02
      -8.0171517981537377e-03 -7.0188600160924486e-03
      -1.2127472195408953e-02 1.6568627449887498e-02
      1.9081015291402274e-02 -1.9266738309212623e-02
      -8.0676662270198199e-04 1.5590369890500387e-02
      1.5737295817341516e-02 -2.0123751464319731e-02
      -1.5591309019565688e-03 2.4510761823567156e-03
      -1.3013695249670651e-02 7.9936246950143685e-03
      -1.3654863747827725e-02 1.6367006451169383e-02
      -2.8344055022495353e-03 7.9420198497100036e-03
      1.4962981633643161e-02 -3.0067338606751424e-03
      -3.3604440050106076e-03 -6.4196898344142835e-03
      -2.1704976011775980e-02 2.2990886346645076e-02
      3.1922662036092293e-03 7.8255219156316853e-03
      -1.4036144814264153e-02 1.1678044516329443e-02
      -8.8303907440491613e-03 1.0775874854159489e-02
      3.1851472045918462e-02 -2.4058727861033944e-02
      -6.6460473991878126e-03 -1.8281630243106750e-02
      2.6103733545171114e-03 1.4568275790794779e-03
      -1.5029894441920049e-02 -4.7866600430107528e-03
      -2.0209691548923477e-03 -1.1871150424716450e-02
      -5.8695041402175290e-04 1.0473364245039444e-02
      -2.9610753031515565e-03 -6.7980233948557412e-03
      7.4114279595766672e-03 3.2455736111460139e-02
      1.6457747477665357e-02 -2.4283019322778942e-02
      -8.3030892624071598e-03 -1.2214496791244087e-03
      -1.5663334922071292e-02 -2.2589124659340841e-02
      -9.3228927626483535e-03 -9.9493522967340053e-03
      -1.0063333929942447e-02 -1.2313687649769395e-02
      2.7148561347602480e-03 -1.3952335693170110e-02
      2.8705130172596238e-02 1.9602336502670261e-02
      2.2621144725276408e-02 -1.4691383072773035e-02
      -2.3226460159422341e-02 -1.7407537821602186e-06
      4.7307427057118601e-03 1.6620662168755834e-02
      2.5310481055232641e-02 2.0155526340666686e-02
      -2.6749346077141758e-03 8.8056710582673486e-03
      -1.8440381148291357e-03 -2.7348841567658311e-02
      7.4594056509165885e-03 -1.8805878805487626e-02
      2.4613073918210736e-02 1.5246330347263578e-02
      -2.9069928435476945e-02 -8.5475653463027573e-03
      8.0960688845945206e-03 -2.8226392448486661e-03
      -4.2151660109432752e-03 6.5179920271745057e-04
      3.5216875177397984e-03 6.6363466781840632e-03
      3.3446918884908793e-03 -2.1366691645345572e-02
      -5.3059934405708066e-03 -3.1702339499347802e-02
      1.2751041995202514e-02 5.5706710774167997e-03
      -2.3692280792316559e-02 -5.2084984381560867e-03
      -2.2081899187074649e-03 2.8581283191386089e-03
      1.4318666789801163e-02 3.1502974732213834e-02
      -2.0039357243745167e-02 8.5264343753111722e-03
      -2.2542135097764641e-02 1.6616109613780797e-02
      1.6738524902731835e-02 5.5192538891060388e-03
      1.8528468036509253e-02 4.8212671809960365e-03
      -1.6443378433172517e-02 -5.2171332195763889e-03
      -1.9643991778647171e-02 1.6260731301992262e-02
      1.9213836316664196e-02 -3.9419773958985650e-03
      7.6239250220590743e-03 -1.2507359314244246e-02
      5.9970958381811174e-03 2.4073749732523696e-02
      5.9175541095683763e-03 6.5878584792479133e-03
      -8.1219709506851132e-03 3.1161347914214422e-02
      1.5813815490259300e-02 -2.4202193865085785e-02
      -1.9476723960678441e-02 6.8840653129010579e-04
      1.5108179357646731e-02 2.0255577170962189e-02
      1.0135696115994974e-02 -1.7083532617762725e-02
      -4.2356003264748298e-03 -6.2170102661035448e-03
      -5.3097725045179655e-03 -6.4682504289293886e-03
      -9.7797349861294281e-03 -3.0728847942655523e-03
      -1.8091356694809435e-02 3.0109283744835283e-03
      -8.7610196250784578e-03 -1.9977756836978309e-02
      2.7925200170907192e-03 1.2084673477823042e-02
      -9.7559262358908394e-06 -1.5028776081535231e-02
      -2.8952187712242135e-04 1.6409707261496542e-02
      -1.3117547928046024e-02 7.8680336415757231e-03
      1.9649065878780334e-02 2.1326077126576711e-03
      -1.6631325850252506e-02 -2.2509157591423561e-02
      -1.3611876042477390e-02 -2.2295847854839901e-03
      6.0191243015934592e-03 -1.3535279112370386e-02
      -2.0199209189759895e-02 7.9980593035086645e-03
      4.0978318450342012e-03 -2.1457880840078554e-02
      -6.9439948609700680e-03 1.7321537622034183e-02
      -6.8190916272479578e-03 -7.9382639924553602e-03
      2.3870022444937751e-03 -2.1548341224806675e-03
      -1.0985798536485219e-02 9.2381822672668121e-03
      6.3925193612578588e-03 -7.2231615982680780e-03
      7.6367843527154590e-03 -2.0197374137576568e-03
      -2.2337259670071271e-02 1.6813420937599868e-02
      1.0248910873871281e-02 1.4372874508022283e-02
      1.7973704181978543e-02 -1.0294744914010764e-02
      1.5777239269036781e-02 -1.0758441785448993e-02
      7.1820561462673195e-03 -2.1272392711591710e-03
      1.5701269305383409e-03 -1.9213837058214767e-02
      1.2881954031127503e-02 -1.9081267232198850e-03
      1.0063987132964854e-02 -1.4010341726769672e-04
      -3.0717150279589269e-03 1.3880480363448956e-02
      5.7392910449832486e-03 -1.3694724761004534e-02
      3.8722418012315221e-04 1.7992394416738649e-02
      -1.6761389885011985e-02 1.4165969199894693e-02
      -1.2086198609578295e-02 1.6375667061200295e-02
      1.3166539053248539e-02 -9.9458947888467486e-03
      -2.4460940662616101e-03 -1.2979932937481219e-02
      -3.0762088333899933e-03 -3.8005302327114949e-03
      -6.6874396188986570e-03 -1.3412913752376517e-02
      3.6961505267230675e-03 -2.8196397051884941e-03
      -2.0821166513557518e-02 1.3613982708159229e-02
      -1.1870831925527799e-02 1.1186033950834111e-02
      -1.4406873138982297e-02 6.1011526440221684e-03
      -4.4431066838836811e-03 -1.2111297285893694e-02
      -1.5115928558989888e-02 -1.7189349036815845e-02
      1.0900779324387353e-02 2.1425402846315025e-02
      8.0316856889853135e-03 4.7597003496611563e-03
      2.1220164035304568e-02 8.2239224374840783e-03
      1.3345086792857092e-02 9.9490219462646887e-03
      8.2358631212021537e-03 2.5311997168635334e-03
      2.0831696269731231e-02 6.7529730679062854e-03
      -7.0618753851623807e-03 -1.2322984842436196e-02
      3.3702364075251928e-04 -1.3769678965180880e-02
      -1.0290436977847881e-02 2.3502386672724445e-03
      1.3306480743075183e-03 1.5670906663880785e-02
      8.1378446013433761e-03 -1.1906372836749992e-02
      -5.1666505541820597e-03 5.7725743509664425e-03
      -1.3264207801168956e-02 4.5521867653970103e-03
      -3.0882425551396493e-02 -4.9815418689772278e-03
      -2.4250213798653608e-02 -2.4856349311617856e-02
      7.1083824876282484e-03 -2.3035018488842825e-02
      -1.2466190155084772e-02 7.7941025383357885e-04
      1.1623388386145040e-02 -2.6829632516613819e-03
      8.0495873183283363e-03 1.9112098692750741e-03
      -7.0763772321481965e-03 -5.5241411200203450e-03
      2.4001589135657378e-02 -9.7336024213387651e-03
      3.3353542558830218e-03 -1.2601048004368223e-02
      -4.9721238497555265e-03 -8.7853690066769397e-03
      -6.1394709476093063e-03 2.7878977080115527e-03
      4.6189600989901833e-03 3.3562271326247855e-03
      1.0341788508604040e-02 -9.7319097068075816e-03
      -1.3200230078289781e-02 -1.7247784463637852e-02
      1.0975022020424181e-02 -1.7618450156095512e-02
      3.1808589185351207e-03 2.0453530004887763e-03
      1.4383652290921832e-02 -1.2266788185423831e-02
      1.4622876751515992e-03 -3.8521620195027917e-02
      -8.0540876579442491e-03 -3.0157047537279157e-03
      -1.4047177561146500e-02 -1.5316579079761854e-02
      2.1704770126738083e-03 2.3101386094494320e-02
      2.6796797249643766e-03 -1.7281861198632932e-02
      -1.0793153445062851e-02 4.5424516923509052e-03
      -1.4409753726285928e-02 7.4201538157813978e-03
      -8.7469062774747815e-03 -1.8936245371284997e-02
      7.1761727639940778e-03 9.3963182698048996e-03
      8.8561320614282562e-04 -1.8452168511724504e-02
      1.4033823618267514e-02 -7.8575247503055213e-06
      -4.3258290982837655e-03 -3.1469253023142185e-02
      9.4588098874092488e-03 1.1235434941153791e-02
      -1.3723060039949199e-02 -4.4962300165891306e-03
      1.2417010581764429e-02 -1.6664195754736030e-02
      -1.1777839155819921e-02 2.0431904907055300e-02
      1.6222787902106829e-02 -8.6236511060990484e-04
      8.2417302930288417e-03 2.3844810494785325e-02
      7.9106119979042381e-03 2.7120422827005698e-02
      -1.8531422761799178e-02 -4.9992275095537093e-03
      -8.6112255463857072e-04 -1.8497127667692573e-02
      -2.3434431314042037e-03 2.1886759128577916e-04
      -1.2976984817018648e-02 2.3354181557463556e-02
      1.5193672627695486e-02 3.0529170648294007e-02
      1.6645066212899021e-02 1.2424345105659472e-02
      -8.6699361145729410e-03 -7.6673218501124045e-03
      -1.3031561600031656e-03 -2.6554322972097816e-03
      -1.1197216274293995e-02 1.4091563234980176e-02
      1.0012999590502045e-03 -6.6203456916156421e-03
      -7.1081638811563395e-03 -1.7092729880901908e-02
      8.3394914318750853e-03 2.0285575247181324e-02
      -9.3348093282034934e-03 -9.2367759540939922e-03
      1.2687251754961229e-02 2.1154734392445990e-02
      -5.0338613300621674e-03 1.6056733310535098e-02
      1.0596930967551271e-03 6.0580707006631963e-03
      -1.1732517569921960e-02 3.9654611120507586e-04
      -3.6788782218771113e-03 2.3649308840638077e-02
      -1.3612396840455782e-02 2.2326671707476188e-02
      8.5129201427339828e-03 2.2219303430549179e-02
      2.1681555633179070e-02 8.1766431839079192e-03
      -1.7148171364449412e-02 4.1609206116424388e-04
      -9.8340992030897644e-03 -1.2132738515566654e-02
      9.8967122603764914e-03 -2.0155533988900427e-02
      -2.0675814846172119e-02 9.8565338284672659e-03
      -1.0308498257498877e-02 1.6633645964994344e-02
      2.0309243964397296e-02 -9.4150074936128359e-03
      1.3338709435913731e-02 -2.0645532316468560e-03
      4.3381944418362803e-03 9.6458663132821738e-04
      -1.8430521805542898e-02 4.8559429896404202e-03
      3.0463446422371028e-03 -1.6427482643255800e-02
      4.7882070703119273e-03 -3.1740012240293841e-03
      1.9988327241073887e-02 2.0806152362541106e-02
      -1.7504611633153325e-02 3.4732280467406323e-04
      -4.2800715065800504e-03 2.2649772237938702e-02
      1.4361884093725135e-02 4.2113559346176633e-04
      -8.7329513484682587e-03 1.4883118456253425e-02
      -1.3175417833350645e-02 2.7143014707750292e-02
      -1.1099224661196158e-02 -1.1693825789535406e-02
      3.2919037062651797e-03 6.0826874512283943e-04
      -2.8153771378755580e-02 -2.9858200563966954e-02
      4.9987600872946287e-03 -2.1519477197188712e-02
      1.5653834332232924e-02 -2.4886049117569187e-02
      1.5365544415878851e-02 6.9899182819136776e-03
      -4.8481050083099397e-03 6.0939776352058102e-03
      1.3602215384340302e-02 -1.0615252479253937e-02
      -1.8392260788916152e-02 1.2102235048670853e-02
      -6.9927189586772992e-03 1.5198747097237701e-02
      1.3400249500908623e-02 2.6762214753643936e-03
      -1.6273441835060767e-02 -9.8140091459920625e-03
      -1.7474505030178267e-02 4.2424657480331094e-03
      -3.4795974402056177e-03 -1.7178600881376314e-02
      9.9510583178930717e-04 -9.8372759454774129e-03
      1.3779684765311960e-02 -3.8806400886969705e-04
      -1.2741194014801126e-02 1.5800763869203586e-02
      6.7417005577004819e-03 -7.8269217213608466e-04
      -2.2207126169844268e-02 -1.0515934249522687e-02
      -4.1336847433337837e-03 -4.4428208688842563e-03
      1.2303491402384389e-03 -1.5890483532227766e-02
      -5.1731180157223800e-03 8.9399639340614467e-03
      7.5077129160111590e-03 2.3636921303768249e-03
      -1.3528972902964205e-02 -1.1043723861405800e-03
      -6.3954410558282951e-03 -7.3251839726674811e-03
