<?xml version="1.0"?>
<opencv_storage>
<opencv_ml_ann_mlp>
  <format>3</format>
  <layer_sizes>
    9 100 100 2</layer_sizes>
  <activation_function>SIGMOID_SYM</activation_function>
  <f_param1>6.6666666666666663e-01</f_param1>
  <f_param2>1.7159000000000000e+00</f_param2>
  <min_val>-9.4999999999999996e-01</min_val>
  <max_val>9.4999999999999996e-01</max_val>
  <min_val1>-9.7999999999999998e-01</min_val1>
  <max_val1>9.7999999999999998e-01</max_val1>
  <training_params>
    <train_method>BACKPROP</train_method>
    <dw_scale>1.0000000000000000e-03</dw_scale>
    <moment_scale>0.</moment_scale>
    <term_criteria>
      <iterations>15</iterations></term_criteria></training_params>
  <input_scale>
    5.3386901834437666e+00 -2.3587665603219139e+00
    9.6790639025520218e+00 -2.1108629368979912e+00
    1.3769609709117526e+01 -2.2774805023439972e+00
    1.9232989761087541e+01 -2.1323595156743451e+00
    2.3322393671938787e+01 -2.0140865444725162e+00
    3.0299528539969881e+01 -1.9991306804110245e+00
    3.7384714832355812e+01 -1.9868519039955597e+00
    4.4020095828756396e+01 -1.8453698482436918e+00
    5.3975951067660638e+01 -1.8946789124945558e+00</input_scale>
  <output_scale>
    5.2631578947368418e-01 4.9999999999999994e-01 5.2631578947368418e-01
    4.9999999999999994e-01</output_scale>
  <inv_output_scale>
    1.8999999999999999e+00 -9.4999999999999996e-01
    1.8999999999999999e+00 -9.4999999999999996e-01</inv_output_scale>
  <weights>
    <_>
      -1.6337820018587348e-01 1.8243402529521580e-01
      8.8313137062455166e-02 -1.9904821113825436e-01
      -1.6754091070907479e-01 -9.3983349631263091e-02
      1.2856204707581442e-01 -1.6066661435685817e-01
      -1.9128564388035543e-01 -1.4445805408784043e-01
      1.2434928919043070e-01 1.8132200253524136e-01
      6.4382300648255356e-02 6.8764026188543895e-02
      1.2140748725476920e-01 1.6039169050711599e-01
      -1.3334722499395510e-01 -2.6472659734330588e-03
      2.0789024714907417e-01 1.3377160795133666e-01
      1.4987196524243521e-01 -1.3422128976503320e-01
      1.0155585957446103e-01 -2.3647839023325481e-01
      -1.6213011883297204e-01 3.9834717625644124e-03
      1.6793332307032433e-01 -6.3744201082016243e-03
      -1.7947336789513582e-01 -3.3767018522041031e-02
      -5.1549340217029893e-02 1.2415707418254508e-01
      7.2608812639406023e-02 -1.2164262887690964e-01
      9.3450707296280858e-03 -1.6662907643798666e-01
      1.3780087176047462e-01 2.6989484002473235e-02
      1.3481077754245885e-01 1.6078923445699264e-01
      1.0421429323307954e-01 1.0645552748149081e-01
      -1.4979575140956503e-01 -1.9288891792588324e-02
      -1.5642353993529934e-01 1.7356013540391454e-01
      -6.1741788631582938e-02 -1.7374451202813856e-01
      -1.3058586322203367e-01 5.4171847254902504e-02
      -1.3495272794448052e-01 7.3941756870819969e-02
      -1.3754135319988500e-01 -1.6488701049017307e-01
      -2.2988204571981957e-01 2.4994143894621118e-01
      -8.5017099445301836e-02 -1.2723884478368772e-01
      1.2218737684232850e-01 1.8163236637267804e-01
      -7.3384277530259959e-02 -1.7465627724873559e-01
      -4.1864376684298777e-03 2.1294596181711503e-01
      -1.3977228638774108e-01 1.6113828905746311e-01
      5.4869471816921721e-02 -5.7110014291069260e-02
      -5.5237337381284411e-02 1.2341970014045953e-01
      -1.6314533303226769e-01 1.4243469750802515e-01
      9.4521603858349595e-02 2.5032097622371713e-01
      5.6317049039326848e-02 -3.5329755025409894e-02
      -6.6883268627705120e-02 -6.2239349539228030e-02
      -9.5466397941631795e-02 -1.0550966379098609e-02
      5.7482023914476127e-02 1.7932662072515271e-01
      -1.5777597470060115e-01 4.3940654162448856e-02
      -2.0815296291873517e-01 1.1717952951201699e-01
      4.6554470753296263e-03 1.6352041292284336e-01
      1.0721179734449864e-01 -5.3485469184356781e-02
      -1.0504088633339169e-01 -5.1041306622328461e-02
      -2.2427000734855665e-01 8.7916477889750572e-02
      2.6279516799633203e-02 1.6819284255632652e-01
      1.4970804794356371e-01 1.2878675745522444e-01
      -4.7194345594863220e-02 -4.4337977838095670e-02
      3.5404233979291232e-02 2.2230312344855299e-02
      -9.2329273460107941e-02 1.0527491979146809e-01
      -1.2711603499396731e-01 1.2500929973157243e-01
      -1.3039018454076848e-01 -1.6069085289561955e-01
      -1.4479709972055713e-01 1.0375680049820711e-01
      2.0840220942912177e-01 1.4848554599336344e-01
      -2.4248468842169888e-02 9.5538968739636923e-02
      7.1473216769565764e-02 1.5053709958621811e-01
      1.1636077631252040e-01 1.3004753812765019e-01
      -4.5824287611970368e-02 2.4785457518939350e-02
      -1.0892236281276245e-01 5.5516901565995248e-03
      1.4278615993103580e-01 1.6116076920936692e-01
      -1.7747648821031969e-01 -2.1153264797243584e-01
      1.1720052267070905e-01 1.4919152453905954e-01
      -3.7745152346660866e-05 1.4458218180972265e-01
      2.0718684628429434e-03 9.6504843655946929e-02
      3.3584690698810052e-02 -1.8398897260561561e-01
      1.4534221833810182e-01 -1.5174182461300850e-02
      3.9277435765208014e-02 2.5703985376685151e-01
      3.9873379954555491e-02 -6.7663547942964863e-02
      1.9682383947315932e-01 5.5507067330305401e-02
      -1.5708887309300973e-01 1.0344573479839955e-01
      -2.0030076025582974e-01 -1.9315043903669549e-01
      2.1924313361150763e-01 6.1852605892537153e-02
      -1.5539891519082247e-01 -1.8509335598701865e-01
      -1.5811473796693667e-01 1.0306492259114548e-01
      -1.2244669584662718e-01 4.0562148260755729e-02
      -6.6340224667363432e-04 -1.1974708870074119e-02
      -1.1519047742783986e-02 1.9509259444189228e-01
      -1.4486828266650942e-01 -1.5984894550111092e-02
      -1.7573094974882572e-01 -1.6978942273222827e-01
      -1.9044697211404416e-01 2.9455010883874557e-02
      1.3136625824814605e-01 9.3329649787979099e-02
      8.6703315561456690e-02 -9.8291075295613720e-02
      1.8480780464845714e-01 -1.0258396398446187e-01
      1.3832331734407527e-01 1.1392561750002360e-01
      8.7781940425873561e-02 -1.0831560449916461e-01
      8.6187232037793646e-02 9.5643220253391323e-02
      -1.2412513797276044e-01 2.4878897202214473e-01
      -1.3286103225835558e-01 6.5905244635358795e-02
      -1.6507708701412219e-01 4.2506790951602730e-02
      7.8026306165831505e-02 4.6400023309165712e-02
      -1.2236999939872101e-01 9.8655376534053096e-02
      1.7269273538099467e-01 -1.3218204754920726e-01
      4.6413508469262205e-02 -1.8682523881771212e-01
      2.4920466316913279e-02 -2.2365912687667456e-02
      1.9689665569687187e-01 -1.5766153823097820e-01
      1.3384174152414430e-01 -1.4466595302185799e-02
      1.4552498275339873e-01 7.1472880674561659e-02
      2.1757335651390444e-01 -1.5491855154382750e-01
      -8.4640068818789355e-02 -1.5783999353233999e-01
      -4.5030368434582094e-02 -3.9990970223599570e-02
      6.2003085683616149e-02 -3.9621161902656632e-02
      -8.9685887424504632e-02 1.5674155950322957e-01
      -5.8126434811651258e-02 -1.6907634589634638e-01
      1.1024974126067016e-01 -7.0060496529502067e-02
      1.5463468543308134e-01 1.9201190057261611e-01
      -8.1568762023544336e-02 -3.4445036120944600e-02
      -2.2755644064728628e-01 7.1038139950577129e-03
      -3.0744086539068627e-04 -1.8725486852405832e-01
      1.8130718476964983e-01 1.7414058712105882e-01
      -1.2571908317804373e-01 4.8679263879451332e-02
      -6.8421679618549683e-02 -9.5222713391051941e-02
      -3.3714608216302025e-02 2.8164675473504264e-02
      -1.9104234070936432e-01 6.4667238852854136e-02
      1.0322906789748652e-01 1.5029335069093200e-01
      1.1819371732896772e-01 -2.4573417087076971e-02
      2.1798904247355597e-01 1.4032382371149590e-01
      -1.3204269614733866e-01 -2.8263870968999068e-02
      1.9885173757295951e-01 -1.9198939182684413e-01
      1.7085667937832080e-01 2.0070919095591855e-01
      1.9735398263398565e-01 -1.0188471925278399e-01
      6.1627146701932797e-02 1.4639063805769031e-01
      -1.8863885119865667e-01 2.5167024050273337e-02
      3.0183245847175019e-02 -1.1877344031546212e-01
      4.8776953984188132e-03 8.2162800216265153e-02
      1.3775866170264753e-01 1.8879784940845690e-01
      -5.8886916212344056e-02 -1.1308198392111563e-01
      2.5692042825567449e-02 -7.6460109793624609e-03
      -1.4877740314506843e-01 4.5752008583133302e-02
      1.5951248805909629e-01 1.5461349768180041e-01
      -1.0803429547767383e-01 1.0862313068389698e-01
      -9.9255840823846433e-02 -8.0095616815560100e-02
      1.2580797839851771e-01 -2.3068366611953717e-02
      1.0837280583768807e-01 -1.1759216477009700e-01
      -4.3198633315612842e-02 -8.2094464032583025e-02
      4.5650395551821862e-02 -9.1554579064585057e-02
      -3.9421868234493208e-02 2.1372483148539628e-01
      -5.9760937978796377e-02 -5.9777566222309356e-02
      -1.0369002628146974e-01 1.7079912775570680e-01
      1.4858070410645893e-01 -1.2326632066031509e-01
      -1.4549943500778792e-01 -1.3771421357094016e-01
      -4.5101944689933025e-02 1.3778463199076232e-02
      2.5247715527602554e-01 -9.7286080549984846e-02
      1.2642566894460133e-01 1.2994219469732843e-01
      1.3252018689379519e-01 -1.7419826404044311e-01
      -9.2470154342893587e-02 -1.3081330957995205e-01
      -1.5186683126282402e-01 -1.6856352726783527e-01
      -1.2194276781688217e-01 9.3425871074875974e-02
      3.9461566469487447e-03 -1.0678358202484002e-01
      -1.6232021727035559e-01 -1.3853932539019831e-01
      -1.1964877785763678e-01 9.3884430905571456e-02
      9.8602235536854710e-02 8.3525392714188976e-02
      2.3602743731755922e-02 -1.1342918151032355e-01
      -7.7084980857491825e-02 -6.1597456328756510e-02
      9.8750068739646132e-02 1.3682630891171169e-01
      2.5138182609378712e-01 5.4366072610703135e-02
      9.0999136137090320e-02 1.6382790050072280e-01
      1.0748600233228288e-01 -2.4015368311282934e-01
      1.9437897479430095e-02 -1.6777688469576998e-01
      -1.0631515425994718e-02 4.1174765877402299e-03
      1.0952328000328708e-01 -9.2657863589807835e-02
      -1.4426441972440884e-01 2.0620615941044304e-01
      -7.5871004360566225e-03 -2.2486205069880971e-01
      -1.4758450666184408e-01 -5.1548458878880078e-02
      2.2607992461563708e-01 2.7618526595525897e-02
      3.9300837286827005e-02 8.7182182923505991e-02
      6.9461695857919434e-02 1.2474175451593288e-01
      -1.2949871653110451e-01 2.6720191503722329e-01
      -1.9951003674760173e-01 8.3909783877621380e-02
      -1.6379285230314986e-01 1.5442010083182465e-02
      4.3940702490896009e-02 -1.6058239445430519e-01
      -5.5076537252838259e-02 -1.0164703195663843e-02
      1.0320096498029112e-01 -9.7148189424373810e-02
      -1.2100722745118923e-01 -1.5230674999908736e-01
      -1.4378024445812895e-01 -2.3590878170655485e-01
      -6.0723553567882879e-03 1.1123391294662581e-01
      -2.4395141793295205e-01 -1.1783193651134160e-02
      2.1544836887365103e-02 2.3016690656867841e-01
      3.5753429800154446e-05 -1.4108394618952774e-01
      1.6655979675278890e-01 1.5263545278120422e-01
      -9.9396743712346067e-02 -2.8554991956273863e-03
      6.9284569388451428e-02 -1.6696837629927822e-01
      1.9763594952004210e-01 6.1077743766357814e-02
      8.0644710540969125e-02 1.1134485527608536e-01
      3.5052886374310352e-02 -2.0119776650847784e-01
      -1.1192199300680121e-01 8.3852997396910517e-02
      -8.4726733116375769e-02 -3.4645753720770008e-02
      -1.5028619999652664e-02 1.3344608884336159e-01
      -6.2299367378272325e-02 -1.1168227039820341e-01
      -2.0966994747806608e-02 -7.7839418243747807e-02
      6.1828692249618629e-02 -2.0588517315922431e-01
      -6.7606786648123363e-02 -1.3240050814991547e-01
      9.5326510851272778e-02 3.3742901127371924e-02
      -7.8545082209173889e-02 -8.9374904771105892e-02
      2.2975639857433822e-01 1.0086136248586051e-01
      6.3178509484167242e-02 -1.7825525440106044e-01
      1.3399604510200827e-01 1.1004876842417761e-01
      9.6382680655724223e-02 -2.3749851682161283e-01
      7.9831751120226391e-02 -8.0991524515626467e-02
      -1.4416574575989599e-01 -1.0790299169979134e-01
      1.0665772113475414e-01 4.0047204937279264e-02
      -1.4701124714917249e-01 -2.2579967336635143e-01
      -9.8079423166768098e-02 -1.1819845478650372e-01
      -1.3065252817190517e-01 -8.7478329886974737e-02
      -1.3978840908471207e-01 6.1530108182167143e-02
      -2.1835735974864154e-01 -1.4470811319359317e-02
      1.8276546167888286e-01 1.6304256119110233e-01
      9.9580267375016226e-02 -8.0896942874844058e-02
      -8.2010670467019792e-02 1.8407049988406948e-01
      6.2101811471598031e-02 -1.5281521085688629e-01
      6.5751788587401813e-02 1.7752313600372793e-01
      -9.4508401680787169e-02 -2.1732695655225193e-01
      -1.2233542220882851e-01 8.7542125279625904e-02
      -1.7751298845304267e-01 -9.6334573631513445e-02
      -1.6035229390616257e-01 -1.3842282752799778e-01
      -2.7098781714072051e-01 1.3259308416509066e-01
      -3.1116334645124519e-02 1.7964148507576727e-01
      1.4997877296588544e-01 1.1209094228827489e-01
      -1.8123923942149617e-01 -1.4466537470506638e-01
      -7.8697520605340826e-02 -1.4968309323050358e-01
      -4.1193609225333036e-02 1.7592895447883841e-01
      1.3820793710615115e-02 -8.0593259415753349e-02
      -2.8832295117067884e-02 -1.6151885542953770e-01
      -1.7136119354046112e-01 -1.4973446909939744e-01
      -1.2456509945395765e-01 -1.2394966788182088e-01
      1.7371116351694729e-01 9.4396279045071127e-02
      3.2184539269489713e-02 -1.9959357424660423e-01
      1.8432022206352167e-01 8.1523662121317356e-02
      5.5022199047028271e-02 1.9168696851067887e-01
      5.3671526148910464e-02 6.7810513889313292e-02
      -1.9104110991011464e-01 2.2493729450606614e-01
      8.9797221951152348e-02 1.5911505894352901e-01
      -1.5132519681121864e-01 -1.8429609395070426e-01
      4.4611901837021760e-02 -1.5634827034927809e-01
      3.2394357602701002e-01 -1.1864011087104229e-01
      8.8318957077805210e-02 1.0347051078469723e-01
      9.2892864588830240e-02 2.0412613074999564e-01
      -1.6930144366850691e-01 -2.2416061913245633e-01
      1.2890748257654738e-01 1.8627895537062497e-01
      9.3741734257455925e-02 -4.2444903880408322e-03
      1.2686155382850084e-01 -1.4234109834921763e-01
      1.3333906037132839e-01 -1.8464004500885184e-01
      -4.9975133283014311e-02 2.2266092180493708e-02
      1.5243829030681350e-01 -1.3136869488505720e-01
      1.1566653110613354e-01 9.3917279525493849e-02
      4.1298878240778034e-02 -1.0210089400957423e-01
      -1.2938120569300418e-01 1.0210615619233124e-01
      1.4155277478298908e-01 5.3103737562651881e-02
      1.6833046195651244e-01 5.8602606704918077e-02
      -1.0933433086473013e-01 -1.6005113082778080e-01
      -1.4710945258800448e-01 -1.7519048091165065e-01
      1.6906955367240958e-01 -6.1116354928331326e-02
      -1.3718527039278103e-01 2.4445593999573675e-02
      -1.0077232162149245e-01 -1.2043725347523659e-01
      -2.0220416951231757e-01 -3.8296696528038091e-02
      -9.4982287952338859e-02 2.1151128585231557e-01
      -1.6572495185762356e-01 -7.1134728474901597e-03
      -5.9837699237416900e-02 1.9057369664435322e-01
      1.6786363595219750e-01 1.0108101860715488e-01
      -2.1910130987577089e-01 5.7919499110390092e-02
      1.6300674421025832e-01 -1.4989860671865865e-01
      1.1845192978587038e-01 -3.9943691075427459e-02
      -1.4025606125886245e-01 -8.7401576851952531e-02
      2.3513575589218912e-02 1.9060008437312673e-01
      -1.2321906467115634e-01 1.4519155553832341e-01
      -2.6089241119441819e-01 1.9821333792884747e-02
      1.8323822753481243e-02 1.4294534952270566e-01
      -2.4712846617952713e-01 -8.6236250666906183e-02
      -2.3206574008817062e-02 7.1244290963338092e-02
      4.6238874042122555e-02 -1.0307595626344856e-01
      -7.1442867641477573e-02 9.2067003153095558e-02
      1.5675485914968706e-01 1.0756011253390188e-01
      -5.3218301803261779e-02 1.3999612658893648e-01
      4.4339015727356011e-02 -7.6541370334823236e-02
      5.8131222127334764e-02 1.8601451293236362e-01
      -1.1623513894104684e-01 -6.2588457667883318e-02
      -2.4034836413762587e-02 6.2346374856206400e-02
      1.7782236331499079e-01 2.2709399943491207e-01
      1.5998126330662568e-01 -1.2516302107171828e-01
      9.6804340672771702e-02 -1.7894610277343784e-01
      -7.0653122303685437e-02 1.1629594312901499e-01
      -1.3308847044562092e-01 1.3555609792082082e-01
      -1.0226228213855328e-01 1.3034983950021051e-01
      1.6170737307647504e-01 6.9293441279227694e-02
      -4.2478418182461952e-02 -1.8292858707217871e-01
      1.4551072107457924e-01 2.9381280320175734e-03
      2.2540194424865093e-01 -1.1099568949297188e-01
      1.4191583773950636e-01 -4.8486014467155551e-02
      1.5739786342913359e-01 2.3062056340361226e-01
      -1.0462826825398337e-01 -1.0655939662041776e-01
      -1.5715540538629560e-01 -6.6038009453562363e-02
      -8.6638068409821037e-02 1.4071079469199407e-01
      -1.9127886020975213e-01 -1.3163957748733671e-01
      -1.0704533194781157e-01 -1.1071324079649125e-01
      7.1009200438368530e-02 -2.0559172835833744e-01
      1.9126504218326473e-01 2.8637982237811332e-02
      1.3395518859516983e-01 3.8819766741269558e-02
      -1.5344175268603413e-01 -2.4699821101121767e-02
      -2.3896064879107934e-01 -1.8997476969256877e-01
      1.2739889570821766e-01 -1.2921689483049559e-01
      -1.3332456471513271e-01 -8.4204634109413687e-02
      -2.9087738630316943e-02 -6.7558386923543504e-02
      1.7302224458752619e-01 8.2101707423552397e-02
      1.8323858276150920e-01 -1.1377879933342946e-01
      -5.1986106865718661e-02 9.6675214736687387e-02
      -2.7282226848929864e-02 8.5042973304185421e-02
      -5.0109081534601266e-02 -9.9671313485735116e-02
      9.7608748124175124e-02 -2.6740803709270382e-02
      -2.2177161329980849e-01 7.3097853218246538e-03
      -8.3531342857367741e-02 -1.5126646842246838e-01
      -6.5162578781502251e-02 -1.2655095896510735e-01
      -6.9316431235388444e-03 1.3514441625218690e-01
      -7.8048160701548019e-02 1.5403924892500279e-01
      1.3319204549714112e-02 -7.1817467439136376e-02
      1.5295199401064646e-01 8.8447105894898126e-02
      9.3869068722126810e-03 1.7791603338902731e-01
      2.3783688570900188e-01 -1.0370108469594194e-01
      -5.0711569956622050e-02 -8.8922677983746465e-03
      1.5060453542411162e-01 -1.2977464669430100e-01
      -1.3345986309079721e-01 1.3585284833746253e-01
      9.7128904451379394e-02 1.9105759100907077e-01
      1.7726785449164925e-01 1.6333346626302303e-01
      1.0850535349772891e-01 -6.1016239374144202e-02
      -9.5104486816437378e-02 5.8423909654236231e-02
      1.3842387068752610e-01 -1.2442044984453010e-01
      -1.9271079832108659e-01 1.6102035244999685e-01
      -7.8129093342756445e-02 3.1979572221429650e-02
      2.1180972228542208e-01 -2.5558926098285372e-02
      1.1351562796350030e-01 1.6019117029525423e-01
      7.0892540313062968e-02 2.9002255514031364e-02
      -1.5745496749895679e-01 1.3016818115462375e-01
      1.1135068127089330e-01 -1.5051864194429856e-01
      -7.6588494129953735e-02 1.3222980706072454e-01
      1.3863314951612016e-01 7.8887308258348471e-02
      5.3449647180621902e-02 8.1713714734922838e-02
      -1.8404536671285182e-01 2.9628415810188859e-02
      -5.4880673652031704e-02 -1.6351873851157778e-01
      -2.1812000073282024e-02 1.8161901480473377e-01
      -1.2665192608883510e-01 2.6892143708377564e-03
      2.2520877548311150e-01 1.4656608169889151e-01
      1.0413579206157784e-01 1.3579891614544654e-01
      -3.8356664621929749e-02 9.0574118795548525e-02
      -9.2548681106896555e-02 1.7277005934090348e-01
      1.5621728701892157e-01 6.7174119867783521e-03
      -6.0183099139957771e-02 1.7644366234363285e-01
      -4.1144405076141824e-02 3.1655687993309450e-02
      -6.5854062704799488e-02 1.8207548011561267e-01
      8.8822625872109776e-02 -1.2414806675545802e-01
      5.6240324048005393e-02 -1.1018808582820173e-01
      -9.1164930301279604e-02 -5.6042705321768293e-03
      -1.4910954476623398e-01 1.8634079218882021e-01
      -1.3431684641534594e-01 -1.6288789135597306e-01
      -1.3497518116187457e-01 -9.6377457969646183e-02
      -3.6973513989158838e-02 1.2343377443643272e-01
      4.5176375051370968e-02 1.1496765092082603e-01
      -4.1141878729759516e-02 1.4285857006570615e-01
      1.9571710419844882e-01 -9.0548455779728504e-02
      1.6511429333890326e-01 -2.0839407312723895e-01
      1.1562594006847043e-01 1.1052346576161315e-01
      -1.7334991401953781e-01 -1.9090129195688171e-01
      -1.8878637929975500e-01 2.6011302293663139e-02
      1.0693436840736009e-02 4.4057655437604586e-02
      -1.9178985542105939e-01 2.0017563345933934e-01
      -1.6006363831297316e-01 7.2051651812614581e-02
      1.5576620657255275e-01 -1.2727783756381025e-01
      2.7897663099007576e-02 1.1187957976208424e-01
      -1.7733427153081593e-01 -1.0985986886332549e-01
      3.3418428512789658e-02 1.2561437228348562e-02
      -3.8157755628638629e-02 1.6575859276670396e-01
      3.4193060560171733e-02 -2.0907146638005494e-01
      -9.5584417174328765e-02 -1.3852519653405318e-01
      -8.1948885406834728e-03 8.7368474920339924e-03
      1.7028309173033416e-02 -1.3317347427857068e-01
      -1.0518255078409111e-01 -2.7622281708282750e-02
      -1.0567991456719994e-01 4.6803861749477274e-02
      -6.7918774305128521e-02 -1.7864864431871350e-01
      -2.1633399038491014e-01 2.5387203979842249e-01
      -8.4553348034301909e-02 -9.7641850267019797e-02
      4.3163022875397521e-02 -7.3952305524355180e-02
      -2.0156896356896947e-02 -2.1689685117417656e-03
      -3.3587706627395554e-02 1.0385730175604019e-01
      -1.4071998246181699e-01 1.3650474139919423e-02
      1.3291377147229597e-01 1.5549551257277616e-01
      -1.5162326183520156e-01 1.0610469566710365e-01
      1.6936700180984651e-01 -1.3530209138599874e-02
      -2.2369484392926384e-01 2.2113273402540473e-01
      1.9662760567366314e-01 -4.6917478640296675e-02
      -2.1966179769145233e-01 3.6280356503331926e-03
      5.5311544669393066e-03 -2.2938948907948975e-01
      -1.1745663575642055e-01 1.3584987431531065e-01
      -6.5351276067696834e-02 -1.0484977263383084e-01
      8.5185922680084514e-02 -1.5658178665303529e-01
      6.1827161397470264e-02 -9.8597475289394526e-02
      1.1981371174746858e-01 -1.1347800595312775e-01
      2.9150779304107501e-02 6.8220538196580152e-02
      3.5531205255195111e-02 -2.1105386532177828e-01
      -1.0613749610123006e-01 -8.4125392479169156e-02
      6.3816184775838419e-02 1.8628886981792400e-01
      1.0773879414539451e-01 -1.1705051163000416e-01
      -9.9407906882514011e-02 -1.0318240327448340e-01
      1.1892765087436395e-01 8.9988750714094998e-02
      6.6455784954068842e-02 1.5279205287392775e-01
      9.2571666706269609e-02 9.0438247852436551e-02
      -9.2453926232522285e-02 9.2032807327473473e-02
      2.1076439939436593e-02 -1.5497088393163097e-01
      1.3992002143681517e-01 1.6093638425301565e-01
      4.4660809430359230e-02 1.3136386547972140e-01
      -9.2360742121229463e-03 1.0670301963204754e-01
      -1.7522134331869885e-01 8.8983227117811731e-02
      1.0699770754018035e-02 1.3365968516808063e-01
      4.0341326458586804e-02 -4.3378283968102255e-03
      2.2082170852723404e-01 -5.7023625697870527e-02
      -1.4640934538516850e-01 -5.9247931675181116e-02
      1.2126612489656445e-01 -2.7781055685428457e-01
      -2.3533177765633986e-02 1.0367074043645005e-01
      -1.7026136810322753e-01 1.4390624489932802e-01
      9.9031745769347090e-02 -2.2118643055270875e-02
      8.1561943847432233e-02 -2.0102160865476040e-01
      -3.6867022476373516e-02 -1.4367373661713666e-02
      -6.9189198685394165e-02 2.6219334023255967e-02
      -1.5114959532935615e-01 4.8800488302338046e-02
      1.7783652184321433e-01 -1.4031356810621973e-01
      -2.2334935844938134e-01 1.5227242641535638e-01
      -1.5247955454513673e-01 1.8325462534482395e-01
      1.3749189569852679e-01 -2.4748858863683231e-02
      5.0335419733719515e-02 2.1065802277450463e-02
      -1.4400083960128310e-01 -9.6740294530541282e-02
      -1.9931792330226775e-01 1.7691864278929412e-02
      2.1889395008814766e-01 -6.8075818976030142e-02
      -1.8096248764736791e-01 8.1685379367517671e-02
      1.5636721496460573e-01 1.0147675286179683e-01
      1.1459895087937032e-01 4.3726543462928327e-02
      -7.6221205710912898e-02 1.6113833856150434e-01
      -9.4916270819894094e-02 1.5276468409925323e-01
      5.6850597712529823e-02 -6.6749428212631232e-02
      2.0505527103222065e-02 -1.2120194138865109e-01
      1.6790511279842002e-01 -1.0491134859352427e-01
      1.8313434678765084e-01 4.2367853420922287e-02
      -1.9177768458983410e-01 9.9829607579533762e-03
      -6.9911693867696356e-02 -1.8524184116760359e-01
      -1.1732841266915736e-01 -1.2009207873380283e-01
      2.1798883102783181e-01 -7.0186791372374421e-02
      -7.7987471033175618e-02 -1.4675033094603263e-01
      -1.0874711752607831e-01 -1.8157096463880218e-01
      2.4117848475402151e-01 1.1083823039793364e-01
      -1.1646662666765495e-01 6.7653701184175130e-02
      1.1826758012586491e-01 1.3648002276408669e-01
      -4.1398661064153144e-02 8.3790901473168394e-02
      1.0098017525433065e-01 -1.4963100905334623e-01
      -8.6946555616845653e-02 5.2557561808623768e-02
      8.9804122271778114e-02 -1.0769125198348137e-01
      -6.4680463297067448e-02 -3.2394319323188196e-02
      9.9315130476318514e-02 -2.5710471898960974e-02
      3.6214562629628674e-02 -4.5280836214801397e-02
      -1.0506338010937417e-01 -7.3464960321392506e-02
      -5.4557198093775530e-02 6.2849953235210532e-02
      -3.0454674966384942e-02 4.1185271320625778e-02
      2.7966355362089620e-02 -7.9644407462627256e-02
      -1.0357311099058240e-01 -6.0303720186087886e-02
      -9.9245864650787958e-03 -5.1251214272145219e-02
      -8.8811935648543464e-03 -8.6360348396688394e-02
      -7.7342374226375299e-02 -5.0349555037156685e-02
      -1.7810676170844732e-02 -2.7561258364207958e-03
      -1.2849784255562388e-02 3.2063967839390986e-02
      -4.0299503965280772e-02 -1.0199830546828928e-02
      -5.6115418598429549e-03 4.9394223664532340e-02
      4.7104592819553863e-02 7.8539880085911080e-03
      3.6915454503924409e-02 3.7704667611839986e-02
      -1.6172025381837596e-02 -1.9734708441758491e-02
      9.7653607676151128e-03 1.2213982683630187e-02
      -8.7275501210736673e-03 3.1383100659994252e-03
      -1.1435598923534815e-02 1.4479717062148326e-02
      8.2270652780266386e-03 -2.0543176023452695e-03
      1.7027036631757776e-03 2.3882081026122006e-03
      -4.8007310477131291e-04 -7.9926034082766577e-04
      -2.0991990753312512e-03 2.6206102056075642e-03
      -6.2129932885702076e-03 -1.7496140252132721e-02
      9.9069724548572664e-03 2.1439913027250925e-02
      -2.0010415198442853e-02 4.7296838509644041e-03
      3.5992194136314916e-02 1.2682509027821906e-02
      -2.2094749153272154e-03 2.9958078834478888e-02
      8.8492894765373510e-03 -3.1753345233769957e-02
      -4.3571442398511386e-02 -6.4837384095733127e-04
      -4.9275065957642685e-03 -5.6939216878421531e-02
      -4.4388434800574764e-02 -3.7577187012334760e-03
      -7.2248754003016585e-02 7.8652813086525622e-02
      -9.1147223086759252e-02 -7.5141238089582771e-02
      5.4075077070463620e-02 8.7191791683838782e-02
      2.5991268578270735e-03 7.7935594418228657e-02
      3.6368176246535960e-02 -8.6094845137916737e-02
      4.3288273795469449e-02 -2.9519139460561245e-02
      -3.9842688190432178e-02 -9.3013202012075580e-02
      -7.0382897658317414e-02 4.9452727489144505e-02
      -5.5041743009948456e-02 2.4036587555237764e-02
      -2.9296692053549338e-02 -6.3103904918256112e-02
      1.5003522359085872e-01 4.5843273006632566e-02
      6.1152555956053530e-04 5.7705079724397146e-02
      9.6718812464367032e-02 -2.3038642060737614e-02
      -1.5688666699493867e-01 8.3480302060563574e-02</_>
    <_>
      5.0023505075101320e-03 1.0002334808259150e-02
      1.1834777403992301e-02 4.6970023400315182e-03
      -7.4909026079194871e-03 1.4261282997298737e-02
      -7.4913226069782150e-03 -5.4904368384175563e-03
      3.0124463613369609e-02 5.2869259234659786e-04
      -6.4989390740083199e-03 8.6315703767911572e-03
      -1.5658131444239803e-02 -4.0523813522427485e-04
      -1.0679221734938302e-02 1.6454787285922180e-02
      4.8060403247983515e-03 -4.5970575614717943e-03
      -7.4015313337643376e-03 5.4097289071409916e-03
      1.2141027139094672e-02 -3.3131111548332965e-03
      -1.8931494382442418e-02 2.0870827257075081e-02
      5.5664444993551768e-04 -1.2910805345282064e-02
      -1.5583926600178528e-02 -8.9041201633114700e-03
      1.7074792831958778e-02 -2.9613943160701232e-03
      -9.7480066586294531e-03 1.3035949458758963e-02
      7.0948904766903534e-03 1.2993358659878787e-02
      1.8581413963662009e-02 8.1297802038145868e-04
      2.3119526277676494e-02 1.2979643359146687e-03
      -1.4911779040498386e-02 -9.8830544633783535e-03
      9.7298095122017869e-03 -1.2738808690852645e-03
      -1.1088143190631736e-02 1.9131413757590310e-02
      8.0309411495152645e-03 -9.9537917621323293e-05
      -1.8712355042701796e-03 -3.8159169269886851e-04
      -2.2963510893654134e-03 2.9579249666097135e-03
      -5.9789206011506462e-03 6.0012538777929666e-03
      1.7975892180589063e-03 3.7390651195137871e-03
      -9.5422275176103603e-04 -4.4485512214763384e-03
      2.4477778694235838e-03 2.1944139771212817e-02
      -6.6626460587700435e-04 7.8567858216461624e-03
      -9.5802736309877051e-03 -6.7656756675358396e-03
      -9.9012405465916577e-03 -4.6662308175586813e-04
      5.9747109726224811e-03 -4.8610706935788158e-04
      1.3753013468802347e-02 -7.7256659525418853e-03
      4.1200629670085165e-03 -6.6504443455176520e-03
      -2.5148103854715112e-03 9.7773067335190506e-03
      -1.4763585999553604e-02 1.3432828424782125e-02
      -4.1367392886776762e-04 4.8388728408024044e-03
      -8.6993340287143898e-03 8.9362490269899453e-03
      -9.7357071235393156e-03 -1.1601283697144034e-02
      -4.5057979232530640e-03 1.0208441186563420e-02
      -3.2954877004573347e-03 2.0900841707413003e-03
      -1.7149757227448614e-02 2.1273823755585827e-02
      1.2978199706955093e-02 -1.1300567149080721e-02
      -1.7783995350653954e-02 -2.0944246110931083e-02
      -6.2030960152060942e-03 1.9301017430213115e-02
      2.2722905126460271e-02 2.0440821521756553e-02
      1.5172449742007233e-02 1.2940287301772303e-02
      -1.3483015770019747e-02 -1.6184758658188716e-02
      -2.2295104401599281e-02 3.9217844509573047e-03
      4.8560674161850989e-03 -1.9658435092179884e-02
      -3.4706295182038707e-03 -1.4186307509633681e-02
      1.8805432732535508e-02 -3.9634965565404591e-03
      5.4045048984050440e-03 -1.0665911613674061e-02
      1.0867275861108541e-02 -6.8378610743220674e-03
      1.2732204847419000e-02 -1.3549425567863500e-02
      1.7520978863369802e-02 1.8275368217833070e-03
      3.8185801382520008e-03 -6.0286922709012177e-03
      -1.4107138831319579e-02 -1.1511308660445684e-02
      -2.3276077651359778e-02 2.0670175884516456e-02
      -2.0909939637633462e-02 -1.9789398737683393e-02
      7.6902453453099127e-03 -2.6567565223347654e-02
      8.8477680032952831e-03 2.4550945563767573e-03
      -7.8039310415866574e-04 1.8442746300304385e-02
      6.2790727294432091e-03 -4.1334149127257233e-03
      -2.1216638263527286e-02 -1.7574602483663463e-04
      1.2598793732817162e-02 1.0238095226990747e-02
      -2.3124112018000739e-02 1.1018959384614769e-02
      -1.3023772107575182e-03 1.1556799911190787e-02
      -9.1697697499913168e-03 7.5268987097892501e-04
      1.2185141744867886e-02 1.0193035745356505e-02
      -1.9153252389494722e-03 1.7609717834939653e-02
      -3.9186114214580384e-03 -1.5147175862598511e-02
      -1.2406258365867038e-02 -1.6594943212852042e-02
      -1.2419280155565102e-02 1.4653263797237115e-02
      -1.7660967305132471e-02 1.8850168988853635e-02
      -2.0368514720615235e-02 -2.6156809064145580e-03
      6.4532984753931243e-04 -4.0656875913680857e-03
      -2.5683915349372509e-03 -1.1848060420402238e-02
      7.6814112382130777e-03 2.0997107519163807e-02
      5.6802918016831787e-03 -2.3198691613775625e-02
      1.6070964961780277e-02 -8.0407924231984482e-03
      -2.2822647680238048e-02 1.8613668528290536e-02
      -9.3267684113781703e-03 1.4923684886439231e-02
      -1.7295391480162108e-02 -1.7663366001586869e-03
      6.0321657964426353e-04 -1.4466672114721253e-02
      -8.4279589774800840e-03 8.6070040326622372e-03
      3.4689330433110652e-03 7.2755393148292088e-03
      -7.1548895973473949e-03 -2.1899250019316203e-02
      -2.2437884130539737e-02 -8.4813435808396413e-04
      1.1420204000267345e-02 -1.8854653318480991e-02
      8.9959970211198181e-03 -1.0517028908606849e-02
      -6.4459716689277665e-03 -6.5648057515615109e-03
      3.5490109993489916e-03 -5.2783331681751540e-03
      -4.9123989516406509e-03 -3.7540590093634693e-03
      1.7573971396421938e-02 -4.1471314364958500e-03
      2.9776154489967442e-03 -2.1570480746023555e-02
      9.0492444302473843e-03 -1.3538536080985309e-02
      1.4099813017409049e-02 -1.0635020545876657e-02
      -1.8219262369656135e-04 -1.0554828576088801e-03
      -8.0187317846551250e-03 4.6613237264087962e-03
      1.9115873197454135e-02 -3.4303342272055224e-03
      -8.6704302502893463e-03 1.5901247879178855e-02
      1.4579110634162286e-02 -6.5573799068121474e-03
      -3.6217613968649223e-03 1.9234356669914264e-02
      -1.5473572287386708e-02 1.4171169565818605e-03
      -2.4393003559811401e-04 -8.1750911847071838e-04
      1.0232656022684273e-02 1.6796312396776640e-02
      -5.9876560277916085e-03 -4.8835209446765346e-03
      1.5494042273357229e-02 -1.4379714131672938e-02
      -1.1375204334906876e-02 -1.2023975541281472e-02
      1.5469319520464713e-02 2.1543556745152476e-02
      -1.6682018532067097e-03 9.1425165982969153e-03
      1.7660372935671870e-02 8.8330935148775731e-03
      1.1750553058664348e-02 1.8143585794713136e-02
      3.8334375696618007e-03 -4.4355818287375708e-03
      -1.1091504068806671e-02 -6.9722835063382197e-03
      8.8473479458177282e-03 7.9281524584645015e-03
      -1.4324281735564626e-02 -1.4367218872077055e-03
      1.7616022471204206e-02 -1.4043195405459756e-02
      7.2983361914081965e-03 -1.0786128660169767e-02
      -8.9302824019202934e-03 2.0087768100524594e-03
      -1.8560997803573401e-02 -3.2386676826965462e-03
      1.1737811566006433e-02 -1.8479666342078566e-02
      1.3479141421177275e-02 -1.3083395687362729e-02
      1.8645072668725729e-03 1.3042120756639079e-02
      9.6919660922774285e-03 1.8487604943040317e-02
      -7.1057412785405245e-03 -1.0486085794584779e-02
      -2.5954783180957078e-03 2.1336506219633827e-02
      -1.0867296313533762e-02 3.8298469701160990e-03
      -8.3415674496564556e-03 -1.4513755175074234e-02
      6.8491965484739513e-03 1.8571515946716875e-02
      -1.2521004619602866e-02 -5.1585956237248159e-03
      8.9805398301200205e-03 5.0547682528043316e-03
      1.7072952312116706e-02 5.6669430008611330e-03
      -6.0576387308755395e-03 1.7947468898790328e-02
      2.0717051337343341e-02 4.4255902337720756e-03
      1.8694637578545389e-02 1.5038318159673106e-03
      1.7363405608382128e-02 6.1213331163726143e-03
      -9.2565122251698131e-03 -1.7352619252043813e-02
      2.6095903492580463e-03 6.6542106205278945e-03
      -7.6618527597815322e-03 -6.4013721071364406e-04
      -2.2789693390184310e-03 -1.7069351530667173e-02
      -1.4557390024206390e-02 -3.8534794960559679e-03
      -6.2437456832508198e-03 -7.0771394168844641e-03
      1.1160574907339226e-02 -1.4628009130344777e-02
      6.2147302974448152e-03 -1.4441709781629564e-02
      -1.2706805213472099e-02 1.8016308795818486e-02
      2.1429233268325899e-04 -5.0448856245228287e-04
      -5.4268730214786136e-03 8.4117436583712422e-03
      4.5429762375918791e-03 2.4931023828274182e-02
      -4.1138864385264241e-03 5.0577736032563440e-03
      1.1425149560144720e-02 -2.0091710313913696e-02
      2.2447202423531949e-02 2.3491929340358634e-03
      -8.3616052090322770e-03 -1.0957831361108153e-02
      -9.3969714248116083e-03 -1.8527736985409226e-02
      8.6046176544313051e-04 2.1220365859578171e-02
      -1.0560882192305289e-02 -1.3661567992917939e-03
      1.7159302165460896e-02 -1.1575831119712747e-02
      -8.8356575592108354e-04 -2.0619771064131039e-02
      3.2176058919320379e-03 -3.5180425505529200e-03
      3.5272797676588739e-03 1.8797853905769178e-02
      9.5684006856824946e-03 -1.6823672933954797e-02
      -1.2537530571765163e-02 4.2260937112240391e-03
      5.1193163828743204e-03 -1.4359937909953890e-02
      -1.3264446122726538e-02 4.2829099082225541e-03
      1.2992431586724968e-02 1.1422613028852852e-02
      1.5794845284502017e-02 1.9154646466703212e-02
      2.2379170574946192e-02 1.6687611584718775e-02
      -7.0103087687054264e-03 1.2197750037382663e-02
      4.9610977699676055e-03 -1.2138273828883297e-02
      -2.3930225698344632e-02 1.9052608945793485e-03
      8.2328840825009221e-03 6.8833262956894386e-03
      -4.4465869641160576e-03 -2.8930391061925123e-03
      1.0145624764832993e-02 -2.3443454108233112e-02
      1.9529332238787857e-03 -1.4901671073388932e-02
      -9.8282721790896163e-04 7.3643292095788813e-03
      -5.6822957358838822e-04 -1.3160109587279424e-02
      1.4432861537980334e-02 4.7655220129029082e-03
      4.9580597896962866e-03 -9.3225489775877763e-03
      -5.9192078665755345e-03 2.4116002476697519e-02
      1.1703760981185642e-02 1.3604164665863628e-02
      1.3805114381682236e-02 -9.6875834877948892e-03
      1.6859329660893881e-02 -8.0321206719877365e-03
      1.1754822125713312e-04 -2.3057620350375348e-02
      1.0660812405680715e-02 1.2373026347714776e-02
      -6.0892834844998179e-03 -9.3734803366574606e-03
      6.8366398132612711e-03 8.9851004356338790e-03
      1.1061876940081259e-02 2.8353983925837505e-03
      1.7617118037168106e-02 -2.3266478944991803e-03
      -1.4129656104406972e-02 1.7418576644372290e-02
      -2.3210542099621145e-02 -1.8682475761844747e-03
      4.6761641224065276e-03 -6.5362483948490056e-03
      5.9719237337841138e-03 -1.6913936973217168e-02
      2.8588374459517121e-03 1.1569938587920594e-03
      -6.1255342865453519e-03 4.8535168694853704e-03
      8.7944510309454101e-05 -1.3077374005730396e-03
      4.4783888663203677e-03 -9.9681393354684490e-03
      1.6602827546093202e-02 -2.1767837112501580e-03
      1.3045849666931487e-02 -1.8768572628932001e-02
      -1.6642717463836852e-02 6.5542208731484012e-03
      2.1197352519742212e-03 -1.3671623780925577e-02
      1.8637518539520843e-02 -1.9016238325315682e-02
      -3.6828786927293401e-03 -1.4458597922103382e-02
      8.4788998620576265e-03 -1.2119486041950442e-02
      1.4625112236735065e-02 9.1511000546000802e-03
      1.5850807158866664e-02 -1.0348436762506988e-03
      1.8180681745682159e-02 1.7670230570092538e-02
      1.5500510815181353e-02 -2.4603359038014175e-03
      -4.8245857383607312e-03 -7.4310497357635919e-03
      1.4727756366336022e-02 1.6358158200839686e-02
      -3.1232355460487594e-03 2.0506746695319395e-02
      -4.2161808415094428e-03 -2.0372017679833564e-03
      1.5176884751522480e-02 -3.2994660418942607e-03
      -1.1771048336885540e-02 -2.6917957675011667e-03
      3.8308762056061189e-03 1.0126616323050964e-02
      -1.1475016639345635e-02 -1.1937564057195749e-03
      -1.7104341963720890e-02 9.0033832440113148e-04
      1.0572930974653975e-02 -1.6295124854301103e-02
      7.9738478885689832e-03 -1.7342453140686154e-03
      5.8592409739209577e-03 -7.8156649319997152e-03
      4.1279278791270741e-03 -8.1441882084545454e-03
      2.5569097173831577e-03 6.9236318864302794e-03
      1.1742485081568325e-02 -1.7383440620893094e-02
      6.4462249097336386e-03 1.3735268590821546e-02
      -2.6240149265003960e-03 -4.2233710790901593e-04
      -3.7516443490520669e-03 -4.5461176711431061e-03
      1.2554631427216184e-02 -5.2075334774986442e-03
      -3.9074489696381259e-03 4.6002789403764071e-03
      -1.7943269783334822e-02 -1.3385380648537894e-02
      -1.7222963620345227e-02 -2.3554184365180120e-03
      -1.7363480200884605e-02 -4.4403100393238743e-03
      -1.8852566532995524e-02 1.0471412070881533e-02
      7.7169644302263187e-03 -1.2208663526863731e-02
      4.4025949294970316e-03 1.7007921584015675e-02
      -2.0077135843484060e-02 -1.3254199253254134e-02
      -9.8298333680599433e-03 -1.2451672107598299e-03
      1.4723213245799114e-02 1.8529814150622805e-02
      -1.1284199539239266e-02 -1.0155989418416779e-02
      6.0874088918061141e-03 -7.1555885519931960e-05
      2.7634740364029390e-03 -5.9941919003901091e-03
      1.7657201506551073e-02 -1.0891244004690310e-02
      -8.0984857019718390e-03 1.6041424994965719e-02
      -6.9062703074085499e-03 -2.0488516727111262e-02
      1.4935460577051937e-02 -1.4605069364275660e-02
      1.1446947898861281e-02 1.5686572783904753e-02
      -7.7633946181942378e-03 -1.0547600546468231e-02
      7.0631198744237032e-04 -2.5461697890950814e-03
      1.3809354924334827e-03 -2.8156850824911407e-03
      1.5833949380168386e-02 -1.5672515342425655e-02
      1.1253868781008916e-02 2.2011100547700706e-02
      9.3105021667542302e-03 -7.1488980129157482e-03
      -6.3912650891549527e-03 4.4600238778605509e-04
      -7.7378393060952627e-03 2.0751166257743207e-02
      -2.4087252696850024e-04 -5.4459852534651763e-03
      1.6259436004216553e-02 -2.2563248494487848e-02
      3.7712845046116920e-03 8.3573535773960733e-03
      -1.4717284337880974e-02 -5.6986753826732768e-04
      -1.0820678233466458e-02 9.2935468703216565e-03
      -9.6778255493891758e-03 -1.1994325923239036e-02
      -1.3300260987853562e-02 1.3887807946581995e-02
      1.7643481750221249e-02 1.1572432706073181e-02
      -1.7404258126605555e-02 -2.1462055032519301e-03
      -4.9369654881704838e-03 6.9402831141447069e-03
      8.3023716856515193e-03 8.0935267111133611e-03
      -2.0732792665983718e-03 -9.3182541706068132e-03
      -2.1132582322477965e-02 7.9605448910450675e-03
      1.9308314905344921e-02 -9.4287250678420278e-03
      2.2118819103138904e-04 9.8612391351111939e-03
      -1.4034534433467725e-02 5.5471702547150396e-03
      -1.0178160809276290e-02 4.0471366813996917e-03
      -8.2268824329902353e-03 -5.2970488296392613e-03
      -5.3445334193345153e-03 2.1538108359927061e-02
      -8.4240734959134984e-03 1.0927740256981136e-02
      9.4762212862986393e-03 -4.6223240998477322e-03
      7.1017334442542478e-03 1.7972482543245722e-03
      -1.3452116884874479e-02 2.4879852109898491e-02
      -1.5936082756966483e-02 1.1870125391846396e-02
      -1.0794748924683519e-02 2.0461052576093049e-02
      5.0463147584020075e-03 4.6383940883257630e-03
      6.6349732653833860e-03 1.4282390680038880e-02
      -1.5406524071436863e-02 -9.6043117231411155e-03
      6.5966199505709498e-03 -2.1320735018845498e-02
      2.1570342678347156e-02 -9.0485180491899717e-03
      7.6512553808972628e-04 -1.9233827041851503e-02
      -1.2786389140845296e-02 -5.5676054996171998e-03
      2.0819238510878945e-03 -1.0918363756861036e-02
      5.7387479960046813e-04 6.8764658709933981e-03
      1.4314266022808492e-02 1.5448739611882133e-02
      2.0295026381154529e-02 2.1580273844273110e-03
      -1.5161342695734159e-02 5.3497307484227279e-03
      6.6093170311400549e-03 -1.3736263051387812e-03
      6.8661253539310943e-03 -6.9957344339620928e-04
      -5.0899019588869507e-03 1.9003240048660176e-03
      -2.0148731719254655e-03 -1.5252545867055904e-02
      -1.0008590190864438e-02 -1.7400653650893421e-02
      5.8544519221576819e-03 7.1338150956618230e-03
      1.5031972105887097e-02 1.1388186403695428e-02
      2.4561907710382333e-03 -5.0663475053505762e-03
      -1.2295223027200356e-02 1.1094830953903814e-02
      6.5935523423170384e-03 -9.6008218651488959e-03
      2.3026696160377788e-03 -7.0294501831284720e-03
      1.6608622060432291e-02 1.0419217075744147e-02
      6.3354232831107594e-03 -1.3236409976833724e-03
      -1.6097145645716123e-02 -4.2605551344719692e-03
      -1.3519248223999261e-04 -1.2857024640760492e-03
      1.5878496021712259e-02 -4.5537312078367540e-03
      1.5897452687385832e-02 -1.1424220477151399e-03
      1.1877099231341299e-02 2.2188761838102416e-03
      -9.1171334992404187e-04 1.4933341458645825e-02
      1.6470119470572803e-03 -1.0192803752268111e-02
      -7.1554713194538835e-03 -1.0352434752839331e-02
      -1.9583425870044508e-03 1.2952739269379019e-02
      1.0797808492589857e-02 -1.1952776653757609e-02
      8.9709574216841614e-03 -1.6683934799742058e-02
      6.7512151044448430e-03 -1.4147904405875029e-03
      -6.0132302285132470e-03 -5.7126354162809097e-03
      6.1237407953935495e-03 1.1719876107955648e-02
      -1.1609351451880195e-02 1.4504757199311004e-02
      6.0245143453142901e-03 -7.7969447191608794e-03
      4.5955335937171091e-03 1.7365851545461657e-02
      1.3579554609273710e-02 -1.2528905747531988e-02
      -8.6507835566302857e-03 -1.8515329603786677e-02
      7.5517286428207686e-03 1.0488310187843760e-02
      -1.8803061444436421e-02 5.7700332542910075e-03
      1.3857666332950233e-02 -7.0715654025793580e-03
      8.2624698064528851e-03 -1.2123714539273215e-02
      5.6846491723994827e-03 9.2542275317057370e-03
      1.0079345214478402e-02 -6.1888120370699427e-03
      2.1730274543588218e-04 -1.3998154565300047e-02
      9.8008486289474558e-03 -5.4710386950099716e-03
      1.3853490711533821e-02 -1.2583127192592757e-02
      1.5626369484329532e-02 -5.3402067003699193e-03
      -3.1770266920301661e-03 1.3424257735268957e-02
      1.3293293225766710e-02 3.5319062964268514e-03
      -5.0927886231783319e-03 1.1124160551263557e-02
      -1.4997889474797910e-02 -1.8483206850200894e-02
      -1.0055527533956140e-02 1.0386024587821546e-03
      7.2052388831425618e-03 -4.5015898464704374e-03
      -1.8432550251688235e-02 -3.6165230700524243e-03
      -1.1719146742504266e-02 -1.8863629267814999e-02
      1.5206976955061000e-02 5.5030787359252598e-03
      4.2832048258996175e-03 -1.3103950278464269e-02
      -9.5941133164040085e-03 6.8208487253557668e-03
      7.4475249994400278e-03 1.4775127498545709e-02
      -1.3086379939779831e-02 1.9158678453084085e-03
      2.8184226351181982e-04 6.1421173465551334e-03
      -6.8876141997873432e-03 -2.0486657170093771e-02
      1.2187427388091251e-02 -5.7665808399947640e-04
      -2.0004422834477825e-03 1.9007496398876753e-02
      -1.3192155465638098e-02 -1.6456764538804586e-02
      -2.1745592710675790e-02 9.4057642967612324e-03
      6.7687330311666976e-03 -2.1093841290023663e-02
      -1.1439072067634044e-02 1.4015844023322692e-02
      1.5911558805427474e-02 -4.7287844793090826e-03
      5.4871856679275539e-03 -1.5155643604188859e-02
      2.3320140709203116e-03 8.9402217890423089e-03
      -8.8144344023379721e-04 9.7311294548222162e-03
      -4.6517980018674025e-03 7.1598676808137078e-03
      -1.5302130569560795e-02 -2.4576766455953305e-03
      -2.2464743156599678e-03 1.8223442557190401e-02
      1.7913450785375800e-02 -1.0271024693803433e-02
      -1.2677879883797141e-02 1.4838557397066207e-02
      6.1169754456714461e-03 -4.9847756969745088e-03
      1.4424726120420731e-02 -1.4760596263057240e-02
      -9.2643670211469721e-03 -2.2915210248704160e-03
      -5.4230313121590790e-03 -1.7097788263280695e-02
      1.9527900804956473e-03 -7.0326403743805150e-03
      9.0703007933974848e-03 5.2762850737607964e-03
      -1.2038463654966029e-02 -1.8149038518133910e-02
      1.2709009393222313e-02 -4.8834512179048188e-03
      -1.4055368133174118e-02 1.4313969349282774e-02
      1.5353363790585941e-02 -1.2386108666719469e-02
      1.1254202444353507e-02 3.9529534162251641e-03
      -9.6036937129146075e-03 -1.7880669801565479e-02
      -9.4160381317363474e-03 1.2384343455693638e-02
      3.5074502621619289e-03 1.1578737002498916e-02
      -1.6485554126248816e-02 1.6149386443734006e-02
      -1.0537571845711144e-04 -8.3655761407747217e-04
      -6.5760515931579770e-03 -7.5353391731098880e-04
      -1.8462922326352844e-02 -1.5763082943973616e-02
      -1.8853147864293672e-02 -1.2081382739421788e-02
      1.4272781251692452e-02 -4.7852258186979390e-03
      1.0455930211609595e-02 1.9159218829766119e-02
      7.6872931157589133e-03 -1.8299100517598196e-02
      1.0122952202685704e-02 2.9058758024873370e-03
      -3.1715246469981961e-03 -1.2528856607722301e-02
      -1.0759900762039918e-02 6.4056407522658891e-03
      1.8224387839836056e-02 9.3226885080333680e-03
      -3.8012602742070568e-04 -1.2116472862809913e-02
      -5.2634813457937499e-03 -4.1242912855407963e-03
      -2.0055979075342147e-02 1.3985572760647261e-03
      -1.0547727631175143e-02 -5.0698953756779614e-03
      -1.2735789597717007e-02 -3.0746250597843750e-03
      9.5913925674219521e-03 -4.8767974110397244e-03
      -2.9658306570966965e-03 -6.7233951846564109e-03
      -4.7590516412795948e-03 3.9893163071138271e-03
      -2.8972316189346927e-03 -7.3457792502753701e-03
      2.0566677985160410e-02 1.3926355250618132e-02
      -1.6739361575652048e-02 1.5227387041160362e-02
      1.4630725510721041e-02 -3.7454045147857031e-03
      1.9526173844899676e-04 -1.1850071943713498e-03
      -4.1568841074805683e-03 7.0674158611876712e-03
      9.2713301218686275e-03 -1.1277436477632772e-02
      2.4904191790832099e-03 -1.7838163690794481e-02
      -1.2837021545384356e-02 -5.1341502495510088e-03
      -1.4685556365824600e-02 -7.6092892616835936e-04
      -4.2440832608509440e-04 2.1403696008948418e-02
      8.9186170328188832e-03 -1.4052806286003984e-02
      1.6161579875188212e-02 8.0951903596964824e-04
      -1.7523448376741968e-02 -7.2901878195622315e-03
      1.0641006095820561e-02 2.5851006740101320e-02
      -3.6089556769806868e-03 2.9761436299044243e-03
      -1.0709558525087481e-02 5.7802349066504383e-03
      -1.2584398119749853e-02 7.0290711067323413e-03
      -1.2429136176951355e-02 -1.9258215409652318e-02
      -1.9905885715998865e-03 -8.1650229725012628e-03
      1.1414333896011732e-02 -1.4228731342640230e-02
      -8.7341036961119094e-03 1.4694054207752346e-02
      8.2649012487905245e-03 -1.9119921099832234e-02
      -3.4025126380378157e-04 -1.4108945236954809e-02
      -1.1982274500197600e-02 -1.5388743241331000e-02
      -1.3425402989281569e-02 -1.9150292384654190e-02
      7.5650484542952312e-03 -1.0812110852571182e-02
      1.4308120561644457e-02 1.5457704877632554e-02
      1.6664946790203475e-02 1.7681569055792865e-02
      -1.6200786002017378e-02 2.0186038848223488e-02
      -1.1154102434806917e-02 -1.8009772132417921e-02
      -1.6664521893841610e-02 2.2147692480250451e-03
      1.0718066276221074e-02 -1.8862963394162643e-02
      9.0259868339996625e-03 1.3607957584722398e-02
      -5.0056112383325760e-03 -5.7936515478598646e-03
      -1.1079250919988889e-02 -1.6272780961095055e-02
      2.8767360351358508e-03 -1.8017127104315397e-02
      7.1353842165051929e-03 -1.9259352760548732e-02
      1.2250429962303780e-02 1.0960352280052056e-02
      -1.7602847052182010e-02 1.1596447912217549e-02
      5.3336803525353520e-03 -8.2041320395784753e-03
      -1.9216497827842054e-02 -3.1481462849929602e-04
      2.3853335890256958e-02 -2.3957979945753143e-03
      -1.5608985575404983e-02 2.1568301338570781e-02
      -1.6485291988904114e-02 1.1103315178313863e-02
      -5.2456940026812931e-03 -6.5916501418588121e-03
      -1.0729325512004473e-02 -4.9186961593791758e-03
      -9.0300806559678610e-03 -2.6441117588297907e-04
      -7.1076145716473874e-03 1.5590409229617986e-02
      -6.8668260555336943e-03 -1.9164892152834735e-03
      3.5321036419945751e-03 6.1122370804422167e-03
      1.3711367052459083e-02 -1.2604641188849899e-02
      -2.1063051215576691e-02 3.6357337729449892e-03
      -1.2738508486421510e-02 4.0143368644708025e-03
      -2.4800255812228975e-02 1.3177840318300707e-02
      9.9789347033073881e-03 -9.7561669528267083e-03
      2.0690022755475729e-02 2.1210979091320315e-03
      -2.6640589272391942e-03 -2.0915165861609308e-02
      -1.4926081630113662e-03 -1.7016502333495102e-02
      -6.0591980974121478e-03 1.8526302290926361e-02
      -1.1774775144718424e-02 1.6156706018394799e-02
      1.0476780133660029e-02 -8.6250824207217656e-03
      6.9621635548856549e-04 6.0757599550190847e-03
      1.1571813447012785e-02 -5.6465225848624893e-03
      -1.7731734135841414e-02 1.9109715483428446e-02
      3.7406543392158522e-04 4.9122873383263812e-03
      9.9570274426594900e-04 -1.8095274802967971e-02
      -2.7308392008728068e-03 -7.2820020037657560e-03
      1.1496798372206138e-02 -1.7585158498724628e-02
      2.1865340767850002e-03 1.5427101527370004e-02
      5.3137343268907554e-03 4.5844534481398478e-03
      6.3408945774887822e-03 -1.6368875086784387e-02
      1.4051405531477641e-02 -1.7786103369477033e-02
      8.0210242215285749e-03 -9.9199503246114613e-03
      2.1051116454926626e-03 2.0367359107042713e-02
      -5.7258542882626445e-03 4.1322513551161370e-03
      -1.1610875827533508e-02 -5.6640981948918078e-03
      -9.6451568512242493e-03 -1.0027156073458639e-02
      1.0031964842624095e-02 -1.2172605313290074e-04
      1.2083046120375298e-02 1.4173594772033159e-02
      -2.4105696545549393e-02 -4.9674795025521756e-03
      1.5972320095438249e-02 -1.1266843625109282e-02
      1.8619821277263329e-02 -1.4563455436527284e-02
      -1.8169303441833602e-02 2.1001193964122401e-02
      7.7479091947198590e-03 1.9576824260497054e-02
      1.3321857510989974e-02 -2.0148672527927194e-02
      -1.1319900956431121e-02 -1.1334667965356838e-03
      -9.9132857409489107e-03 -2.3328398642570095e-02
      2.4182821464264547e-02 2.6818581583700336e-02
      1.0684742679086909e-02 -1.0550948366890541e-02
      -8.1692216981697832e-03 9.5463746843776415e-05
      -5.5549749463224820e-03 1.1153329383806353e-02
      -1.1338801033507925e-02 5.9650447919169262e-03
      5.5449050791900002e-03 1.5346593756546296e-02
      6.6857934700525461e-03 -1.8337400778893148e-02
      -8.9337866596506891e-03 7.0130545873394162e-03
      4.4016635973625675e-03 -3.7283379273101219e-03
      9.6496008931401464e-03 7.3503200073420590e-06
      1.0573917460542228e-02 5.2326007624113680e-03
      1.3688534609076080e-02 1.6338648179467798e-03
      5.3169624692598573e-03 5.2228751913821741e-03
      4.3815692028643062e-03 -1.0457297734909917e-02
      -1.6691982349214252e-02 -3.0604310277203952e-03
      1.6522043440195120e-02 6.7646422676184894e-03
      4.6543133813052459e-04 -8.2936096414509344e-03
      1.5138225458545667e-02 6.4367599411992828e-03
      1.3540398878976796e-02 1.8357821297863383e-02
      5.1475782845193455e-03 -4.6616336700862007e-04
      -1.5353380600230425e-03 -2.0289546168208224e-02
      1.8776220792123235e-02 2.7515941229554728e-04
      -1.8469937491017052e-02 1.3582105895629576e-02
      -1.6298118507926871e-02 1.3559494813331602e-02
      3.8028346259864708e-04 -1.1006931236150076e-02
      -1.0734124810000903e-02 1.3182836998150963e-02
      -8.0775526490312315e-03 3.2471497867458734e-05
      -6.2497146388940800e-03 -4.7313467372497916e-03
      -1.9655614124354645e-03 -5.8159063540304231e-03
      1.3143485744105156e-02 -6.9904796564514479e-03
      1.2698577351059738e-03 7.5890647008473259e-03
      -8.2279032995764348e-03 1.3583691109066709e-02
      -1.5917719345176121e-02 -3.4545994267203830e-03
      -2.5416415685873576e-03 -7.6333143678371923e-04
      9.4680065323475195e-03 9.3993253974243296e-03
      -1.7501771398892908e-02 -1.2259827125150641e-03
      1.1194162677356028e-02 5.8817906979054769e-03
      9.3633958698921688e-03 -3.6170528469180912e-03
      1.9003096544116947e-03 1.0240089689679554e-03
      -1.0602254075511239e-03 6.6839452312116359e-03
      -1.1035864998035142e-02 2.8423205516426176e-03
      -1.2189590351673408e-02 -8.8368777102935028e-03
      -1.4929518130233051e-02 -5.3953183936352508e-04
      -3.9306055655053025e-03 -6.7083672121678298e-04
      1.7153140909473192e-02 -1.7172623740871248e-02
      -1.6976304240189373e-02 4.8425538194968240e-03
      2.0927985864341589e-03 -1.5481988180464343e-02
      -1.4569882518364741e-02 -1.3002903332711384e-02
      -1.8249081132702537e-02 -8.0222664541048615e-03
      1.4405589539726711e-02 1.6143261588397968e-02
      -1.6336398929138924e-02 1.6556162618249531e-02
      8.3323252113046229e-03 -1.0335638687226060e-02
      5.2551236600189592e-03 -1.4436560843152211e-02
      -7.4983788867668648e-03 -1.7788555965898230e-02
      -6.3312457594334086e-04 6.9506156482574454e-03
      -1.6465439929299015e-02 -1.1798907889546750e-02
      -1.8976727277589481e-02 -4.3515995105699191e-03
      1.1173975506491198e-03 -7.3123429330525782e-03
      -1.5309123334127393e-02 -1.8063533682251828e-02
      1.3407415127831055e-04 9.0444535131913376e-03
      1.3708682827982309e-02 -1.0810463799351059e-02
      -1.9873803847235302e-02 -1.2201521894347752e-02
      1.0097873562257746e-03 3.2879005367857806e-03
      -2.4748435594270325e-03 -5.0412671501629874e-03
      -9.6104192166013448e-03 -5.1928767844170885e-04
      1.8359377630106508e-02 4.5033304202801126e-03
      -4.5857955843894918e-03 -1.2841238902641246e-02
      -1.0600364865758737e-03 2.0787353407994931e-02
      1.5840377172148059e-02 -5.1296121394544766e-04
      -2.0434105625000604e-02 -1.1363875046527671e-02
      -1.5692006319030546e-02 6.1948758529757559e-03
      9.0629383601677632e-03 -2.2227743605625436e-02
      -1.5094188424062868e-02 7.9995959856801035e-03
      -1.0814895746525170e-02 9.7068851888923828e-03
      -2.3842419788038995e-02 1.0348918092899513e-03
      -4.2644113207212864e-03 1.0808125667664568e-02
      1.3602690933601211e-02 -2.6826151152903512e-02
      1.1058703298149924e-02 -6.5310642064142594e-03
      2.0345555310804708e-03 1.4912825317926528e-02
      -1.8809473640487243e-02 1.7724865682612763e-03
      2.0845761535901258e-02 6.1648631560802932e-03
      1.2815207266306219e-02 1.0514934798622623e-03
      7.9994477150686950e-03 -1.4664853083147546e-02
      -9.4048415967003009e-03 -7.9576069365410416e-03
      6.5809954327701497e-03 -7.3261308699740782e-03
      2.6855456201543594e-03 -1.0597446340360186e-02
      -1.7807560058612653e-03 -1.4947737394160299e-02
      4.4173318694998845e-03 2.4444370244461090e-03
      -1.1423613683105172e-02 -7.4326357683035631e-03
      1.1817118306414033e-02 -1.0271810901929447e-02
      -1.5503123502934741e-02 -8.3748853166756305e-03
      8.0931725015114427e-03 -1.0612582943127433e-02
      7.1394145492472087e-03 -3.0131480441244027e-03
      9.8076803236593797e-03 -1.8225292254302277e-05
      -1.5436798468063654e-02 -1.3286569689828573e-02
      1.0324103469896697e-03 -8.9338624023786121e-03
      -8.7683225566075138e-03 8.9183496464728760e-04
      8.2293961321932285e-03 -1.9341342396708540e-03
      -2.3058985990407725e-02 -1.1011898450734140e-02
      -1.5438149715159303e-03 -1.3476114718163436e-02
      -7.3144050530329499e-03 -2.2106381624713251e-02
      -1.2571439777725037e-02 9.7991818210941863e-03
      1.1850000466061448e-02 -9.2253335746493789e-03
      1.4123485822286374e-02 1.7173123969147636e-02
      -1.7140112038015749e-03 -3.4703613444542389e-03
      -1.8686496769407330e-02 -2.4104693186768424e-03
      2.3067331573230062e-03 1.5081118801657589e-02
      8.1962011845981343e-04 -9.1882497765839264e-03
      -1.5685003104994009e-02 2.2724843870222951e-02
      -2.0384567658116612e-03 -5.9907746221773469e-03
      -4.3908190277230476e-03 -1.7743960936031929e-02
      6.0454393622119676e-03 -1.7456675396408643e-02
      -1.3260033615367492e-02 1.4538651672444117e-02
      6.3465934743799132e-03 -1.5583241140198989e-02
      1.0059712104983423e-02 1.2172764946769781e-02
      -1.3182338199588801e-03 8.9822387053588495e-03
      -1.4049764995718880e-02 -1.4059049417529043e-02
      1.6469667004460401e-02 -1.1022088070516817e-02
      -1.6798113666890446e-02 -5.7496892413758703e-03
      9.7568434167521617e-03 -9.2402496600029610e-03
      5.1875783920856513e-03 -1.5955194283242609e-02
      1.7805760773940697e-02 -1.2163094369261156e-02
      1.4069956013854209e-02 -1.7026475761401979e-02
      2.2198413406184876e-03 -1.6169757565519031e-02
      1.1687237163391568e-03 -1.2718157082253012e-02
      -1.2173402090154085e-02 1.7921841458162155e-03
      -1.5891388061991193e-02 -1.4256927024385432e-02
      -7.7015092373277499e-03 -7.0127953133941852e-03
      8.7146152379854926e-03 1.8397560304861320e-03
      1.1667835475180301e-02 1.8297136637673211e-02
      1.2137619590964462e-02 -2.3647877991276067e-03
      2.3248835281345529e-02 9.5954260707966001e-03
      7.7916896572199140e-03 -3.3574879556708009e-03
      -2.6145581804116829e-03 -7.0397736824318402e-03
      -1.1163226150308124e-02 -4.5503414298430260e-03
      2.0898299757708193e-02 -3.3743765598902875e-03
      -1.2445310647645843e-02 -1.2749647434547401e-02
      -1.5263383263593130e-02 -1.7336749424701030e-02
      2.4272884512320774e-02 1.3804333625170723e-02
      -1.6989565120080069e-02 1.3597842354687185e-02
      3.4515372683556552e-03 1.4437924858353003e-03
      -3.4750755423044698e-03 -2.3233073081037384e-03
      2.7039413002976732e-02 -1.8306902139539347e-03
      -1.3542553238556923e-02 -2.6580810138891520e-02
      1.7099479284149666e-02 1.8895921106158075e-02
      -1.0412964548764607e-02 -1.9299705573591043e-02
      -5.4016883092792489e-03 -5.9648442894557792e-03
      2.4282655485236746e-03 1.5427513932282656e-02
      -1.6511320570471427e-02 -9.7605270623361707e-03
      6.0163281416575325e-03 2.2106912305447823e-02
      -1.1813496924136906e-02 -1.3062860983878235e-02
      8.2415631086047274e-05 -2.4193047926926656e-02
      -8.3464772408856878e-03 -2.7110403957939656e-02
      9.2142667338377966e-03 -1.2635101918641112e-02
      -1.1109659989457168e-02 -1.0156915057603695e-02
      -1.9801061908894368e-02 -4.0058458991328290e-03
      -1.0113731691751499e-03 1.4433988035457637e-02
      2.6210452485104850e-03 1.6913237471130545e-02
      -1.5885824831597326e-02 6.8315244685836869e-03
      2.0271875682980049e-02 -1.2756591454693001e-02
      6.8131243551730293e-03 -2.5704871049613501e-03
      -2.0717967200395811e-02 7.0634304976622993e-03
      1.2986349389275488e-02 -1.0737770062800318e-02
      -1.6330400584588532e-02 1.7257722768144988e-02
      1.7318042581115561e-02 -1.0986315182269326e-02
      3.1640824264161991e-03 -2.1693281084234441e-02
      3.0406173896779286e-03 8.9947853417904830e-03
      -1.6303978742178610e-02 -6.4813916854495716e-03
      4.8248816373495833e-03 -8.0022344281735123e-04
      -9.3784299279539175e-03 9.5929933964669627e-03
      1.2188658601998394e-02 1.4034027379835544e-02
      -6.6725575076130505e-03 8.7362472756522295e-04
      -1.0660172842998252e-02 -1.4783527338928565e-02
      1.0435312610152746e-02 -4.9964443701965228e-04
      -1.6529288540263823e-02 -4.2939894177254001e-03
      5.1780298857148329e-03 -3.1179994500280550e-03
      -1.4641930285039871e-02 -1.8311644702380669e-02
      -1.8730922971301033e-02 6.6485125613328818e-05
      2.1269662017560392e-02 4.2861152348678952e-03
      4.6029666718880122e-03 -1.5114016075647010e-02
      -6.0801475021420668e-03 6.2133709374692985e-03
      1.0026220819647385e-02 7.7023620687355025e-03
      -6.4316855814744818e-03 3.0358418722900406e-03
      -1.0386022517633491e-03 1.7773156287044626e-02
      4.0058894111712024e-03 9.5072672285356312e-03
      -9.0952065363630250e-03 2.4505671199255607e-03
      2.5783488146707907e-03 -7.0530733251190350e-03
      1.2139746832770401e-02 1.8676316456110818e-02
      1.4933471247715277e-02 -1.8642059493138047e-02
      1.3500178736151180e-02 1.9197859723296858e-02
      -1.7060918265517082e-02 -2.7720245291728827e-03
      1.0899598932935833e-02 -1.2410837290364851e-02
      2.9836555983063233e-03 -5.9659551929876174e-03
      1.6552037186406507e-02 -7.2335886887636130e-03
      1.0994906243742535e-02 1.9330577029752525e-02
      9.1521675143976817e-03 -1.6545316079311045e-02
      1.8601337361365357e-02 1.0881509111443217e-02
      -1.1681803298831583e-03 1.2556578478357418e-02
      -3.3549121596488807e-03 -4.7545362314897156e-03
      5.1965442467266166e-03 -6.7732428183170630e-03
      -1.8462026998269786e-02 -2.1839926107834497e-02
      -2.5687558931717248e-04 1.1177591998536261e-03
      -7.2733707880826733e-03 -1.2892438646454871e-02
      4.0815703356115434e-03 -1.4668074896500717e-02
      7.8070121740659564e-03 9.7264229370998495e-04
      -1.7867575936967719e-02 -6.5766282748053947e-03
      -6.4290413101947561e-03 -6.6955030344710941e-05
      -9.8926440707621088e-03 -2.3508173388171621e-03
      6.2187459816048169e-03 1.1074953390753111e-02
      5.5824600235316367e-03 1.6639672355711455e-02
      5.3745248966946676e-03 6.3325732855267587e-03
      -2.1995327004241713e-02 -5.9272722576053771e-03
      -1.3693811320882099e-02 -2.3993496695474549e-02
      -5.7605822060866028e-03 1.5441694272926734e-02
      -3.9857324987689277e-03 -1.0460055903141471e-02
      2.0713244631188510e-02 7.5799028903280989e-03
      4.7238208658583166e-03 1.5149715788035438e-02
      -2.4087509145778513e-03 3.3209897401607572e-03
      1.7693544726095221e-02 1.3324038186721544e-02
      -1.3917009897641244e-02 1.5539843258528169e-02
      1.0951586306501339e-02 -6.2860804529837220e-03
      1.1947297840040392e-02 -1.0975286591227242e-02
      1.7215772431508941e-03 1.0499692375773835e-02
      1.4111510765309700e-02 1.9232513130729042e-02
      1.8956336046429770e-02 1.0211881037412518e-02
      4.3522955922342885e-03 1.3282828732040248e-02
      3.4212768089498468e-03 4.1387936627965347e-03
      -1.5261059057543378e-02 3.1637836187144125e-03
      -9.2059067193195360e-03 1.2204012541490393e-02
      -6.2779393626217787e-03 1.9078523425577785e-02
      -3.7771724625018268e-03 1.2285988845268761e-02
      -1.0372990992863129e-02 5.8459855171399495e-03
      -9.3960054782862620e-03 1.3507246494398988e-02
      -5.4964475890033936e-03 1.1201955465934192e-02
      -1.1266813838751805e-02 7.9918713505905976e-03
      2.7579232082093692e-03 2.3066767487485403e-03
      7.2556010343316395e-03 -1.9761124539855946e-02
      -1.1324962298735123e-02 -1.4389796114933556e-02
      2.1498557208907948e-02 -1.9159329493265955e-02
      -1.5104420601514365e-02 2.6917426124906550e-03
      -1.2550978119510786e-02 1.6182840838603108e-02
      7.2371610305482338e-03 6.6323488187116026e-03
      -1.1378147883031641e-02 -1.2248216578977322e-02
      -5.8819348855039194e-03 8.5324381403339197e-03
      -1.1307180998991634e-02 1.8919827617553849e-02
      -3.6184070389371165e-04 9.5707096917526848e-03
      -1.1145181445717184e-02 -1.0122620480615881e-02
      -1.6365331818692093e-03 -1.3186534174713976e-02
      5.8953277528510702e-03 3.4119570869664694e-03
      -1.8873534748482492e-02 1.7163132216223356e-02
      -3.3468041765157726e-03 -6.7145619511307158e-03
      1.3533000847845575e-02 -3.2634438843092495e-03
      1.0758098238359904e-02 1.8643974947275498e-02
      1.9957900802105317e-02 4.4756687062135030e-03
      -1.5940721909970902e-02 1.6104176799733108e-03
      6.5272621667217751e-03 -6.0205049946774536e-03
      5.8978036934085876e-03 1.9284770603959717e-03
      -1.6925862298713883e-02 -1.1635012110674909e-02
      -7.7968696520186549e-03 -1.4162633898043151e-02
      1.6753385369045043e-03 -2.9165675316002965e-03
      -8.8702923377061982e-03 -1.2020669542472943e-02
      1.4754646134509617e-02 -1.6872143508879393e-02
      7.0435330193614094e-03 -9.7083115409898040e-03
      -9.1909838138428505e-03 5.2445401562626823e-03
      1.2615635918322194e-03 -1.2963697868681422e-02
      -5.4504289627772236e-03 -4.7824542143164875e-03
      -2.0523888433419094e-03 1.1859591843976027e-02
      1.0180459437741053e-02 1.9311503900621675e-02
      -1.5556706754988702e-02 -1.1544464222282384e-02
      -1.5877473371237523e-02 9.3870557770180663e-03
      1.2166465373202789e-02 1.4100357625723196e-02
      -1.5613802201728637e-02 -1.2903818865435582e-02
      9.4040268531252434e-03 3.2945108938891356e-04
      1.4955475905434053e-03 -1.5268537155001908e-02
      -1.4337559014667744e-03 -1.1678042375852208e-02
      -2.0852190299983170e-02 -3.4102036047479732e-03
      8.7329341046736772e-03 -2.5594574626467410e-03
      7.4582703828660569e-03 8.7420964899053433e-03
      -1.1293855133152656e-02 -2.0579973954951161e-02
      1.7621896244124070e-02 1.5897038648545407e-02
      -1.3429279839847270e-02 1.7223858113450018e-02
      1.9523528668220859e-02 1.9090696489872331e-02
      1.8623994301837383e-02 -2.0055180618883672e-02
      -1.8652320448881211e-03 -1.1380616531045162e-02
      7.5521838722537478e-05 3.1399974738863384e-03
      -4.9213959369934579e-03 4.4471950932217070e-04
      -1.4938631114770715e-02 5.9579554334279437e-03
      2.3026322499721777e-03 4.3325439790926241e-03
      1.4792878012578581e-02 5.4643409490624031e-03
      -1.1069709019940626e-03 1.6462445848245931e-02
      8.1251098179713189e-04 -1.0221531956627084e-02
      -4.1847987852755191e-03 1.0213487634912930e-02
      -1.8499814498851269e-02 -1.2589867998119531e-02
      5.7121121351943463e-03 -1.2329697003537201e-02
      -9.4172639923716227e-03 1.3599386616677405e-02
      -3.5461307323470070e-03 -6.7144661346751500e-03
      -1.1372267142141760e-02 1.3715975970305014e-03
      -3.9044096391581571e-03 6.6587733033679044e-03
      4.0984940016433533e-03 -1.4505100760511128e-02
      2.4743955777739241e-03 6.7788490079472702e-04
      -6.1669906959367932e-03 6.7737895844841743e-03
      1.4052497800119816e-02 -1.0620813549915833e-02
      1.7338877610192149e-02 -3.3098313096254464e-03
      -7.2692334771902586e-03 1.6322951712469086e-02
      1.9330954368200006e-02 1.0741563202372717e-02
      -1.0395024599679285e-02 -1.2061213676437647e-03
      5.2701836999230643e-03 -7.4996858544163396e-03
      3.0276695802111202e-03 -1.6319462134542894e-02
      1.0009079883136270e-02 -9.1589190394004150e-03
      -3.0533352119928741e-03 1.2012903782354964e-02
      1.1937247062133297e-02 1.3377412088276594e-02
      1.4913115681024410e-02 -2.5594248011059630e-04
      -1.9887237965594471e-02 1.2905642087335623e-02
      4.7520515132824775e-03 1.7306898433143557e-02
      1.7701151632212645e-02 3.8605999780388480e-03
      5.7179027655181883e-03 -4.4579778185944405e-04
      -1.0659593636730623e-02 -1.2259963703382927e-02
      1.0394971194763090e-02 1.3548933642826212e-02
      1.9870554625451071e-02 2.0636120131073219e-02
      4.1846236773089773e-03 -2.0277465339275401e-02
      -6.8136197265666366e-03 -5.6282589642876295e-03
      1.5250434920302033e-02 -9.1603764052366216e-03
      -2.1941441230600531e-02 1.2822234069021728e-02
      -6.9505843800926745e-03 -1.1510022160064482e-02
      -1.0790575508433868e-02 -8.5073792730132308e-03
      -3.4372086882309349e-04 -1.1457997679509259e-02
      9.2563164528850876e-03 1.9828201900221817e-02
      7.0973506576271651e-03 -1.3517658232643903e-02
      -1.2542846912538328e-02 -9.7870913900351686e-03
      -1.5728107554844984e-02 -2.0423070293656989e-02
      -5.5022849903253171e-03 -2.2015592322299240e-02
      -3.7404545097136075e-03 -2.1760456733870760e-02
      1.5103181774334715e-02 1.2553667999809216e-02
      2.2951665165217097e-02 -2.5584173903342002e-03
      -1.1205128834102261e-02 1.0228862115409708e-02
      -6.3686750098112905e-03 8.8309563205015654e-03
      1.2905497067307242e-02 1.8788043119137524e-03
      1.3938200811908922e-03 4.8236869146953071e-03
      2.1813016791173280e-03 5.9632480072087830e-03
      6.6606403994858765e-03 -1.7432262324495719e-02
      1.2433136816916273e-02 -1.9778008705994110e-02
      3.8534136100831185e-03 2.4267446522462752e-02
      -2.0845860221648780e-02 -1.8688145561956568e-02
      1.7948419284177862e-02 1.2813939277443408e-02
      6.0120158826527719e-03 9.1941497105432930e-03
      -9.9066408269203026e-03 -1.0946413157725401e-02
      1.6883474852784695e-03 -6.2639159191054598e-04
      -1.4778772718677866e-02 6.7620531715737557e-03
      1.3930253429896559e-02 7.9392220267119652e-03
      -2.0584777691033257e-03 -2.2515321426523127e-02
      5.3131521803972022e-03 2.9230500355353455e-02
      3.7639423065747345e-03 -8.6335330278665013e-03
      -5.9423227137708782e-03 2.3473070598837392e-02
      -1.1798998269672324e-02 3.4104000901208414e-03
      -5.2974014720819545e-03 -2.3690793390858363e-03
      7.5756507084745626e-03 -6.9256571017433958e-03
      9.8422238667551804e-03 -2.5325944880062318e-02
      5.5265906249604528e-03 7.5021999756505996e-03
      8.9925278220624461e-03 -8.8507804770590771e-03
      -9.6453720608626684e-03 -1.4016550714212133e-02
      -1.6497424512846023e-02 -6.9671618134160623e-03
      -1.2100104960514470e-02 2.6126975159617694e-02
      -1.4132349492106738e-02 3.8079901902544734e-03
      -8.8879482504442830e-03 -2.0289377618419625e-02
      -7.9671328297715293e-03 6.0203856674283162e-03
      -4.0983529831749932e-03 1.1922934479760264e-02
      -6.4932967547368060e-03 1.0137370186998543e-02
      1.1122446032063317e-02 1.9217899399071635e-03
      -1.2903345877258341e-02 -8.3965031455126640e-03
      1.5293718916301260e-02 1.0112969448843458e-02
      -1.1535262913952054e-02 -4.4423226119361132e-03
      1.4997825473382132e-03 6.3417952730754614e-03
      6.4114149858473758e-03 -1.1028118516973271e-02
      -1.0551348069547793e-02 -4.3501924888990724e-03
      1.8391649285337833e-02 -5.8134920848102708e-03
      1.9542527343310336e-02 6.9798689888249214e-04
      6.4773477770338006e-03 -3.5260174824331180e-03
      -4.8061350465984217e-03 1.8198090366308354e-03
      -5.6539378386128514e-03 7.9580809733823827e-03
      4.4195428768407253e-03 1.0420484098474245e-02
      2.0197391353506431e-02 7.1710063671421645e-03
      7.2449737759026417e-03 -2.1960062083817067e-02
      -4.0916388969236056e-03 -8.1074575020013747e-03
      -1.8713139635111334e-03 2.9693021011242379e-03
      9.9902730291777601e-03 7.5077068155630870e-03
      -3.8735231909729829e-03 3.7056874086988209e-03
      -1.5432544687845359e-03 -4.0857514493224823e-03
      -6.0836817738789085e-03 -4.5786184564131161e-03
      7.8563283481817708e-03 -8.2017807444084139e-03
      2.0363354621371756e-02 -1.5236422355291445e-02
      -1.6467594520914962e-03 6.3454108143936379e-04
      -1.2258461045378822e-02 -2.9658937973559250e-03
      1.5004594670413011e-02 -3.0382991365530609e-03
      1.7550819474777428e-02 -6.8438305131348774e-04
      -1.4314648085333984e-02 1.4405565550270682e-02
      -8.5874866074362941e-03 -1.2554406570117745e-02
      1.6353130771379162e-02 -7.9861062249724727e-03
      -2.0947268244211831e-03 6.0208765658838750e-03
      -7.8637243650231756e-03 -5.7461473394474260e-03
      -1.6429707947025593e-03 2.2891964007601385e-03
      -1.7300120321658018e-02 7.3796901497307993e-03
      -7.8567440728407982e-03 1.3181196144868448e-03
      -1.7779427968001721e-02 -5.6270990690538867e-03
      4.2463369528629169e-03 1.6766852401520007e-02
      -3.8522648500097802e-03 2.7473087412479931e-03
      -2.3821865570937237e-03 -1.7499541627515089e-02
      1.5449342098894871e-02 8.9295742065001755e-03
      1.0209863351537268e-02 7.0634223601514145e-03
      -2.7581289102736263e-03 -1.7707321015719344e-02
      7.2723235486518694e-03 1.4294539779872302e-02
      -1.3350064348267358e-02 1.8426689387468886e-02
      6.0337320653933661e-03 1.2037099250377457e-03
      -1.2806872524406362e-02 5.6414042575166101e-04
      -1.7237340216519331e-02 1.3713725770685800e-03
      3.3688894919787025e-03 6.6594753344810581e-03
      1.5847438921902924e-02 -1.6050993897108061e-02
      4.0475549928591058e-03 2.4312148062951820e-02
      -5.2374274030705633e-03 1.4373735505730388e-02
      -1.3425876285479874e-02 1.4335021877793652e-02
      -1.3625261958818697e-03 -3.2617231070396916e-03
      1.0477665380283505e-03 1.8197928690707063e-02
      1.2123055441589972e-02 -8.2972473876847912e-03
      2.3452610319854392e-02 -2.7986674241539146e-02
      -1.0228059947790173e-03 -5.6368103984114270e-03
      -2.5640983284443700e-02 1.7843397425636154e-04
      -9.4891739796015926e-03 -2.2503816399795776e-02
      -1.2912606914549311e-02 -2.1154670593274829e-02
      1.1564493481018379e-03 3.1201254581555968e-02
      8.5366045586748596e-03 2.0610227857267263e-03
      1.2107968642307390e-02 2.7721587348855750e-03
      9.4635167671835892e-03 -2.8095547808540474e-03
      2.5367685799092453e-02 -1.3936368588759884e-02
      5.4156788732927655e-03 -7.5731388234587917e-03
      -5.1370325822009937e-03 1.0997275688917849e-02
      -2.0398003336541921e-02 2.6408134424182909e-03
      -3.6889516219338388e-03 1.7694323407835791e-02
      -9.8016779771245427e-03 -8.0843309398293539e-03
      7.6006477189673963e-03 7.1531664865660330e-03
      1.5408464765577310e-02 -2.1405431065919692e-02
      3.7881189410398763e-03 2.6112781357386310e-02
      -1.6379456022799492e-02 -2.4182263623622568e-03
      4.5246371288719016e-03 -2.5154831721783736e-02
      3.1833777358323185e-03 1.5637099681829202e-02
      1.5076210687649185e-02 -3.3182219859337757e-03
      -4.6902765317219782e-03 1.2889012919090071e-02
      1.9342797667191023e-02 7.5038831085569154e-03
      -1.4124447337400937e-02 1.7735375130382609e-02
      -2.5826696554651803e-02 4.9213680452894482e-03
      -9.5404568075853574e-04 9.9057271511228534e-03
      2.0448296299471737e-02 3.1100589233737482e-02
      -2.7428161952061096e-02 -2.6598788469788005e-02
      -8.1534571025280965e-03 -3.1983083706401259e-02
      1.1907172742619113e-02 4.3088532574632396e-03
      -4.7155612672443274e-03 -8.0881181732769623e-03
      -2.5152986603763014e-03 -3.0186342843799494e-02
      1.3273440090748911e-02 -8.0124869974304656e-03
      -2.6511888523511225e-03 -4.3685234856033258e-03
      2.1042489797832360e-02 8.0177826312146407e-03
      -8.3139718908271636e-03 1.7406340753126248e-02
      1.2215258486996082e-02 6.3669991213998892e-03
      5.1023098048341925e-03 -2.7846032221085466e-02
      -3.3538504391588973e-02 -1.4672434904224751e-04
      -5.8988276427506970e-03 -2.7833790243769883e-02
      1.1907529342545744e-02 1.1547734934353137e-02
      -3.3730540804724363e-03 2.7238244968461358e-02
      -5.1138772400272769e-03 -1.0250977646413582e-02
      -8.4198687726038390e-03 -8.5941045191798050e-03
      5.1231667832576881e-03 1.0512177145506788e-02
      -3.0630389363370306e-03 -5.8177507300156573e-03
      -4.8176199399234954e-03 -1.8011749698229999e-03
      1.5817985503990030e-02 2.1280167074934995e-02
      3.4864530041317583e-03 1.5684520010564217e-02
      -1.2596836063683281e-02 -1.5289915547663863e-02
      -1.0398155331039320e-02 -1.1828175744472362e-02
      -1.3911421248276878e-02 -1.4803815112344614e-02
      -1.5597036100315475e-02 2.3742118650177018e-03
      8.4975150618095722e-04 -3.3858966164846457e-03
      1.8549790150460484e-02 -7.1040589620724797e-03
      4.9790603387060714e-03 1.2480262699851969e-03
      -1.1992304265426084e-02 -1.3004989008806983e-02
      1.0022607684586456e-02 1.9043631084564010e-02
      1.5693847104209329e-02 1.0653648312701148e-02
      -1.1019235178631480e-02 -1.4462362978160476e-02
      -6.4899507056378767e-03 -1.9088699348577098e-02
      -5.3903697484722971e-03 -1.1252095726386070e-02
      -5.5071602308512095e-05 2.0550717843375046e-02
      1.3865034536866862e-02 1.6030685751041505e-03
      -1.4304463657205582e-02 -2.0926721468391405e-03
      -1.2978692099325492e-02 6.4919789231257380e-03
      1.0230843938293243e-02 7.6878869785136908e-03
      -4.5972431612441951e-03 -4.6625108382768272e-03
      6.4241281726793928e-03 -1.9462697020536903e-02
      1.4928865386365044e-02 -2.5779563318126157e-03
      -1.5938419810322207e-02 1.1512847212917506e-02
      -3.8455456415400092e-04 1.7651499152683070e-03
      -9.8307592280899971e-04 9.6759160023161400e-03
      -5.1749547613687795e-03 1.6690740323010590e-02
      -1.4714007545503340e-02 -1.6174412484923909e-02
      1.5978070053488155e-02 9.9261446808144773e-03
      2.0122412806331789e-02 1.2880432156790213e-02
      1.7910824624340182e-03 -1.9912560932739114e-02
      5.0347720505704756e-03 -1.1439131119372314e-02
      1.1502948254521280e-02 3.5089350036615809e-03
      9.1782182847491409e-04 -4.7121913454632519e-03
      -1.2113426112040039e-02 4.2316794939442045e-03
      9.6507470240037880e-03 -1.9992155201400811e-03
      4.0821170253222631e-03 1.2557039554057766e-02
      -3.4123162807779819e-03 -1.4452956495647609e-02
      1.3143889180282812e-02 1.8009470703827819e-02
      7.2904512700784369e-03 -1.3629979585586725e-02
      -1.4920816568180485e-02 -1.8455843082444627e-02
      -1.9581367550057439e-02 1.6931711173161397e-02
      -1.0493710030125650e-02 2.5759296315802416e-04
      1.1005541812174294e-02 4.7792405551044734e-03
      -2.0291401745240792e-03 1.1281570682564699e-02
      -4.5479193619552419e-03 1.3349809963455542e-02
      7.5228241783997455e-03 -6.0989872850385450e-03
      -8.8184353478791069e-03 2.3370831055143947e-03
      6.4978376429439318e-03 2.4517953881985598e-03
      1.3634857311631481e-02 -1.0519026981939404e-02
      3.8764845553567735e-03 -1.7773005840026147e-02
      1.2067600381819349e-03 -2.3851610194002568e-03
      -1.4647714687976019e-02 -1.5231713872729775e-02
      -9.9264051656632202e-03 1.1451257734404445e-02
      6.1225837543673724e-03 -1.4044844568966442e-02
      4.9735848573600333e-03 -4.2075933721218315e-03
      -1.2320678500945590e-02 -1.0199632131408119e-02
      1.7759184023185600e-02 1.4763158624884485e-02
      6.4927008092389871e-03 -8.1501192236660012e-05
      -1.3739691953547862e-02 -1.8139713693550056e-02
      -1.5914229444236178e-02 1.0284456007534273e-02
      1.5911608811717212e-02 -1.3067070846840710e-02
      -4.7214303442958223e-03 1.0744264818699324e-02
      -4.2940638848421248e-03 1.3458184663069944e-02
      -2.9335884290645521e-03 1.3046044406805238e-02
      7.1145088805783917e-03 -3.2324297006724166e-04
      7.1030643527629700e-03 -1.4808162148190957e-03
      -8.9716325272668727e-03 8.9543980314446773e-03
      -5.8729471190970333e-03 1.1506728157589012e-02
      3.2182864176376665e-03 -1.3505490091641160e-02
      1.7423876527309309e-02 -1.3811371862944961e-02
      2.9137296565515578e-03 1.1653286803561461e-02
      6.6054620050388386e-03 -1.8746148145649513e-04
      -1.7921274127551300e-02 -1.7673775156907236e-02
      -3.2893729289641704e-03 1.7708264714812912e-02
      1.3266167745448216e-03 8.3082098688794584e-03
      -3.0021281068755741e-03 -3.1553856108778601e-03
      1.1861664961869706e-02 -3.0716433431198903e-03
      2.4892656474339542e-03 1.8870142530109362e-02
      -4.5485070663206896e-03 1.7205063886505577e-02
      7.3044411237851853e-03 -2.0194867852172935e-02
      -1.1556432304036399e-02 3.1682603263257572e-03
      1.1966231898821546e-02 -1.8226638811317083e-02
      -1.3828618042998776e-02 8.4797451338019733e-03
      -1.0043528940852696e-02 -1.4389668674734537e-02
      6.7845378685030865e-03 -7.2688748662900681e-03
      -1.5891419508977683e-02 -6.6545714303221275e-03
      1.6242667288654131e-02 -1.8349885588960281e-03
      1.1282455576812508e-02 3.8733636463330811e-03
      1.5417551109242053e-02 5.4297417875712323e-03
      1.6613302174252550e-02 1.4986505525833875e-03
      -9.9106061628233683e-03 1.2543184875081851e-02
      1.7958419065734279e-02 1.0970055961536575e-02
      1.5778065231851369e-02 -1.1599719170199667e-02
      -5.9082002078651892e-03 -3.8365016760466240e-03
      -1.8678432785148680e-02 3.4446181297956161e-03
      -2.1173537827777238e-02 -1.8770078744980604e-02
      -1.5045727018108961e-02 -3.6739256080866168e-03
      1.6653104725050716e-02 -7.9309940453608820e-03
      1.3033750684224053e-02 -4.7197147698846195e-03
      -1.1478854701941201e-02 9.6684541483596544e-03
      -3.5435696537472125e-03 2.0450700247109509e-02
      -9.3984050905869688e-03 -2.4906353103477078e-03
      1.8008720729443269e-02 -1.7785957292603051e-02
      -5.8268667682808495e-03 -1.5269787667435999e-02
      1.4465799729020689e-02 1.6184763500335698e-02
      1.3621951940776734e-02 7.5310991999529941e-04
      -1.2796962550591489e-02 1.3373108307383572e-02
      1.9345996687116059e-02 1.2275035815970916e-02
      -4.2076163182380479e-03 3.1697812073044791e-03
      -1.6493960578341630e-02 1.3496859353385510e-02
      1.2292701820872966e-02 -1.2722516433185312e-02
      -1.4142762900219211e-02 -2.8977307242927567e-03
      1.4393801822956230e-02 -9.9657328820249094e-03
      1.1191522961303194e-02 8.9367646735154134e-03
      -1.7012837023999444e-02 -3.1127997091099312e-03
      -2.9922472374607129e-03 -4.8586977265218925e-03
      -3.2267032160261328e-03 -6.6022043306413376e-03
      8.4749175777438686e-03 -9.4783536701398066e-03
      4.1747949557975521e-03 8.5963284484159939e-03
      -1.6073288503521709e-02 1.5129437717213295e-02
      3.1653390896694837e-03 1.9715897074465753e-02
      -1.0195615852387447e-02 1.4091027895284144e-02
      1.6356871437530791e-02 1.6582798806674952e-02
      8.9341119297560254e-03 -1.6468134035580429e-03
      -5.2218842896220273e-03 1.1061067667697320e-02
      2.5035120817767358e-03 -5.2641253033513724e-03
      1.9556359985494340e-03 5.1325196767253349e-03
      -2.7877339703310032e-03 -1.1677204058749446e-02
      7.7946166745110693e-03 -1.8578463189540869e-02
      1.3157514020345861e-02 2.1925342806118662e-02
      -1.8445256671810083e-02 -6.5921450725650301e-03
      1.2112748677095820e-02 8.7213573177550505e-03
      -1.5811494295779365e-02 1.4329736504577603e-02
      1.5963708447166453e-02 6.1836108456331659e-03
      -2.6751060475872592e-03 -5.3228467701103557e-03
      -6.4195752998717145e-03 1.3977630811104586e-02
      1.2229272687357912e-04 1.3300290333410120e-02
      -1.4865947208098425e-02 1.8332465517485567e-02
      7.3958518567505170e-03 1.6346422834272303e-02
      1.3143268888382636e-02 -1.0045822957117728e-02
      -2.4339935218817997e-03 3.5749920910270196e-03
      1.7814134415801878e-02 1.8037750713935121e-02
      -1.3495609654853186e-02 -2.0796488642751739e-02
      3.6019373854418303e-03 3.7016850561663456e-03
      -9.8519441296185603e-03 1.1858140919846296e-03
      -1.6827996674090948e-02 -3.2197931536766147e-03
      2.2811668931411013e-03 1.7634070014869305e-02
      -4.1716224944689771e-04 4.7728954082754552e-03
      -1.3455664093075940e-03 1.3430056164292670e-03
      5.8536195771761983e-03 -2.3752046954640758e-04
      -8.7828646836718184e-03 -7.6792105701500111e-03
      1.8388310550659918e-02 1.3694033506908778e-02
      1.5652068692949151e-02 9.9485844057919937e-03
      5.8133344857944323e-03 1.8071657586411907e-02
      -3.3680778359051772e-03 -7.9965358806806802e-03
      -1.6622132914615652e-02 -1.2587813040993144e-02
      -6.6587414019740514e-03 1.2652115688720163e-02
      1.1927204052301991e-02 1.7811408965171888e-02
      8.8757694866003108e-03 -7.1276421068500653e-03
      -5.4180229243370515e-04 1.2723147665377854e-02
      -3.9694932541521379e-03 4.0620284318206882e-03
      9.8003272090549098e-03 -8.5832913889096543e-03
      -2.0564234599709055e-03 1.3323237391560825e-02
      1.2451842368582426e-02 -1.7553820104680012e-02
      5.3886146844878387e-03 -1.6101914999649497e-02
      -9.5432594597477070e-03 -5.5231994785545956e-03
      -4.3526806854623087e-03 1.7925158066164387e-02
      -1.8675111823922320e-02 1.5183424111296445e-02
      -1.6079730236554183e-02 1.2697363341188445e-02
      1.6043882754281924e-02 -1.7559022236159072e-02
      2.9506247052351717e-03 -1.6145990904234134e-02
      3.9118121619886410e-03 -1.4085349437152013e-02
      -4.9548191253492233e-03 -1.5223239993101028e-02
      -1.7192169464456161e-02 -2.0819740446324179e-02
      -8.3148833804727873e-03 1.5267716866167453e-03
      8.5870519405700316e-03 -1.7607615287013188e-02
      -1.6044463244116149e-02 -9.9268185564469029e-03
      2.0310459928573896e-03 -1.5394936021890765e-02
      1.3785934912027053e-02 -9.0602807823153692e-03
      -1.6540651714638126e-02 4.9256133472697699e-03
      6.2152472371734277e-03 1.1638832393355495e-03
      1.1385711884407380e-02 -1.2054900186960654e-02
      1.8870992080351076e-02 -1.4237223107554660e-02
      -9.3858894110802789e-03 -8.2837683827529113e-03
      -1.2593292643144467e-02 1.5684138122969291e-02
      1.9667962006661450e-02 -1.8043601858122399e-02
      -2.4587770034743831e-05 1.4997977571633092e-02
      1.5531018867262415e-02 -1.9132574525702419e-02
      -1.1197107565548263e-03 3.5709950566959543e-03
      -1.3025576275675882e-02 7.2547380741412176e-03
      -1.5370848780160892e-02 1.4900855066778674e-02
      -2.3472151279685426e-03 6.0969997587339148e-03
      1.4113095799741725e-02 -1.5365106076003446e-03
      -2.5890109560863456e-03 -4.9352189995882567e-03
      -2.1730908563024627e-02 2.3108346357830628e-02
      3.0274812584244635e-03 7.7364591034455137e-03
      -1.4129185925297496e-02 1.1617958932826113e-02
      -8.7819206532683842e-03 1.0842967624693105e-02
      3.1984055289278557e-02 -2.4176866877269512e-02
      -6.6150882876293005e-03 -1.8387477484449747e-02
      2.7023360978699553e-03 1.4884830218673921e-03
      -1.5108767075115739e-02 -4.6641042115591162e-03
      -2.0132286494364176e-03 -1.1888858729337461e-02
      -4.4321302618281110e-04 1.0373976361845418e-02
      -2.9034875974388798e-03 -6.6891196097362783e-03
      7.4588292468087021e-03 3.2390001986613445e-02
      1.6516608157041941e-02 -2.4156315631706705e-02
      -8.3570847709723041e-03 -1.3264732739414239e-03
      -1.5677617989693724e-02 -2.2631697989981173e-02
      -9.3495697916324075e-03 -1.0051910003345784e-02
      -1.0154007657656604e-02 -1.2409858007608734e-02
      2.8544252147371094e-03 -1.3917305797850159e-02
      2.8866189246452820e-02 1.9691900319823215e-02
      2.2696700997837726e-02 -1.4797869816747709e-02
      -2.3387900958135685e-02 -1.7509646122003267e-04
      4.6110428774775187e-03 1.6634301613440681e-02
      2.5433414490173636e-02 2.0207207897039264e-02
      -2.8360402706652309e-03 8.8643633015796121e-03
      -1.8115428276034239e-03 -2.7491428016337190e-02
      7.4595746874335459e-03 -1.8844785588951633e-02
      2.4679885585739043e-02 1.5168505371844295e-02
      -2.9143219557416951e-02 -8.5725365089404509e-03
      8.1169268406474197e-03 -2.7188561577936969e-03
      -4.2176458012529701e-03 6.0898885088264253e-04
      3.5006187076698945e-03 6.7712296010791996e-03
      3.2669135524995502e-03 -2.1378519340700258e-02
      -5.1683615362031372e-03 -3.1839052415251097e-02
      1.2798383973876271e-02 5.5432556307232822e-03
      -2.3771365588810971e-02 -5.2414060646653734e-03
      -2.0575345222446939e-03 2.9194166099864760e-03
      1.4262900640418684e-02 3.1557640370597093e-02
      -2.0042048630664985e-02 8.5794252168295837e-03
      -2.2560265138290722e-02 1.6693869709099963e-02
      1.6787001739499735e-02 5.5686884623738202e-03
      1.8579417271578656e-02 4.9120868476139421e-03
      -1.6496114730109895e-02 -5.3808275422750152e-03
      -1.9707497743759888e-02 1.6329388609766952e-02
      1.9237063842017538e-02 -4.0842991488109319e-03
      7.5997642748400788e-03 -1.2634352897507958e-02
      5.9837252946787524e-03 2.4119496055536715e-02
      6.0577990781075439e-03 6.5289403397601632e-03
      -8.1299676359946928e-03 3.1270068552223564e-02
      1.5960164105143601e-02 -2.4325670215050763e-02
      -1.9575308717673965e-02 6.1906825320785124e-04
      1.7245890909587537e-02 1.8875490775055601e-02
      1.1647571729645711e-02 -1.6324789110705409e-02
      -3.2942762751447226e-03 -5.2413505604370671e-03
      -6.0106712943236579e-03 -7.1978542761949021e-03
      -1.2312907144401019e-02 -2.1249048518877556e-03
      -1.8293064360800408e-02 3.8986853783956640e-03
      -9.3159357457150514e-03 -2.0298896274105103e-02
      3.7109340647678824e-03 1.0662260538834284e-02
      5.5762374028409934e-05 -1.4447853522285350e-02
      -1.9328499231174065e-03 1.7118680395497306e-02
      -1.4486751664991767e-02 6.7728662726459195e-03
      1.9549719340312795e-02 -2.4474368868538260e-04
      -1.7077581107111488e-02 -1.9963071091529935e-02
      -1.2785826598179287e-02 -9.9604526328499654e-04
      5.7350688358014908e-03 -1.3248715220890711e-02
      -2.0390780542169699e-02 9.2338279510779855e-03
      4.7847179633803000e-03 -2.0683368357914934e-02
      -8.4322772604573364e-03 1.6763650207012648e-02
      -8.6069299417096488e-03 -9.1901249860033441e-03
      1.6780659265824669e-03 -8.3767007960499197e-04
      -9.7060731249007225e-03 1.1341929098797200e-02
      7.3654713482063251e-03 -7.4446320161192158e-03
      6.3916819887963813e-03 -2.5256111811866795e-03
      -2.0298252909618068e-02 1.5954359823536289e-02
      8.8347458498837655e-03 1.5665370874168503e-02
      1.7646828608152927e-02 -1.0365727008432789e-02
      1.4619571937819396e-02 -1.3903836557051907e-02
      8.9486622583761673e-03 -1.1981895991476203e-03
      1.2419996926934121e-03 -2.0474454761940312e-02
      1.2555626962577187e-02 1.0552581615127428e-04
      1.0211299490785456e-02 -1.2433392165966516e-03
      -2.5717733664143527e-03 1.4078596049158849e-02
      4.6206726880057879e-03 -1.1775455250785999e-02
      -2.0150070193690715e-03 1.8108963043873799e-02
      -1.6021242463685092e-02 1.5946852105615226e-02
      -1.3741867102663738e-02 1.4105570837728740e-02
      1.3417216764793204e-02 -1.2013442016832949e-02
      -1.4223296782755084e-03 -1.4844756269243595e-02
      -2.5393236592902435e-03 -4.7097460532664901e-03
      -8.2796732906654843e-03 -1.4894669155943733e-02
      3.1478995776371569e-03 -3.8306637956890834e-03
      -2.0121551147255012e-02 1.4955049614156205e-02
      -1.0984986966228967e-02 1.0473253969374556e-02
      -1.4641734656254781e-02 7.2318531204084643e-03
      -3.9142395548222046e-03 -1.0833639760647960e-02
      -1.5145761012907526e-02 -1.8051285155180528e-02
      8.8784542050908879e-03 1.9671451804776099e-02
      8.6159959562273486e-03 2.6256327894800878e-03
      2.0272202862754544e-02 9.9966888603734011e-03
      1.4239906603102084e-02 1.1642424584789800e-02
      2.8215083160374778e-03 5.7912742493359502e-03
      1.7203039678866532e-02 4.9101672678429726e-03
      -9.3942010849622885e-03 -1.4803763391615885e-02
      2.1080443555144485e-03 -1.1942625285362522e-02
      -3.9903329086794096e-03 6.1191774692508457e-05
      1.7908668116463947e-03 1.3544802877600157e-02
      9.4636289804260927e-03 -1.1203590010359856e-02
      -7.3935350277720829e-03 9.2604361911634934e-03
      -1.3488872413340274e-02 3.0854254460394438e-03
      -2.6901141764194024e-02 -6.6306931352321718e-03
      -2.0809436694508698e-02 -2.2216361479834214e-02
      7.2149308395348215e-03 -1.7535257767955132e-02
      -1.1406409834278684e-02 -5.7890089883199476e-03
      9.5785838087011719e-03 -5.6358568192499368e-03
      8.8863513095207344e-03 1.2783621920076280e-03
      -6.4562434321984727e-03 -8.4447662537243846e-03
      2.2383469310690376e-02 -1.1595518146717965e-02
      7.0485618297146139e-03 -1.1184273546169552e-02
      -6.5334321301815977e-04 -5.6510053292104833e-03
      -4.3914135467961963e-03 -5.0451385790524104e-04
      1.6044654272409514e-03 -1.8131539950540692e-03
      8.0001410250964307e-03 -9.1758611208514577e-03
      -1.0087259434719945e-02 -1.5986871379648208e-02
      5.9399134535459272e-03 -1.5456021028231119e-02
      6.6026944495947279e-03 -1.0569840503027964e-03
      1.5269382050323509e-02 -1.1982079742793835e-02
      4.3358133261319270e-03 -3.0901126808479187e-02
      -1.2536939745872756e-02 -5.4207650581840983e-03
      -1.3184906870889445e-02 -1.2105406089884505e-02
      3.0344905518257534e-03 1.8117541068842238e-02
      2.3537082863550442e-03 -1.4598808059382918e-02
      -1.1982990103229245e-02 4.0342630739864374e-03
      -1.1779115660211869e-02 2.7531586228756195e-03
      -2.8092612049024626e-03 -1.9179726349802046e-02
      5.3593827789053172e-03 5.1430838638488246e-03
      4.8243195600931009e-03 -1.2892563091605767e-02
      1.3502659494000683e-02 5.1171426456952810e-03
      -6.9592217214724797e-03 -2.6964092070842358e-02
      8.0303386086527564e-03 1.3510396813113246e-02
      -9.7430671912319584e-03 -6.8774980866398482e-04
      1.3806919856586039e-02 -1.4092972106753770e-02
      -1.3532820715449263e-02 1.7140882612917508e-02
      1.4053651019311808e-02 8.0650706979311067e-04
      8.8108457702082525e-03 2.1120184860883268e-02
      6.5543369420156651e-03 2.4073396504897107e-02
      -1.8389142991798012e-02 -2.7880451943573105e-03
      4.1331862411807113e-03 -1.4183629903024854e-02
      -3.8391056356882770e-03 5.6221191855357205e-03
      -1.0769314072466720e-02 1.9110261810574011e-02
      1.3042787842531623e-02 2.6202494269893978e-02
      9.5471709003613469e-03 1.6775330684623023e-02
      -1.3531631457785711e-02 -1.0113422482422888e-02
      -4.3846046185352094e-03 -5.8847148850223099e-03
      -8.8724652819475013e-03 1.6492393589425274e-02
      9.3098426276034037e-03 -9.6780402161170103e-03
      -6.4741799837078323e-03 -1.9924071603309369e-02
      1.0127067121447370e-02 2.1233104198726597e-02
      -1.2318018283278423e-02 -4.6127885985204594e-03
      1.2428725379690005e-02 1.9258176445813766e-02
      2.8847574267563438e-04 1.3824522686591791e-02
      5.5680306203189471e-03 9.5977496427469573e-03
      -1.1527773361741120e-02 7.7782305115092990e-03
      -2.2526666840802429e-03 1.4856034000663283e-02
      -1.6270736756490004e-02 1.8392377966553561e-02
      9.5333971081728482e-03 2.1351508253841769e-02
      2.2409894762655005e-02 4.2866088159766065e-03
      -1.9329988618893380e-02 -2.0704651786867447e-03
      -4.9334442335745542e-03 -1.0292416370740666e-02
      1.5676077103557673e-02 -1.6046326873729207e-02
      -1.8363115968098989e-02 5.5304881752596844e-03
      -1.4368793808311121e-02 9.7337229208070506e-03
      1.7180032417527375e-02 -8.6999465290766523e-03
      1.7440449842679374e-02 -3.9743805409846693e-04
      -2.3387874061374342e-03 3.7833069426084741e-03
      -1.3927371688728046e-02 6.7541376713508878e-04
      4.1584258225620995e-03 -1.6132969496361699e-02
      8.5714159464500631e-03 7.1278459507415036e-03
      1.4056562951375067e-02 1.7684085219613271e-02
      -1.6386976324651935e-02 4.5520109228892229e-03
      -3.1859601244491730e-03 1.6088783696347801e-02
      1.3924058683741547e-02 4.0289323967762731e-03
      -1.0334934577358172e-02 1.4229753800042374e-02
      -9.6301610339462225e-03 2.0890531268911803e-02
      -3.1925417409627826e-03 -1.2043016740031160e-02
      8.6873190177110459e-04 -5.1044242323946692e-03
      -2.2858325959801442e-02 -2.2436122260550698e-02
      4.2489162484397732e-03 -1.4720432827319031e-02
      1.2234278560425766e-02 -1.8879185814524593e-02
      1.3539844960417597e-02 1.0000449306254145e-02
      4.0514778420117558e-04 1.1083657039007643e-02
      1.5418613386439201e-02 -7.2466450511018037e-03
      -2.0694563992442065e-02 7.7258681041793859e-03
      -9.8777192704643784e-03 1.7426199080311396e-02
      1.4157227571627412e-02 -9.6640829164397512e-04
      -1.8022810106212556e-02 -1.3909983041728045e-02
      -1.7324131012624019e-02 7.1122239957040582e-03
      3.2065183846831350e-03 -1.1495829160929255e-02
      -9.3677706978770748e-04 -2.6825639250104001e-03
      1.6772956495874163e-02 -6.0256490254351047e-03
      -1.5603315398549622e-02 1.0149547574803927e-02
      1.2376032540466448e-02 -4.1477173244841778e-03
      -1.8477986117173516e-02 -8.6173210505470776e-03
      -1.7065804085093013e-03 -1.8423312611894425e-03
      -6.2665200424428570e-04 -1.7784402736647643e-02
      -1.1652722332615233e-02 1.1307399106177934e-02
      7.0498529812869836e-03 4.5534330513850559e-03
      -1.4889330736526719e-02 -1.8289297810506965e-03
