<?xml version="1.0"?>
<opencv_storage>
<opencv_ml_ann_mlp>
  <format>3</format>
  <layer_sizes>
    14 100 100 2</layer_sizes>
  <activation_function>SIGMOID_SYM</activation_function>
  <f_param1>6.6666666666666663e-01</f_param1>
  <f_param2>1.7159000000000000e+00</f_param2>
  <min_val>-9.4999999999999996e-01</min_val>
  <max_val>9.4999999999999996e-01</max_val>
  <min_val1>-9.7999999999999998e-01</min_val1>
  <max_val1>9.7999999999999998e-01</max_val1>
  <training_params>
    <train_method>BACKPROP</train_method>
    <dw_scale>1.0000000000000000e-03</dw_scale>
    <moment_scale>0.</moment_scale>
    <term_criteria>
      <iterations>255</iterations></term_criteria></training_params>
  <input_scale>
    4.8005175838445275e+00 -2.1597859725531099e+00
    9.0192494984054665e+00 -2.1166867714897388e+00
    1.3084190852478983e+01 -2.2131812549620613e+00
    1.7902740756379941e+01 -2.0595461599631628e+00
    2.0448821916829466e+01 -1.9119400746195356e+00
    2.6926031821001970e+01 -1.8903326031143839e+00
    3.3770718200209004e+01 -1.9131937844255511e+00
    3.8019449518868555e+01 -1.7087149273749320e+00
    4.1853775932327643e+01 -1.5992423018194473e+00
    5.5794495715503302e+01 -1.7272590074000373e+00
    7.1961708356323754e+01 -1.8924850119796248e+00
    8.5807462170899541e+01 -1.9188774180048915e+00
    9.2264912266469352e+01 -1.8472575222558902e+00
    1.0398805628485427e+02 -1.8958630963259782e+00</input_scale>
  <output_scale>
    5.2631578947368418e-01 4.9999999999999994e-01 5.2631578947368418e-01
    4.9999999999999994e-01</output_scale>
  <inv_output_scale>
    1.8999999999999999e+00 -9.4999999999999996e-01
    1.8999999999999999e+00 -9.4999999999999996e-01</inv_output_scale>
  <weights>
    <_>
      -1.8781989595803228e-01 -9.2773844718365528e-02
      -1.3658430393349935e-01 1.4414809839411233e-01
      7.0565177764791612e-02 -2.0380126089784314e-02
      -8.2324276887481285e-02 -1.4300076620637828e-01
      1.2619589258682468e-01 2.6591201997542491e-01
      1.0458525436890449e-01 -3.9039781787264548e-02
      1.2334176333873366e-01 1.0675887365630751e-01
      -7.8977054512887307e-02 1.4318441023854528e-01
      -1.1174366918734764e-01 -1.2060473963112706e-01
      -5.4230252097336597e-02 2.2367110668128694e-02
      9.4388437903375599e-03 1.3295888484127977e-01
      -5.7331714829135197e-02 9.1156138967556765e-03
      1.0449957645310884e-01 -4.3422258283088606e-02
      1.3263515222624433e-01 4.7823998888897122e-02
      -1.3308351122836520e-01 7.7949790443597983e-02
      1.2306146102373451e-01 -4.5433038929147303e-02
      -4.7492313150228442e-02 -2.7893649736226600e-02
      6.3255471205147129e-02 -8.3217007180176480e-02
      -2.2412363020785814e-01 4.3627344465323729e-02
      -9.2462979111827590e-02 1.2498504057978452e-01
      -2.0075836984862053e-02 -2.3747668350883153e-01
      1.2185495898173324e-01 -1.1150021031718420e-01
      4.3006535142779447e-02 7.7378617338673059e-02
      9.2363305492392467e-02 -3.0101729589592962e-02
      4.7183731165737715e-02 4.3317120906162368e-02
      -5.2232875842009766e-02 9.8411548909526150e-02
      -9.1818198239255480e-02 1.3151135473800904e-01
      9.9341744375491578e-02 -5.4466786392122413e-01
      -1.6117537156460210e-01 1.0630280872147423e-01
      1.9961946489193833e-01 -1.8435419876796166e-01
      -8.9180890564811627e-02 -1.8620105133072870e-01
      6.0165479545670357e-02 1.6733534556715346e-01
      9.8298843376173464e-02 3.5233749681225196e-02
      -3.6113044076068322e-02 1.6413578905747189e-01
      -7.4730835567955387e-02 1.9961074263378790e-02
      -1.2034947227672503e-01 -1.8275591359650487e-01
      -1.7178035311827877e-01 7.8629348799498580e-02
      5.3371085769811687e-03 1.6631892192286216e-01
      -1.1379091527635452e-01 8.6654654506436946e-02
      6.7738883992954912e-02 4.9664291741337831e-02
      8.1344269096603652e-02 -1.1906006717608074e-02
      -1.0935738429981424e-01 6.8962036277649755e-02
      1.2169643704099739e-01 -3.3645892449024134e-02
      -1.6551366673010737e-01 -4.2676399092511974e-02
      7.7353610911348430e-02 -3.2172492540351962e-02
      1.0221578884462035e-01 -1.6204749081465145e-01
      4.6595966866229029e-02 2.2443179419574072e-01
      1.0763756334347888e-01 -1.4678727314800744e-01
      4.3512670082850341e-02 5.3327702139962387e-02
      4.8866458464536376e-02 1.5825208489799819e-01
      4.1570382129351144e-02 -9.4423654621857200e-02
      9.2725775998200560e-02 -2.6454109578641440e-02
      -9.5862643317613239e-02 4.7702975253933202e-02
      7.0931918967570728e-02 1.0594053309303133e-03
      -2.6409352840809464e-02 3.8404020847431428e-02
      1.1667842714644587e-01 6.8988071125588926e-02
      -7.1211758918810930e-02 2.1156672132351902e-02
      7.5577329891403531e-03 -7.7471973906909214e-02
      -1.1259721729597151e-01 9.8585970755451224e-02
      1.1763882323411597e-01 2.5094644949620933e-02
      7.2879993296713673e-03 9.6688731495019581e-02
      -1.0142942277540530e-01 1.2806705774002478e-01
      1.3139668949413038e-02 -2.3175052838816795e-02
      -4.8148308223242543e-02 -1.2946162487885188e-01
      -1.1858620101527489e-01 1.3697025087045622e-01
      -1.4270580756862264e-01 5.2415383224730307e-02
      -1.6757601764763974e-01 2.7675518847758675e-02
      4.6511552075305038e-02 -1.3440959634963823e-01
      -6.0068296585581047e-03 2.5802533390364733e-02
      1.7692007232970910e-01 7.8082732986377829e-02
      -8.7487097980970013e-02 1.2103346432983380e-03
      4.2582139782275832e-02 1.1041653301547945e-01
      4.8709146443544085e-02 1.0029600460012937e-01
      -7.9162540170164206e-02 1.6516701552583501e-02
      3.4064075699835966e-02 2.7894619378520290e-02
      5.8622322596347601e-02 -4.4518645743526720e-03
      -1.0975013417864281e-01 4.2140633348983700e-03
      7.0762053496714510e-03 1.6885477115724448e-01
      -7.1122528189078077e-02 5.2738726457639211e-02
      -1.1554877549088916e-01 1.0812408293085245e-01
      6.6845601967507301e-02 1.6607845197568441e-01
      -1.4779491615578971e-01 -5.9337674679743560e-02
      1.1790012215037728e-01 -1.1874010997321431e-01
      -1.2542155134315663e-01 2.1112923259311116e-02
      -8.2723546981228163e-02 -9.5029178709087628e-02
      1.0760910532872936e-01 1.1916663750070967e-01
      1.6694626371188415e-01 -4.0913882418989224e-02
      8.4815207223786965e-02 1.0319087601152842e-01
      1.4798367610407628e-01 6.5165619460938226e-02
      -1.9276283121465709e-01 1.2103589690825148e-01
      1.5641890383440368e-01 1.9136191561633976e-02
      1.4769346800910535e-01 1.4957944243637574e-02
      -1.5834381818913980e-02 -1.9905370752139644e-02
      6.2433169128155046e-02 6.5929412472560692e-02
      1.1786459878708418e-01 -5.5099830922157457e-02
      -1.8118304537090655e-02 -4.0013693521891970e-02
      -7.5787626101308708e-02 -1.5160437113665523e-01
      7.7418849091449013e-02 2.8957775633976258e-02
      -7.5594000784261720e-02 1.0174623082470119e-01
      6.6006443281704880e-02 -9.1903502115207508e-02
      -8.7993135957480650e-02 -3.0565167024532602e-02
      -1.3607916660970660e-02 -1.1266118325162351e-01
      -7.1361081847160543e-02 -9.8145677966890374e-02
      -9.6407534831588634e-02 3.9922988423858129e-02
      1.4573586891789433e-01 1.3769462756586831e-01
      -6.5092884941119773e-03 1.2993060226720060e-01
      -3.5464851411806282e-02 1.2065455511674859e-01
      1.2120816130098236e-01 -1.5977889040514676e-01
      -4.9118191925299558e-02 -8.1241704921062828e-03
      7.2940217683356767e-03 -1.1961842809844905e-01
      9.0744729582100850e-02 -1.2960870108619046e-01
      6.5260588247659946e-03 -8.8072507257074065e-02
      -9.0389547987728927e-02 -8.0284350092233794e-03
      -1.0506166837207906e-01 1.6486557732392253e-02
      1.4103303968151110e-01 -8.2561268068250690e-02
      8.9844155668194869e-02 -2.9253781095841757e-03
      -3.9923088979877487e-02 -1.4022518300515917e-02
      5.1592581693238410e-02 -4.9368905722119438e-02
      -7.4155269169635732e-02 1.5465763547536443e-01
      2.8468669850821388e-02 4.3594442453692470e-02
      9.2539920112434934e-02 -2.9656843697392184e-02
      8.1316886823640494e-02 -9.6950108486770631e-02
      8.1241325206103915e-02 1.0649786942786692e-01
      -8.5120110519617820e-02 6.8476220311313674e-02
      1.7968262348496931e-02 1.8049533072058196e-01
      1.3278386878424550e-01 -1.2619445323248640e-01
      -9.6722688618144578e-02 -1.2117020371459554e-01
      -9.0348426027577367e-02 -1.9533569081351873e-01
      -3.3077609787408549e-02 -1.1676938565488061e-01
      -6.0129652379538691e-02 5.2151400288579459e-02
      1.0949418348738013e-01 6.4418538947118908e-02
      -9.5573632646378429e-02 -6.8908762375344004e-02
      -6.5800750345923351e-02 1.9045587097195871e-01
      -8.9731579693423505e-02 -5.3563608155275388e-02
      -5.5693094148380758e-02 6.1356136303140574e-02
      1.7077697708931525e-01 -1.5969130494300457e-01
      1.0766280349515375e-01 -2.7651405814169496e-02
      7.5417587521626986e-02 1.6781258550802777e-01
      1.3467727241698887e-01 5.0309751250217555e-02
      1.0188819490233203e-03 -1.0321966759169464e-01
      1.3053173981816987e-01 -2.3365994422934237e-02
      1.0520573074043167e-01 -9.2866394074017561e-02
      -4.6037320633036422e-02 -4.1359978070671224e-02
      -4.3690760874669138e-02 -1.0249628746671399e-01
      -5.5493314328576869e-02 -1.6739493936368904e-02
      -1.1942504496543031e-01 2.6615317815396604e-02
      -4.7439765649144074e-02 1.2652710998153741e-01
      6.7138295944109191e-03 -7.8649532273967593e-02
      5.7445337773787269e-02 6.6309980173575311e-02
      -1.5034891644633122e-01 3.4417613161199151e-02
      -1.3993284106508597e-01 -7.5357439989502339e-02
      7.0104418709477714e-02 5.7419096201368362e-02
      -4.6507223776784540e-03 4.7156022313002297e-02
      -2.6496282249841959e-02 2.8254220602778653e-02
      2.1637027194092653e-01 1.4806167023005670e-01
      1.1640791074778677e-01 -7.2618751159718043e-03
      -2.7290550517811415e-02 1.0483870770967101e-01
      1.1558124898785181e-02 2.1413064721204803e-02
      -9.6955422151863938e-02 -7.6473976400919991e-02
      -1.5664475424399188e-01 1.1183718269092552e-01
      1.6596953569999282e-01 1.0213831377882773e-01
      7.8541082070866214e-02 5.8494528663367802e-02
      -8.5904016940707609e-02 -1.1673677904445896e-01
      6.1801474115791545e-02 -6.6284772172188339e-02
      2.5777040545587170e-02 4.4569585161614550e-02
      -1.3436482873603479e-02 -1.3698761226353134e-01
      -1.1297493973194390e-01 1.1326072075941730e-01
      -1.4751997164245137e-01 3.0660412258260286e-02
      -2.1062725893918011e-01 -4.8869381893967383e-02
      1.8708697369777830e-01 1.5737933700970744e-01
      9.0659453738571247e-02 2.7519656513134448e-02
      1.8203011205677608e-02 1.1095627953817373e-01
      1.3557242268753228e-01 1.0828839790917223e-01
      7.6597346959166368e-02 1.3623522178589410e-02
      -5.9640778709119956e-02 -5.4728975683756564e-02
      -3.9650472613126139e-02 1.2918551718802962e-01
      -6.0263373125140858e-02 9.8460279074152023e-03
      -6.7629716075075563e-02 -1.8917541367035245e-01
      -3.7767072580488482e-02 -5.6729302510020410e-02
      4.4417679965300362e-02 -1.2566828995007845e-01
      1.8006154071045977e-01 1.0097897221888029e-01
      -1.3456370263849760e-01 1.2055947785639734e-01
      7.6353814450147647e-02 9.9389820102487439e-02
      -7.4435548752820352e-02 1.7829804411632486e-01
      -2.0522628850154920e-02 1.1157000321502067e-01
      -9.5846218757653534e-02 -1.3947478495581911e-01
      1.7548504489536756e-01 -9.6746650093202657e-02
      1.3171785123104046e-01 -3.2937035123376611e-02
      -8.7694862546441599e-02 1.0517479639894725e-01
      -6.5031419354116271e-02 1.2282351037843915e-01
      -5.0333712618738133e-02 -5.1731280961339728e-02
      -3.0343374905850581e-02 6.9043875252957479e-02
      -4.1019272714636616e-02 2.1615802706036000e-01
      -6.0843875228697400e-02 -4.0770144917943500e-02
      -4.9762103202637332e-02 1.4943460771823391e-01
      -6.8695445620808843e-02 -2.1512832800508978e-02
      2.3594355051737539e-02 -8.1483997198152289e-02
      9.7930155212287456e-02 -3.5558558040532144e-02
      -5.1491883917510271e-02 4.8846616853251625e-02
      9.1951209435697807e-03 1.1085391051549133e-01
      -1.1334349750924709e-01 -8.0899414317952084e-02
      5.2266862081841690e-02 7.9494621008419253e-02
      -8.3254253483074470e-02 2.8200692454359573e-03
      -4.0209405995003798e-02 1.4421601795018676e-01
      -1.3590531496811359e-01 -4.8129847722722996e-02
      1.2417699853258302e-01 -5.4418927172828785e-02
      -1.1900075415857347e-01 1.5296545408414389e-01
      -9.2887164114628801e-02 -7.9741327231780228e-03
      -5.2920233669250277e-02 1.0452067048725258e-01
      7.6542204217575197e-02 5.8848449581523840e-02
      -7.4801613044138557e-02 4.6074006658560714e-02
      1.1470054934905782e-01 -1.0575287837326874e-01
      7.7569124124905992e-02 -1.3082477149186691e-01
      -9.4176670438852333e-02 -8.3454457169079913e-02
      -3.6183335462378168e-02 -2.3400437762705336e-02
      -7.0013779678569435e-02 -9.5807213365794619e-02
      -1.7556038600860233e-01 -1.0069346075705179e-01
      -9.9833360340195701e-02 -3.9970472210721059e-02
      -2.6317108821699339e-02 -1.4529131959361105e-01
      9.1206386026542852e-02 -1.0698375415093013e-01
      3.0178107258046812e-02 3.4718308347706117e-02
      1.4871038028251765e-01 7.7542146197127612e-02
      -1.3495511296705717e-01 2.3961144444903701e-02
      -1.2149154748722597e-01 -7.9129681366124638e-02
      2.7198400631235530e-02 1.8087271621893253e-01
      1.2525495686620311e-01 1.0641322948977876e-01
      9.4707061521071639e-02 1.0982753168678039e-01
      -2.9327130561493310e-02 -3.7554551449177909e-02
      1.1722285908366580e-01 -1.4799674704269986e-01
      -3.8807997419346618e-04 -1.0395237271822730e-01
      1.0361936139483723e-01 -4.6406889302517115e-02
      -1.0674281151867240e-01 1.1716996029862507e-02
      1.2966130322420460e-01 -2.0392778580157592e-02
      2.4723615002785047e-02 -3.1513171351949205e-02
      1.4615432026993788e-01 -1.2754480129033663e-01
      1.4391546096941726e-01 -1.0248874163255862e-02
      1.7506777501168791e-01 8.9461868408950138e-02
      -1.7410428692613367e-01 -2.4848242462980712e-02
      1.5004031056484329e-02 -8.3338836073422684e-02
      -9.4033940975095359e-03 -9.7803912843724916e-02
      1.3817130211702064e-01 -3.8057933118471263e-02
      1.6763146043795796e-01 -1.9722190998402167e-02
      -1.0254464887470532e-01 -3.5288910008064206e-03
      -1.1118140040569018e-01 -7.4073549590150528e-02
      -1.1234508276418337e-01 1.4569844802517259e-01
      -1.1523218254928387e-01 3.9550391012836708e-02
      8.0749232096186965e-02 -1.1657640077795536e-01
      1.2578444560825114e-01 -1.4512578314063104e-01
      1.0280111718940840e-01 4.8793949967007019e-02
      1.6710120567318281e-02 -1.3066003377102797e-01
      -9.7196926920785298e-02 5.6346155224159318e-02
      -8.1058435439101115e-02 -5.8612567141547348e-02
      -1.0350501920776575e-01 -1.7897768137738074e-01
      -6.4368281166072336e-02 1.3060943503771977e-01
      -6.9592040057757279e-02 1.0281630863480640e-01
      9.4262053642925649e-03 -1.2734229778852933e-02
      5.9321679322911512e-02 1.0510463401275009e-01
      4.3538519988408013e-02 -1.6166052719180082e-01
      7.8526993348241883e-02 1.3376816844062592e-01
      -5.3184174422610885e-02 -1.3188931674096493e-02
      -5.5804148126957200e-02 4.0296743581350859e-02
      2.3377340550635773e-02 -1.0219062161393948e-01
      -1.6692394536977315e-01 7.1944693099876167e-02
      3.4438628899042943e-02 6.4010897150484011e-02
      -6.6936337958428946e-02 -1.0606671051022429e-01
      4.9846243231822483e-02 -1.3455794131623278e-01
      3.3342195427607658e-03 -8.0238109647949835e-02
      9.4575474990490321e-02 -1.2079248341556005e-01
      -5.4419144013492952e-02 -5.2443806214577379e-02
      1.7924961624304736e-01 1.0636463123454265e-01
      5.1978225816556624e-02 -5.2585464323796377e-02
      7.5800087570215238e-02 1.2590079610949681e-01
      -1.0018840947404521e-01 -2.0110636352033143e-02
      3.7834409639552674e-02 1.0551659361293213e-01
      6.3189878605385275e-02 6.2008182435716874e-02
      -9.0273317057290692e-02 -2.2297830263137784e-02
      1.1889728771316073e-01 4.0235519508314041e-02
      -8.4707486954114813e-02 -1.8176824953150070e-01
      -5.3589903245517864e-02 -9.3755232491821178e-03
      -1.0091346408219742e-01 -6.5958176614182046e-02
      7.9728429137812709e-02 -1.1084739421269464e-01
      -3.7098729877967011e-03 1.2153687682462123e-01
      -8.6035323059383037e-02 -1.0487497623915846e-02
      -1.3502150785750888e-01 1.2706344535820030e-01
      -4.5251378022242453e-02 -1.4237146572787570e-02
      5.0579530884345150e-02 -2.8735405303277377e-02
      7.4607533683991825e-02 1.1845922527666236e-01
      7.5330259910312281e-02 1.5311338165531929e-01
      -7.4952292600788104e-02 -1.2399127912875253e-01
      1.2692591491043767e-01 1.0718004778456168e-01
      2.5463040486603181e-02 -6.3239048762011113e-02
      1.6062476779136917e-02 1.1728366091093718e-01
      1.1052645080423239e-01 1.5313532388031054e-01
      -1.7527284932391413e-01 6.5473363450672895e-02
      -1.8352557663903646e-02 2.6945931455366751e-02
      -6.1736815566676297e-02 7.7197961899522369e-02
      1.5266152521210413e-01 -1.1210065956314938e-01
      6.1416098521401181e-03 -6.5793306494862619e-02
      1.0209793981108548e-01 -9.4696831760240602e-02
      2.9863899997424621e-02 4.5487237760173375e-02
      7.6200331545662719e-02 -1.0404673424464175e-01
      -1.8380985422514571e-02 6.7696216780342572e-02
      7.6092322787741265e-02 -1.4922247305253339e-01
      -5.6590269962396994e-02 1.3125770002084519e-01
      1.5516760497901520e-02 1.2138994277976468e-01
      -4.1759979580789829e-02 8.7436683279476082e-02
      -1.7312949394128710e-01 -4.9693408889203559e-02
      -8.7876742376391093e-02 7.7248812081950738e-02
      1.5693757061867376e-03 7.7891933099092550e-02
      1.0969901227048291e-01 1.3564756014230692e-01
      1.1064453260602262e-01 2.3921524869008698e-02
      1.4272128442395288e-01 -1.1423768758175301e-02
      -5.2590266862619667e-02 2.1596651870779148e-02
      -8.6664216141573214e-02 2.1695524520623188e-02
      6.4695675564897970e-02 -1.4845658081805133e-01
      7.5308169475300682e-02 2.6633224210519807e-02
      -9.4291710955766328e-02 -1.1827780907535655e-01
      -1.0476533594760609e-01 1.9801003074935316e-02
      -9.9214270142865296e-02 -1.1023280714614356e-03
      2.2616471160784402e-02 1.8147440233333317e-03
      4.1038600041832289e-02 -1.9378041960564149e-01
      9.7324254053357900e-02 9.1451251948660717e-02
      -7.8809708284237640e-02 1.5394493278569252e-01
      3.8707081435964540e-02 8.4609656565356295e-02
      -1.0984274127673782e-01 8.1429633965953527e-02
      -1.3593210768927605e-01 1.5783638020489077e-01
      -1.0701302052782553e-01 -1.0733084048739393e-01
      6.8007477856841803e-02 -1.6778859469217414e-01
      -4.4675857626999783e-03 7.9099896084350668e-02
      1.2067175246590683e-01 -1.7931034689680997e-01
      3.4393073422736900e-04 1.4648868628561931e-01
      -2.9473808011868496e-02 8.0081021974369795e-03
      8.7339564752344376e-02 1.5922647949678650e-01
      -9.4301820239984874e-02 1.3568706413028089e-01
      6.8275766245618291e-02 1.0910148567784905e-01
      1.4331755953431033e-01 -7.7792371498758159e-02
      -1.1393006651263853e-02 5.3656115034784770e-02
      -5.4379792280144480e-02 1.4457635326062518e-01
      -1.0583888286400188e-01 -9.6652464533101431e-02
      9.3002422069701912e-02 -1.8235892499124103e-02
      3.0006800307419174e-02 -8.6916636098931285e-02
      1.0941016804085749e-02 -1.2130389965458668e-01
      -1.3616622246360660e-01 -7.1721886166236495e-02
      -8.5953804887364510e-02 -9.2910679158157584e-03
      7.5620972758915384e-02 -2.1032545249313198e-02
      -5.3797590090341456e-02 -1.4828965159644655e-01
      2.0040557800419335e-02 5.1761635459675586e-03
      1.1689225868371016e-01 -3.1826596207971676e-03
      8.8592993042792029e-02 -1.1324908239893308e-01
      -1.3404066016299498e-01 3.1538953713158499e-02
      -9.5419192496737207e-02 -6.1615712823506259e-02
      1.1495526345833518e-01 -1.9778798961959051e-02
      -8.4931643716418787e-02 -6.9148469890662465e-02
      8.3125473076471265e-02 -6.5463627023322188e-02
      -6.3537644234646666e-03 -9.5333780207063970e-03
      -6.5135161243396217e-02 7.1598115724138467e-03
      3.4591390522614299e-02 1.2124811567003332e-01
      -1.2251553134087788e-01 3.7452543490410696e-02
      5.2892843999663766e-04 -4.6989645242277431e-02
      1.0781813707084320e-01 4.3756333531861938e-02
      1.0376539659315562e-01 6.0213433778863734e-02
      9.8703861962259956e-02 9.1775467776851957e-02
      2.3748992278332659e-02 1.5308218632458798e-01
      1.2065644634425679e-01 1.5604667920639598e-01
      -8.2419540914328723e-02 5.6769800551036503e-02
      1.4779775321298972e-02 1.6210213218530486e-02
      -1.0792377975165535e-01 1.9005257198296148e-02
      3.6928644605189007e-02 1.3319425121026118e-01
      -1.6557976558293891e-01 2.1473546820277550e-02
      -7.5680459314533571e-02 3.9432118121452212e-02
      -3.6819655769443853e-04 -1.0857046228947488e-01
      5.9510851989192967e-02 -4.7432604926676829e-02
      1.0678365242185270e-01 9.2173268706020828e-02
      7.8796802924727460e-02 -7.7329763265737400e-02
      -1.0916838389835926e-01 -1.1008013435941377e-03
      -4.9660228667683284e-02 -2.5240715739840516e-02
      -5.6132824736347779e-03 1.0765331628626100e-01
      8.8083465532883418e-02 -1.3872761897840527e-01
      5.6253497699565509e-02 1.4875480050927090e-01
      -6.0183560349122305e-02 4.8330260783139463e-02
      1.1652484927428040e-02 -5.8326797679351679e-02
      -1.4492827750469772e-01 -8.6327402714539841e-02
      5.4127732245469580e-02 2.7652395892909208e-02
      -9.0591564933924520e-02 -4.3954251603481584e-02
      1.2436489967518198e-01 5.6990135518838067e-02
      9.6833477283831876e-02 7.5857520677707041e-02
      1.0818681625551506e-01 -1.0541733214975429e-01
      -5.0507135651628808e-02 1.0747192697956638e-01
      -1.0200011899928074e-01 7.3804571093019064e-02
      -1.4257203977187013e-01 -9.6729666244103979e-02
      9.4431826139082325e-02 4.0230171717875719e-02
      9.1059651106055600e-02 -5.6684257366108458e-02
      8.0137805290226710e-02 -6.7317402562377282e-02
      3.9564615516669233e-02 1.1147463160621417e-01
      -9.3685185704053292e-02 -5.6828197843988036e-02
      1.3114047019829464e-01 1.4492124638361847e-01
      -8.7696979232570723e-04 -3.5142822652555493e-02
      -1.3594131853462313e-01 -2.5455707175708626e-02
      -7.7784406163116673e-02 -2.1744865857818915e-02
      1.2487074913846000e-01 -9.5880530823971959e-03
      -6.5965097577172963e-02 -1.2284392434712867e-01
      8.6052031300093715e-02 4.8773072866271618e-02
      3.4467974898121416e-02 -8.8066834235596719e-02
      7.0616579181706371e-02 1.2731564941733314e-01
      8.6169410045126571e-02 9.0084372690596076e-02
      9.6901214849382022e-02 -1.8276206233372722e-01
      -1.6106234996228977e-01 6.1091846868321139e-03
      9.3846676667638240e-02 -8.1123791988371163e-02
      1.4307740810792760e-01 1.2559901574889188e-02
      -1.4214762582247346e-02 -2.3479388948007291e-02
      -2.9321460914555867e-03 2.5587963888894720e-02
      1.2279735163528700e-01 9.1624874143266297e-02
      3.7006735525622489e-02 -1.7473043940193400e-01
      -1.2359286966047763e-02 -1.6174802621225521e-02
      -1.1606144576463066e-01 -4.3615509447689375e-02
      -1.1409074709042208e-01 -8.1085794304323930e-02
      -1.4900764158334312e-01 -1.0231032036063144e-01
      -4.1917462069772100e-02 7.4254118256753543e-02
      -1.3073859254647507e-01 1.7737181722198434e-02
      4.9202719828901433e-02 -7.3872332064123358e-02
      -8.5607773710061841e-02 -1.1973040826527116e-01
      7.1810221731520740e-02 -7.7933005361841154e-02
      -7.4085537506540997e-02 7.8062194145519764e-02
      9.7228572226405338e-02 -1.7463788731174215e-01
      -3.5093155419202893e-03 -3.5228048198778950e-02
      -8.9707680654470684e-02 8.7746776467217402e-02
      -1.5576001778111681e-01 -1.2325255064562600e-02
      -1.4038948929081130e-01 -2.3722066030273337e-01
      1.6941147797969083e-01 3.6880289856518873e-02
      -1.0366323723874057e-01 -8.6920090720954662e-02
      2.0670270170594479e-01 6.9151659031951460e-02
      8.1633981358913987e-04 8.3005106645165236e-02
      -9.4539333057395408e-03 5.6348209504000275e-02
      -1.1501566213683299e-01 7.0911595619294759e-04
      1.1684869395137606e-01 5.3910719627891124e-02
      1.3404874168095327e-01 -1.1326399135876630e-02
      1.8021854093455991e-01 5.5970961601301501e-02
      7.2535874710544582e-02 6.8088613362222342e-02
      1.1744319793626377e-03 -1.1388364127676953e-01
      -1.8473124694860185e-01 6.1034583916286952e-02
      -5.1906454966445413e-03 -1.6521396036046695e-01
      1.4636530770890335e-01 -1.5139802132817926e-01
      9.0551430534786662e-02 -3.0200801900675527e-02
      2.5060951786039483e-03 -7.9248177131686512e-02
      4.2144100419298338e-03 1.1257725429089019e-01
      4.6925749474773272e-02 -9.0694258412716430e-02
      -1.4968062476475527e-01 -1.5355229008739214e-02
      -6.4357177239826278e-03 1.8538584190964248e-02
      5.3350171763928825e-02 1.3270915802087932e-01
      1.0758687243653321e-01 6.9197145955906231e-02
      8.5859672184000507e-02 5.8086217985975921e-02
      1.1805835068250492e-01 -1.4942391411693140e-01
      -1.1320720825340935e-01 -1.4004058212092974e-01
      5.6959659107920800e-02 8.1786702011904022e-02
      1.1056971597521704e-01 1.7639156155520402e-01
      -3.4868780617381030e-02 -6.5720581391776764e-02
      8.5998267419056501e-02 4.7989569715158054e-02
      8.9278865244411365e-02 8.9360921762063200e-02
      1.3580771683353898e-01 -1.3097247756294991e-01
      3.2546001028010696e-03 -5.0285931436493993e-02
      1.1407755297374436e-01 -1.4419425594431304e-01
      -1.0213960682709512e-01 1.2217826336563335e-01
      -1.3564058067695445e-01 -1.4421224716875983e-01
      6.7650518012439889e-02 -1.2533557345117660e-01
      4.8374041848332827e-02 5.1524575118628950e-03
      -1.4439795511018694e-01 -1.3921806078186022e-01
      -5.0892110972679289e-02 -1.0315213492860723e-01
      -6.4876680492030908e-02 5.8382405827387941e-02
      -1.0770466017627048e-01 1.2282085765740243e-01
      1.6592895815238853e-01 1.1978121041840960e-01
      1.2932736669499773e-01 -1.9419407643737407e-01
      1.0885307843075641e-01 1.2209827138465414e-01
      -1.7147507665604073e-01 4.5688457935240998e-02
      -1.6320517774932861e-01 -1.0502816777671393e-01
      -1.2637666316172808e-01 8.2918654860300242e-02
      -1.6352338654696635e-01 -1.2197365169889310e-01
      -5.2619659861606093e-03 6.3509324611932344e-02
      -1.3981212683891481e-01 -3.6983110660793594e-01
      -4.4800635209580497e-02 -4.3932599386997950e-02
      7.9807767687607251e-02 -1.4672188643370465e-01
      2.5822113564392284e-03 6.4723419207187494e-02
      4.5836930987024340e-03 8.3711996446762096e-02
      1.1457834799957702e-01 1.2850407733840755e-01
      6.3758644656381966e-02 1.6936614233913605e-01
      -5.5720556309765794e-02 -9.1589442756010650e-02
      4.9051913905476918e-02 1.0867650142470621e-01
      5.4982419273131931e-02 1.5945996353698474e-01
      -7.0155182254736326e-02 3.4405416143945683e-02
      3.3657236026305153e-02 1.3279517640712933e-02
      -6.0137686798566452e-02 1.1737695729910672e-01
      -1.2820757431112093e-01 -1.3989490649726885e-01
      1.0827122839572736e-01 -1.1059711220132631e-01
      1.0059986813944023e-01 1.1079814005926532e-01
      7.8243589749334611e-02 -1.2225935731524956e-01
      -7.3329952159613437e-02 4.4784413756414662e-02
      -1.1573771493245645e-01 -7.8072759150067172e-02
      -2.7517167548578095e-02 1.9012351396203043e-02
      9.4836307345252238e-02 1.4103782221240238e-01
      1.1217677433790881e-01 1.2805545297694998e-01
      -7.9484050815408019e-02 1.9241376565866039e-02
      8.1505408961166523e-02 -1.3119325850714461e-01
      -1.1656661754340357e-01 -3.7579485508515080e-02
      -1.0157087983443464e-01 -1.1089001155172801e-01
      9.7558874712786445e-02 -6.8242676358533276e-03
      8.7584792777662637e-02 -3.5856399379849364e-02
      -6.9902883389344680e-02 1.3636883136106909e-01
      3.6864260907425277e-02 -1.2480360684791390e-01
      7.3129497944968203e-02 -9.8832662636415367e-02
      5.7207500813392306e-05 -1.5800214576709523e-01
      -1.4705129326713609e-01 1.3755542837277573e-01
      1.5452902605789012e-01 -1.4594133585566338e-01
      3.4479001934946352e-02 9.9541292456142988e-02
      5.3202574150685899e-03 -2.7316202381999322e-02
      8.5003308994616389e-02 -8.7210617686234185e-02
      -2.2889678252753346e-02 1.1710868580881209e-01
      -3.6753135166729539e-02 8.4568835967014686e-02
      -9.1754330783786683e-03 3.9377823125703211e-02
      -1.2039191756356005e-01 -4.8817135084130145e-02
      1.6346304983156204e-01 1.1509701752435696e-01
      9.5353360656667233e-02 -6.1017165555614636e-02
      -1.0137634028480040e-01 -1.0070765950266024e-01
      -1.0162349522137411e-01 8.6250150591752298e-02
      -5.5483544577851873e-02 1.2454033011351830e-01
      -7.2062874341516314e-02 -1.6274510877184170e-01
      2.0039446615014170e-01 1.6716537665219575e-01
      -7.4130968111746326e-02 -1.7983703416643255e-02
      -1.4868854003710734e-02 -6.9626064326804821e-02
      -1.0449250690908778e-01 -2.2301711128285986e-01
      6.7461617816948857e-02 -1.1259110022232187e-01
      1.0645083440159492e-01 -1.1763792527071751e-01
      -1.8878868652402979e-02 1.1624396299687699e-01
      5.0727287624923499e-03 4.9359585147081553e-02
      6.4461181936087533e-02 -1.2907422396376020e-01
      8.1000948573843115e-02 -1.3076995882435240e-02
      -9.9066212136480994e-02 7.5706538418755159e-02
      5.6508357491683987e-02 -1.4898587691907333e-01
      1.5679770862416495e-01 5.0954593427206311e-02
      -8.9251621734288814e-02 -2.2668205912728469e-02
      4.1253433321763620e-03 -5.4906539437825412e-02
      -1.9557550554888923e-02 -8.4344964189822721e-02
      2.6332733665769940e-02 1.1638200812486156e-01
      1.6557051761028321e-01 -1.1818141495162603e-01
      1.0996016751289976e-01 -4.8492464795670166e-04
      -3.6721391147758908e-02 -1.2696454570772062e-01
      -4.1077450168381074e-02 -6.4377981789768501e-02
      1.0394174132970412e-01 -1.6409921548615883e-01
      -1.3435054961402026e-01 1.2971548637752736e-01
      1.0030714371826997e-01 2.9912080882641443e-02
      -1.2808144109879073e-02 8.8354488226277186e-02
      4.7005188230158618e-02 -8.2249124469442117e-02
      -6.7265289780360166e-03 -1.1393943548276328e-01
      -1.0271783182209562e-01 -3.8498026665653579e-02
      -1.0102348030502341e-01 1.3604560525181478e-01
      1.5296781778078877e-01 7.9358038268764725e-02
      9.5225449738585044e-02 -1.8071607163546530e-02
      7.0359836187598029e-02 -1.6355140871098791e-02
      -1.2252693185845657e-02 -4.1001044025001016e-02
      9.7709256193266383e-02 -9.2121792669316915e-02
      -1.2495458419980970e-01 -6.1856143668871301e-02
      -3.2790162636452637e-03 -4.6061797094970235e-02
      1.0788147577446679e-01 6.7027285648891041e-03
      1.1017554021086566e-01 -7.6931254224905377e-02
      1.3226412594681589e-01 1.1876901731650766e-01
      1.1503515852743444e-01 1.0379996564969263e-01
      6.1550325506991577e-02 1.4426029636294907e-01
      1.2622022260444690e-01 -5.1017134471911134e-02
      -1.5882638899603457e-01 1.0297933132490263e-01
      -1.1137644924449504e-01 1.1335647839997197e-01
      -2.7298024454024208e-02 1.3208896945887716e-01
      -1.2775396156471541e-01 9.7420176513785636e-02
      -1.1197300063195832e-01 -1.3382041425144814e-01
      1.2911108178482836e-01 -9.4000550134004990e-02
      -7.0583918455031341e-02 1.0139474859861092e-01
      6.8098714586691991e-02 6.2676768204459096e-02
      -8.8897849423075534e-02 -1.9930813254658286e-02
      -9.7520486734353415e-02 1.1609395347817299e-01
      3.9584149663134380e-02 1.5979039655805280e-01
      4.0387199328950629e-02 9.9034433122012350e-02
      8.1469358356949087e-02 -5.9775543504594943e-02
      4.9296460483565500e-02 -2.2872007505511894e-03
      -1.2772059765749924e-02 -3.9210338014747527e-02
      1.0443385000244157e-01 1.3312128965505410e-01
      3.2267637188694201e-02 4.2044849569901836e-02
      -2.1809258155139136e-02 1.2436152788800221e-01
      1.1154317320116855e-01 1.1533763219008637e-01
      4.4833856125635188e-02 8.0570210412302182e-03
      1.5705569205372255e-01 1.1912044567667206e-01
      1.6192512274255091e-01 3.5837526928103103e-02
      1.2720283564201113e-01 -9.2121399445985561e-02
      -9.2926685808648643e-02 3.1249446729218734e-02
      -1.3580793717565270e-01 1.0995741647034978e-01
      1.4004934950846296e-01 7.1569455018135802e-02
      -2.0440240575675176e-02 2.3854268949268384e-02
      -1.7675085334364038e-01 5.8757176076871975e-02
      -9.5799193199445298e-02 -8.8712565261407528e-02
      -1.3967767704532999e-01 6.7867287696922685e-02
      -1.3649319274765709e-01 -4.4585645549599394e-02
      1.0446894715996580e-01 -1.8634268950459040e-01
      1.0049516141052617e-01 -1.1830870429689140e-01
      -5.8154150107051175e-02 1.0583939925572784e-01
      -1.0209194940918419e-01 -1.4471856336827388e-01
      5.7973453948724385e-02 -9.7909143833508711e-02
      6.9772296912998050e-02 -6.4221637586981767e-02
      9.2689809912760060e-02 9.1031851340628439e-02
      1.8777967192632866e-01 1.9574722944776449e-01
      -1.2447106128670730e-01 -1.5496733344222441e-01
      -1.8251698711345507e-01 -9.6551921558910292e-02
      -7.5068966073472035e-02 2.1748680686930869e-02
      -5.8134482204071386e-02 -1.9512275358299208e-01
      -1.6905818816422993e-01 5.1216589238584388e-02
      1.7084706737262559e-01 8.6403116268548730e-03
      1.6565230259368222e-01 -6.8219103607301435e-02
      -1.1226833338796219e-02 -3.1505169059527868e-02
      1.2228232061613048e-01 -1.6476115606637559e-01
      -8.9148617934977609e-02 3.0543614700303374e-03
      -9.7822433454612223e-02 -1.0682169180591622e-01
      -1.6156371991979299e-01 -5.8603543721435475e-02
      1.1284185702172150e-01 -1.3153761107575460e-01
      -1.2617129687561232e-01 -4.9639410291949175e-02
      -1.0151264236211721e-01 -3.3011340040583280e-02
      1.1822602579091025e-01 -7.6992047403822844e-02
      -6.9078261487794071e-02 6.8143998876583553e-03
      -1.9990589353082549e-02 -8.3272948463023147e-02
      -1.6714742610152371e-02 -2.4314447388104649e-02
      -7.5525621371883095e-02 1.5164285344394315e-01
      -6.8914342928145772e-02 1.6095534157134151e-02
      1.0739622052733123e-01 -7.8764448489575312e-02
      -1.0139081627090429e-01 -2.4100134034680901e-01
      -2.9864855749605246e-03 3.1042796033942058e-02
      1.4171549399844921e-01 -1.3516501455922886e-01
      -1.3581693914028328e-01 1.8472611909488970e-02
      -1.5187316147800334e-01 -3.0002427930928131e-02
      5.5798263324396566e-02 1.0796636103147271e-01
      -7.0449607293456618e-02 4.3000083933512491e-02
      2.4357230812470515e-02 1.0456754068457097e-01
      1.9781691614480033e-02 -6.1073767362133789e-02
      2.4581127500820757e-01 -3.3517352311297988e-02
      1.5692907823220317e-02 5.9505578347196206e-02
      5.3171487877379846e-02 1.1176993800677136e-01
      1.2064356429240475e-02 -2.2831640133808364e-02
      -6.6677037742132366e-03 9.0499576570857748e-02
      1.9952334281004661e-01 4.1689095000902343e-02
      1.4029564183055707e-01 1.5701020279676922e-01
      -1.6646348817137327e-01 1.0731530124620038e-01
      1.1572658241574210e-01 1.3668557604856790e-01
      2.6794698369878942e-02 -3.5652915635887183e-02
      1.4774589327406518e-01 1.4668399924251113e-01
      -7.6280398384403508e-02 4.7517474414355929e-02
      -1.1686946943476689e-01 -5.8829557547187973e-02
      -9.1325783894564805e-02 -6.7945632369961276e-02
      -1.0360137112483377e-01 7.4878122086909568e-02
      7.2599404792125399e-02 9.7053331025948375e-02
      -7.6882468126381498e-02 -1.0641057202693559e-01
      8.0944042600878022e-02 -9.7156324399392646e-02
      8.6085925979665523e-02 8.9543207636484282e-02
      6.6604505012407639e-02 8.6193637567080247e-02
      -1.5032941084929027e-01 1.4181346136405154e-02
      7.9877053820233357e-02 -6.1021954872590642e-03
      1.0122496662616315e-01 -1.6650545187004831e-01
      -1.4001407252733586e-01 -2.2626666435425971e-01
      5.7401210778278158e-02 -1.0601374763089542e-01
      7.9155557297427723e-02 -1.8203611696343710e-02
      1.3901941264049431e-01 -2.3321833676850208e-02
      -6.7794600670013319e-02 2.5795501595706247e-02
      -1.3725027158674466e-01 1.4486655752282851e-01
      6.7094682018556659e-02 9.9460758138945046e-02
      -1.7264077373475492e-01 1.1761407557617662e-01
      4.2847016596172975e-03 1.1839284236447417e-02
      -4.8458956194942601e-02 -1.2119680234827866e-01
      -1.3970821251784058e-03 -2.6639097327046467e-02
      1.2428009890610878e-01 5.5724340793893129e-02
      8.4494598811422739e-02 1.2495874326609759e-02
      5.2910875084665653e-02 -5.7409259067108954e-02
      2.8466553456020543e-02 -6.6530701499267889e-02
      7.8684828080282293e-02 1.3620958270248024e-01
      -3.5502040476442349e-02 3.4054271525748789e-02
      -8.9123630370287338e-02 -4.1357879895232076e-02
      3.1900072005291935e-02 -1.7897192795525113e-01
      -1.0908231463603139e-01 -4.7347485726318084e-02
      -3.0265514978915164e-03 -1.6235787877456231e-01
      1.1987273394904399e-01 -8.2521356606403570e-02
      1.1260847675962761e-01 1.2131492155340454e-01
      -1.2289035185933017e-01 1.0596331346304796e-01
      8.0429061981828781e-02 2.7759470994936527e-02
      -6.6469758477695637e-02 1.2261576891053474e-01
      -1.3496842444512484e-02 -1.1814586523461984e-01
      2.4170047398517019e-01 -1.2574762031218428e-01
      8.4316937249122002e-03 -6.8893959825670495e-02
      8.5613035103275364e-02 -2.4783985365311591e-02
      4.6546977805963362e-02 1.0336042459367910e-02
      -5.0356618063878679e-02 -1.3926243859967022e-01
      9.5922800122214449e-02 6.5400519986995309e-02
      -2.9179899235603952e-02 -4.3354568306196606e-02
      3.9748088921520028e-02 9.7784873336832293e-02
      1.1626312387262504e-01 -1.5310677993900063e-01
      7.6766652945155431e-02 -8.0514189943120706e-02
      3.0637150807182635e-02 2.0817986580532108e-01
      4.3293954413070171e-02 1.3983563397557144e-01
      1.3012139516710011e-01 -2.3934939732691406e-02
      1.0457019202966740e-01 1.1289444635868774e-01
      2.3609871671780636e-02 8.2742428463136258e-02
      9.2404407600117866e-02 -1.8747928564406945e-02
      4.8615676908066514e-02 2.4920549754340656e-02
      6.4256173868087144e-02 -7.4865149933759867e-02
      1.1513427762585397e-02 9.3886310415055279e-03
      -3.6513768806160418e-02 -7.1747801220048243e-02
      -8.4360353082445480e-02 -7.7228617446750344e-03
      -2.0913691394305593e-02 -7.5328449088713001e-02
      6.2065569249918795e-02 -2.4179242155522883e-02
      6.5920549497005987e-02 4.6953592787244966e-02
      5.7142183031945668e-02 -5.6223170586658438e-03
      2.4809299522215084e-03 8.4340551532678769e-03
      -2.5804147403641599e-02 -2.4343203940708453e-02
      1.9662617416379289e-02 2.9984299525902435e-02
      -4.4869729916418882e-02 -2.3856911068729048e-02
      2.1714297785938932e-03 2.9439517437476991e-03
      4.3950285356037955e-02 -6.8517270840644769e-03
      -3.6636345406746970e-02 -1.2063975264013623e-02
      1.1673976490306819e-02 -1.2805118684912768e-02
      4.9074108055478420e-03 -5.5452229588974925e-03
      -4.9720372110486155e-03 -1.8159451848993643e-02
      -2.1737326658939425e-02 1.0550539704542720e-02
      1.5332993106047335e-02 -3.5440836562671842e-03
      -6.1754316438062378e-03 9.5374009350432853e-04
      -4.8479049433358930e-03 -7.2005103905066275e-04
      -8.6336871326194093e-04 -4.9651183573317216e-04
      5.2717399709695184e-03 4.6070483316355063e-03
      8.2709091137066065e-03 -1.7016373672806379e-01
      -1.0180389158925078e-02 -9.5012676317225379e-03
      1.6877445310112291e-02 -2.1797789343965382e-02
      1.0434070120371040e-02 2.5815667093926731e-02
      -3.4949395185264749e-02 9.3497507570659381e-03
      2.9519047296310543e-03 -2.5629585457537653e-02
      -2.0724195184938100e-02 -1.1982397882662156e-02
      3.5079092728876556e-02 -2.0074213271476744e-02
      -1.9651042473397867e-02 -1.2503511505727330e-02
      6.0042295092657107e-02 -1.5249430295040346e-02
      3.9085259558558946e-02 4.9240351000294320e-03
      -8.1736304466408574e-03 -1.3199247133080559e-02
      -4.7414784364159288e-02 9.7385965683770628e-03
      -6.0976474800615930e-02 -5.1531123734192039e-02
      -4.2029540086548328e-02 -3.4493629403188869e-02
      7.0527130977396449e-02 -4.2642744202702636e-02
      -8.1090580649684510e-02 -3.8632157395044386e-02
      -4.2705081705186262e-02 2.7883145323294119e-02
      1.2361357584800574e-02 -1.3006373513006316e-02
      3.2936864085068823e-02 -1.1899675889446690e-02
      -5.8680175840056602e-02 4.6775316927455304e-02
      7.5704585587486425e-02 4.0574348594907259e-02
      6.2788222989059964e-02 -3.9611025398397198e-02</_>
    <_>
      -1.7934781613637570e-03 -1.9095233451808821e-03
      8.9402733907621747e-03 -4.5435047729275244e-03
      -1.2461587339972132e-02 -1.9124820754159385e-02
      2.2682772879573966e-03 1.4327470298317681e-02
      -2.3042138548935210e-02 -1.5313763270290675e-03
      -1.6531671317865728e-03 -7.1427698433103948e-03
      1.2473311514551907e-02 -9.4705335563886241e-03
      -1.0749021683631114e-02 -2.1927436512545105e-02
      1.6330080995802316e-02 1.2244376831065553e-02
      -5.9387790802143568e-03 4.7876694843088504e-03
      -1.8611823761808241e-02 9.1025824581870210e-03
      -1.3123870939110794e-02 -9.7077551261320495e-03
      -1.6260238281786320e-02 1.0075223640803477e-02
      1.0545968707601210e-02 1.3402661305241589e-02
      -1.4039376423545556e-02 -1.0195144205381396e-02
      -4.4957708047395854e-03 -6.4813447052402065e-03
      1.5362020704158480e-02 -1.9180703882305931e-03
      1.5273381713748613e-02 4.5538137288695414e-03
      1.4091344338346816e-02 1.6389336271423610e-02
      8.7343230508187316e-03 -1.5123248067717867e-02
      -6.9447335845276197e-03 5.4807332216842003e-03
      -1.1503873897520556e-02 1.1496765035293052e-02
      1.0036756620395156e-04 -1.5984500277467065e-02
      9.9951181698197337e-03 -9.8832755985608922e-03
      -3.3120355256215581e-03 -1.4138180349218026e-02
      -4.6754164359243204e-04 -6.0619356659491657e-03
      -1.6931311870760080e-02 -2.5549850142033773e-03
      1.4126340924412702e-02 2.6369106331005010e-03
      1.5629190807242770e-02 1.8476870601734030e-02
      -3.7281447761525048e-03 -1.2015536972440877e-05
      -1.8481249907040011e-02 -6.3264150972024216e-03
      -6.7544966173804016e-03 -1.1013513632106810e-02
      -1.6693828217794093e-02 2.0988797140023215e-02
      -1.6157376911368284e-03 -2.2408744063116343e-02
      1.1572526653357904e-02 4.2592811586588180e-03
      -1.8034114077316650e-02 4.9273519978177815e-03
      -1.7735445291845519e-02 1.5489393453409132e-02
      3.7918955589335006e-04 1.5021458941798958e-02
      1.1911793275878414e-02 1.5321309628284492e-02
      9.3931003449810382e-03 1.0617915810983408e-02
      -1.6741939926450029e-02 1.0836818591353589e-02
      -1.6286734887809056e-02 1.1389978468026989e-02
      1.8257915883420964e-02 7.4500160818165946e-03
      -1.0791716640464789e-02 1.5109159759201466e-02
      -6.0384471728986615e-04 5.8157141606542909e-04
      -4.0563083751594771e-03 3.3946224457962189e-03
      1.6800849006754982e-02 1.9031241078231162e-02
      9.9419297909292895e-03 9.4951224749681151e-03
      -2.2762670031290802e-02 -8.9319161121375196e-03
      -1.1724013112568577e-03 -1.5734539257050494e-02
      8.2214449970352942e-03 8.8229406900286519e-03
      -2.5844520069337241e-03 1.6539495225416406e-02
      2.1824303460117260e-02 -9.1073728729962316e-03
      -2.4344724900901404e-02 5.8581107714445165e-03
      -6.6741272848982475e-03 -6.3289734115722918e-03
      -3.6350098099850211e-03 1.7066693110301123e-02
      1.0412303170980266e-02 -9.2010712844521943e-03
      -1.2578879701553049e-02 -1.0268108511746175e-02
      -6.9272883411000798e-03 -1.2418571555696227e-02
      1.3158324925873712e-02 -1.0995061729808360e-02
      -1.6692154623952762e-02 1.6480845066318875e-02
      -1.1919903964879481e-02 2.2622769410095767e-02
      -8.5711841166463236e-03 2.9927057252095296e-03
      -4.8312665211545525e-03 -7.0356128350505870e-03
      2.8742455120507538e-02 4.7193414898967180e-03
      1.5804619204997584e-02 5.3387030292659553e-03
      6.3271115460221076e-03 -6.6742639801172085e-03
      -2.2692666245797043e-02 2.9909773298809263e-02
      7.2490316382822426e-04 1.0625701495758167e-02
      -1.9260756600382723e-02 2.1944449363185990e-02
      -5.3701481786235178e-04 -5.6130621796084829e-03
      1.7232838855017384e-02 4.7148213040696810e-03
      1.6093752645468577e-02 -1.4132378701235314e-02
      1.8963483319796602e-02 -1.1531392403952758e-02
      -1.4515248206109959e-02 7.9947202570271533e-03
      7.0038844179994052e-03 1.5732620275395615e-02
      -9.6409019194227492e-04 3.5236208001468970e-03
      3.0309145786480314e-03 -5.7656950891494321e-03
      5.7713644016207325e-03 7.0134002569684998e-03
      1.1678979341938381e-02 -5.0971719279548936e-03
      2.8742033342950540e-03 -9.7898311345080476e-03
      2.7027340194498782e-02 -1.9534019401225576e-04
      -2.3836739217516743e-03 -3.3935063741313783e-03
      -8.8988029478561572e-03 2.7338998173571556e-02
      -1.0120458057618279e-02 1.2959157449719262e-02
      1.7074700810646052e-02 -1.1526864803162829e-02
      1.5352284511648173e-02 -1.5851627413918275e-02
      6.7819055733483917e-03 9.3328942205277293e-03
      -2.9380066491740825e-03 9.1321236734799183e-03
      8.7490849590253095e-03 -8.8590751685598598e-03
      1.5119958620586524e-02 -8.6327955940291926e-03
      -2.1822817893499481e-02 -2.1125091299145941e-03
      3.5895702276003993e-03 -1.7404970595081552e-02
      1.2887179173325578e-02 9.6661073776120002e-04
      -1.2340835384215331e-02 8.3394089645096141e-03
      2.4891080716655013e-02 1.8529785796641964e-02
      9.6347815563460094e-03 -1.2127032470890654e-02
      3.4688665694273067e-03 -3.9226016262279319e-03
      1.6025885116341523e-02 -3.5741860746108540e-03
      -1.0496635312904361e-02 -2.1977257599079425e-02
      -1.5180757661242992e-03 -3.9499807764227920e-03
      2.0687336841028105e-02 -6.2823340554125787e-03
      -2.4966314463686265e-03 -1.5530251748838323e-02
      8.6232307494365449e-03 2.0359386203776520e-02
      -2.7743944888276562e-03 -1.6061971105265384e-02
      -3.5209989116498958e-03 -1.5321420003151193e-02
      1.3723240187209888e-02 -1.7037145050753856e-02
      1.8765540468493581e-02 6.2691307808297536e-03
      7.4599563417703605e-03 1.7013877522029253e-02
      -1.9689277858176264e-02 -1.7262108681935014e-02
      1.7680277160780324e-02 2.2735958286743164e-03
      -9.6021350049899559e-03 1.4191171589832656e-02
      -2.0275414191552960e-02 3.6198841482332393e-03
      -5.1728958229553118e-03 -4.4920130670584452e-03
      1.8555050400695074e-02 -4.5298779048387264e-03
      -1.0608394701414789e-02 -2.7387849632529060e-03
      1.6926911178403333e-02 -9.8886766310649580e-03
      1.7305065619586137e-02 1.7848783286821001e-03
      1.4031228144392369e-02 -1.1816757749690376e-02
      -1.3982247495273903e-02 1.2780379598608086e-02
      5.1108180594427993e-03 1.8288793797069103e-02
      -1.7503174854491472e-03 2.0552969554366650e-03
      1.6118445750436521e-02 1.5555984782987285e-02
      -2.0851357890528385e-02 -1.8717692402259720e-02
      -1.1720920540105588e-02 -1.4625611148666919e-02
      -1.6956833569256001e-02 -2.0334497241810107e-02
      -2.7016907391279842e-02 4.5608907193078518e-04
      1.5140481059335647e-02 1.5871765489297401e-02
      -1.3277241745506386e-02 -5.0024609622146979e-03
      9.2863327564553441e-03 -4.0436405855764192e-03
      1.5362757026980199e-02 -1.2466918373486647e-02
      -2.1417491850793065e-02 8.6470249155094232e-03
      -1.4094729890474677e-02 -1.9224872460877460e-03
      -8.9958193357913743e-03 -9.5570768442170828e-03
      -1.6389713950297740e-02 1.7946843957870835e-02
      1.2105516165859330e-03 -1.0175974587070367e-02
      -4.8387479729540108e-03 -4.4546704718727188e-03
      -1.0683854289599941e-04 6.3188727196425093e-03
      3.9239145293835835e-03 6.6446318512995159e-03
      -2.6797041658648693e-03 -8.0298249549898802e-03
      -9.2679647176971101e-03 -1.0337428345013425e-02
      2.3773804024075839e-03 -1.3886314982513367e-03
      -1.4085435623470730e-02 -9.2011508806264086e-03
      -2.0568783894395946e-02 3.8399584710768222e-03
      2.6499849881258574e-03 2.1302346770353500e-02
      5.1460215658439426e-03 -5.3211707846424162e-03
      -7.3934241654986463e-04 -1.8926600869743633e-04
      -1.1826844194902492e-03 6.6969332120761947e-03
      6.5730623386670815e-03 -6.0877654844559703e-03
      2.9574543885273938e-03 2.0125157384229767e-02
      -1.3619774028516472e-02 -1.4153991038943901e-02
      1.3920658300486102e-02 2.1787136398562165e-02
      1.6865899450384598e-02 -9.7815089859953439e-03
      -2.6781385095872533e-02 -7.2463310204593052e-03
      2.3698671414739851e-02 1.2572992617046938e-02
      1.4063860129308707e-03 -1.1767993022475942e-02
      1.2141549862143839e-03 1.3716663884208568e-02
      -6.9168951447710044e-03 1.7132481545214064e-03
      -1.2055679411518031e-02 -1.6530668541468400e-02
      -3.5486976854217042e-03 -9.9177828755164683e-03
      -8.2898245149682151e-03 1.4399025212487581e-02
      -1.5342157830545098e-02 -1.0917367604465246e-02
      -1.1924940308444012e-02 3.1586148282249380e-03
      -7.4498687156542669e-03 -1.7855017420381373e-02
      1.9530770778129390e-02 1.6048715322524387e-02
      1.1575224849703473e-02 -1.5147781857546836e-03
      1.0613090713522517e-02 -8.3626269443089348e-04
      1.0413708903440004e-03 2.1192728116345596e-03
      5.2769503555559977e-03 1.2267077067269962e-03
      1.6229315495131652e-02 -6.1406513334705702e-03
      1.6101351159459432e-02 5.8761286869765727e-06
      1.2334774049472617e-02 7.9950582508784736e-03
      2.0695559013718585e-03 1.1541437220947793e-02
      8.6836726638185018e-03 1.5131447863846011e-02
      -7.0417476596216935e-04 1.2516925907580186e-02
      3.3960326579078283e-03 2.0275482103036284e-03
      2.1451909386668803e-03 -1.5310905512096483e-02
      -5.6183398550426564e-03 7.9803533736432213e-03
      9.5993250158820254e-03 -1.2433112650134259e-02
      1.4287888323326899e-02 -1.3641884229921249e-02
      6.1711513628256954e-03 -1.8556148367692713e-03
      9.3215371690322530e-03 -5.6208882236892729e-03
      -1.6656768656852178e-03 1.0624192261901118e-02
      2.4804566880341416e-03 1.2614866358681841e-03
      -1.2649010528819622e-02 3.5156468618908160e-03
      9.7118803546437909e-03 6.6349059034927675e-03
      1.8322806666997888e-02 -1.6229324827740345e-02
      -1.0093069562134575e-02 -1.8769718261318614e-02
      6.4037145764717727e-03 2.0754030159610723e-03
      -1.5342156075413628e-02 -1.0180421586338662e-02
      1.4756875441000100e-02 1.7102072237564242e-02
      1.2235098620980831e-02 -4.0167085420631053e-03
      1.5245298150304256e-02 1.9726847049306457e-02
      1.4962352217516201e-02 4.6199263537148724e-03
      3.1939038690245243e-03 8.1358314126794822e-03
      -3.0193397685818789e-03 -1.3236792448006282e-02
      1.3431494523773048e-02 -5.9967095046429483e-03
      1.1658454937318189e-02 -2.8958776597885045e-03
      9.2633115204159202e-03 -1.0937074784683727e-02
      1.0608224827283125e-02 3.8377884657273130e-03
      7.2641600840524555e-03 1.5226638106057963e-02
      -6.9716471556376097e-03 3.0578145112387873e-03
      1.1227541118561127e-02 -1.4129709578253186e-02
      -1.8204006571785888e-02 -1.9705102853881406e-03
      3.7633297769897817e-03 2.0985233169226757e-02
      5.6327909227258085e-03 -1.2968474667371875e-02
      -4.2240544008310833e-03 1.3564023794332481e-02
      1.0326686524302453e-03 1.5783173495919976e-03
      -5.6696673604922903e-03 1.6130102199164199e-02
      -2.8098266119045172e-03 4.4837418975253772e-03
      -1.6633888144063209e-02 -1.6837255828422108e-02
      -4.3211273110027159e-03 1.3397317973853167e-02
      -9.9282636500373864e-03 -2.0594392535572829e-02
      5.1256137236871321e-03 -1.6011341234367232e-02
      2.2686646122292081e-02 -1.6681243506927759e-02
      -1.1452124095590993e-02 3.0195862550385402e-04
      -9.6650858474696942e-04 1.3148751080102663e-02
      -2.0077677152191154e-02 1.2789119693057075e-02
      -1.1131707579956808e-02 -8.0672048660431657e-03
      4.4245556368492913e-03 7.2983136020401216e-03
      -9.4838176286140639e-03 1.0482373704003931e-02
      1.2839801005939440e-02 9.1840449072198571e-03
      1.2975549478247436e-02 4.1629637315147580e-03
      5.8178426050805735e-03 -8.1828216974319627e-03
      -2.0421160772618272e-02 1.0061910774469900e-02
      1.3394323412154166e-02 -1.3232908644481787e-02
      -1.1478361976182546e-02 -1.2476330604441192e-02
      1.3816547530661522e-02 -6.8372798824425460e-03
      1.0459482478250950e-02 1.3094593631179112e-02
      -8.2470469291438982e-03 9.1619324076004812e-04
      9.6070658697700543e-03 -2.3657142011789865e-04
      2.7332862596909260e-03 -1.0875630411737931e-02
      9.6479069331543814e-03 1.0742681331092376e-02
      -9.5907149692200152e-03 3.1366447497935116e-03
      -4.3214342275975258e-03 -7.2432247420213224e-03
      1.7034998557638056e-02 1.1621703907700532e-02
      -1.7326850891524589e-03 3.5270864134345787e-03
      8.9555368474106868e-03 -1.0847972580487185e-02
      -1.3489876247647749e-02 -6.6610398622323139e-03
      -1.4154033445807401e-02 6.5353382375378070e-03
      -7.6955472686644983e-03 -7.3780553913971470e-03
      -2.2258045324765247e-03 -1.1387561164394329e-02
      -6.9797040595226357e-03 -7.5172275013845394e-03
      -8.2408896097764302e-03 -1.1823179358873461e-03
      9.7639041696371432e-03 2.8555508212673808e-04
      -1.4667475363737399e-02 -1.0660490825440610e-02
      -5.2247351340102971e-03 -4.5713389475625218e-03
      1.5800026007203530e-04 1.2490397130245513e-02
      1.3142768441532282e-02 -1.1807989205160263e-02
      1.6561563668135201e-02 -9.1476512186803149e-03
      2.0262645386619552e-02 -1.2051032871067810e-02
      -4.2819254922211612e-03 1.5448698798288200e-02
      1.8408048119919306e-03 -1.0925186549505519e-02
      1.7550224247659785e-02 -1.4913878321400117e-02
      -3.1591237805294421e-03 -1.2197819805682837e-02
      1.4117873646604140e-02 2.5906822332324325e-03
      1.4875287487313479e-03 -1.3319953812314465e-02
      8.2521693580514064e-03 7.4326943951518705e-03
      -9.6612116909704712e-03 -2.0165518720602755e-02
      1.3991341433621334e-02 6.5091816026830503e-04
      -2.5075547900716565e-03 -1.4572085414794538e-02
      -5.4197919516992222e-03 1.0280633487927631e-02
      -3.7449803176956118e-03 -9.6806470622373200e-03
      1.7018369727702324e-02 9.6747288436102776e-03
      1.1502923948211743e-02 9.1586344040037841e-03
      -3.8444836987308129e-03 1.6129980870362323e-02
      -4.2995544401647273e-03 -2.2389478947581972e-02
      5.0048428211107716e-04 9.3703600763392868e-03
      1.2068245660285581e-02 -1.0055349356852679e-02
      1.8566520041561979e-02 9.6710986787644710e-04
      -1.9853206703539308e-03 3.8658041173424262e-03
      -3.7727552922973639e-03 -1.3093813781781429e-02
      4.2900998448162728e-03 -4.9024312966376351e-03
      2.2403348631664681e-03 -1.0154651435006464e-03
      -4.3242188772828899e-03 4.2165984745349740e-03
      -3.0779937498952546e-03 -2.2575088896512846e-03
      9.7629666754814326e-03 -2.1957061217661826e-03
      1.4936281338579880e-02 -4.4147662238413618e-03
      -8.0259288829247471e-03 -3.9568353907228331e-03
      -1.0838408929812720e-03 -4.6393018403213945e-04
      8.1055774363279556e-03 4.3979273625346501e-03
      -1.2916470896439866e-02 4.1055035033615806e-03
      5.9570132148985154e-03 -5.7874385507063275e-03
      2.1663793607776358e-04 -1.9701203451988333e-02
      6.7701553615948868e-03 2.5420400271013600e-03
      -8.5533352317499704e-03 -3.3548136779815037e-03
      3.9602003306388424e-03 -1.3532129019765898e-02
      -1.4393881598458910e-02 -3.5520799578867912e-03
      7.7733178588657807e-03 -1.4730693562646706e-03
      4.8675777904441456e-03 -1.8608483846034779e-02
      1.9399639518291104e-02 1.1233736017472261e-02
      -3.1488860378442425e-03 -1.8722796810606537e-02
      -1.5874389823587545e-02 -6.9387104377248406e-03
      1.5506709035298393e-02 1.6600752353625851e-02
      1.0489354246606738e-02 1.9618521953678702e-02
      1.7242821844941377e-04 -1.8779988954852736e-02
      -1.0679948221732851e-02 -1.4703621680403824e-02
      1.1692409105602446e-02 8.5953527958637296e-03
      -2.3705968322432425e-02 8.2279405677728717e-03
      -7.9768973772317946e-03 7.8863033566134635e-03
      -7.2125426282085526e-03 8.4180967035064874e-03
      -9.1221696398625027e-03 2.1065554981076172e-02
      -9.8295609116654230e-03 1.3085733217821721e-02
      -1.7746773072171648e-02 1.9780077345247442e-02
      1.8393252028157051e-03 1.9952679558578367e-03
      -1.2341817742729817e-03 -1.3549077135738403e-02
      -1.3955084459210922e-02 -1.8358103113446583e-02
      1.9996331343523459e-02 -1.8629954325928528e-02
      -1.5628283220307623e-02 8.0231326995987527e-03
      -2.0260290273673386e-02 1.0352712238734763e-02
      -6.3851822689862626e-03 -3.0935568380407912e-03
      1.4386118619942266e-02 8.4348673661657839e-03
      -3.2998327756981246e-03 -1.9934155564403182e-02
      -4.0276243403479231e-03 9.7484365530943300e-03
      8.4376301330675585e-03 -1.7073069280727271e-02
      1.2289362834706793e-02 5.4201447695681332e-03
      1.6086257981748613e-02 -5.7199476779114496e-03
      -4.1740921684625546e-03 8.7085441825251238e-03
      2.3664183382161468e-03 -4.8580855509941876e-03
      1.9795088289092572e-02 1.5486214033709231e-03
      -1.3698400466033578e-02 -1.8935336367935766e-02
      -1.2745115168622550e-02 -7.2077959308972711e-03
      1.2207180304198659e-02 -1.7460961685830785e-02
      1.9864173094995722e-02 -1.6094944548943491e-02
      5.4955182159346534e-03 -3.3803915073952490e-03
      -5.8038070349298717e-03 -3.1287772835945156e-04
      -6.2295279242409627e-03 1.0440427121415468e-02
      1.3734198707298853e-02 4.3897050117057872e-03
      -2.0151450736452005e-02 1.3108577308537881e-02
      -9.6666967138262973e-03 -2.0129745950906653e-02
      1.0747435015627100e-02 -9.8628435069292265e-04
      1.5774699485430768e-02 -1.8579734293365711e-02
      -8.7257221113640968e-03 5.3862063191487492e-03
      -6.0864300868835623e-03 -8.1137645799344033e-03
      1.3662390765217193e-02 1.7200313622428877e-03
      1.4619461728101940e-02 -9.0618319780893623e-03
      -1.8598946319781900e-02 -1.7324121880021349e-02
      3.4243280201868083e-03 1.1953079899037881e-02
      -1.6182486018714096e-02 8.3708562795410738e-03
      -1.4434545118352111e-02 -9.0907219935280944e-03
      -3.0631150320606249e-03 2.7885067012702195e-03
      -9.8535037719611317e-03 -6.9587589065764214e-03
      -9.4592653100460094e-03 1.6242921174187307e-02
      -1.9213683803054214e-03 1.0406491083003257e-02
      -1.4784369736707702e-02 6.5627535391206727e-03
      -5.1941180924319182e-03 1.7760215372381059e-02
      -1.6281737172793340e-02 -4.6471332430589249e-03
      -8.0945532222305595e-03 -1.5915866780584858e-02
      2.1335625364180622e-03 5.6551034652717828e-03
      -2.1006987422160908e-02 -1.9295506278859391e-02
      2.2836189078606229e-02 1.0282280136705733e-02
      9.2361041510017131e-03 -2.4323622068274035e-02
      9.5376553121362291e-03 -3.0251547179654503e-02
      2.0637936581626992e-02 1.2461676720637452e-02
      -7.4707876128218128e-03 -1.0871421702129732e-02
      3.0117169499382038e-02 -1.5255080868180332e-02
      8.9872039089778401e-03 1.6860914434821853e-02
      -1.2823746392218080e-02 -9.5683631386864979e-03
      -1.9061952376952174e-02 8.1003074303273373e-03
      2.9196133926788971e-02 5.0213140382870296e-03
      7.8603069352973075e-03 8.6910508921762292e-03
      3.4359823883291780e-03 -8.1850223175570017e-03
      1.1706820203462275e-02 9.5131718767113675e-03
      -7.9602253807579196e-03 -1.2437662662027881e-02
      -1.9936189442043936e-02 -2.9286492732634368e-03
      -1.2531072408844392e-03 -1.5794050634140550e-02
      -2.6248953882619277e-03 2.1971371093822598e-03
      4.9216493122858293e-03 -1.4186249088950142e-02
      7.6491480160894854e-03 -1.9118396915443998e-02
      4.5863724081344074e-03 -2.4383227108106763e-02
      -2.4515064991192373e-03 1.7797231358153850e-03
      -1.7262722463041221e-02 -5.3769850565772966e-03
      -2.6487485830120665e-02 1.1719272374883171e-02
      1.6850011895344727e-03 1.7266313453512153e-02
      3.3545174680138526e-02 -1.3783367630008063e-02
      -1.9687839501235486e-02 -1.4566696023567232e-02
      -2.9423789185068542e-03 -1.0239077188022833e-02
      4.1570300320243280e-04 1.0679094287732201e-02
      -2.3837567262053497e-03 2.0777574795990274e-02
      1.2319397706637874e-02 -2.1013805813468053e-02
      -1.6373030020408524e-03 1.1054354751894683e-02
      -1.6266630328181524e-02 5.8833115412914635e-03
      2.5774323906567764e-02 5.6784162049948184e-03
      1.7310340422567433e-02 -1.7630905327466000e-03
      1.0033936264682786e-02 1.4118366155326091e-02
      -2.1059240087013355e-02 2.8858535648169197e-02
      1.5810725704966029e-03 -5.1948786483329841e-04
      -2.1329814261486866e-03 1.4366968133271195e-02
      1.2968808973346407e-02 -1.0935007268406126e-02
      -1.0305979586693947e-02 -2.0696119033894050e-02
      -1.1104054521530833e-02 -1.8443713465705929e-02
      9.1890611145695033e-03 -1.7623736627788957e-02
      -7.3426176045084226e-03 8.2134368576274857e-03
      -1.3603127476527206e-02 1.5009512328939828e-02
      -2.5657821102300003e-02 -6.2220620165296435e-03
      3.7036660218320865e-03 -6.4853611302709349e-03
      -6.2647228391686125e-03 9.6953707409664028e-03
      1.0758244029185914e-02 2.2367604593666560e-02
      -7.9623897904943647e-03 -2.2907714127372639e-02
      1.0176912048720975e-02 6.1041954451687471e-03
      -2.0356575771592236e-02 2.2945547029106918e-02
      -9.4956183215351864e-03 -8.0847460555267016e-03
      -1.6753046942492216e-03 -1.8356208525488343e-03
      -2.5898287250471042e-02 -8.6271697932683994e-03
      2.2879424013205904e-02 5.9381647394918542e-03
      -1.3879885905978535e-02 2.2471515308068946e-02
      -1.7727198221278613e-02 -8.9755014385316748e-03
      -1.7329772408800213e-02 -3.8371345063234197e-03
      -4.5315946162447192e-03 6.3185879723217523e-03
      5.6906052071444184e-03 3.9492409391958874e-03
      -5.4800327123569973e-03 -4.5690971927903464e-03
      1.2253246371914975e-02 1.6270281324203776e-02
      -8.4037560780312413e-03 -1.6180881987007532e-02
      1.1424151649032802e-02 1.6727366872151407e-02
      2.1967705192604891e-02 1.6689068081535960e-02
      2.1562491117721020e-02 1.6274171727726012e-02
      1.2596026841299998e-02 -1.2517115780577184e-03
      6.6003489241967857e-03 2.2583507058470849e-02
      -1.3335768239440196e-02 -1.4593717549679273e-02
      4.4432951585506481e-04 6.9528911556000954e-03
      4.3280460793794851e-03 9.8570670729694939e-03
      -5.9799623365065198e-03 1.5545453419952138e-02
      -9.5542776593714688e-03 -4.3497286049687814e-03
      -7.7549908214842068e-03 -1.0016888764327622e-02
      -1.4049715061561868e-02 1.0788745964344048e-02
      -3.6667382234282114e-03 2.0081408734433613e-02
      1.3758252963028369e-02 4.3635972790440000e-03
      8.9405208192845393e-04 -1.6409477098731556e-02
      1.2178564191419376e-02 5.3105757502743970e-03
      1.7251450247638668e-02 1.3241087759115771e-02
      -3.9522602821103307e-03 6.2353175791289850e-03
      4.7167708674272397e-03 1.0114747048055763e-02
      -2.7576421089782085e-02 -2.8074926520256171e-03
      3.9515562317141281e-03 8.2644557415315501e-03
      -2.1595682060505762e-02 1.3571889637654372e-02
      1.4902399011931793e-02 6.8238893790011400e-03
      1.5502461902653923e-03 6.1251288489848057e-03
      -1.7715021949468734e-02 -2.2697680000467169e-02
      1.0087795587935492e-02 -1.8295778483837399e-02
      9.7988795959611137e-03 1.8939818145742218e-02
      -1.1952248699716082e-02 6.3732745233672427e-03
      -1.9416404419577017e-02 1.0657225178935144e-02
      6.4629150162319573e-03 -4.9539122245704755e-03
      1.0274942982880409e-03 -1.2459789096125291e-02
      -2.7705510868841223e-03 2.9105632751368995e-03
      -1.0658873693387453e-02 1.5899378113130372e-02
      8.1852243970567621e-03 7.9837631147837550e-03
      -1.3755200714935563e-02 5.1740953666575508e-03
      -5.7205275745785293e-04 -9.3872860533588797e-03
      1.3717712748874178e-02 -1.0899154879792372e-02
      -2.3212842023025471e-02 -7.5306368099837422e-04
      -2.5141209829603790e-02 2.0752500250000777e-02
      -5.3617893953964929e-03 2.4079002373071760e-02
      -3.3185105294803396e-03 7.4386088939677204e-03
      3.0356181858139744e-03 3.2316147481627339e-02
      9.3267446584500667e-03 2.1792568758561760e-02
      -1.1602881698896880e-02 -6.7140292030449964e-03
      -7.8584480397626034e-03 1.2933055565217485e-02
      2.0661685648019321e-02 1.4537132713518992e-03
      1.4629411959426641e-02 -9.1964013624347002e-03
      -5.8855716580890618e-05 2.1582457269341299e-02
      7.9312747279853841e-04 1.6712517868022120e-03
      1.8104907566252532e-03 2.3003896611416630e-04
      1.3149909743464078e-02 -1.0526632912132832e-02
      8.4883307074092914e-03 -9.8697230035144703e-03
      6.5613873156825254e-03 1.0758109405764247e-02
      -1.5907431837013819e-02 1.8203592369027296e-02
      -1.3142533556706018e-02 2.0629574090115958e-02
      -1.8809179846644590e-02 1.1290181387354071e-02
      -9.7191580186268296e-03 6.1008315377169544e-03
      6.2179920395848739e-03 1.9909124097516460e-02
      -1.7634931630623973e-02 1.8557375329443685e-02
      2.4089676968931825e-02 -9.1996144414040783e-03
      7.5761947759585601e-03 -9.3534886914150000e-03
      -1.6254864782189776e-02 1.7749398523022809e-02
      1.4797225009962887e-03 3.9223184994203845e-03
      2.0115345839163513e-02 -1.8762761973373319e-02
      -9.9672467631647700e-03 -3.0322041061829421e-02
      -1.1040806137992000e-02 -2.6298019232420006e-02
      -3.4881690826528769e-04 -1.4545933016326500e-02
      8.7762579476399604e-03 5.5202602068627534e-03
      2.0314920650015005e-03 1.2569281252803986e-02
      3.4145815457540772e-03 -2.7996666098307640e-02
      -1.3748977278630496e-02 5.4597903332552784e-03
      -6.2567232927034366e-03 1.8168487643186262e-02
      3.3123382565509438e-02 -1.8818974774176527e-02
      -7.5882677757889930e-03 -4.3917186648609764e-04
      -1.1499381002849836e-02 -5.5449463966186947e-03
      -1.0728200667018498e-02 2.0471347768392902e-02
      -3.7785501140944183e-03 4.2167363542384307e-03
      1.1827323579699144e-02 -4.6499341319664175e-03
      -2.8576701791251265e-02 2.2743509113090296e-02
      -1.4031621781538745e-02 1.3078519152682423e-02
      1.4465706996074882e-02 -1.4312794777721663e-02
      -4.2805374133338438e-03 -3.3988635239723844e-03
      5.8015415174168059e-03 5.3584008859980841e-03
      1.7667937273628004e-03 6.1733846914120826e-03
      -1.6465289569171992e-02 1.3195683915433643e-03
      -5.6231690022196679e-03 2.5509431540518281e-03
      -9.2682291005379280e-03 5.6292921364566872e-03
      4.3427410048969394e-03 -1.1144045350643710e-02
      2.2807073602566882e-02 -1.2320081998190522e-02
      -5.6247045581978563e-03 1.2268082611957505e-02
      -1.5463964655920851e-02 4.7277126590802550e-03
      7.6328839904848643e-03 -1.7190621937140844e-02
      -1.8648521234370273e-03 -1.3258841838675232e-02
      1.3851864094165785e-02 -1.2330678769529738e-02
      -1.2200611382791431e-02 -1.4550862106713372e-02
      9.1469241454140877e-03 1.5152936442352685e-02
      8.6467239720840940e-03 -1.7371898070723899e-02
      4.4457569141366860e-03 -5.1972650733543716e-03
      9.3019054047363166e-03 2.2615456043012139e-03
      5.3486918510495043e-03 -2.9001214012779270e-03
      -7.2230659954511320e-03 -1.9049530279058646e-02
      5.4810031314916881e-03 1.2077322737379043e-02
      -1.1933269388809536e-02 -5.3492752347020335e-03
      5.8066924635014026e-03 -2.0652748817765597e-02
      1.3314207642910142e-02 -1.2247586965639923e-02
      1.3736332490959562e-02 -8.6197584739052344e-03
      -7.2953613253577531e-03 -1.1171082840118637e-02
      2.0830760475556695e-02 -6.3312189476618930e-03
      7.8424525078647569e-03 1.5976969303230697e-03
      -5.9149098522651719e-03 9.2898056845265291e-03
      -1.4629597704471492e-03 -1.4812048701238369e-02
      2.2586724587947849e-02 -1.4781772378363638e-02
      1.0545734803979027e-02 -1.5355771182246642e-02
      1.1012122121613142e-02 2.4793582815426929e-03
      8.9455476909576521e-03 1.1886181091358470e-02
      1.4675980779194150e-02 -1.0164734287790038e-02
      -9.0765773649791204e-03 2.9891607514900532e-03
      -1.3992392769714637e-02 1.5912646291307411e-02
      -1.4574826236732263e-02 -1.2904317800453155e-03
      -9.3189786285140137e-03 -1.3573905840012276e-02
      -1.2670747819617949e-02 -2.8410837085261651e-03
      -1.2710918240996899e-02 2.3999286837409687e-04
      -3.4085705685131134e-03 1.8111137234447905e-02
      1.2025431912659878e-02 1.8413125469763765e-02
      2.3859247826266451e-03 -1.2769378444040967e-02
      4.7526785320132735e-03 5.7012461264319128e-03
      -9.9860918206660237e-04 4.8613918934265693e-03
      -2.6927536118564140e-03 -4.4446886771283244e-03
      8.1517656166724753e-03 -2.6962479194477733e-03
      -1.0471515571164670e-02 -8.9092436226373122e-03
      -1.8088114253425363e-02 1.7482943916971147e-03
      -6.3167115024616652e-04 1.8665475693609046e-02
      1.8537447656755658e-03 -2.0809250233530660e-03
      -2.1693655122409271e-03 -5.5002125831161318e-03
      1.7480529952653135e-02 -6.1961013203270859e-03
      -2.0802146116562770e-02 8.4184364973498831e-03
      1.0996930135850506e-02 -1.3697938119600257e-02
      6.3059449797755792e-03 9.0454125369217719e-03
      -3.3845259567030612e-03 -5.1377011496237393e-03
      -4.3164299669962826e-03 4.9531348681205057e-03
      -8.2965145911930698e-03 1.4143842090667227e-02
      -8.7810531038193620e-04 1.7742547256844366e-02
      -1.3549878334625941e-03 1.4162125839281073e-02
      -2.4180678455939580e-03 3.6093428515870415e-03
      1.0966402856257312e-02 5.6147006473189652e-03
      -5.6962872036350866e-03 -4.4627523706877344e-03
      -6.4908519118007857e-03 -2.4030738008201423e-03
      6.5903274618854986e-03 1.1341345662814993e-02
      -1.3555094825288834e-02 1.3701762404646897e-02
      -1.6329961241420443e-02 4.3431557252031723e-03
      -3.7646207382571201e-03 -7.2859313974206995e-03
      -4.4718902610807474e-03 1.2374324327451796e-02
      1.5519057746220770e-02 -7.3399086251950850e-03
      1.7352527239855829e-02 1.1711527204841744e-02
      -1.5217257788110991e-02 6.3623303422175445e-03
      6.8598780891020467e-03 1.3586236536197954e-02
      -1.3961511164527434e-02 -4.4495452708443886e-03
      -1.7660844194330443e-02 4.7972369447000359e-03
      1.1362522456785417e-02 -1.0677527283227350e-02
      4.5546568393514866e-03 1.2036354884678219e-02
      -4.7539568463863952e-03 8.9416642342486797e-03
      -7.2930353902916373e-03 1.9187859601627446e-03
      8.2778380079414800e-03 1.3415855312538151e-02
      2.2675675935416605e-03 -6.7488348508126285e-04
      -1.7840447371203525e-02 4.9042504653528376e-03
      -5.2320827584186446e-03 8.7531304918125174e-03
      -1.0415514616639117e-02 2.2020658489673203e-02
      -1.0299048358294514e-02 2.3908648778857597e-03
      1.7854968070024305e-02 1.3716797880769283e-02
      -5.8762383241386098e-03 -3.7071985121333371e-03
      1.6951017278912971e-02 -1.0583494198490109e-02
      -1.3553214208915610e-02 -1.2159232730758368e-02
      1.0813837205148827e-02 3.1075311224143033e-03
      -8.8378395401372226e-04 -1.6060562209386026e-02
      -3.8326731635391809e-03 -1.2833209586000847e-02
      -1.8063089915989757e-02 1.3416340662764190e-02
      3.6929158687240655e-03 6.4062178392824964e-03
      -1.3438310744890405e-02 -6.6330129876682638e-03
      5.9900663010661371e-04 9.9395843956649032e-03
      1.2242229874017055e-02 -1.1326985550335683e-02
      4.0803242995295051e-03 2.4434646352983615e-03
      1.3648466525914532e-02 -9.7856689478030764e-03
      -1.1405180092732770e-02 1.6311565519794565e-02
      -3.6187343517053751e-03 -7.6567544839215391e-03
      1.4897027317171768e-02 3.2193845592806334e-04
      1.3498777374401517e-02 -3.0668655288981815e-03
      -1.8018607702045469e-02 6.6564455770305785e-04
      -2.2238479449015428e-02 -1.1367652159844192e-02
      6.2823351334642553e-03 2.1528405252834774e-02
      7.4536910250469761e-04 1.2377788620583242e-02
      -2.2119172759749225e-02 -4.1798252315604616e-03
      1.2915385180761877e-02 8.6446167370083492e-03
      1.5099289509020730e-03 -6.2271382513237605e-04
      2.4977558460675454e-03 -1.7037120973162741e-02
      -4.6188765410018770e-03 -3.9142533585975704e-03
      1.9761749092868399e-02 2.0566141709075003e-02
      -1.6318980922722184e-02 -1.6291903429781599e-02
      1.8826921442346243e-02 1.1482589069677328e-02
      -5.9405521781950431e-04 2.1226484585082854e-02
      -1.3091349537808732e-02 -1.4287828891863532e-02
      7.0097996317055808e-04 -3.5720855794644972e-03
      -1.0361221447481257e-02 3.9147441801383664e-03
      -3.4749473934333770e-03 6.6858140433797677e-03
      3.1050727382044407e-03 -7.0106491814907485e-03
      -2.3495945547232503e-02 2.3479360000885654e-02
      -1.0094383846981690e-02 -9.0137910673330907e-03
      1.0868826946723122e-02 1.4556295595719757e-02
      -1.3640454174500148e-02 1.8492986052410187e-02
      1.2619504692968745e-03 -3.8241227871738440e-03
      -1.2538903841454292e-02 -1.4272131253803947e-02
      1.6059596725864520e-02 -1.7827243163025114e-03
      2.2573835560286575e-03 -1.2116456113359932e-02
      2.0225019547070722e-02 3.5594273303909529e-03
      7.3720336086795825e-03 -9.7554274513027613e-03
      3.6552187209691832e-03 -2.6961174745795267e-02
      -2.1797880129901824e-02 -2.3560503119555758e-02
      -7.6649022892990495e-03 1.7904578224228987e-02
      -2.5096618971761214e-03 5.9692385464494343e-03
      2.7685103139581745e-02 1.2611932839285928e-02
      -2.3623546488537449e-02 3.0346790827900493e-03
      -7.0518891658852951e-04 6.1171805412155627e-03
      -1.6253451150764545e-02 -8.4013194601725086e-03
      1.3096171810740461e-02 1.4747225798931961e-02
      9.9478325680169479e-03 -5.9925170495294259e-03
      -2.1575017048453542e-02 -1.0678023479966136e-02
      -8.2964780236261283e-03 -1.9258358027522252e-02
      6.4459524544152212e-03 -1.4831654020420193e-03
      -9.6192816648220120e-03 -9.4367623676984234e-03
      -6.9765514726608004e-03 1.6437195159349067e-02
      -2.0183876546852491e-03 -5.5428749690809658e-04
      -7.7822049053223319e-03 -1.2605231324848592e-02
      5.8114982381588746e-03 -4.1904066664659040e-03
      -4.7732275421374093e-03 2.1848792405058718e-02
      1.8810715187138317e-02 -2.1218892473786669e-02
      1.8116046292717583e-02 -3.2858635370280739e-03
      1.2156687764922763e-02 -8.5424952771684035e-03
      6.2024640079857930e-03 -9.2646411368302907e-03
      9.7921936034287872e-03 7.1227868914089856e-03
      -1.1177325918984602e-02 -5.4204506900945122e-03
      -1.7005149052211042e-02 -1.3626767207625812e-02
      -1.3696243633373607e-03 -1.5467992904665030e-02
      -8.0084377791270255e-04 -7.5884018269599710e-04
      1.9438878256059302e-02 8.1951999840813288e-03
      -1.1432088050827021e-02 1.3378047092558912e-02
      6.2084675920113250e-04 -1.9693509166920021e-02
      -1.0565817176204093e-02 9.7882110070553578e-03
      2.2303194798371295e-02 -3.9809229785498865e-03
      8.5634841928429913e-03 -9.7258688931184355e-03
      8.3034248075325237e-03 -1.5809320195450855e-02
      5.6010097574284443e-03 -1.4049150945443449e-02
      -1.7132904528530887e-02 -1.9209689042552048e-04
      -7.8192546926009864e-03 6.5075697889979021e-03
      -1.5477876017762392e-02 -1.3481017709983884e-02
      1.1221956235262886e-02 5.0006297715226924e-03
      -1.3723316780806199e-02 7.4290421062944950e-05
      -8.0118927592758953e-03 -1.1212360812653338e-02
      -1.7084332013433234e-02 -1.7247586251744964e-02
      -2.0493235032044064e-02 1.1060850050121182e-02
      -1.2983382413599545e-02 9.6986586550940439e-03
      1.6209445549769910e-02 1.6980493356381625e-02
      1.6024125860841915e-02 -1.8070659636277502e-02
      1.6152697914345669e-02 -8.9387594695245643e-03
      -1.7760860213938957e-02 -1.9076006661900846e-02
      -3.1048159313474522e-03 8.6801289955565266e-03
      -1.4311795662163673e-02 1.1493391236771790e-02
      1.2730871232541524e-02 -2.4407629201323058e-03
      -4.7809471448927027e-03 -1.3515167486995714e-02
      -1.0793142914848584e-02 -2.5155474417116385e-03
      -2.0278092814355556e-02 6.9916951229582218e-03
      -1.3186655429025545e-02 9.7429642634334086e-03
      5.5141941143244787e-03 -1.9638689588365073e-02
      8.9375070378030323e-03 6.1305358951467990e-03
      -1.4428593731575920e-02 -1.7530583669234198e-02
      -2.6962563852350146e-03 2.0901649537349968e-02
      -4.4460069503163349e-03 -1.5078439958280867e-02
      2.0278287967230902e-02 -1.6546506514366770e-02
      1.2567698944464582e-02 -5.1091146977901821e-03
      -8.4948639189215119e-03 -1.0089222155475206e-02
      -1.2590541089263572e-03 -8.3933320385649671e-03
      3.3690565116821945e-03 -6.3500244007301514e-03
      1.3833346003375302e-02 -1.1348771600603781e-02
      -7.1528390129842329e-03 5.8653345704649416e-03
      -3.3288012982395332e-04 1.0841809745408120e-02
      -9.4942152665706287e-03 -1.7232038853667971e-02
      8.7007308564753059e-03 -1.6153861962185771e-02
      1.8848138850245024e-02 -3.7943953417304203e-03
      1.6553933931721807e-02 1.8894442354365614e-02
      -7.3388232877547458e-03 1.9125356125938003e-02
      7.6281723120317038e-04 -1.0898254067342543e-02
      -1.8936075245805539e-02 -2.8217362956047833e-03
      -1.3902221591308524e-02 -7.5356944245360304e-03
      1.7208265650516787e-02 -9.5447327113918710e-03
      1.3449017558099787e-02 9.9032587013357792e-03
      -7.0584697772683169e-03 -3.9618980173642101e-03
      8.5909503080878850e-03 8.7054545770977355e-03
      -9.4919154068059328e-03 -1.8193375462066865e-02
      1.3686657967129231e-02 -7.9336952265678009e-04
      1.1620155245775799e-02 2.4983780776305230e-03
      -1.5077652972271594e-02 -3.4535165682518737e-03
      -6.2174628927421051e-03 1.2196898861967750e-02
      -1.4313452211500441e-02 4.4333898220157899e-03
      1.6300975600412305e-02 1.1308608023889199e-03
      2.9989744225143587e-03 1.3311472329631104e-03
      -1.9322992548041464e-02 1.1716392682161764e-02
      -1.3465880436609257e-02 1.1306238619073247e-02
      -3.1566939640391076e-03 4.6420534591402338e-03
      1.9989511076207802e-02 -9.0229976097678313e-03
      2.7658962080793783e-03 -6.6495293713074556e-03
      -7.3131084918283606e-03 -1.3909750625685479e-02
      -6.5391454541379327e-03 1.0255399800805001e-02
      -9.5314242525953797e-06 8.9371432151501146e-03
      6.4464461589481738e-03 -1.9265152319663460e-02
      -2.7705275670015079e-03 1.4727944575621038e-02
      -1.4745223444524768e-02 1.8609780267026067e-02
      -8.8210345053740136e-03 -1.7402009587757141e-02
      1.7957550129757017e-02 9.6357988429140989e-03
      1.9724595400661734e-02 9.7249944337819225e-03
      -1.4237885610795800e-02 -1.8249977834661920e-02
      -1.4783360417075671e-03 -8.4013824453379703e-03
      -1.7389407179423371e-02 1.9373144143453265e-02
      2.0736311834660012e-02 1.0916407856073935e-02
      -1.5839918375794682e-02 -6.0360558626694370e-03
      -5.7720302085590295e-03 -4.2990564372906333e-03
      8.4138013312090448e-03 -1.4867920631199981e-02
      2.8397332348656253e-03 4.7131344522514506e-03
      1.3330826003068732e-02 8.2638216382130911e-03
      -1.4547122583075280e-02 -7.1644827562343805e-03
      5.0660773756639630e-03 3.5496419088881376e-03
      1.4720768290923551e-04 1.0579633508138234e-02
      4.0348098193279374e-03 1.0640116755925315e-02
      3.2660032201620491e-03 8.7290021685877805e-03
      -4.1384956656727642e-03 6.9427442518860925e-03
      -1.0896503405246093e-03 9.2565580412688688e-04
      -5.8679886878883931e-03 -1.3671623297636262e-02
      1.4345497743577054e-03 9.6101482994520749e-03
      -3.9117675591057574e-03 -7.3204998486078596e-03
      -1.5280339577122789e-02 4.9651296697112062e-03
      4.2879722640805588e-03 1.4490220197923854e-02
      1.7482447549592248e-02 1.1070482294738553e-02
      -5.1085319163228580e-04 1.8679714893328077e-03
      -2.3559884466285357e-02 1.7369159214889508e-02
      4.0821296503561460e-03 -1.6765553725983366e-02
      1.2861762124220239e-02 -1.5648255149406362e-02
      1.0985640781762149e-02 3.7696075309316401e-03
      -1.5871805850500454e-02 -6.6300804213048261e-03
      1.5080511713320163e-02 -6.5132754348266016e-03
      2.7988373890517997e-03 -6.4267198811897306e-03
      -6.9408706929516995e-03 -1.7475718511205959e-03
      -5.9771668227404182e-03 1.5012520737405095e-02
      -8.9230582391585187e-03 -2.0691100015540632e-03
      6.3534649815959717e-03 -7.8663098216248499e-03
      1.2410793353767402e-02 -1.3554826031491583e-02
      -5.4657768648606355e-04 -1.2784410591608105e-03
      -7.3951044340290375e-05 1.1658405127160747e-02
      5.3746084328408850e-03 -1.6489237862630277e-02
      -6.4580501180530386e-03 1.1074116545335666e-02
      2.5506981707980295e-03 9.3176064291635129e-03
      -3.0673074692180715e-03 -6.1954132147152443e-05
      4.9281075077318808e-04 3.0284351325876864e-03
      4.4352426940897725e-03 -1.1421704601059518e-02
      3.5416108411583814e-03 -1.2187886173056267e-02
      -4.6201580558303326e-03 -1.8700183203207665e-02
      -2.9628116708703758e-03 -3.3652594798646426e-03
      4.0389675514406536e-03 1.4457082786378498e-02
      -1.8504702952472991e-02 -2.0221124902682387e-02
      5.3986265638922715e-03 -1.4282254899573030e-04
      -1.2569930468947114e-02 -1.0642268340465432e-02
      -1.3529054565766219e-02 -1.6447639849200529e-02
      -6.2731994910204423e-03 1.3235122508355818e-02
      1.1742748369011380e-02 -1.5100380104619230e-02
      1.8237809728089711e-02 1.0579325215513162e-02
      -5.4592887088438322e-03 1.9618239327490032e-03
      -9.3864023601843323e-03 -1.0169883574960750e-02
      -1.6116594912335146e-02 8.7996003809030028e-04
      7.5936054055172003e-03 -1.6228693123204897e-02
      -1.1089730233684807e-02 -2.2428642851687157e-02
      -6.1876993271142997e-03 2.6388259932691692e-03
      -9.4141208084592941e-03 -1.1161154175881927e-02
      -2.0609228268411991e-02 2.1251757533738719e-03
      9.8376460274125829e-03 1.6589416075222723e-02
      -8.5293150003741165e-03 -2.0470999616319124e-02
      -9.6214022899376288e-03 2.3512884786530141e-04
      6.8399168574318579e-03 -9.8031981207833113e-04
      -6.5951924740849412e-03 -1.1299529118211447e-02
      -2.2458037433120107e-04 -7.7253035801333374e-03
      -1.7324641003461083e-03 -6.6522816036018251e-04
      9.6967251377913389e-03 -1.1160555257791539e-03
      2.0126393574587904e-02 1.6677736231748862e-02
      5.3884177883408305e-03 -2.0852377005829755e-02
      -1.6345341262563328e-02 -1.9302617969334267e-02
      9.3872236107994111e-03 1.4063083831795250e-02
      -2.3814015288451468e-02 -2.2300384639484347e-02
      1.5338427243601944e-02 -1.3648193345080046e-02
      1.2120237816205939e-02 -1.9883361987811599e-02
      7.5034357411222043e-04 -8.7447264181259488e-04
      1.1456767443805740e-02 1.1009565708095852e-02
      -2.0056914828395601e-02 1.4201007701087516e-02
      -1.2404649716824550e-02 -2.4925439360945966e-03
      1.0774529831968988e-02 -2.3004879150328696e-02
      5.6894651263540080e-05 2.4064502960184291e-02
      2.5869397226182807e-03 1.1073631120509910e-02
      -4.1164358252153100e-03 8.3694631974691805e-03
      -1.5642088608599457e-02 -5.8104362741775014e-03
      -5.0787100722703930e-03 4.2483617050319252e-03
      -5.2849650701931768e-03 -5.6607097564379365e-03
      -1.0162408845722434e-02 -6.5690050573576327e-03
      -1.3081812765676191e-02 5.7261457802891122e-03
      3.8681056559787580e-03 -1.9180646756552386e-02
      -4.7164330435980036e-03 9.9087777011289836e-03
      -1.6465184902110203e-02 -1.1899700772509831e-02
      -1.0930977128927063e-02 1.2832440728395197e-02
      -1.6241693126382116e-04 1.4788146705895860e-03
      -7.4083681675250193e-03 7.5686648031799289e-03
      -3.3288784541376584e-03 -1.4011311938949108e-02
      -1.8363492292916131e-02 6.1689557081311729e-03
      -3.3370829712205015e-03 -5.6217332122043230e-03
      -1.7784580963500971e-03 8.2362117521291005e-03
      -5.3218939386853650e-03 -1.7409546236376312e-02
      -1.6744208590832300e-02 -6.1574844254194986e-03
      -1.1358697109823306e-02 -5.3556055211897188e-04
      -1.7443436517081055e-02 -1.9207377690419466e-02
      1.5595226707822428e-02 8.3375383231472592e-03
      -1.1340755055298263e-02 1.6034521058470870e-02
      1.7987085996581498e-02 4.0611713580202841e-03
      4.5493294952675270e-03 -1.3670000304537066e-02
      1.6620787545277760e-03 1.6172511500731768e-04
      9.9331154288998368e-03 -6.0663163228038865e-03
      -5.5968175225108970e-03 -1.6740919032928351e-02
      2.3665327954273695e-02 -6.7061293965917038e-03
      -9.0752465456603679e-03 -5.3224153498498128e-03
      -1.5211146524689379e-02 1.3415526654149870e-02
      -1.6775879744788613e-02 -1.3163892425720563e-02
      1.5647884134394160e-02 6.3083053671851340e-03
      -2.1051861947650664e-02 1.2136841112650199e-02
      8.3634599411959217e-03 1.0459968668026834e-02
      -4.7388482827474604e-03 -8.3173025762338787e-03
      -1.2728425348556130e-02 2.8418338740483526e-03
      -8.1529379129649977e-03 -1.9063513712564588e-02
      1.0706797945584099e-02 2.3559459274057173e-04
      -2.0994059927346671e-02 -7.5050528964602393e-03
      -1.5879382024348633e-03 3.0809472668540224e-02
      -1.6237565953101364e-02 -8.0738034168762358e-03
      -2.1770786386208171e-03 -6.4906160571023943e-03
      -5.7602268429081767e-03 8.0264818040973514e-03
      -1.4565261725060728e-02 -5.1286396592035701e-03
      -9.8832470321589226e-04 -2.1136048466616007e-02
      -5.1992254576155100e-04 -5.6659161889540755e-04
      -1.5524887672941941e-02 -1.8428346806775801e-03
      -6.5210952165046555e-03 -5.3376122006013795e-03
      1.0749492152042715e-02 1.7396570115207954e-02
      -9.2803392364061068e-03 2.0810481730393779e-02
      -5.4564584710497408e-03 1.9767667841405702e-03
      -8.9657903838187628e-03 1.8181471016102048e-03
      -4.2181609770490132e-03 -2.3280348853440630e-02
      7.6105078884069156e-03 -1.7485841870357507e-03
      6.1347273295677129e-03 -2.4520524725494625e-02
      -1.0721027167814538e-02 -1.6947115132975851e-02
      -1.5233374047312679e-02 9.0628038246320097e-03
      1.6343450215864690e-02 -2.9362836747191069e-02
      -2.8952358392678279e-03 1.3390996210509033e-02
      -8.5971549866888895e-03 6.7872726636145787e-03
      2.1233468297414123e-02 1.3920954411952830e-02
      -1.3644293349827466e-02 -2.3234089983520983e-02
      -4.3416661591339271e-02 1.8353638163256660e-02
      9.4001679678506860e-03 6.0758184015241683e-03
      -5.0680270292110885e-03 6.0415118574090191e-03
      -1.1383400641348131e-02 -6.6857614473840544e-04
      1.2836721854883446e-02 -7.6405868147951519e-03
      -2.9060988109819233e-02 -6.9449443534267026e-03
      3.4874640317162912e-02 3.5173363705565093e-03
      -7.4507591472005082e-03 -2.0889819941010364e-02
      -1.1727256014799060e-02 -1.6378909322194966e-02
      -4.1949751557630012e-02 1.7047298692697783e-02
      -1.3734360290533638e-02 1.6779802438006649e-03
      8.7650526967192628e-03 -6.7919915126783362e-03
      4.9258471043288066e-03 -7.0520315583657055e-03
      1.5760228664389055e-03 -1.6289037792845872e-02
      2.2880835238024658e-02 -1.7501783247272782e-02
      1.4983674499556503e-02 9.5288916352135721e-03
      -1.6131305592104662e-02 5.3368392482270755e-03
      1.2591157229418848e-03 -7.4358119343819655e-03
      2.9403553158004908e-03 1.7056157792024657e-02
      -1.6504922801636977e-02 -1.9389928106454502e-02
      6.8644144279404471e-03 2.8509303288316124e-02
      -1.3289086803555523e-02 -6.7210180387656197e-03
      -6.6175866371627565e-03 -2.1454656710166910e-02
      -1.6953271941933345e-03 2.4554784406246866e-02
      -6.1489226430416818e-03 4.8774428986877102e-03
      7.6498653049476509e-03 -1.1081181359573273e-02
      3.2528326773277423e-03 6.0063019356204747e-03
      1.9853691333872797e-02 1.6523375686536636e-05
      -1.1504185587493205e-03 -2.1769987123235350e-02
      -6.2433559649808972e-03 6.5104409026629576e-03
      4.0496392340399001e-03 -1.1458991770929069e-02
      -5.3869131060133527e-03 9.6372606400756452e-03
      -2.8647200655514140e-03 -1.6551161746118703e-02
      -9.5881935719810442e-03 -1.5376027199275295e-02
      -7.1434627678354208e-03 1.5609057002400579e-02
      -1.2011380751835118e-03 -3.2412203519874339e-03
      -1.7415389425322031e-02 -3.2216696406682753e-03
      1.5520157241737369e-03 7.6844071012296157e-03
      -1.8235320501879150e-04 -7.1806351764628620e-03
      6.6699531953589534e-04 3.5166995212862224e-03
      2.0499084278716415e-02 -3.5775881974580510e-04
      1.3454137901229875e-02 -2.1589320028910751e-02
      4.3714267048112765e-03 -3.9289378918581320e-03
      -5.2444824709181855e-03 1.2720528138645170e-02
      2.0740441096145819e-02 5.6261671599734256e-03
      -1.5536264894838191e-02 9.3947517150929308e-03
      1.0369551886307497e-02 -1.2524957253395981e-02
      -7.5124502203113442e-03 1.7033703159348258e-02
      1.7596223061572213e-03 -4.2551989648973157e-03
      -1.2119538096376021e-02 1.2571667468797659e-02
      -1.4407429812704540e-02 1.2553814969604919e-02
      1.2214529335576995e-02 1.7174015504280490e-02
      -8.5760709080818318e-03 2.2813626868454822e-02
      7.7172740263354873e-03 -1.4889006175932986e-03
      8.5062947269618754e-03 3.9387847165339657e-03
      -1.3771115298548575e-02 -1.3386248896143553e-03
      -2.3933437614278097e-03 -9.0667015541366584e-03
      -1.6362663985085017e-02 -1.0591656436905636e-02
      8.7180436661013477e-03 -1.1460086006056946e-02
      -1.7928241307523400e-02 7.3552280162950930e-03
      -1.4049311561129662e-02 1.5119578956853437e-02
      1.1753981298239921e-02 -1.1170436333341555e-02
      -1.4957791735669978e-03 -9.4465835867127770e-03
      -7.6195551029046979e-03 -2.0117469253342912e-02
      1.9839775023564022e-03 5.0631956066655966e-03
      1.3333521160221415e-02 -2.8579225697394656e-04
      1.3011473029171378e-02 4.0824417321705638e-03
      8.5693073248393845e-03 -1.3166820706308948e-02
      -5.5325741935992470e-03 -1.2758730051844342e-02
      -2.3822742127609844e-02 -5.7686227751810679e-03
      8.5590142687323907e-03 -2.1230081505823801e-04
      -1.3970976540626864e-02 -5.1371676626398343e-03
      -4.9430982305222115e-03 -2.0642658971218673e-02
      -1.6570989611423514e-02 4.5208897425526740e-03
      5.6742334825862998e-03 1.6458143227059772e-02
      2.2711849033876987e-02 -2.2834715642438799e-02
      9.5897892223906975e-03 1.9102112810897777e-03
      3.5644979552831801e-03 1.9641574205330838e-02
      -1.4884708047583073e-02 -1.0059623370098809e-02
      1.9522913199742503e-02 8.5152084992882095e-03
      2.5770248782341066e-02 2.0581756341637572e-02
      1.1440026029827509e-02 7.1234955947551285e-03
      1.0374206918528455e-02 -1.0804546910550201e-03
      1.0403168761557776e-02 -1.1883986971051501e-02
      1.3831030463441743e-04 -1.5394047958039099e-02
      8.2161808278034161e-03 -1.5789935991483900e-02
      1.5517745292993882e-02 7.2516097298875172e-04
      9.4823005839728934e-03 -1.1548701172050218e-02
      -2.2338145483080762e-03 -1.3886202285195414e-02
      8.9112767468998398e-03 -4.6209361738253395e-03
      1.2123718005418248e-02 -1.9459474349264982e-02
      1.6147127307129677e-02 -9.5943127472504896e-03
      1.0810216337618054e-02 1.4072695382365895e-03
      -1.7477696863675552e-02 -1.2908238426285417e-02
      -1.3756143401316053e-02 1.4517658016178631e-02
      -1.6824055538867722e-02 -2.4072672523597835e-02
      -4.7869323156915109e-03 -6.3211909157882161e-03
      1.0982208880387393e-02 1.2404258290127795e-02
      1.7343203825167488e-02 -1.6388899678571284e-02
      -1.8004418183080781e-02 -1.1785258941074099e-02
      -2.8750517888161990e-03 -9.8459872814864388e-03
      1.4889279195271013e-02 9.8983570632524259e-03
      1.6683345942884127e-02 -3.4538082309082500e-03
      -1.4286079668052480e-02 -5.9301991436165550e-03
      -1.2678612696498051e-02 9.4171661377938590e-03
      -7.9636995172833337e-03 -2.5798902128563572e-02
      2.6530418212247810e-02 4.1982653646035085e-03
      -5.2831656255087484e-03 1.5738788630219908e-03
      1.5010587660107110e-03 7.0187761962801024e-03
      8.1681170148796920e-03 2.5430117668879322e-02
      2.7481526038353882e-03 -9.3387416852102993e-03
      1.2242373622126946e-02 1.3458618832762784e-02
      -1.5000104386995281e-03 3.5644549646422110e-03
      -3.9241798187564046e-03 -2.7651513795050243e-02
      -7.5352716852572898e-03 -1.0198234818856691e-02
      -7.6471987913204736e-03 -5.6878390879244222e-03
      -3.9129088831790391e-03 -1.0302123603351346e-02
      -1.0260843564031567e-02 2.1747436260519740e-02
      -2.1792411952573094e-02 9.7760745828489766e-03
      -1.5377732864599526e-02 -1.2519925350431001e-02
      6.4043638376687275e-04 8.6656121284172938e-03
      -1.3536010487419946e-02 1.4196450012264895e-02
      -4.0086897972846907e-03 -1.9537916911826440e-02
      -1.3814956372268683e-02 -6.3066854147848068e-04
      1.8730858274027883e-02 -1.4963280809805532e-02
      -1.3638610239894147e-02 -1.4802202314888073e-02
      1.0797058408837233e-02 1.2900355506140255e-02
      1.1958624833963240e-02 -1.7145748077393316e-02
      -1.3407063085623146e-02 1.2488919524842122e-02
      -7.7106497340303853e-04 2.8330265215653211e-03
      -1.6977360659403515e-02 -2.7847499327161582e-03
      -9.9161031309816898e-03 -2.3423906995694750e-02
      -2.7523254904529173e-03 9.0282508338219731e-03
      -4.3758377312788921e-03 6.6466831629609820e-03
      9.0872262053966930e-03 -1.0225069427800240e-02
      -2.0268814044569518e-02 2.0549148662031846e-02
      1.7313613143592553e-02 -1.3064169099309549e-02
      1.8119369940044018e-02 1.9590571553844111e-02
      2.0602969987787420e-02 1.9926161492162312e-02
      -1.9287393501582529e-02 -1.8400282372384542e-03
      -1.1052232131324098e-02 2.0201442817112223e-03
      1.4198771847724486e-03 -2.2746637175590223e-03
      -8.7329829172367354e-04 -1.3761151303963813e-02
      7.0817270268961896e-03 3.4425304698783681e-03
      4.1257702504989167e-03 1.7191936810086780e-02
      5.6015953749643408e-03 7.5042800507685910e-04
      2.0130618245177999e-02 -4.8214210335859769e-04
      -8.2950752856355732e-03 -5.0344064199919318e-03
      6.5447642115736828e-03 -1.5535986039098145e-02
      -1.0323438703462678e-02 7.5096400385394613e-03
      -9.1010480683163270e-03 -8.2665036833685351e-03
      1.4046625886766324e-02 -6.0253032417765060e-03
      -8.7537654857973747e-03 -1.2942653763053594e-02
      1.0031102124576840e-03 -4.3055760971156959e-03
      5.7905679790556559e-03 3.6045249259844428e-03
      -1.1628344804322210e-02 4.9281537362831961e-03
      -1.9814689211990043e-03 -7.8098807076521009e-03
      7.1072277677882356e-03 1.7238777456892760e-02
      -1.3268494404526062e-02 1.9132922081927944e-02
      -4.7690867777164161e-04 -8.2934918070301303e-03
      1.6610002587170849e-02 1.7293620717717409e-02
      8.6469915778819798e-03 -1.2081941129275067e-02
      -2.4035201762932037e-03 7.1471594703847062e-03
      -5.6002232662241353e-03 5.3509698951583352e-03
      -1.5725285103871410e-02 8.7989187198074977e-03
      -1.0468316497026665e-02 -2.4691837559080595e-03
      1.1423290239672330e-02 1.0974712201312202e-02
      1.2296745745488943e-02 1.4439145448642205e-02
      8.8289740235621443e-04 -2.0952909595131127e-02
      1.4077355179168364e-02 5.3950286706594347e-03
      1.8467665356323680e-02 1.5610166206645954e-02
      2.7872700015043866e-03 -5.6051823660659738e-03
      1.4094226834294217e-02 -1.7744191692020978e-02
      -1.9435128533809451e-02 1.6437923006344252e-02
      1.6572553432580961e-02 1.7474751321540440e-02
      1.8218414633229280e-02 -6.0323046230415104e-03
      -1.6900487192447220e-02 -7.6881996826716195e-03
      -1.5461871032885664e-03 1.3096273589471364e-02
      -1.0095589537703918e-02 -1.7973626318106756e-02
      7.8414720355509636e-03 -7.3521621238037205e-03
      -9.7747091798225574e-03 -1.6839053457358557e-02
      -5.9734833138621532e-03 -4.4739428579948278e-03
      -1.6587041331963114e-02 7.8636271757170761e-03
      1.2089234557407746e-02 5.4641959154504436e-03
      -3.3653702194869034e-03 -1.0026512383486379e-02
      -5.0672826180623185e-03 -1.6480689644896358e-02
      -1.8762654115082655e-02 -5.8626844261439335e-03
      -1.7373183720105444e-02 -4.9234237984896391e-04
      -1.8120828577670660e-02 9.3769693459773880e-03
      1.0659402690456869e-02 1.6312357267559963e-02
      -7.1030384315445448e-03 -1.4808625410417097e-02
      1.4757082269484497e-02 -1.3884582093945737e-03
      1.7542549825946125e-02 1.7079900454128515e-02
      6.1431348695939003e-04 -3.6492097637263591e-03
      2.8811968606671837e-03 9.8987147714666174e-03
      2.8058100337992045e-03 1.4958744299141985e-03
      -1.2733779208394917e-02 1.2173851056462622e-02
      -1.9642232370489714e-02 -8.2122355801966579e-04
      1.3597093064757721e-02 -1.4641587397426506e-02
      -1.5680259710558357e-02 1.6312254159341691e-02
      7.6584611778697693e-03 4.7584799019274567e-03
      1.6701903486389159e-02 -9.2287360689555335e-03
      -1.5504673735081086e-02 4.0466461955354534e-03
      3.5065716542660112e-04 -1.9763283136653785e-02
      1.4413004860575044e-02 4.7210948058263131e-03
      8.0792289406090758e-03 3.0295601262828167e-04
      -1.4764269398606767e-02 -9.7090684552779828e-04
      2.0385939050588477e-02 4.7090163710604253e-03
      -1.5621802018501375e-02 -3.1820636053509323e-03
      1.6046422024911064e-02 -1.0613877519462122e-02
      -2.6672611742739420e-04 -1.0670656886565969e-02
      -7.7884592970717823e-03 5.9020031450287280e-03
      -1.0495173114235515e-02 1.1681800676580817e-02
      -1.9997713709820526e-02 9.2589044818510435e-03
      4.1677881843507816e-03 8.6311034857053659e-03
      -3.9506781200186018e-03 -8.2634566711119704e-03
      -8.1134585890030395e-03 -1.5641469941595529e-02
      -9.3141005494353120e-03 -2.0100289315793295e-02
      1.8898843103302542e-02 -1.2038284739703487e-02
      -4.9154695813315129e-03 -1.3236405537943025e-02
      -1.3713243098914535e-02 -3.9844213439673131e-03
      1.2705418248882556e-02 -8.5534403858728621e-03
      -9.3604818345160070e-03 1.4141104631478532e-02
      1.0288413463025033e-02 2.0673800151989699e-03
      9.0046568013488135e-03 -1.7767949302831206e-02
      -7.4424860101332503e-04 -3.6780000573413798e-03
      6.6123660244565129e-03 -2.0981714466707643e-02
