<?xml version="1.0"?>
<opencv_storage>
<opencv_ml_ann_mlp>
  <format>3</format>
  <layer_sizes>
    14 100 100 2</layer_sizes>
  <activation_function>SIGMOID_SYM</activation_function>
  <f_param1>6.6666666666666663e-01</f_param1>
  <f_param2>1.7159000000000000e+00</f_param2>
  <min_val>-9.4999999999999996e-01</min_val>
  <max_val>9.4999999999999996e-01</max_val>
  <min_val1>-9.7999999999999998e-01</min_val1>
  <max_val1>9.7999999999999998e-01</max_val1>
  <training_params>
    <train_method>BACKPROP</train_method>
    <dw_scale>1.0000000000000000e-03</dw_scale>
    <moment_scale>0.</moment_scale>
    <term_criteria>
      <iterations>15</iterations></term_criteria></training_params>
  <input_scale>
    5.3386901834437666e+00 -2.3587665603219139e+00
    9.6790639025520218e+00 -2.1108629368979912e+00
    1.3769609709117526e+01 -2.2774805023439972e+00
    1.9232989761087541e+01 -2.1323595156743451e+00
    2.3322393671938787e+01 -2.0140865444725162e+00
    3.0299528539969881e+01 -1.9991306804110245e+00
    3.7384714832355812e+01 -1.9868519039955597e+00
    4.4020095828756396e+01 -1.8453698482436918e+00
    5.3975951067660638e+01 -1.8946789124945558e+00
    6.4570191563471852e+01 -1.8519878813732307e+00
    7.9240160946917200e+01 -2.0004197084902100e+00
    8.7430497685643061e+01 -1.8890676866038119e+00
    9.7331984254142810e+01 -1.8558106710535247e+00
    1.0244161132897356e+02 -1.8123387273483260e+00</input_scale>
  <output_scale>
    5.2631578947368418e-01 4.9999999999999994e-01 5.2631578947368418e-01
    4.9999999999999994e-01</output_scale>
  <inv_output_scale>
    1.8999999999999999e+00 -9.4999999999999996e-01
    1.8999999999999999e+00 -9.4999999999999996e-01</inv_output_scale>
  <weights>
    <_>
      -1.2812612667741377e-01 -8.2777259056520350e-02
      -1.2390249223161119e-01 1.3441509793032605e-01
      7.4176360683546896e-02 1.1281182650743253e-02
      -7.7727802777589103e-02 -1.2958274066726613e-01
      4.8650882461845270e-02 1.4874777533891340e-01
      9.4309409967925473e-02 -4.2587982607746509e-02
      1.2805748693309996e-01 9.5870403427548309e-02
      -8.6433730365340661e-02 1.3181608685721097e-01
      -1.0594851905047833e-01 -3.5535028802104560e-02
      -1.6327105399135764e-02 1.6028743354914301e-02
      -1.8842524554140212e-02 1.3669009171980712e-01
      -6.9205187379255240e-02 9.9193360107834236e-03
      9.5707884747104455e-02 -3.9327742311515236e-02
      1.0864807153536481e-01 4.8398802404739927e-02
      -1.1511622166862244e-01 6.3132347489291224e-02
      1.1086427848307778e-01 -3.7340441060491232e-02
      -8.5438878448618555e-02 -4.0681228512647785e-02
      5.9903952988584933e-02 -7.6270759443601857e-02
      -1.4878578715020038e-01 3.2846765322886745e-02
      -8.5597285411272983e-02 1.0786039137876831e-01
      -3.3634397803678481e-02 -1.5989364606641301e-01
      1.1252442315365123e-01 -1.1032640968476196e-01
      4.8458762727218815e-02 7.3520612389697690e-02
      8.5867328459039147e-02 -2.1549202801497948e-02
      5.0705799370504803e-02 1.7345039057066743e-02
      -3.0800129953257472e-02 9.0992429649380507e-02
      -7.3887500288217667e-02 1.2826422768521312e-01
      1.1071718862014840e-01 -1.3552169904924688e-01
      -1.4935955983553104e-01 1.0854698794485641e-01
      1.3247549143924786e-01 -8.4941620639523222e-02
      -8.0989808379818770e-02 -1.6177706658003319e-01
      6.5037598902938115e-02 1.2640854921038563e-01
      9.9219606679560909e-02 -3.8609988867730418e-03
      -3.6611906883822085e-02 1.3321336842213347e-01
      -6.4847514655765451e-02 -7.1971447699310520e-03
      -8.8592217716948807e-02 -1.1385919472878624e-01
      -1.5960362718308921e-01 6.5853074945599555e-02
      8.2030469544399423e-03 1.3855591679993895e-01
      -1.0642841635318603e-01 8.2403690045269512e-02
      5.5533331439518871e-02 4.0372450130083726e-02
      7.4937938677619692e-02 -8.4217732359442420e-03
      -1.2280354867584792e-01 7.3953160438242169e-02
      1.0008026279599348e-01 -4.7447426152864083e-02
      -1.2083711166236422e-01 -2.6626544160588642e-02
      6.9489999241361552e-02 -3.9518855183554094e-02
      1.0769350270772389e-01 -1.2472461858063995e-01
      4.3785228394871770e-02 1.1563245485747796e-01
      9.7762436270635147e-02 -1.3188595982974344e-01
      3.4246066425244831e-02 4.5672041524260396e-02
      5.7768100442529925e-02 1.2204916707400135e-01
      3.7039930591319575e-02 -6.7359072844609777e-02
      6.8501465899439062e-02 -2.2819654967305401e-02
      -7.6507984050255343e-02 6.0812151931094467e-02
      5.7286926018812551e-02 -2.5741826219517070e-02
      -1.9983616749852183e-02 4.2610014221654391e-02
      9.9613992049222097e-02 6.8916968686349944e-02
      -3.5845332931046164e-02 7.5835983613391370e-03
      6.6833467064654935e-03 -5.6522865844271276e-02
      -1.0290010401444305e-01 9.0122999301535445e-02
      1.0415396889599031e-01 1.2415466699592306e-02
      -4.9997686591793065e-03 8.6598863352180436e-02
      -1.1649886712556975e-01 1.1765973373723843e-01
      1.7515435377853376e-02 -9.6958837421581602e-03
      -5.0267394464703803e-02 -1.1013135573921527e-01
      -1.0071202463575105e-01 1.1856178695543075e-01
      -1.2178127781217712e-01 6.2720763001715779e-02
      -1.0198328656520968e-01 3.2327595253783890e-02
      5.2907742645208047e-02 -1.2368736968687664e-01
      1.4392108084807205e-03 2.2271198298500067e-02
      1.2321135064891620e-01 6.7643145048269446e-02
      -8.2621249801262633e-02 3.1122652319881851e-02
      1.7117627233246467e-02 9.0735790518105597e-02
      5.2962619148032228e-02 7.2335069014299272e-02
      -7.2871073177985565e-02 2.3531495821352180e-02
      3.6623646266730876e-02 1.2643586914546832e-02
      6.9036862278995498e-02 -1.5166426303802955e-02
      -1.0021161726948216e-01 -3.3881826167001831e-03
      2.2382881736929081e-02 8.9974795637087143e-02
      -7.9794072164142471e-02 5.4380374411456364e-02
      -1.0489031576841841e-01 1.1598472588417917e-01
      2.6220428070582551e-02 1.3628177720430543e-01
      -1.0145640456307645e-01 -6.4050897225506900e-02
      9.7571985464190089e-02 -1.1067935448400268e-01
      -9.9009076145078687e-02 3.7700581660055008e-03
      -8.8766010521645983e-02 -9.0177163949087591e-02
      5.5413345761209862e-02 1.1339192443136917e-01
      3.4960487702845010e-02 -4.6547614047890158e-02
      7.5613192665796303e-02 7.9185468865669989e-02
      1.3574664524152466e-01 6.7906036320364876e-02
      -1.5594702832449359e-01 1.0933418777752500e-01
      1.4049207910224212e-01 2.8635573792799719e-02
      8.0294651172661088e-02 1.9926532997933982e-02
      -2.0708202141908348e-02 -2.9274703017506561e-02
      7.4789231917923416e-02 5.9897417657371339e-02
      1.1349690319814926e-01 -5.9830716002381309e-02
      -1.7927749552504786e-03 -3.1063930782633795e-02
      -6.6583669037719964e-02 -1.1875422619431125e-01
      5.8435488318911974e-02 3.3260428089918921e-02
      -8.4624432328430796e-02 8.8485039542639629e-02
      5.3620388355602809e-02 -7.9169116385480937e-02
      -5.8107103705792348e-02 -3.7282394021247180e-03
      -2.2949545529042503e-02 -1.0875813724318460e-01
      -5.2987000196260868e-02 -6.8035908796494751e-02
      -9.9599533902982484e-02 2.8094975000046984e-02
      1.0166636689689540e-01 8.9196399359102993e-02
      -2.2016003941709092e-02 1.2337872224268286e-01
      1.7838539332022335e-03 1.0249981659673708e-01
      1.0909529049842424e-01 -1.4680741204270759e-01
      -4.1807475618569193e-02 2.4878641739619869e-02
      1.7210423456861527e-02 -1.2051289907320897e-01
      5.8806979581227464e-02 -1.2228676813230187e-01
      -1.4935324062444385e-02 -8.8548087045366958e-02
      -8.1696708911945137e-02 6.3481763264972594e-03
      -1.0885158142451808e-01 2.6617487663933608e-02
      1.3654447164988612e-01 -8.6439818928130172e-02
      8.7123304222487055e-02 8.4455654909032108e-03
      1.9293486944633776e-02 -1.7347668380598036e-02
      5.1136586698353116e-02 -4.3039632991651734e-02
      -3.8151122940908833e-02 1.4250744364025769e-01
      -5.2788303275161999e-03 2.7021290578052977e-02
      7.4696136011698500e-02 -2.0255210698947473e-03
      5.7968747557129101e-02 -1.0892486964958877e-01
      8.8977838402227671e-02 8.4747506747676851e-02
      -8.1244071586778266e-02 7.5141143558918419e-02
      2.1412363660379859e-02 1.4742204021310168e-01
      1.4299105711052223e-01 -1.3497234236075528e-01
      -7.8847091493078364e-02 -1.1906567275655573e-01
      -7.4255319506135203e-02 -5.1710581191398326e-02
      -3.1467221576121598e-02 -1.0870231824301553e-01
      -6.4383322468704304e-02 8.4011694535868542e-02
      8.5744296957044899e-02 4.5890482513771605e-02
      -7.4970511973911816e-02 -8.5581699196473085e-02
      -8.1028641267201856e-02 1.5143192005860703e-01
      -7.2220201494436170e-02 -7.6015303591335043e-02
      -5.3087600505382256e-02 3.9724378893355020e-02
      1.5087897647091256e-01 -1.1304200316137550e-01
      5.6036453203417526e-02 -3.7174575360942763e-02
      6.8494061785727867e-02 1.3904662346530533e-01
      1.2748196891052430e-01 5.6033404381598172e-02
      1.3558447729183166e-02 -1.1008313445834507e-01
      1.1906837731123460e-01 -1.2244397130616206e-02
      5.4828341597674801e-02 -8.0255789688935708e-02
      -5.1033537867828022e-02 -5.2023409809364589e-02
      -1.4673731675509094e-02 -9.5447355687759514e-02
      -5.4432126453100624e-02 -1.8868655951092200e-02
      -1.0719199233913738e-01 3.8033101723084814e-02
      -4.9351107658326294e-02 8.9223128456684786e-02
      -1.4400281393002506e-02 -6.5382485031524981e-02
      4.4269943935024349e-02 5.7207817541492657e-02
      -1.3893241386036737e-01 2.2421709190170270e-02
      -1.0665972890724697e-01 -5.3704497485716006e-02
      5.4791011806693150e-02 5.3638077692759911e-02
      1.2745601008132691e-02 6.3502113826358286e-02
      -3.5342092407985193e-02 1.3888545116275824e-02
      1.6243178656823481e-01 9.9900459815775375e-02
      1.0334053325783213e-01 -8.0024118229651536e-03
      7.5447808507935138e-03 8.5503515090615489e-02
      3.6557904885888789e-03 2.9966485127523926e-02
      -8.7698922125609882e-02 -3.1916399815882936e-02
      -1.4249926385354630e-01 9.4232037814348385e-02
      1.2515568858169696e-01 9.9063412696802841e-02
      5.3401607492857953e-02 4.9023560941248157e-02
      -8.0345870474877776e-02 -1.0347017187504762e-01
      4.5216854988528468e-02 -5.3227297196718690e-02
      3.2083310796492293e-02 3.0417560780519548e-02
      -8.6620403928396126e-03 -1.2217641244804059e-01
      -7.9347885315194822e-02 1.1535242770358714e-01
      -1.4570705942683732e-01 3.2389491739197876e-02
      -1.5749792989597577e-01 -5.3804293064346274e-02
      1.3688390912218376e-01 1.3832483271953794e-01
      7.7271594108123218e-02 6.5738550396725492e-02
      -2.4033492598694133e-03 9.0781871105382286e-02
      1.3748850551699240e-01 8.8799951733793001e-02
      7.4857066422370069e-02 2.4315231940210975e-02
      -5.3452850328100911e-02 -8.0063388478271130e-02
      -2.1959100641280059e-02 1.1261245177874712e-01
      -4.6504054374387802e-02 4.4617400113680372e-03
      -4.7736832802137877e-02 -9.3844843168990527e-02
      -4.4954880333076500e-02 -4.8809181891026031e-02
      2.1372359664217976e-02 -7.6588750555924207e-02
      1.5118430379487294e-01 7.7953806215598748e-02
      -1.0464917557914601e-01 9.5658988919956597e-02
      6.4379099116467817e-02 6.6553058825123385e-02
      -5.3079447356979510e-02 1.4729515455977857e-01
      -3.2119116675672944e-02 8.8956595049668019e-02
      -1.1864309498821002e-01 -9.8619389506763355e-02
      1.0456178947099080e-01 -1.0601574674673757e-01
      1.2220304003789499e-01 -5.2818894109588989e-02
      -8.9122242557875028e-02 1.0594816748605361e-01
      -3.8588913191374148e-02 1.1186030225213420e-01
      -5.5864130682389011e-02 -3.8529827520953047e-02
      -6.8369898026651305e-02 7.5688056690619065e-02
      -5.0273210967587079e-02 1.9773950613203303e-01
      -3.1682565630486652e-02 -3.8492103576258596e-02
      -4.6442480384875896e-02 1.3949398177043287e-01
      -5.9657968468418865e-02 -6.3847138512161889e-03
      2.8959667692984963e-02 -1.0710569390290484e-01
      8.7075910837585688e-02 -2.5154059808543228e-02
      -6.2091395624532239e-02 3.7063858346601385e-02
      1.0569451818175857e-02 9.2430177583460740e-02
      -8.5887064810860198e-02 -3.9133646806453051e-02
      3.0402951196136816e-02 7.9034566948500362e-02
      -5.7619740574205665e-02 3.0986201277543646e-02
      -5.5252985926143514e-02 1.1809466703679339e-01
      -1.4615117439315858e-01 -8.2745006263016424e-02
      1.0654634709360011e-01 -4.3920645571823007e-02
      -5.3032764931244890e-02 1.3004620251839435e-01
      -9.2606593667384635e-02 1.2405714471601320e-02
      -5.3373155250138089e-02 9.2110566124462542e-02
      6.2927098971174281e-02 3.1887606162606934e-02
      -9.4748108540091386e-02 3.7289631288005401e-02
      7.8420398996113624e-02 -1.0450756534485940e-01
      8.7602067561768929e-02 -1.0784819337298385e-01
      -9.2352777761495808e-02 -5.9662065382321515e-02
      -2.1744835766074843e-02 -2.5982197575066368e-02
      -5.4225637183182476e-02 -7.5313234332467380e-02
      -1.1218773101272501e-01 -8.8911140623919582e-02
      -8.3956723340836176e-02 -3.1196515406984513e-02
      2.2843985651837831e-02 -1.4554711125613812e-01
      5.4205578672719981e-02 -1.1667671525793726e-01
      2.4728924282235554e-02 7.5084173422338876e-02
      1.2251364110304806e-01 4.1863336781352178e-02
      -1.1287700584000147e-01 -1.5130996669052493e-03
      -1.0980556483291042e-01 -6.5079576825685090e-02
      3.7472384676860100e-02 1.5024309387709622e-01
      1.4128288897266048e-01 8.6872452841264491e-02
      9.9322129491903097e-02 9.7132543361720530e-02
      -5.1242878567190724e-03 8.3392594603625733e-02
      9.6444906523015073e-02 -1.3558266234690600e-01
      2.5086601593448258e-03 -6.6792018963311703e-02
      8.2846071876602465e-02 -5.9709635300788058e-02
      -6.6926617228392812e-02 -7.6027801222947368e-03
      9.4994104764873202e-02 -3.5070879949552207e-02
      4.3049362099227551e-02 -5.8343066049844558e-02
      1.2731791411890314e-01 -1.2064127731410718e-01
      1.1217225932570137e-01 1.0812437253102851e-02
      5.4336034497621845e-02 6.6191681848273676e-02
      -1.6748898327461301e-01 -5.7685918929515058e-02
      1.2973405079886233e-02 -6.8680138089273146e-02
      1.4308461915413167e-02 -1.1080699764329613e-01
      1.2418323654004315e-01 -2.4406590415397271e-02
      6.6075733507935747e-02 1.2210975642355058e-04
      -1.1084905317062928e-01 -2.3660264646603427e-02
      -6.6060146325919264e-02 -6.5344464829813903e-02
      -1.0321276956638545e-01 1.1912949901106504e-01
      -9.8514246248027654e-02 4.7717925166378121e-02
      7.9157998033800650e-02 -8.8563577711460187e-02
      9.7843643128903895e-02 -1.2803077724997342e-01
      8.5030460268107622e-02 3.8549079986240124e-02
      1.2649488033659286e-02 -1.2178898697246998e-01
      -7.6637772209025956e-02 6.9485354889544146e-02
      -9.9586085968211682e-02 -5.3110187035259014e-02
      -8.0709943486775307e-02 -1.4208543405256055e-01
      -6.9579289130333219e-02 1.2350677510562472e-01
      -6.0939410727711356e-02 6.9022752021242681e-02
      -4.8372332958222042e-03 -6.5744380062290816e-03
      9.2537059868715521e-02 8.9967448839214689e-02
      3.6121020148772692e-02 -1.4008787229083811e-01
      7.1099218827493330e-02 1.2680461578777005e-01
      -5.8020856214360615e-02 -2.2705124786974690e-02
      -6.7006066238149073e-02 3.6388263511050747e-02
      1.3342444269795924e-02 -9.7892813727706071e-02
      -1.5173650163704108e-01 9.3532857533968630e-02
      4.3702856522843898e-02 7.8178987190398411e-02
      -5.1701018609584336e-02 -1.0332295011443955e-01
      6.3751448929544152e-02 -1.2194826183823465e-01
      2.8041143204191772e-02 -8.7975833908120749e-02
      1.1515338097406298e-01 -1.1021214287174269e-01
      -1.4393949192473476e-02 -5.3247456302774776e-02
      1.3232936279269641e-01 9.7442623948657311e-02
      4.5146368317344233e-02 -3.6329292675680558e-03
      6.1151940298652882e-02 9.0167268219175561e-02
      -7.0901586996080374e-02 -3.2232124288121292e-02
      4.7306057955052064e-02 1.0958766905541797e-01
      6.9057877778808049e-02 3.7403890554101933e-02
      -7.6300442032118290e-02 -3.2065066240258358e-02
      1.1982392980743968e-01 3.6335687359341430e-02
      -6.4335387780309367e-02 2.3694481460710154e-02
      -6.0607291517302604e-02 4.6432748546029502e-03
      -8.5843714047975014e-02 -3.3170671971075989e-02
      4.4919625620792852e-02 -1.2340035581125391e-01
      1.8732356872054493e-02 1.1030557541218224e-01
      -1.0140689991294662e-01 -2.0789176460674692e-02
      -1.2849812436030908e-01 1.0615169588836072e-01
      -4.9565171653179439e-02 -7.5161271066638159e-03
      6.5057915049977141e-02 -2.9641365160490287e-02
      3.1465607839921313e-02 9.6277862951133011e-02
      7.9946243921718702e-02 1.2009661195121331e-01
      -7.5974840528607243e-02 -1.0323383509145660e-01
      1.3749313628642904e-01 9.0729331648682451e-02
      1.8248121110279878e-02 -5.3311458271763604e-02
      -1.9964857753776131e-02 1.2162900422950966e-01
      1.0148890002665366e-01 1.2937813843799767e-01
      -1.3840228612864069e-01 7.3620638228890770e-02
      -1.6093283420646254e-02 8.2376140081481565e-03
      -4.9051233804751897e-02 8.3041575965159903e-02
      1.4837506565845979e-01 -1.0000604406923513e-01
      -2.1554736798785792e-02 -5.5419216445681221e-02
      8.5324494834179559e-02 -1.0152237222281003e-01
      2.9226465138807185e-02 5.5777735044143600e-02
      8.9206209844066894e-02 -7.2265464327492035e-02
      -4.3913784521803848e-02 7.2421568669172126e-02
      1.0025109512835953e-01 -1.1126210783445045e-01
      -6.8409927398558557e-02 1.0784338101210340e-01
      -1.8975639316472632e-02 3.7102171092637901e-02
      -6.0306257742416068e-02 9.4963847409713587e-02
      -1.2226085112121608e-01 -6.3887998390001699e-02
      -9.2663526701882007e-02 9.3245572054038106e-02
      -3.0507492613868143e-03 9.2592983569915285e-02
      1.0130410558310766e-01 1.0451738125113751e-01
      8.3729360020714211e-02 1.8526543294008695e-02
      1.0866390299884757e-01 -1.4588291625835633e-02
      -3.3445608348630959e-02 2.9352330417287562e-02
      -7.8084886809926313e-02 3.8138656364039278e-02
      7.0173284635258695e-02 -1.3866254871667591e-01
      9.3576794898879323e-02 4.1794465950889023e-02
      -6.3274292162783047e-02 -1.1417667291147973e-01
      -8.0034535269245283e-02 2.5368601439289009e-02
      -5.0365407233088105e-02 -6.3439799900293454e-03
      -1.1372060793485491e-02 -8.5509262707219782e-03
      3.2682037495431533e-02 -1.3171387484399699e-01
      7.1491903179131330e-02 5.7456262951755502e-02
      -5.6816513330551016e-02 1.2385410034428859e-01
      5.2959558259798416e-02 9.2842398723974220e-02
      -8.8882805750558888e-02 4.9720443973654577e-02
      -1.0879937785565894e-01 1.3920603445722718e-01
      -9.6741646255632224e-02 -1.0711083507562097e-01
      8.6776020183250327e-02 3.1010537907085422e-02
      -2.4243630832820339e-02 9.1051157104953262e-02
      1.1195543584241005e-01 -1.0600429439803488e-01
      -3.5045234356472769e-02 1.1288001731066413e-01
      1.5544892670045520e-02 -1.1533336818306743e-02
      6.0166040062881038e-02 1.3319209148495717e-01
      -7.3284023917403296e-02 1.0195502419978292e-01
      4.5921561460369797e-02 1.1070047723177059e-01
      1.0555645826143076e-01 -6.1313504181228454e-02
      -7.6617245074289367e-02 3.1212105219947339e-02
      -4.9353719138787507e-02 1.0868886936218132e-01
      -1.0867569343417893e-01 -7.1274861394781411e-02
      1.2460426705500165e-01 -3.4828187543461543e-02
      2.0635547473860521e-02 -7.5853130441296171e-02
      -4.6335904606818017e-02 -9.2937580003537218e-02
      -1.3859799735956665e-01 -9.0503634651344561e-02
      -4.4723173869291394e-02 1.3976466576099108e-03
      8.0095468960909535e-02 -4.8562437731188353e-02
      -2.1983751735667585e-02 -1.2407126195451190e-01
      2.6900980278965921e-02 2.0580410986000417e-02
      9.4853384978331359e-02 7.0035918338520881e-03
      6.9956151501344155e-02 -1.2138332926512904e-01
      -1.2146269922474118e-01 3.8324466436621907e-02
      -6.9599344009850003e-02 -3.3925474227691779e-02
      9.8480048084786068e-02 -2.3489178884885289e-02
      -7.9030420816694882e-02 -4.7112652406502607e-02
      7.7193270727177452e-02 -5.2632127105430276e-02
      -2.3049299030905190e-02 -3.7051626209692406e-02
      -6.0815566094484116e-02 5.3109088161395921e-03
      7.0827859975657131e-02 1.0735258666806298e-01
      -1.2081772324036016e-01 3.4249844598362951e-02
      3.2707112875519470e-03 -3.1311818528716145e-02
      1.2172981323648650e-01 4.5106034559864110e-02
      9.1955495851157337e-02 6.0339595085379845e-02
      7.1005960879271121e-02 8.9734771036016445e-02
      2.5382655375104712e-02 1.4961659158157703e-01
      1.0362675681502675e-01 1.5529342559111434e-01
      -7.1615221942719007e-02 4.4233354774051790e-02
      1.0343657342937993e-02 1.4208385337978456e-02
      -6.8366836124216374e-02 7.5930050820089421e-03
      3.5685481086038306e-02 1.3021384543435807e-01
      -1.4120745469048707e-01 1.4715763931840119e-02
      -6.3716444154071933e-02 2.8912561905314740e-02
      -8.5695954316625869e-03 -8.3432359469643738e-02
      5.4542352300467938e-02 -4.9105427895107162e-02
      9.8657775806894499e-02 7.5523980267197532e-02
      7.4722278536879266e-02 -6.7313458213426630e-02
      -1.0245595444546315e-01 -1.6109936239403308e-02
      -3.5419469595829929e-02 -3.2658102199541329e-02
      3.7019301100832832e-03 1.0029232366465814e-01
      8.3599099563558169e-02 -8.3070776916117972e-02
      5.5435531065725560e-02 1.4599786259557013e-01
      -5.6585962225506110e-02 7.1521809736866657e-02
      1.2137739935879448e-02 -6.0957210038608531e-02
      -1.1672896330913535e-01 -1.0219752045819076e-01
      4.2149735743251496e-02 9.7097344192711276e-03
      -8.0727096970251752e-02 -6.0452724316773870e-02
      1.1227088941670119e-01 4.9588587224645500e-02
      8.3593308456604884e-02 1.0420135060040142e-01
      4.8191007803241363e-02 -1.0024474661090073e-01
      -5.0192642668693603e-02 8.9226736654445388e-02
      -9.4042810115121570e-02 6.7256116558425519e-02
      -1.2676208419339796e-01 -9.4474968604594325e-02
      8.7496510110514680e-02 3.3740303590031939e-02
      5.7893328960988186e-02 -4.5836525449266557e-02
      5.4619381404671284e-02 -7.2918329069513066e-02
      6.2424658797300178e-02 1.0974967134876340e-01
      -9.4142154385856838e-02 -5.3426530170046949e-02
      1.1063112012485539e-01 1.5252803496880335e-01
      -1.9816098211037723e-03 -3.9334012208017168e-02
      -1.3149426383279381e-01 -1.8565355390146372e-02
      -6.6680393864177512e-02 -2.2078229014123811e-02
      1.1719192979506279e-01 -2.7627081172375903e-02
      -5.9364349159857013e-02 -9.1399599072228901e-02
      5.6829934038569688e-02 5.1081595708801261e-02
      5.3052680835441769e-02 -5.6042502274844051e-02
      5.4239902580731511e-02 9.7782969253015911e-02
      8.8398004916655629e-02 4.4697898901928358e-02
      8.5207744789164472e-02 -1.7232681919468454e-01
      -1.0121915237860116e-01 -5.6331544986270221e-03
      8.5660770034047401e-02 -6.0580409568702059e-02
      1.3574611302909670e-01 3.1904586015323640e-04
      -3.2901330771942898e-02 -3.5630635918565308e-02
      -1.6556685941491234e-02 2.1198722544586032e-02
      8.7166775977513128e-02 8.0003730070735676e-02
      4.7765212453482191e-02 -1.5096266602078751e-01
      -1.5508419408316947e-02 4.3867843766049082e-03
      -9.9743757010643933e-02 -3.8554741762076974e-02
      -8.9121013207836081e-02 -6.6295162152970114e-02
      -1.0029356522632649e-01 -1.0192346952863250e-01
      -2.0889423711155135e-02 7.8494316122832378e-02
      -9.1577289637527023e-02 1.3318321612227187e-02
      1.5634076637008627e-02 -8.0627750346722787e-02
      -8.5246390868417274e-02 -6.4677264417906097e-02
      5.4344011004706823e-02 -9.3285625878632455e-02
      -5.8169873197809925e-02 5.5985616799041071e-02
      1.0297493710804191e-01 -1.5881893087294779e-01
      6.8109507792875473e-03 -5.4689831943732434e-02
      -6.7560038537479827e-02 7.4629608040772885e-02
      -1.4521206710910356e-01 -1.6279699846713735e-02
      -1.1371357536951524e-01 -1.1185206241920259e-01
      1.5535248228638893e-01 4.7523138398374028e-02
      -1.0701143098946386e-01 -4.8566988869365467e-02
      1.6318492306744392e-01 4.3475793865248510e-02
      3.4839716663135817e-02 6.5963606513767661e-02
      -2.6853760815305074e-02 4.6234767840628334e-02
      -9.7888642862745512e-02 -2.1631461798845685e-02
      9.4808692154565777e-02 6.0956439333177501e-02
      1.0810134039830560e-01 -1.3130018177618450e-02
      4.1300123015528913e-02 3.5649771612425232e-02
      7.5422744329810151e-02 4.1370239933425521e-02
      -4.0379799985486233e-04 -9.5529183005972490e-02
      -1.4732810015531161e-01 4.8568424661291923e-02
      -1.2746608505552577e-02 -1.5504815951085993e-01
      7.3773790364743685e-02 -1.3447671782912499e-01
      7.2457281870778933e-02 -4.5785674492436021e-02
      2.3030767322145769e-02 -6.7625936704941034e-02
      8.4613125078934169e-03 9.2289816264032876e-02
      6.2595154519212451e-02 -7.6016110285404892e-02
      -1.3859263536065580e-01 -3.1573064500273222e-03
      -2.2258720726963437e-02 1.9638008739165790e-02
      3.7369571220312044e-02 1.1614810712724138e-01
      1.0290160178188024e-01 6.9390038085437755e-02
      8.3559078976406270e-02 7.9935730638327596e-02
      9.1655653693590244e-02 -1.3733222900085904e-01
      -9.2248077291840050e-02 -1.0109356841398935e-01
      4.5827547815159846e-02 4.4176102597514248e-02
      6.3922853645321506e-02 9.9555538956940748e-02
      -5.0587239197305581e-02 -5.5701671543373799e-02
      1.2038969051753397e-01 3.6211190218902428e-02
      7.7542619135966828e-02 1.0627290236594712e-01
      1.2625231806025863e-01 -8.9931994370387444e-02
      6.1181550849035114e-03 -7.0380587812305717e-02
      7.7338059354710845e-02 -1.3986595089821269e-01
      -1.2628622550539567e-01 1.0995089363664086e-01
      -1.1458553601330633e-01 -1.3230471929245341e-01
      7.3641059556302096e-02 -1.1163128357845464e-01
      4.9792045274738204e-02 7.7757321843601891e-03
      -1.1639673832638776e-01 -1.1487822170014139e-01
      -3.2821480396586812e-02 -8.9296076845145067e-02
      -4.9340873845969357e-02 6.2817151901610135e-02
      -6.5055027980755839e-02 1.1118835330099310e-01
      1.2864835524823220e-01 1.0617291219600634e-01
      1.1688057326715003e-01 -1.3372117026898647e-01
      8.5436529017203250e-02 9.3276675210922408e-02
      -1.3540780754509846e-01 2.7921753820366820e-02
      -1.4658918422204498e-01 -9.2592318487459427e-02
      -1.0925758589955360e-01 5.5526804393722505e-02
      -1.3972729951739246e-01 -1.2816318256698431e-01
      4.6201355071822763e-03 6.2245483053972192e-02
      -1.1787583230619739e-01 -7.8904918060837978e-02
      -5.4379177837827100e-02 -3.0122287750399667e-02
      5.9874522837960860e-02 -7.4939673820040908e-02
      -3.0218185607581126e-02 2.4513742120937747e-02
      4.1173871358827066e-02 6.5776742151045481e-02
      9.7899958798723374e-02 1.0265406376678328e-01
      7.9789409748457052e-02 1.4151857500439111e-01
      -6.4579440594552479e-02 -9.2593383869357518e-02
      2.2114578247297394e-02 1.2785771759940315e-01
      2.3055005107689194e-02 1.1688073206975977e-01
      -6.0960712209213425e-02 1.1836416818052618e-02
      2.6820128295203735e-02 3.3453888989713285e-02
      -4.2294079098156669e-02 9.6515926758144646e-02
      -1.3313870880064038e-01 -1.2788284915806777e-01
      8.3799249674474149e-02 -9.0830723856639109e-02
      9.4961568974742963e-02 8.8811075263651257e-02
      8.2370490121916315e-02 -1.0454796824136839e-01
      -6.7700605462552341e-02 2.1290342537638746e-02
      -7.7259245866127743e-02 -5.1001060978758457e-02
      -1.7005044389830408e-02 -2.2749682046268357e-02
      7.3478219023716831e-02 1.3756415620510801e-01
      8.8618065373440968e-02 1.1016302425332607e-01
      -6.6682686769458946e-02 2.4727701425763238e-02
      8.1439220206451571e-02 -1.1123546758780976e-01
      -1.3234745925147928e-01 -3.6305230406405223e-02
      -8.7147426455724958e-02 -7.7908142197161190e-02
      8.3497237910166305e-02 -2.8406044021209005e-02
      4.4787357272843109e-02 -8.6419128758577671e-02
      -7.1178755522766313e-02 1.3518530594458986e-01
      9.0369076688139136e-02 -1.2612705869112131e-01
      6.1320843519108520e-02 -9.1446368538526973e-02
      -1.1905793655105842e-03 -1.0841030292396814e-01
      -1.2209803017484905e-01 1.3778826395271190e-01
      1.1861124153249893e-01 -1.3641432717846583e-01
      7.0942946751849619e-03 9.1870471507365145e-02
      1.5191731715217236e-02 -1.6834610165817242e-02
      6.5154500162394727e-02 -7.2871396290046894e-02
      -1.2194478658613162e-02 1.0834910191554972e-01
      -2.6510789296414271e-02 9.5957220141136335e-02
      3.1373754350037947e-02 4.3073534258845997e-02
      -1.1016669258032882e-01 -4.4064053377041855e-02
      1.7988744410691207e-01 1.0599591558172432e-01
      7.8224891816854034e-02 -6.7061731967793081e-02
      -1.0676977416832986e-01 -5.3974286995498798e-02
      -1.1176697446067960e-01 7.5527119117528352e-02
      -3.9120802609606146e-02 1.1225041439946874e-01
      -6.7323207714029595e-02 -1.4726104436226770e-01
      1.9776002606403922e-01 1.4050599223231744e-01
      -5.2163722666776748e-02 -2.5977989017723673e-02
      -5.2789577317766930e-03 -6.6436837281575581e-02
      -9.8199634586778953e-02 -4.0763930669751557e-02
      7.4256979443673543e-02 -1.0269311779388407e-01
      8.3685135258814297e-02 -6.7299786713794843e-02
      -4.8905395050785665e-02 9.7629005717584497e-02
      2.6890586312378402e-02 3.0051292079979856e-02
      5.7240199204330676e-02 -1.4661277931077371e-01
      9.0840179132370302e-02 -3.3187795870213657e-02
      -1.0331719452642943e-01 6.1531959407936432e-02
      3.2272399256533066e-02 -1.1635886233551725e-01
      1.4240999992370290e-01 3.0149034026571962e-02
      -8.5958956080657026e-02 -3.6267754508205109e-02
      -1.8597638582668261e-03 -3.9099757534211473e-02
      -3.0593260916750614e-03 -8.8957266372502466e-02
      2.2347829704278427e-02 1.2059549134775639e-01
      1.5354698025619534e-01 -1.1136794777467147e-01
      7.8550612953849311e-02 -1.3987937516014492e-02
      -2.2019777076098472e-02 -1.1934950214799214e-01
      -4.1475791315976548e-02 -7.7750590238739314e-02
      9.5991166699866265e-02 -1.4021682794630810e-01
      -1.2210186029914565e-01 9.2793432109756338e-02
      9.6257341878754205e-02 2.8628967529414687e-02
      -2.6824814233175107e-02 7.8223008096112476e-02
      4.5527914268713388e-02 -9.0600938706876105e-02
      1.5380181963340425e-02 -1.0163958015647599e-01
      -9.4434537132196669e-02 -4.1639892829655384e-02
      -8.9808258851864303e-02 1.4149043458262631e-01
      1.3799659965130481e-01 7.0550073064942723e-02
      6.7724820507253397e-02 -2.9621813950929964e-02
      6.4066698240552611e-02 -1.8887043299144667e-02
      1.5788638105887039e-02 -4.8246554111725015e-02
      9.1838852944029312e-02 -8.3915693546115597e-02
      -1.0940982344188238e-01 -5.4769582848947403e-02
      -8.8286081244617009e-04 -5.1683769514554403e-02
      8.5099548387453483e-02 5.7236395081771444e-03
      8.5136695243288527e-02 -6.7171120983616162e-02
      1.1649803967789231e-01 1.0996528484233871e-01
      1.0403179046005570e-01 9.8027690611222587e-02
      6.9979140136686699e-02 1.1917492705670242e-01
      1.0849690753894062e-01 -4.3915173703385040e-02
      -1.1589569291103433e-01 9.4591128760015630e-02
      -1.0836537129106770e-01 1.1015197079004503e-01
      -1.2760367733356409e-03 1.2695857822837175e-01
      -9.6509886747109988e-02 8.7388658814830128e-02
      -1.1204464588979327e-01 -1.0835196063853497e-01
      1.0930686101680231e-01 -8.3754730357184670e-02
      -6.7166328323770758e-02 9.3915855403376200e-02
      5.7986061379972142e-02 6.5651085921384855e-02
      -8.5411279341177329e-02 -3.3910349522650166e-02
      -8.3910382090958233e-02 1.0196907509092544e-01
      4.1190447960244812e-02 1.4713375684335595e-01
      4.6712841272901089e-02 8.0347144821874841e-02
      7.3836409098850031e-02 -5.4624437865307462e-02
      3.0106012888501260e-02 5.7736136239904300e-03
      -1.7988024975517870e-02 -1.9074387678169359e-02
      1.0877652446358109e-01 1.1722165927932666e-01
      3.3642632154898724e-02 3.2639884008615228e-02
      -1.4369328028418941e-02 1.0371026175660694e-01
      1.0485554795313673e-01 9.8984814861975912e-02
      2.9627600344023522e-02 3.4668393436580881e-02
      5.8232387271031617e-02 1.1612302643417297e-01
      1.4953986899613064e-01 1.8436401020244443e-02
      1.1967979499921198e-01 -9.0495360443334852e-02
      -9.2891081981769777e-02 3.1361970196505287e-02
      -1.3551087132729758e-01 1.0772973212589364e-01
      7.3834427881817544e-02 6.4425299324588584e-02
      -1.9129233409711312e-02 1.7770869912864442e-02
      -1.4508827485984196e-01 4.8645531622907093e-02
      -9.6575175866454699e-02 -8.0947684482019042e-02
      -1.4019863151564105e-01 7.7803836883376234e-02
      -1.3567294600252505e-01 -5.2948512805357020e-02
      9.6363598398825773e-02 -1.6638181741185387e-01
      8.2182768020908820e-02 -1.0605103850463636e-01
      -6.3997347409304919e-02 9.6171048021022415e-02
      -8.3199368925526054e-02 -1.1228073330220555e-01
      4.4434437261574609e-02 -9.7274680293893814e-02
      8.6050814253157873e-02 -2.6881884261603997e-02
      7.3834873732288850e-02 7.8425956177093525e-02
      1.3637604135565023e-01 1.1220644055016285e-01
      -1.2667934933700090e-01 -1.4947985814450437e-01
      -1.2092028965248244e-01 -9.9937200754282293e-02
      -8.0054581203358482e-02 2.0912781101759051e-02
      -5.1474973857179571e-02 -1.4547652828037388e-01
      -1.3513572244495856e-01 5.2268450240252208e-02
      1.3923975211977621e-01 1.3323095255156575e-02
      1.3022079589287339e-01 -6.6129600867461308e-02
      -1.1617789854504774e-02 -2.9526699570304422e-02
      9.9174670092326694e-02 -1.5232411834755288e-01
      -7.5555133127732266e-02 -4.2013540364902006e-03
      -9.4542047198383453e-02 -9.5351369178383660e-02
      -7.5777931214339511e-02 -7.0006850570924706e-02
      1.2015840001508790e-01 -1.2259592575260206e-01
      -8.9484381415462527e-02 -5.1913631286704266e-02
      -1.0562000462660229e-01 -4.0516667338122946e-02
      9.9670630485502162e-02 -2.5973226932580213e-02
      -8.5890083784480209e-02 6.1407221826897535e-03
      -1.3874413177016593e-02 -1.0066022959047159e-01
      -1.8708816725319346e-02 -1.2284946904635382e-02
      -7.3633987245901075e-02 1.2174702143071160e-01
      -4.4105780212496976e-02 4.0852071447184061e-03
      1.1256780996522553e-01 -7.6166358046379626e-02
      -9.3524307156757358e-02 -6.0869412776443345e-02
      7.7622015969984158e-03 3.7386016934274138e-02
      9.6525466156228146e-02 -6.8123374190108582e-02
      -1.6124334665304133e-01 1.5049141167990738e-02
      -1.2525384034993056e-01 -5.1872751774442644e-02
      4.2767751237140182e-02 7.5642549583546659e-02
      -5.8192515980780554e-02 1.5226773028389708e-02
      2.3261871934357203e-02 8.4014366326725473e-02
      -1.2129397604324568e-02 -1.8665321057580970e-02
      1.1589005606113030e-01 -4.0204701489122842e-02
      1.2124184247542105e-02 3.7012208703692671e-02
      4.4865653437885372e-02 1.0724057095030387e-01
      3.3231375246813424e-02 -2.7723436194718919e-02
      -1.0364585495532781e-02 8.6429175907815223e-02
      1.0472707603523530e-01 3.8559551877586862e-02
      1.1111161051986161e-01 1.4243016703055422e-01
      -1.3123169441024421e-01 1.0318096324642041e-01
      1.0688098832239394e-01 1.2974645444519881e-01
      2.1132493872911010e-02 -3.0566854277391227e-03
      1.4117367735425398e-01 8.8012178413965581e-02
      -8.3531474005018341e-02 5.2454570080386079e-02
      -1.2204504978858363e-01 -6.0606256420247952e-02
      -8.8922582397797226e-02 -7.9404916554268998e-02
      -7.5704732551076778e-02 8.9367638841100105e-02
      7.0535070856909035e-02 9.0600283156352768e-02
      -6.1957558956136312e-02 -7.2703281017173368e-02
      6.6052642715300217e-02 -1.0794813865930299e-01
      4.1371149763245213e-02 3.0532455902510254e-02
      5.9074776279983303e-02 7.7101051059079148e-02
      -1.0507929010552797e-01 6.8378213804926218e-03
      6.7020402325593101e-02 -2.0326710507875801e-03
      1.0590357613894771e-01 -1.1440362769625702e-01
      -1.0610061633880753e-01 -2.0390307464876559e-01
      2.9432765114486056e-02 -8.9508862702099332e-02
      4.3195036403865031e-02 -1.4692081803465897e-02
      1.2574479057571269e-01 -2.5433290263999871e-02
      -8.2734975668459901e-02 2.3630258882846936e-02
      -1.1757276152355714e-01 1.2188371843930566e-01
      5.7880259316234126e-02 1.0326781229516430e-01
      -9.6559027737659744e-02 9.7997577003589492e-02
      4.5888285579050544e-04 1.2600114862894000e-02
      -1.4373351413899890e-02 -1.2092994945163936e-01
      -4.5501857961384815e-03 -3.4626920193373531e-02
      9.9796013779475043e-02 1.0382665513191199e-01
      6.4225085347719646e-02 2.3698250017034305e-02
      4.4392587472194350e-02 -6.4271077012153427e-02
      1.8136912914153924e-02 -5.4011898971577363e-02
      6.8884928588375277e-02 1.0694613062726566e-01
      -1.3645460781918558e-02 2.5237059956488620e-02
      -7.6108155593277702e-02 -4.3044190360065834e-02
      4.0952126561205844e-02 -7.0863212911610018e-02
      -9.5125008681716569e-02 -3.9620062540535170e-02
      -5.1083267408969332e-02 -1.0858452027294374e-01
      8.8085409560970829e-02 -7.0371605198250489e-02
      1.1624407737497615e-01 9.4841809646623906e-02
      -1.0654061942613731e-01 6.9617822788797704e-02
      8.6117016829580395e-02 3.7635204533754477e-03
      -5.0018458384687103e-02 1.0355825663961871e-01
      -3.7243809178916114e-02 -6.9596563311374815e-02
      7.4667716589272862e-02 -1.1671526761501538e-01
      1.9978367261971699e-03 -8.3888189914127359e-02
      7.3893747433284404e-02 -2.5307980642725703e-02
      4.0570258545390432e-02 7.7646387948896445e-03
      -4.9781132282879413e-02 -1.3290189910367678e-01
      1.0070567346043075e-02 5.0737081702075720e-02
      -4.4714062028701193e-02 -4.9982773156737929e-02
      5.5866551951971155e-02 8.6380283600033955e-02
      1.0362185502472891e-01 -1.3891946855346204e-01
      7.7639276501749371e-02 -4.8614803659791789e-02
      2.3483211476275734e-02 1.1224612866369083e-01
      3.0733361112721222e-02 1.4193548090916056e-01
      1.1345259341571491e-01 -2.1727619536587230e-02
      9.6085965126485734e-02 9.2060778837939158e-02
      3.6554300646827138e-02 7.1573960769852757e-02
      7.8747390960034289e-02 -2.0339260047317287e-02
      4.3838200719121367e-02 3.2030712512587385e-02
      5.9572657607130590e-02 -5.6665846926464668e-02
      4.3403263323257418e-03 -1.9389386724153135e-02
      -2.9754193939417344e-02 -6.6388289261243141e-02
      -6.7694262122323268e-02 -8.0513616542475692e-03
      -2.1090570836766118e-02 -6.9059694273536379e-02
      5.7221837820239332e-02 -1.7438232160189370e-02
      5.7762035375935813e-02 3.5018407138011250e-02
      5.4207532575919072e-02 -5.1443245344492189e-03
      6.7624861696600541e-03 9.8338224150066652e-03
      -1.9642688356761789e-02 -2.8131280449038464e-02
      1.4373861985446327e-02 2.6274445532716951e-02
      -3.9362910795349343e-02 -2.4283627143965258e-02
      3.6333788151914292e-03 -6.1747018335514270e-03
      2.3404494273170449e-02 -1.5573940621404877e-02
      -3.4279821851514430e-02 -1.2014232198364047e-02
      3.1622584316633839e-02 -1.3235705834724233e-02
      -7.4610417018808172e-03 -4.8456282982409010e-03
      -7.1843124393842599e-03 2.4228102779910656e-03
      -1.0850735900564741e-02 8.4314638353166545e-03
      1.1043877206192172e-02 6.6771999648226942e-04
      -7.7800000491855424e-03 -6.6129170414434152e-04
      -2.5119309081927735e-03 2.3140230625917960e-03
      4.5349905199258963e-05 2.9393421867932625e-03
      2.9126683423631376e-03 3.0098484898516843e-03
      4.4799900244858132e-03 -3.3016837243404181e-03
      -1.1935720957177116e-02 -7.6120429726192649e-03
      1.1649078821372430e-02 3.5203970932744834e-03
      1.1137008289469690e-02 2.1706398716782715e-02
      -2.0062296897120011e-02 9.6422630714809634e-03
      5.4343467444758478e-03 -3.0033353719585692e-02
      -2.4885631995764566e-02 -1.2384859567137998e-02
      2.9784553694854606e-02 -1.1059317506507980e-02
      -8.9791361432963891e-03 -2.5217522003461899e-04
      5.0620593229159988e-02 -1.3550292831434819e-02
      4.0145691023735004e-02 1.4188699359130594e-03
      -6.7959211981924164e-03 -1.3362999829076466e-02
      -3.7766748155580766e-02 7.8606305374117041e-03
      -5.5110915644624350e-02 -5.5465896976571977e-02
      -4.2834167699573329e-02 -3.2332696728110760e-02
      5.7323596479465687e-02 -4.3405171711166271e-02
      -6.4537966770924771e-02 -3.6512100556213588e-02
      -4.2451520417043954e-02 1.9525692727074457e-02
      6.1011681942262563e-03 -8.5072653516776470e-03
      3.3234299830536426e-02 -1.4408015568612782e-02
      -4.6690562031757428e-02 4.5372083612104513e-02
      7.4670469994069066e-02 3.7790614517228968e-02
      5.4995679507576258e-02 -3.7073558922320032e-02</_>
    <_>
      1.0446426979523224e-03 -4.0264281298325755e-03
      1.5424304982365914e-02 -1.3476310657925551e-02
      -1.6603036662526695e-02 -2.4980317619471004e-02
      1.0297548500762312e-02 1.9016052300307177e-02
      -2.4835469748028836e-02 -9.4709912836087908e-03
      3.1239669345717383e-03 -1.1253356916608802e-02
      1.7739440978040352e-02 -8.4799360763803001e-03
      -1.1403434651762922e-02 -1.9824121621589180e-02
      1.2990683328252107e-02 9.3947016681295049e-03
      -2.5855048505108538e-03 7.5893580398183249e-03
      -1.8442887877143023e-02 5.2854604015420753e-03
      -1.4955597105709479e-02 -1.7741310348390708e-02
      -1.9376879063284096e-02 1.1422969571300658e-02
      9.2192801544854330e-03 1.3585593641188814e-02
      -1.9689558240676659e-02 -1.5533408425611754e-02
      -7.7470798781158756e-03 -7.5780355053613486e-03
      1.4412671336157250e-02 -8.9335316134021205e-03
      2.3113609862131998e-02 -3.9335273299634047e-03
      2.1840188707687665e-02 1.2181780930907844e-02
      8.5302551134785638e-03 -1.8790183854070164e-02
      -6.6485349915450199e-03 1.1401011459036903e-03
      -1.1801806154595083e-02 3.8135921938399551e-03
      -5.7364409882324306e-03 -1.1460045665573355e-02
      5.3523693582876253e-03 -7.1330367715564634e-03
      3.4256909796896635e-03 -1.8061668554157237e-02
      -5.1248965908596775e-03 -1.1586516146105270e-02
      -2.5950362659305105e-02 -3.4446760451732677e-03
      1.3102222925069525e-02 1.0326470762012723e-02
      2.0626455106426880e-02 2.4213485359303920e-02
      -5.4063793493923078e-03 -2.9627186142456453e-03
      -1.5988675057259632e-02 -6.0617995877210624e-03
      -1.5789795480829261e-02 -1.6344464027077087e-02
      -8.3738896761200721e-03 2.5634981940578470e-02
      -2.8948643813759599e-03 -3.1260151413510712e-02
      1.4898066338872969e-02 1.3826436323851863e-03
      -2.6964050852366379e-02 9.1308124870727713e-03
      -1.9763308948672311e-02 1.9154398455518792e-02
      6.8266288820132102e-03 2.0079175303410982e-02
      1.4664591797168619e-02 1.2835659255922071e-02
      5.1356609184928228e-03 3.3318262364229337e-03
      -1.5487261438511757e-02 1.0468695763894404e-02
      -1.0681148840680322e-02 7.1548077464695320e-03
      1.9430683352213322e-02 7.3767393711255949e-03
      -1.0007184597033402e-02 1.7873473967758048e-02
      -5.7567993351165135e-03 3.6416306265174506e-03
      -1.0613443023700909e-02 9.0012275375397457e-05
      1.4557830170472725e-02 2.5883501915265998e-02
      1.2197045631295653e-02 1.1055309618763510e-02
      -2.4423843951586640e-02 -1.3244178823837419e-02
      -6.0695025791797092e-04 -1.0557288386551435e-02
      1.1470425460251722e-02 6.7577247855273850e-03
      4.7097341886549720e-03 6.9093993567773040e-03
      1.7138733989067300e-02 -1.6173258879431163e-02
      -1.5355698752461533e-02 1.1569807991053439e-02
      -9.6437252629221499e-03 -1.5368272508441121e-02
      2.2795173328083091e-03 1.2665375315211105e-02
      1.6460712461330362e-02 -8.5275456077755062e-03
      -1.2013857019139979e-02 -8.9978023932758468e-03
      -1.0301556161119229e-02 -1.5662414012157424e-02
      1.6687668492735851e-02 -7.9176412916800859e-03
      -1.6923519511511834e-02 1.2184599323252818e-02
      -1.4356675554812902e-02 1.3774384925672765e-02
      -1.1144129183169375e-02 5.4917661249949436e-03
      -6.3660505713155398e-03 -7.3679386600262707e-03
      2.2651867106843724e-02 -7.8708810679683724e-04
      1.1695913651658459e-02 4.6583458335811723e-03
      5.6918499100345700e-03 -1.4194009652680310e-02
      -1.3989349928561009e-02 2.0062685368602531e-02
      9.5061134551251304e-03 5.9580014195527104e-03
      -1.8279055181579167e-02 1.8700452732197576e-02
      -1.8928620667266972e-04 -1.0335936489589314e-02
      1.7433649704362265e-02 -4.0267277338709396e-03
      1.0268976355427633e-02 -9.3203323514839623e-03
      1.3928662465564595e-02 -8.1026995430022591e-03
      -7.5834867396521845e-03 4.6006939439329269e-03
      2.5545154339338132e-03 1.0020198453364489e-02
      -1.1376538352798593e-02 3.7356685221196944e-03
      1.6275691580104282e-03 2.8902006292188059e-03
      1.1264815711095196e-02 1.3382368392513205e-02
      8.8968226970645350e-03 -9.0033127847834720e-03
      4.7863739146524042e-03 -9.0860956435801100e-03
      1.7167294720940671e-02 -5.5280507207584430e-03
      6.7905124522813515e-03 1.8866624735938986e-03
      -9.5754468674959774e-03 1.7300604394806351e-02
      -7.3822757047865293e-03 1.0687838525998800e-02
      7.0622968618601232e-03 -6.4633414359995109e-03
      1.3166558196582471e-02 -1.1815402652535984e-02
      1.4050221058533924e-02 1.4752736669811327e-02
      -2.7469282682629872e-06 7.3866688846460637e-03
      4.2530951931746457e-03 -1.7228344868089704e-02
      1.7501102642356509e-02 -1.0264134098566751e-02
      -1.5670319189237437e-02 -7.4260092333981384e-03
      3.8624380421321872e-03 -1.8484781505968339e-02
      1.3353146581592704e-02 4.8595942304583287e-03
      -1.7624388112567762e-02 1.1467610180071473e-02
      1.7994213343972599e-02 1.5152280967300527e-02
      7.0214652223795481e-03 -5.0425479675138092e-03
      4.8990763457242405e-03 -2.3790776022278330e-03
      1.3203950350724861e-02 -9.1425599997364861e-03
      -1.0045624630934826e-02 -1.6278829220001623e-02
      9.1154453502653992e-04 -5.7798021182501325e-03
      2.6132155547395230e-02 -1.3068724742414852e-02
      -5.9213302619904014e-03 -2.0580496740969609e-02
      1.5226704969757858e-02 2.4522687866409980e-02
      -4.5756652809030912e-03 -2.2772691838468879e-02
      5.6927230318101741e-04 -1.8850891028941427e-02
      1.8187175373941961e-02 -1.6290649358559194e-02
      1.8602041013818987e-02 7.7510447912588626e-03
      4.7140724500254689e-03 1.4527179079389201e-02
      -1.6923724869939465e-02 -1.4849270320677481e-02
      1.7636964519241717e-02 -9.0462346505803377e-04
      -1.1267118674055721e-02 7.6503686683042126e-03
      -2.2824913482361032e-02 5.0912912221446243e-03
      -6.3513203527479113e-03 -4.5143733700536330e-03
      1.3688710980955407e-02 -8.9166969888399630e-03
      -1.3506923522289379e-02 -3.5112670448775476e-03
      1.6259659441875688e-02 -1.5547829376349355e-02
      2.3324093352254164e-02 -4.9788068500769590e-03
      2.0373912844641948e-02 -1.5289426256546078e-02
      -1.3801260097445650e-02 9.9848582888043009e-03
      5.3696942404187391e-03 1.4595892345495853e-02
      -1.7976601900264138e-03 -4.4274693129376661e-03
      1.1157110881793499e-02 1.9276493586263814e-02
      -2.4834779763603196e-02 -1.6247913140373802e-02
      -6.2176882264825418e-03 -1.7678723003208042e-02
      -2.0650615182716343e-02 -2.4843770135464485e-02
      -3.4051025453792225e-02 6.0930121928804626e-05
      1.4194674689105929e-02 2.2196348708581705e-02
      -9.0641227013541319e-03 -1.9285610918739541e-04
      7.5690213404992672e-03 -6.6902900333558118e-03
      1.7217174613417711e-02 -1.2118548184420347e-02
      -2.8618917814914165e-02 4.2577615324143085e-03
      -7.0090801603182960e-03 2.0322432650358093e-03
      -9.9116663351134539e-03 -1.6860751934916179e-02
      -1.3796652351924430e-02 1.5717886881842103e-02
      -6.1345980732445786e-03 -6.4697140899150317e-03
      -6.5518832954196953e-03 -1.4197105269127376e-03
      5.4141289096356774e-03 1.0538568680191590e-02
      6.2486586245243001e-03 4.8098968018844548e-03
      -6.1016238448431863e-03 -1.3940962751089914e-02
      -7.9143821950467715e-03 -1.0959352721355847e-02
      7.1025017129127382e-03 -5.0057227296743329e-03
      -1.3397212938154261e-02 -9.5420605885741961e-03
      -2.0035259971716256e-02 6.3569732002111412e-03
      -1.5983493215564319e-03 2.3817616147625058e-02
      -2.9661261379142417e-05 -8.0561762690693362e-03
      -2.6314937468714448e-03 5.3682407601223017e-03
      4.1555690376861716e-04 7.9761930798152060e-03
      4.8971863523137376e-03 -9.9645644249560274e-03
      3.3694023336655154e-03 2.4276873409106250e-02
      -1.3279871354672391e-02 -1.4224701955135029e-02
      1.4655276098433584e-02 2.0871892591907092e-02
      1.6400916421628494e-02 -1.0680501225926462e-02
      -2.5931143551639543e-02 -6.4621589466248323e-03
      2.2994388076153251e-02 1.1372961792406712e-02
      2.2287629025858000e-03 -1.2082018087466733e-02
      2.0369403893420856e-03 1.3577241623234622e-02
      -6.2462574197375328e-03 1.3284244471216378e-03
      -1.2213681418256338e-02 -1.6867469488068297e-02
      -3.3293689304471153e-03 -9.6554274238635357e-03
      -8.5171840294409797e-03 1.3962575169370092e-02
      -1.5737992428776455e-02 -1.1876162099110426e-02
      -1.1777147852139510e-02 3.8825843973589796e-03
      -7.6174811524408392e-03 -1.8138392273541672e-02
      1.9061449960928664e-02 1.5718085485676520e-02
      1.0988346393316518e-02 -1.3195001985806518e-03
      1.0756726588898400e-02 -1.4184998529478904e-03
      1.9335185046103550e-03 9.0892217658213883e-04
      6.1692206047802367e-03 8.0035268455939522e-04
      1.6892631938682394e-02 -6.0225088285754715e-03
      1.6146363861186640e-02 -3.8158108262377775e-04
      1.2612674765287024e-02 7.1162966248974439e-03
      1.7334834997526046e-03 1.1865173750762325e-02
      8.2406369778066004e-03 1.5630699394414287e-02
      -3.1479228282126878e-04 1.2662482646323709e-02
      3.3354206773843170e-03 1.7083153806283990e-03
      6.6202007602274727e-04 -1.4717178246407529e-02
      -5.8674188327882170e-03 8.9995548698348360e-03
      1.0110631963881003e-02 -1.1727336426870769e-02
      1.3615162779272385e-02 -1.4289585665018697e-02
      5.9282926809287630e-03 -1.5967776478237774e-03
      8.3672442564600175e-03 -5.8486791237331755e-03
      -7.3184222343010473e-04 1.1139191114223013e-02
      2.7662497834692237e-03 -2.5422813581695139e-06
      -1.2854916988967758e-02 3.7190720776295221e-03
      8.4667314110505720e-03 7.2654986780248234e-03
      1.8156739509249856e-02 -1.5914718529177765e-02
      -9.3341756685810674e-03 -1.8263272639174110e-02
      6.6310515089702243e-03 2.4053474210981563e-03
      -1.5640093327930177e-02 -1.1168030012517810e-02
      1.5431828707613775e-02 1.6377665927558373e-02
      1.2779182675785988e-02 -4.7378582750132459e-03
      1.4783905255705011e-02 1.9157016004952846e-02
      1.4806632200453871e-02 5.3677845265970824e-03
      2.8899417110515207e-03 8.2752940712665611e-03
      -3.4564483110114254e-03 -1.3376971390868055e-02
      1.3150459065044006e-02 -5.5019497511610066e-03
      1.1257671049935107e-02 -2.8546284579484414e-03
      8.5589617314733475e-03 -1.1803572032248707e-02
      1.0557745635048334e-02 4.3660721706426375e-03
      7.4856302159486661e-03 1.5153875315215346e-02
      -6.4710184971276622e-03 2.0309329126027413e-03
      1.0812224784669365e-02 -1.4760731084929188e-02
      -1.7562976375169178e-02 -1.5123573586427771e-03
      3.4120804292350660e-03 2.0076433351409333e-02
      6.2045424182175790e-03 -1.3216066018071826e-02
      -3.6039045082725705e-03 1.3526404485910160e-02
      1.2857204461601194e-03 1.4927684131795288e-03
      -5.8789478705793185e-03 1.5886881587691536e-02
      -2.5788646685411445e-03 4.6928279933019729e-03
      -1.6687615060047047e-02 -1.7212829113551445e-02
      -4.5520058464262013e-03 1.2568299120801029e-02
      -9.9636992161587206e-03 -2.0241879311615047e-02
      5.0204080689037834e-03 -1.6113247582597370e-02
      2.2348876639888295e-02 -1.7030605919398527e-02
      -1.1802170336237145e-02 3.3870630635669639e-04
      -9.5449380510603549e-04 1.2653941353664209e-02
      -1.9179128577540085e-02 1.1790482597675272e-02
      -1.0461715771830873e-02 -8.4681728233805872e-03
      4.6892518208563275e-03 7.1625965156854278e-03
      -9.4602769619045353e-03 1.0144135927446689e-02
      1.2921870994060178e-02 8.4958360886318914e-03
      1.2655011292797945e-02 4.5166419166561547e-03
      5.4516214508341871e-03 -7.8557657031287798e-03
      -2.0019202405322734e-02 9.9763791109132530e-03
      1.3166384426946722e-02 -1.3591358614258295e-02
      -1.2621932301848451e-02 -1.2262287613227837e-02
      1.3665828900345994e-02 -5.9509006712846124e-03
      1.0885147898360058e-02 1.3665966714333930e-02
      -8.5807975868038913e-03 5.1676861419824654e-04
      9.6085206722021192e-03 -1.1714487120000903e-04
      1.8200686657827317e-03 -1.1173683136266547e-02
      1.0334295800052828e-02 1.1124282917606931e-02
      -9.5003039790919341e-03 2.0957022092887322e-03
      -4.3128343861759278e-03 -7.2523741070990543e-03
      1.5969640487774953e-02 1.2023616000775146e-02
      -1.8734077607393219e-03 3.7920621608620256e-03
      9.4979861783222423e-03 -1.0391255870546085e-02
      -1.3262633797503642e-02 -6.6100548731587907e-03
      -1.4488808539019384e-02 5.7092479268165148e-03
      -7.3690126395847310e-03 -7.7126544655784154e-03
      -1.8145078180964278e-03 -1.1836454957016709e-02
      -7.1196024358248910e-03 -7.7651475837787276e-03
      -8.2626210061950683e-03 -7.1063472298159693e-04
      9.4306580063292789e-03 4.6813289268381132e-04
      -1.5086269831303180e-02 -1.0826838691801370e-02
      -5.4466568847720345e-03 -4.0742255348833068e-03
      8.3013307946884111e-05 1.2564818911325749e-02
      1.2777293946848437e-02 -1.2347119971708068e-02
      1.6571918685476389e-02 -8.6369217236201331e-03
      2.1160256798295907e-02 -1.2570791759086567e-02
      -2.0731081763798440e-03 1.2247510862840011e-02
      3.8919204280947765e-04 -1.3074976939981100e-02
      2.0145122027000750e-02 -1.3253819939137832e-02
      -3.9731528382168499e-03 -1.5104841250748405e-02
      1.5946004879681189e-02 1.2831637441830710e-03
      3.3721830412972399e-03 -1.3090013623996057e-02
      8.3239236756462893e-03 7.9293320162920310e-03
      -1.0740178990247694e-02 -2.1171900899456624e-02
      1.5101998778991094e-02 1.5415402846494486e-03
      -2.5144497149395132e-03 -1.5923272822097802e-02
      -6.1515166589772652e-03 7.5725223182659934e-03
      -4.4519389160933799e-03 -8.9936636832676671e-03
      1.6567496199071368e-02 9.6260401173914739e-03
      9.7300720589754992e-03 7.3923542320027949e-03
      -5.0490202401152250e-03 1.5873721647328993e-02
      -4.5427733707798105e-03 -2.4703057479132429e-02
      3.1936146886984008e-03 6.3247508841419399e-03
      1.4769844537742766e-02 -1.1441046510081203e-02
      1.8759168118591480e-02 -1.4055150605752489e-04
      -1.8849389703075124e-03 2.3952774530243514e-03
      -3.7723076937680581e-03 -1.5758821808032238e-02
      2.5841515437692482e-03 -3.3737204007704101e-03
      8.2485248138631020e-04 3.0874085597832387e-05
      -2.1973578336827435e-03 3.0663583664089478e-03
      -4.5014246986484433e-03 -4.0422804862592652e-03
      6.7132575126474733e-03 -2.2266899536935408e-03
      1.4518322893551408e-02 -1.5352939437838836e-03
      -6.2759491313261195e-03 -1.9756323671941533e-03
      -1.8592470121577059e-03 -1.5439898864596931e-03
      8.7613310536486192e-03 4.5776741160361151e-03
      -1.5987086250145735e-02 2.3629443124371366e-03
      8.6025208464915962e-03 -4.1492919915445759e-03
      -2.6771218893900965e-05 -2.2919969386817472e-02
      7.6783352375632387e-03 1.7518002269883283e-03
      -1.1645505767721527e-02 -1.9390045478338358e-03
      3.2885775386225480e-03 -1.2338384765121845e-02
      -1.2136476311977330e-02 -1.7918264308192215e-03
      8.6262943432673968e-03 -2.0809730775585155e-03
      3.5360949751190875e-03 -2.1162072198011948e-02
      2.0041171303600273e-02 1.0841877558920923e-02
      -1.3111611697718304e-03 -2.0269583246770705e-02
      -1.5695128217175489e-02 -7.2037289193806371e-03
      1.5696382597858428e-02 1.7768531235299631e-02
      8.7985891222088341e-03 2.0604093758593879e-02
      -1.9136369083235876e-03 -1.9810113360723164e-02
      -1.1479461867305973e-02 -1.2453938217817880e-02
      1.2216537932431886e-02 9.0884670990201057e-03
      -2.4489114753792930e-02 6.5848501256883735e-03
      -7.8139799095628959e-03 9.5793729171433396e-03
      -6.2821453061189352e-03 7.5114768588471423e-03
      -6.6976704128618187e-03 1.7986123762705131e-02
      -1.1139154631640313e-02 1.1169893657220395e-02
      -1.4847543414211314e-02 2.1381208651947411e-02
      1.5059428925534694e-03 -1.1651230493597198e-03
      1.5627075099836256e-04 -1.5083116953840441e-02
      -1.1932180179941217e-02 -1.7852277959520491e-02
      1.9344767099374462e-02 -1.7551123678488038e-02
      -1.6905906388091852e-02 7.0181136247292426e-03
      -1.9043114730442116e-02 1.1335587093203217e-02
      -6.2253729671907267e-03 -4.3671574458270801e-03
      1.3867023524383550e-02 5.3904743237298816e-03
      -4.7796780115287292e-03 -1.9715997794198508e-02
      -4.5028320199982270e-03 9.9726009974490642e-03
      6.1964199528632361e-03 -1.9104146052754074e-02
      1.1307729589118038e-02 4.8678652832203810e-03
      1.5644640847750756e-02 -8.2792866550675387e-03
      -1.6488959080247709e-03 5.8724482809321306e-03
      4.9888608931522816e-03 -6.2167314475072601e-03
      1.9313949767038791e-02 8.4846081554390567e-05
      -1.3597103521232950e-02 -2.0483819292567682e-02
      -1.2993634498713972e-02 -9.9366790046546936e-03
      9.7016614213574562e-03 -1.5898434885750910e-02
      1.8056755803013164e-02 -1.5224247317002252e-02
      8.1608429357988219e-03 -5.0557627234586880e-03
      -7.6246228124906244e-03 -2.3680052358028823e-03
      -9.6867931928557895e-03 9.7412254577014853e-03
      1.3469691121554299e-02 7.2516289923384644e-03
      -1.8332759463182326e-02 1.5315277999266810e-02
      -9.9499832024005103e-03 -2.0887903654173638e-02
      1.1876206994660183e-02 -1.0301703629502772e-03
      1.2553100098232401e-02 -2.0725316889510698e-02
      -5.4522168524227610e-03 6.9681384144254822e-03
      -6.8080447726981200e-03 -1.1446417536580811e-02
      1.5181642149039361e-02 3.6881472280418540e-04
      1.1139779611750149e-02 -7.6784188511892573e-03
      -1.9327032105294351e-02 -1.6068999901852010e-02
      5.8070839983018329e-03 1.3884154635258631e-02
      -1.5202104193235278e-02 7.1691964883102656e-03
      -1.5916297304786976e-02 -1.1531424250515371e-02
      -2.9502336288739703e-03 3.0713525556641517e-03
      -7.7511106277907051e-03 -8.2013762667794959e-03
      -8.7187635250312468e-03 1.6554832521453303e-02
      -1.5299600447386034e-03 1.1019899054802836e-02
      -1.6764646906193427e-02 7.7024308802230764e-03
      -7.5504125336087044e-03 1.6514984465786177e-02
      -1.6987175446080614e-02 -1.9709816248702377e-03
      -6.9742982062278094e-03 -1.5305475688683033e-02
      1.8908741527531136e-03 4.3213485316173604e-03
      -2.0761351511901987e-02 -1.7577299064255283e-02
      2.1872239239620311e-02 1.0556886493718160e-02
      6.9356558326127892e-03 -2.1248125953925390e-02
      1.1000678167840878e-02 -2.7551301160288168e-02
      1.7960362138286057e-02 1.0204608712962413e-02
      -5.5179986771460594e-03 -7.6259233031510353e-03
      2.7648188113377423e-02 -1.4160039412015981e-02
      6.7369208758453559e-03 1.7126498610706909e-02
      -1.4414511644865584e-02 -8.7790988034780228e-03
      -1.8401646386682569e-02 9.1338559287002276e-03
      2.8384985882405563e-02 4.1741645959674578e-03
      8.3755354476792530e-03 1.0059786005939491e-02
      4.6188771209480792e-03 -5.3904330306417218e-03
      1.1460113313119188e-02 7.6187442651784801e-03
      -7.4560234762241226e-03 -1.1749204792679701e-02
      -1.8468088902482638e-02 -1.6678714495483749e-03
      4.3195679655833914e-04 -1.6179295212064782e-02
      -2.8865291300698413e-03 4.1726752656110686e-03
      2.1183207466190439e-03 -1.0671397874734451e-02
      4.9107464667338258e-03 -1.7789883666757961e-02
      2.9779881524101366e-03 -2.4320068674176038e-02
      -2.5742495881052770e-03 3.0830594335387465e-03
      -1.7901118272916201e-02 -2.6079931039610011e-03
      -2.5412804775096026e-02 1.0550340760777635e-02
      3.0549750430066223e-03 1.5803183348146274e-02
      3.2045762946638551e-02 -1.3824234167375887e-02
      -1.9226238846101699e-02 -1.3345828546004570e-02
      8.7838687503162874e-04 -1.1624703191810802e-02
      1.1381613607157992e-03 7.6007940826982017e-03
      -4.0113615292831960e-03 1.8708232344389817e-02
      1.4119947527725610e-02 -1.9292219258166338e-02
      -1.2641631093194738e-03 1.0402426018527377e-02
      -1.3367134927130233e-02 6.8778565767538486e-03
      2.2989726204123317e-02 3.9624070740161312e-03
      1.6673508498554701e-02 1.7782345816024509e-03
      1.0312600935937598e-02 1.3780690539303466e-02
      -1.7638956937356419e-02 2.7103363180337178e-02
      2.1558784509376244e-03 -1.5911377173925682e-03
      -4.4294832695880009e-03 1.2848559807584561e-02
      1.2228022215077976e-02 -1.1569356665036681e-02
      -9.3288600911762016e-03 -1.7752828146131650e-02
      -1.2896134621297455e-02 -1.6614910260083889e-02
      7.5251714094354914e-03 -1.5456463255742608e-02
      -6.2995941511462782e-03 9.6410085470597356e-03
      -1.3310940741433035e-02 1.2866264849650932e-02
      -2.4529511635101621e-02 -6.8517854462424969e-03
      5.3035244356651693e-03 -5.8442452575312616e-03
      -5.3530100614377369e-03 8.0235580191410638e-03
      1.1531929900875534e-02 2.2109198738987933e-02
      -6.0484995091585163e-03 -2.0426212885132571e-02
      1.0229626985836293e-02 4.5817442471786044e-03
      -1.9338794017021634e-02 2.1996982610739371e-02
      -6.8889093817850328e-03 -1.1326298568395361e-02
      -3.0054572044679369e-03 -4.1898640392886970e-03
      -2.2566582324673994e-02 -6.7101694779424063e-03
      2.2081835894905488e-02 1.8948628419303325e-03
      -1.2193180507113977e-02 2.0884280614607391e-02
      -1.5203303346732816e-02 -8.6226505377768516e-03
      -1.7393478476247570e-02 -3.2167476067718167e-03
      -5.7259221288160573e-03 5.1930360212184504e-03
      6.8475662024200488e-03 5.0086893078281148e-03
      -5.5650445580322514e-03 -5.9116912705968402e-03
      1.1548717620460988e-02 1.2639846271437914e-02
      -9.7509952434858081e-03 -1.5409253131064784e-02
      1.0885351310244332e-02 1.6698069274483262e-02
      1.9542403074304434e-02 1.4717226347480638e-02
      2.0301803234769891e-02 1.5945600465657010e-02
      1.2335268763825503e-02 -3.8012785754729097e-03
      9.4029544567985970e-03 1.9279806716826962e-02
      -1.0384348644982739e-02 -1.5983919794487572e-02
      5.1202015718182275e-04 5.8811291103684831e-03
      4.4522152638977828e-03 8.2609487984652546e-03
      -5.9585410297530996e-03 1.2386343363371147e-02
      -1.2268719550232204e-02 -2.8739919997012434e-03
      -9.8753478524131848e-03 -8.8958814791912366e-03
      -1.1385248731563330e-02 9.5153079596850699e-03
      -5.2530700123544598e-03 1.8131501287288101e-02
      9.1885104336963501e-03 4.2014106097288638e-03
      5.0727090056921099e-04 -1.3029327698089458e-02
      1.4115854080307039e-02 7.9904242298383978e-03
      1.6545638855704422e-02 1.2139260838862357e-02
      -3.1822530393541501e-03 6.3753457819028473e-03
      1.2941552626590871e-03 8.0745263479191851e-03
      -2.3568161451581412e-02 -1.0933154862484418e-03
      3.4944331735589098e-03 4.1835162081692917e-03
      -2.0381081977564518e-02 1.2554087308342364e-02
      1.0421108842487507e-02 8.4943213406662426e-03
      8.0986162333433764e-04 7.4016679088147160e-03
      -1.5023709622902269e-02 -2.0587120552612387e-02
      1.1064882494207633e-02 -1.9080797863629550e-02
      8.3593251738222230e-03 1.6141602031351624e-02
      -1.1364156007001483e-02 6.1234347590189264e-03
      -1.7192797402173752e-02 9.1162038783136161e-03
      6.7356380472924368e-03 -5.0792165898294935e-03
      1.2225782498628444e-03 -1.1485755870691632e-02
      -4.6987559706188351e-03 3.9623392798762364e-03
      -1.2937593232385308e-02 1.4743394464023389e-02
      7.4082173894309987e-03 1.0666438331601051e-02
      -1.3099859235217943e-02 5.7011725889785361e-03
      -1.2701524647706032e-03 -1.1210271463547280e-02
      1.3866271150769336e-02 -9.1805344565147520e-03
      -2.1497637956776772e-02 -2.1010810607148714e-03
      -2.1252251856427564e-02 1.5904508834762531e-02
      -7.5882343657781917e-03 2.0394799632539044e-02
      1.7137197974922325e-03 1.0512102858365586e-02
      1.5248757298690449e-03 2.6648079080633699e-02
      1.2182732186505512e-02 1.9392454560574351e-02
      -7.9981647188087663e-03 -6.3117823086022160e-03
      -7.5651975012540930e-03 1.3585566899155660e-02
      1.8896108189866544e-02 -2.9367803839077701e-04
      1.6367130539335570e-02 -7.5032703389021271e-03
      -2.8368545803492953e-04 1.9445375054920704e-02
      -4.0158243163298705e-04 -3.5309420203016835e-03
      4.8586584972005946e-05 1.6298028710323778e-03
      1.2303578994178142e-02 -1.0724067392226639e-02
      4.9070200500294925e-03 -1.2748304199735350e-02
      4.4514026017900728e-03 1.0409999362895344e-02
      -1.6200391401082460e-02 1.4356901357038874e-02
      -8.7721151792749981e-03 1.5521001448720423e-02
      -1.4310852604882541e-02 8.9933848308260608e-03
      -9.2258061528578319e-03 4.6047170393911374e-03
      6.4136063892159733e-03 1.7431841818030994e-02
      -1.7460750011928320e-02 1.3790991452464622e-02
      2.0313013150480085e-02 -6.8774799274021504e-03
      4.4786251509643139e-03 -7.5298321388233480e-03
      -1.2437504724461227e-02 1.6033665858660253e-02
      -8.2052500664294683e-04 1.0339055770268888e-03
      1.3568974645303921e-02 -1.8659738858614050e-02
      -1.0652162647308668e-02 -2.5550136066509421e-02
      -8.1262538043789159e-03 -2.2465933394218623e-02
      -1.7546839435170843e-03 -1.6546410557336490e-02
      9.7315511982908991e-03 5.8736172461337543e-03
      -3.1769452212213811e-03 9.6843384050832957e-03
      9.0694636654644091e-03 -2.5304067436950777e-02
      -1.4215029702657670e-02 -4.0112067742564014e-04
      -4.6958429267945183e-03 1.6892648023030043e-02
      2.6806881225069783e-02 -1.6049945862775885e-02
      -8.7144947803601790e-03 1.5867324748096235e-03
      -7.4692507975205932e-03 -2.4747194795961178e-03
      -9.2022631441970159e-03 1.9536887002842090e-02
      -6.0643670634918630e-03 -1.2744697826429601e-04
      1.3035520713823502e-02 -5.4269630299727091e-03
      -2.5192681842447051e-02 2.0156433912300962e-02
      -1.3907512727376515e-02 1.2573758787144276e-02
      1.4660865073148616e-02 -1.2446060300126762e-02
      -7.1038840160903309e-03 -1.8369678289211959e-03
      2.3718972909111463e-03 3.6346561537923538e-03
      4.9405447846803154e-04 1.0041392574516960e-02
      -1.5755338836414941e-02 2.0928565439085906e-03
      -7.0144931510956040e-03 -4.3007423526039517e-04
      -9.0796834372594542e-03 8.4729453756231168e-03
      5.2491079534196369e-03 -1.1769967257647996e-02
      2.4836232265281165e-02 -1.4694028777592721e-02
      -6.8202510509963524e-03 1.0362442546085699e-02
      -1.2956689369429814e-02 6.3311672467297984e-03
      6.8671860333757240e-03 -1.9961806684831652e-02
      -3.5189813846273185e-04 -1.4514232769695424e-02
      1.5606978367265488e-02 -1.2116213610360888e-02
      -1.2069051741664645e-02 -1.4160161437150393e-02
      8.2100095097245914e-03 1.4227483570760884e-02
      9.5803277489933079e-03 -1.6508684001675523e-02
      4.3484382981305659e-03 -6.3325520837171764e-03
      8.6655251792099302e-03 -2.5554047609536160e-04
      4.5395414656290781e-03 -2.2190843450747349e-03
      -7.6593954032522973e-03 -1.9133818671288945e-02
      3.6715764516042806e-03 1.0536370408602674e-02
      -1.3057176803894699e-02 -5.5475276724382752e-03
      5.6307719989371922e-03 -2.2689097907625664e-02
      1.5512843082686746e-02 -1.4838184456621490e-02
      1.6130016471500738e-02 -9.7934964411071721e-03
      -7.0566247650140166e-03 -1.2016312440399472e-02
      2.0931757783027596e-02 -7.6463380573739258e-03
      7.9127718419733910e-03 -8.2261749691026661e-04
      -7.7550610637317626e-03 1.0544587233276314e-02
      -2.9187411228267205e-03 -1.3867391954474608e-02
      2.4544429727378889e-02 -1.5750568702009325e-02
      9.3000907588135975e-03 -1.6900689579580738e-02
      8.0138124313816218e-03 2.5089568116950893e-03
      8.5876036488381057e-03 1.4251751926724251e-02
      1.6215228561645135e-02 -8.2898107793597416e-03
      -9.8162392105724545e-03 1.9454656926144620e-03
      -1.3464672640758457e-02 1.6092062470073248e-02
      -1.7195018793906249e-02 -2.8221670745262983e-03
      -6.5902229554926249e-03 -1.2130369520246194e-02
      -1.2914344348357591e-02 -5.7457512033050840e-03
      -1.1865970221408164e-02 -4.7120541806459627e-04
      -6.3348081514299466e-03 1.9515842942547965e-02
      1.1420453338388575e-02 1.9504758196843511e-02
      4.4936452976920629e-03 -1.1182492579921405e-02
      5.5113242142056209e-03 5.1773473453033732e-03
      -2.1927553624713440e-03 2.7343574496326802e-03
      -2.0740663272894150e-03 -4.8154025512725318e-03
      9.9003160690388087e-03 -4.0947167077804332e-03
      -1.0371656188992728e-02 -9.1637293330667623e-03
      -1.7969435947699262e-02 2.7142079525109978e-03
      -2.1328025730418324e-03 1.9508526597297664e-02
      2.1846474425826689e-05 -3.0063961601470334e-03
      -2.8456927495210766e-03 -3.4986994394784832e-03
      1.7880864929244424e-02 -5.7779492909367462e-03
      -2.1523194520743718e-02 6.9033963229923473e-03
      1.1105090070468112e-02 -1.2219873470854750e-02
      7.5534474981270227e-03 8.2256564766804135e-03
      -5.3966026453353307e-04 -8.7428784878191661e-03
      -6.1060789262875250e-03 2.1577165766797262e-03
      -4.8351467833183358e-03 1.6397754355920866e-02
      -2.0949137951622489e-03 1.4275656804702391e-02
      9.4714491431616490e-04 1.2398264453326733e-02
      -6.8919549845639812e-05 3.8749527079889302e-03
      1.1234979120000634e-02 6.0814952807695293e-03
      -7.0079023690273606e-03 -5.7472398724078555e-03
      -5.1056013594390978e-03 -1.1756353711279460e-03
      6.4560841088315548e-03 9.6674652478943440e-03
      -1.4538718725412396e-02 1.0310057681828324e-02
      -1.7335780757727168e-02 5.3783277415563957e-03
      -4.3736441097817326e-03 -7.4447539058422130e-03
      -6.8382055612300893e-03 1.0219046296308567e-02
      1.3877390595236036e-02 -7.5910287684604425e-03
      1.7111604679271194e-02 8.8248035335733149e-03
      -1.1901592132898894e-02 2.6291421214607821e-03
      1.0290218779228111e-02 1.1808121682598842e-02
      -1.3526916431550419e-02 -5.6749112680577179e-03
      -1.7514668250182195e-02 2.9377322529031851e-03
      1.1475924857620338e-02 -1.4103701882328542e-02
      2.2814956440852202e-03 1.3919348281407952e-02
      -6.7320460987454643e-03 1.0301046743723783e-02
      -4.6228849107489145e-03 6.0452221421528659e-04
      6.5794929346113199e-03 1.1183516222627959e-02
      -1.5045303740017107e-03 -5.5255464284518791e-04
      -1.8407940826005931e-02 8.2458759582022968e-03
      -3.0700379943432348e-03 1.1237125955183540e-02
      -1.1553789261374929e-02 2.0512928325378925e-02
      -9.5732187628955225e-03 2.6775260138076468e-03
      1.4143751677042384e-02 1.1659310891181388e-02
      -2.1570068399676882e-03 -1.5930717221968140e-03
      1.6697991035999737e-02 -1.4430543164513223e-02
      -1.2508616500060549e-02 -1.3008676956677401e-02
      7.0413138331855574e-03 5.0992074696315391e-03
      -1.7543462166030076e-03 -1.4485966640256252e-02
      -9.3437691427426133e-04 -1.0762972235440593e-02
      -1.6924743851503232e-02 1.2763613170587490e-02
      2.0010632262265340e-03 3.2816194741522734e-03
      -1.2454489320748966e-02 -7.2929946011000479e-03
      2.9421886968282679e-03 7.8173222482151583e-03
      1.2304793766944263e-02 -1.1783991057124901e-02
      4.2410739370158735e-03 3.9911230449237766e-03
      1.1593971187551686e-02 -8.5583252947132923e-03
      -1.4090163822755670e-02 1.4968287007071507e-02
      -4.6499987554184559e-03 -4.9075958846460889e-03
      1.5427718795336300e-02 9.2217349399566228e-04
      1.2343580121310246e-02 -5.2663948229279027e-03
      -1.7851719082978890e-02 2.7650198046125785e-03
      -2.3664179382874601e-02 -9.9252607659732536e-03
      2.8928521432980028e-03 2.5687919729291794e-02
      2.7543971587920260e-03 1.5144174252455031e-02
      -2.6283152416927320e-02 -6.3916115065218932e-03
      1.3190744952751566e-02 1.2968871707531309e-02
      -3.8931530219597158e-04 1.7744341179025277e-03
      -2.7225899536387980e-04 -1.7878747284320595e-02
      -3.3742162293820335e-03 -5.7672855478664393e-03
      2.1768592990031223e-02 2.2096896859034095e-02
      -1.8219771008777117e-02 -1.7851727050864168e-02
      1.8507845843493347e-02 1.3417622728947904e-02
      8.4185238995261022e-05 2.5546118425950892e-02
      -1.0604941762785196e-02 -1.4356810854252439e-02
      1.4055445477442266e-03 -4.0264729039057191e-03
      -6.9698273934495616e-03 6.9883373656487030e-03
      -2.0339713397359732e-03 7.6364918904904128e-03
      3.8798123815973499e-03 -3.3180950672143271e-03
      -2.7130419712766279e-02 2.7441371950608352e-02
      -1.3919695223881616e-02 -6.8994101004799333e-03
      1.1822514214973550e-02 1.6973847434440411e-02
      -1.3792566359997224e-02 2.0899495419998911e-02
      1.7491085380575331e-03 1.9837694425710236e-04
      -8.7115940932377661e-03 -1.6772704340686454e-02
      1.8808721492081525e-02 -3.0114317823567629e-03
      -1.7012537096280900e-03 -9.3596078792898916e-03
      2.3212844468780573e-02 6.7686494871296307e-03
      1.1666313885259457e-02 -8.4493078416177318e-03
      4.0049016575667822e-03 -3.0858842545849776e-02
      -2.4531522070219264e-02 -2.6717574231967415e-02
      -7.3788510821062589e-03 1.9038775691172100e-02
      -4.4094972099087398e-03 6.1117450914376986e-03
      3.2349096477815524e-02 1.5881410910228572e-02
      -2.8487111062766440e-02 6.7227704255534476e-04
      5.4452859063295472e-04 1.0793777282207002e-02
      -1.8745903321367937e-02 -6.1863176990183894e-03
      1.7887863705181535e-02 1.2618004825297711e-02
      1.1080391277097857e-02 -7.9539445255760993e-03
      -2.5125353351116288e-02 -1.3527276613410010e-02
      -9.8360627603339863e-03 -1.7192947124338442e-02
      8.8235444778031191e-03 1.7653373840417503e-03
      -9.6039616577934823e-03 -1.0138933345492538e-02
      -1.0065949097454261e-02 1.8209847544546236e-02
      -3.3526454328464484e-03 -1.2351220141011486e-03
      -8.4549638081713088e-03 -1.3348574218466148e-02
      8.8705265978197799e-03 -5.9961391057249602e-03
      -1.2619758228852589e-03 2.3843109438677242e-02
      1.9869676217216251e-02 -2.5205925257080986e-02
      1.6168244424855160e-02 -4.2371700446685442e-03
      1.2353053310750041e-02 -6.7020501822474439e-03
      5.7984215172383960e-03 -1.1936639715175130e-02
      8.2718651902668975e-03 8.3784326646744768e-03
      -1.4979590052560127e-02 -5.6431336946234059e-05
      -1.4710270922505568e-02 -1.0315425422218695e-02
      -6.0604416051680257e-03 -1.8077678699393564e-02
      4.7790719536954665e-05 4.1684443139786038e-03
      1.6879119847816662e-02 1.0543480432650654e-02
      -1.4671735197750977e-02 1.2741109613824466e-02
      1.2486630952309591e-03 -2.1076042393391142e-02
      -8.6038696080234407e-03 1.1394820021885391e-02
      2.0366050495015154e-02 -5.5515512208960185e-03
      8.3811138596886162e-03 -7.5497797916626846e-03
      9.2732511692978879e-03 -1.0886946171030202e-02
      7.5656677780825115e-03 -1.4673757695089412e-02
      -1.6392598087619666e-02 -3.9690032890636650e-04
      -4.5190777944972785e-03 9.6429395575367439e-03
      -1.3733269669437409e-02 -1.2761922705854406e-02
      1.1832397682171319e-02 9.0795122000248644e-03
      -1.8330463369698173e-02 5.1042547156898883e-03
      -1.2436218321551742e-02 -8.8878516776306482e-03
      -1.6719996767327754e-02 -1.5047150937698959e-02
      -2.0659057941898113e-02 1.3542275625431493e-02
      -1.2711065179097319e-02 1.4138174535430871e-02
      1.9755273901318059e-02 1.4403932572769220e-02
      1.8781436878142939e-02 -1.9578578438601221e-02
      1.2127036735201721e-02 -6.5368802941630152e-03
      -1.4993005026496756e-02 -1.5834598226562819e-02
      2.6081011138858893e-03 9.4166545922806048e-03
      -1.3780355471880071e-02 6.8020089052330422e-03
      9.8238640038911113e-03 -5.9182135829299650e-03
      -4.0191117122350076e-03 -1.2013138617030331e-02
      -1.2358063727131113e-02 -2.5828649880181419e-03
      -1.4897605713702834e-02 1.0181239176429959e-02
      -1.8230572777080421e-02 7.1290929353155620e-03
      6.3790310877192644e-03 -1.4200957764636217e-02
      6.8760431750740118e-03 7.9328112372251819e-03
      -8.8536176273769744e-03 -1.9839824916639714e-02
      -1.5428005669077477e-03 1.8826704921946436e-02
      -8.2169105594488423e-03 -1.8082822622728846e-02
      1.8712760757217634e-02 -1.4952441706877442e-02
      1.5020425501773611e-02 -9.2672438059050245e-04
      -9.0157014786084039e-03 -1.0107056481364975e-02
      -4.5092111071992893e-03 -6.0906334210442514e-03
      2.5040051946034771e-03 -6.5007775067692421e-03
      1.3311940594655992e-02 -1.2731402363354497e-02
      -4.1157311925957805e-03 4.0858183379200138e-03
      3.4921316706881382e-03 1.2758884848996135e-02
      -8.2500250943974510e-03 -2.1361260690687542e-02
      7.2283631662226995e-03 -1.7067697999790604e-02
      1.9603827166055608e-02 -1.4305961702568034e-03
      1.6198220649667947e-02 1.5935871812678120e-02
      -5.7550120082755481e-03 1.7896574005970198e-02
      4.5365500397597019e-03 -1.5615365241594667e-02
      -2.1144277595475623e-02 -6.2081654392807167e-03
      -9.1857904240553179e-03 -4.7992864733358773e-03
      1.6120456784791182e-02 -1.4325245779344492e-02
      1.6055521672295205e-02 7.5642640742464521e-03
      -3.9543676020403051e-03 -3.4195088782627342e-03
      8.3030365936293954e-03 9.8069021828059173e-03
      -1.1321408878833710e-02 -1.9810900737474768e-02
      1.5531570047729825e-02 7.6926654080666844e-04
      1.1646350960372203e-02 4.0740055377693846e-04
      -1.6135023222141026e-02 -8.1477823552272340e-03
      -7.9694759015899053e-03 1.3052028950056921e-02
      -1.5074432352517151e-02 4.4907303959222334e-03
      1.2984906419366962e-02 -1.8426441681276887e-03
      1.1108695381674416e-03 7.5591959751610395e-04
      -1.9815547441248173e-02 7.7778913414230924e-03
      -9.1620558238565616e-03 6.4761886867543807e-03
      1.2927551551893323e-03 2.4213315285264263e-03
      1.9943440441306790e-02 -1.0940795288460960e-02
      2.9381627432220215e-03 -9.0594017668504112e-03
      -7.4219567377853349e-03 -1.8356949375608989e-02
      -9.9627814953243236e-03 1.2683240862733699e-02
      -2.7133067323730099e-03 1.0499621689469114e-02
      1.0304271510062930e-02 -2.1398295303611373e-02
      -5.3228251119195732e-03 1.1656966796324560e-02
      -2.0244913366948062e-02 1.8185393406667312e-02
      -9.3991213418041179e-03 -1.3022834340457567e-02
      2.0772940121349358e-02 1.3006971870447564e-02
      1.8729315931004086e-02 8.0531442727131228e-03
      -1.2912793672477055e-02 -1.8083790955574504e-02
      -6.4902871970131887e-03 -1.1390344235933488e-02
      -1.2330008398404787e-02 2.1992013595040237e-02
      2.0038910987124157e-02 5.7291982393500142e-03
      -1.3976317143214586e-02 -7.6083106384055880e-03
      -1.1050767297293315e-02 -1.8860421865367143e-03
      7.2760524836860208e-03 -1.2789043587383956e-02
      6.5961085447167238e-03 7.5649566508989713e-03
      1.4802723986220104e-02 6.9245682495463938e-03
      -1.6889495375833629e-02 -1.1134941652039586e-02
      5.8371313036704653e-03 3.2910755522835714e-03
      3.3538319790171523e-03 8.0978710806826285e-03
      4.6180677238368923e-03 1.0549299239876839e-02
      3.6599500416533304e-03 1.0196539536849335e-02
      -7.0080369225237757e-03 8.6297221683885837e-03
      -4.8000666711902817e-03 -9.2127386978482458e-04
      -7.1077321243047647e-03 -9.8083972788404264e-03
      2.6209050495134612e-03 1.0457263082137111e-02
      -4.8980692869544894e-03 -9.8381094732465629e-03
      -1.4989403185726216e-02 7.7651074269643947e-03
      2.4005059493791944e-03 1.6121897822402979e-02
      1.3141190814783110e-02 1.6524791966520787e-02
      2.1303599043070044e-03 5.5489580023672354e-03
      -2.8955925245800637e-02 1.4438265090728630e-02
      4.7416009761790459e-03 -1.1481381314534829e-02
      1.0178280295446221e-02 -1.2697857137222929e-02
      7.5516319113609967e-03 2.8299293239453021e-03
      -1.4660720032265756e-02 -8.6838484439285598e-03
      1.7510919177139279e-02 -4.5805037550008766e-03
      4.1169038093136071e-04 -8.3606545056908437e-03
      -7.2595038874697388e-03 7.0782629615185190e-04
      -4.9873680526120283e-03 2.0363643324959883e-02
      -6.1852839260800579e-03 -2.4185311936575191e-03
      7.2533200413153909e-03 -8.3011007081045286e-03
      1.6569350510135708e-02 -9.7638360360801715e-03
      1.4339713984801567e-03 -2.1834036604376675e-04
      7.9502358594376623e-04 1.6387830607421612e-02
      4.9491262163937465e-04 -1.1274952483249036e-02
      -1.1502131831255700e-02 1.3797469686864579e-02
      3.4112963153186200e-03 1.2205710757934550e-02
      -3.2639202543089229e-03 2.9067097246783498e-03
      9.8692825137345046e-04 8.2266878993888445e-03
      8.8600443636756981e-03 -1.4565858574865309e-02
      6.8084583612937752e-03 -1.3821826950399437e-02
      -9.5016296973595531e-03 -1.5478302399579279e-02
      6.4622070878187236e-04 5.7214856142438503e-04
      9.7288663124189493e-03 1.5776943370306048e-02
      -1.7990972186090609e-02 -2.5130824915105907e-02
      2.0021685325097502e-03 -4.0265932293879038e-03
      -1.1948913233726904e-02 -9.0188385568680165e-03
      -1.5702616561076979e-02 -1.6378341993353571e-02
      -3.7639008393212714e-04 1.7190056327006303e-02
      5.8637587747537058e-03 -1.8184264255656956e-02
      1.9590966249603398e-02 1.6348959452890315e-02
      -8.3326326045365939e-03 4.4747262361602190e-03
      -3.5597876912960629e-03 -1.2964066661695101e-02
      -1.4704337222173682e-02 -1.6636286452450613e-03
      3.1256049801195638e-03 -1.9711986023071747e-02
      -1.2963057189096617e-02 -2.0104832308712860e-02
      -3.1943905471874855e-03 7.0252860189383495e-03
      -9.6754076619701094e-03 -1.1680825948113397e-02
      -2.4515720789366792e-02 4.6765435704125983e-03
      8.4462307298209735e-03 1.6017855810949572e-02
      -9.2729808353109022e-03 -2.1697631645599819e-02
      -5.8876020566100704e-03 -1.9741729235301735e-03
      1.1366755704159695e-02 1.4571108314105226e-03
      -5.1805768907998168e-03 -1.6184573378362120e-02
      -2.3823314654504817e-03 -8.8878367060294030e-03
      -1.2042152165440531e-03 1.8605275058932213e-03
      9.2289171818988915e-03 -4.5532074262573134e-03
      1.8448531431785122e-02 1.7938502888943848e-02
      1.4516738994872127e-03 -1.5427241627380297e-02
      -1.3922606007612985e-02 -1.5618538910315768e-02
      4.4745652144549354e-03 1.1150519759356280e-02
      -2.2587711150570299e-02 -1.6823217756366166e-02
      1.2416449359967436e-02 -1.1162187132786779e-02
      8.6127555550704355e-03 -2.0433020602756057e-02
      9.1486267252593729e-04 -1.9771165716788741e-03
      1.3437415832492037e-02 1.2814835902076318e-02
      -2.2020371668805622e-02 1.2492972956020060e-02
      -1.2390275754487522e-02 -2.0898290048991728e-04
      1.1920583444696032e-02 -1.7865943614126384e-02
      1.9368070635777277e-03 2.3009322637465184e-02
      3.4252075076943314e-03 1.1062621067520002e-02
      -5.5545945877266462e-04 1.1547645793541167e-02
      -1.3597287968639829e-02 -5.2379680109978666e-03
      -4.5887330727181295e-03 8.3503252116818843e-03
      -9.9091064693660278e-03 -4.7667599949334521e-04
      -1.4851950736098298e-02 -4.1159052292435022e-03
      -1.3158316116934158e-02 7.7233898504367763e-03
      3.6728091376062879e-03 -1.6555791487459580e-02
      -4.6562422608485048e-03 1.4759211320384909e-02
      -1.2762953067991757e-02 -1.4558096098666004e-02
      -7.9776687836043431e-03 1.1059894360245825e-02
      -4.1977556755713854e-03 3.6725374838793797e-03
      -4.7055327774637749e-03 1.0778219877240073e-02
      2.6354148739728875e-03 -1.3680269059639099e-02
      -1.7719282392157174e-02 1.1673640443221618e-03
      -6.4253486338715724e-03 -9.4028645515816366e-03
      -6.1756554832385121e-04 1.0055191252309697e-02
      -6.6582166930479244e-03 -1.7630219038507460e-02
      -1.1287763504534818e-02 -2.9307692849278632e-03
      -1.6746614867247440e-02 -3.3845842471158468e-03
      -1.6743222063373676e-02 -1.3385834196521161e-02
      1.3682086644484373e-02 9.9760514159294884e-03
      -5.3054190982875496e-03 1.3366748912432396e-02
      1.9194254005985824e-02 1.9339976189337020e-03
      4.1901055611031290e-04 -1.6893074943067618e-02
      6.2463340583692001e-05 1.4976023941939960e-03
      1.2377911078310684e-02 -1.6237163424192541e-03
      -6.5062660975384792e-03 -1.6361573205722228e-02
      2.0227822124418874e-02 -4.1757226794027951e-03
      -9.5934769538418944e-03 -5.1289841991881179e-03
      -1.5591256295627711e-02 1.1639296004701124e-02
      -1.3656354498497003e-02 -1.4927336833247921e-02
      1.9355408525854413e-02 8.2183495919707326e-03
      -1.9710959470985921e-02 7.9590144338164259e-03
      7.2116089672047932e-03 9.5627997226826189e-03
      -3.6140995884626618e-03 -5.5116352671337509e-03
      -1.3012949984925594e-02 -1.5672129353546676e-04
      -8.8651831878238593e-03 -1.8502053206646742e-02
      8.6693395418273780e-03 2.8812159306386542e-03
      -2.0020666762583451e-02 -5.5522883360851752e-03
      -4.1275127672075074e-03 2.9193024956391790e-02
      -1.5243606124026265e-02 -4.8033736846981711e-03
      -3.6930174941658634e-03 -5.4528296831258070e-03
      -7.8551682275796973e-03 7.9580167403123098e-03
      -1.5065371352324860e-02 -5.1027166663553088e-03
      -2.7538527419709174e-04 -2.0320549765117792e-02
      -1.2539895980162848e-03 -1.2741749911319130e-03
      -1.5294572720499116e-02 -8.3446261513216591e-04
      -5.8325664647235400e-03 -2.4893037952290835e-03
      1.1328646563700757e-02 1.6385173836333190e-02
      -8.8782497788632009e-03 2.1062692015094968e-02
      -3.8208212903940060e-03 3.2451459641762519e-03
      -7.8903032883394977e-03 1.8176497727382481e-03
      -4.2197425543698359e-03 -2.1435688416877274e-02
      5.4196024358389933e-03 1.0531236963011070e-03
      3.8742644566681916e-03 -2.3541087889070552e-02
      -1.1273843413676611e-02 -1.6554136657226368e-02
      -1.5331023795380158e-02 1.0144577743207621e-02
      1.6102104660074217e-02 -2.7003680465097955e-02
      -1.1738074279258974e-03 1.2463110291255514e-02
      -7.0724616104529524e-03 5.8175755283492248e-03
      1.9460653779731316e-02 1.4400797794739243e-02
      -1.2870529273676254e-02 -2.1999797999904071e-02
      -3.9413809628380564e-02 1.7955027325714371e-02
      9.7957712307209805e-03 3.2695496457265188e-03
      -6.4615812985716137e-03 3.9740660407914623e-03
      -1.0513619685318840e-02 3.2101418217238389e-04
      1.2660573241968665e-02 -7.9129696601977599e-03
      -2.6465987784536009e-02 -5.6946199073682046e-03
      3.1879821419127624e-02 2.2434532310819369e-03
      -7.4583358735611947e-03 -1.7582138273960591e-02
      -1.2166419871952825e-02 -1.6058148703836969e-02
      -3.8308506557297950e-02 1.5772021544554062e-02
      -1.3241162379540596e-02 8.2577146203764533e-04
      6.7756397007366518e-03 -8.2927800171035109e-03
      4.2730819561366202e-03 -6.9549737937857885e-03
      2.4668944302211828e-03 -1.3926943291716462e-02
      2.2040435108975711e-02 -1.6777407531628930e-02
      1.3399440412867794e-02 1.0867161694834494e-02
      -1.5885562625021908e-02 5.8597348694043394e-03
      1.2868134722341085e-03 -8.5099213061102120e-03
      4.1494095350330532e-03 1.6427266399146771e-02
      -1.4966578009654936e-02 -1.8713263583889205e-02
      7.4692065676155092e-03 2.6687155574935516e-02
      -1.3282810773872146e-02 -7.0183246091459379e-03
      -5.7022664950963477e-03 -1.9807808038500657e-02
      -1.7302661020555164e-03 2.3362280281966758e-02
      -5.0250826554206623e-03 4.1631044183625190e-03
      9.8245063989743659e-03 -1.4004916759535130e-02
      1.6140316600431830e-03 3.9145896433649746e-03
      2.2393553137812931e-02 1.7651050396065857e-03
      -1.8917285208793662e-03 -2.4003661691656197e-02
      -4.3598665850031280e-03 4.9993226665502374e-03
      5.6137726501252743e-03 -1.1138994834498985e-02
      -5.4794102089499612e-03 1.0327634196546065e-02
      -4.0809594694998924e-03 -1.7620581598223446e-02
      -8.3395160384962287e-03 -1.4298787278618885e-02
      -7.1130081181649740e-03 1.4185965082723932e-02
      -1.9229980727577152e-03 -5.5993140495108860e-03
      -1.8400995224480136e-02 -2.6883460672444460e-03
      1.0473298958468356e-03 7.6984864849867496e-03
      -2.1364738759464146e-03 -9.0638005770781044e-03
      -6.0268172167373193e-04 3.1597555373923530e-03
      2.0175513002582315e-02 -2.7566843379764239e-03
      1.6058908979354313e-02 -2.4328417951685007e-02
      6.9870109089624046e-03 -5.6096095357450106e-03
      -5.1690319841791862e-03 1.1372802094211919e-02
      2.0849792355833827e-02 4.0125010545292109e-03
      -1.5596110910217660e-02 6.7269905273309588e-03
      8.5316225703055450e-03 -1.0768887945880361e-02
      -9.0217249256250871e-03 1.8081822613760061e-02
      3.9934362727772413e-03 -5.6411090694295628e-03
      -1.3787479037388913e-02 1.0618515096343590e-02
      -1.6578171887109208e-02 1.2352302476803093e-02
      1.1791841023630987e-02 1.9531137525542915e-02
      -6.7905748795377419e-03 2.4560145309957697e-02
      6.9600100117745284e-03 -2.7060869772532700e-03
      9.3570436947679938e-03 4.0913636785842112e-03
      -1.6838124627581975e-02 -3.1679653575531872e-03
      1.0733394936683629e-04 -7.3368358307445937e-03
      -1.6747712302319872e-02 -1.3229484417510118e-02
      9.8182746438144359e-03 -1.2431161102245849e-02
      -2.0353566264824190e-02 8.9954747558251003e-03
      -1.4807976832800525e-02 1.6459686631881687e-02
      1.3983327527347588e-02 -9.4612251027166912e-03
      -4.2725642271182566e-04 -1.0277930044910863e-02
      -9.1931924103310254e-03 -2.2639712211987351e-02
      2.5526060412984736e-03 4.7920526479759218e-03
      1.5285139633068894e-02 -1.8711177802157952e-03
      1.3342536785809022e-02 3.9384820490209749e-03
      8.8294653737062342e-03 -1.1976906474169151e-02
      -7.3508118326992252e-03 -1.1638232841170775e-02
      -2.6061425632965388e-02 -6.9738334182898893e-03
      7.7001168663405704e-03 2.0855784302351793e-03
      -1.3225779719069268e-02 -4.5610657743981424e-03
      -5.6692170283334821e-03 -2.2256731637459542e-02
      -1.6370761807828895e-02 6.4688621624621762e-03
      2.4090766953150009e-03 1.8666391782872282e-02
      1.5118581542349930e-02 -1.3254551676736538e-02
      1.4216022805645438e-02 9.1694910788543641e-03
      -5.7726477168027956e-03 1.3702820157860892e-02
      -1.1850960376414451e-02 -3.4083800049826234e-04
      1.3639634915135425e-02 1.3053912071105284e-02
      1.9345265716828482e-02 1.9873313540907021e-02
      1.0868851040232984e-02 5.8346420042950610e-03
      1.3805388148316066e-02 2.2618196824910493e-03
      6.8461592252101805e-03 -1.5035952139735739e-02
      4.2925733684891806e-04 -1.1073663794262788e-02
      1.0698913127060108e-02 -6.4703331721346572e-03
      1.8279101885941864e-02 -1.8715808356271351e-03
      1.1075643651880181e-02 -1.1191883259905252e-02
      4.2147544506903993e-03 -8.2631526106412331e-03
      1.3126381732652332e-02 -3.9352447206627231e-03
      1.2752063671610851e-02 -1.1808795228168526e-02
      7.4559595173268652e-03 4.8821621134268438e-04
      1.8831930631164290e-03 6.0199137201827589e-03
      -1.8464445630023200e-02 -9.7252568351097624e-03
      -1.4122447412414214e-02 1.9319244751978784e-02
      -1.7066723153281081e-02 -1.5017350332291351e-02
      1.4490030741686082e-03 -1.1118359604354158e-02
      1.6303424553352659e-02 8.8975938578513564e-03
      1.0135261555098396e-02 -1.2936194725830023e-02
      -1.3494644387949527e-02 -5.9760815019171114e-03
      8.2785760608980082e-03 -1.0058053579797681e-02
      1.6307541768549570e-02 9.3299562855875414e-04
      1.1040812305119295e-02 -1.0191618310872629e-02
      -1.1457085428675882e-02 -2.0071425766531813e-03
      -1.4603436184283265e-02 8.7093970862339304e-03
      2.1354124063404120e-03 -2.0300390785179308e-02
      1.6646058583757610e-02 -1.1798631048924556e-03
      -4.5470261872694500e-03 1.2147236409284145e-02
      -1.3507445018995702e-03 9.3716039854526458e-03
      1.8846062439286698e-02 2.0189826165882985e-02
      4.9810666273842740e-03 -1.3424171320310384e-02
      4.6392099976728168e-03 7.8440704380592051e-03
      -4.4519744103967071e-03 5.3521774176242889e-03
      6.0846804642390197e-04 -1.9267942446038612e-02
      -9.9552861465981666e-03 -8.5685280264571027e-03
      -1.4010725327240453e-02 -2.7956099311556411e-04
      -4.1817075557279322e-03 -9.2219270846393368e-03
      -1.0708572175478711e-02 1.7913713726304542e-02
      -1.6373606623489606e-02 6.6126355317753724e-03
      -8.3868261126712387e-03 -9.0771038190526464e-03
      3.2612367943158859e-03 1.3131497383131478e-03
      -1.4978473330206198e-02 1.2643561726113174e-02
      -1.1592812935431692e-03 -1.3779472583910352e-02
      -1.4252822533234569e-02 -6.3332920017520238e-03
      1.7363831112944206e-02 -1.4274405058548436e-02
      -1.6552806315379379e-02 -1.0773001162319502e-02
      1.2843021558073297e-02 1.5818464974890641e-02
      8.3891391865841911e-03 -1.9490672543553213e-02
      -1.2092342271155097e-02 1.5819831649316253e-02
      -3.3346345763365670e-03 4.5586787552045413e-03
      -1.9281544034138884e-02 -2.9825862100533538e-03
      -1.0295628389106212e-02 -2.3829804024401446e-02
      -1.4066733076958859e-03 1.0339438986649390e-02
      -5.8177669969814187e-03 5.4054533576238075e-03
      9.1801005018493469e-03 -8.4167648050379063e-03
      -1.9220616083435883e-02 2.3954816296135700e-02
      1.8103979742450847e-02 -1.4126716117084440e-02
      1.8731396792432915e-02 1.9772341885522321e-02
      2.2908112024833813e-02 2.2113744927591862e-02
      -1.7539445269426867e-02 -1.6228442608762479e-03
      -1.0820998290423522e-02 5.0936428421708467e-03
      -2.3127595866765335e-03 1.8718372937196724e-03
      -4.4906478549348056e-03 -1.1773904075533061e-02
      6.5324953126978148e-03 4.7518144746669135e-03
      3.9856939600768550e-03 1.9114726256670274e-02
      5.4894081752080211e-03 4.2416932159665315e-03
      2.2138049927991409e-02 -2.5112523995661604e-03
      -6.4658728972128935e-03 -6.4548605491363152e-03
      3.8697686339235100e-03 -1.4227344318361245e-02
      -8.5387507914341399e-03 9.8205484924401946e-03
      -5.1062996786496468e-03 -8.4880841506966322e-03
      1.4658720521692628e-02 -9.3816683174791013e-03
      -1.0955057437188734e-02 -1.5335868094220715e-02
      2.2643373411730468e-03 -2.5846956644605193e-03
      5.0960034354304157e-03 3.2649245606967583e-03
      -7.5447180180434805e-03 6.9848007944060255e-03
      -5.3215522606370486e-03 -1.0003721085424425e-02
      7.2580970221232197e-03 2.1124653699207459e-02
      -1.4229050171441082e-02 1.9923853776900438e-02
      3.2141869439446056e-03 -1.0398170820407051e-02
      1.7494236490498322e-02 1.5596751266403218e-02
      5.7569784146158549e-03 -1.4195729098245796e-02
      -3.5890346525006083e-03 7.7479113613037279e-03
      -3.6957528599442066e-03 8.8236685755279567e-03
      -1.6810422101941534e-02 9.6272278571533643e-03
      -1.2930568765793583e-02 -1.5161554420964842e-04
      1.1416525336835471e-02 1.1548280836786573e-02
      1.2135189216317357e-02 1.2668220535371543e-02
      2.9787007861930377e-03 -2.2211771196673634e-02
      1.6922150684841458e-02 6.7424233826011539e-03
      1.9587999733979455e-02 1.2822582463782690e-02
      2.3219506573952057e-03 -6.2176382254209208e-03
      1.5374142362853416e-02 -1.5431067884377141e-02
      -1.9609535314806921e-02 1.3949509866700559e-02
      1.6212559685329746e-02 1.7769536293552334e-02
      1.7259703154058708e-02 -4.9076376167405114e-03
      -1.6379376096648600e-02 -6.7895918521234562e-03
      -2.7566803813526544e-03 1.2382783270584348e-02
      -9.7114515553135099e-03 -1.6906578177416590e-02
      7.1393591733198234e-03 -6.7956372228410661e-03
      -1.0522265703782065e-02 -1.6924461491383637e-02
      -6.0362360716424337e-03 -4.6049992261383010e-03
      -1.6195348297690051e-02 8.2357871825907737e-03
      1.1656915425795829e-02 5.1015359305428606e-03
      -3.3229570278752443e-03 -9.5111652685650923e-03
      -4.7495322144362447e-03 -1.5326078024838133e-02
      -1.8437372353732571e-02 -6.1756059963725043e-03
      -1.7192061923794438e-02 -4.4258354239757171e-04
      -1.7372870935446538e-02 1.0037189183727242e-02
      1.1173798177156262e-02 1.6389525245643292e-02
      -7.0311403012361757e-03 -1.3838341404970603e-02
      1.3696451473486252e-02 -1.2309022021573165e-04
      1.6404645027506073e-02 1.7607410657634662e-02
      4.9648961782711881e-04 -3.2853267378656838e-03
      2.8366998760697790e-03 1.0447350644290455e-02
      2.7726939957484526e-03 2.5694978929684332e-03
      -1.2003712280392759e-02 1.1625815215741053e-02
      -1.8967892702099854e-02 -1.2230199619475504e-03
      1.2682339671853561e-02 -1.4240812785584318e-02
      -1.5180940463582423e-02 1.7035824764146373e-02
      9.0365257125832096e-03 4.7333880325330074e-03
      1.6880969113353749e-02 -1.0312679202411711e-02
      -1.6163005058386169e-02 3.2495703927447176e-03
      6.8805515531356824e-04 -1.9313145594748529e-02
      1.4181850279683168e-02 4.6370537283678803e-03
      9.2650739433707743e-03 9.3655657820189734e-04
      -1.6075193721962439e-02 -1.6201077216854557e-03
      2.0459281610235514e-02 5.9301599437443890e-03
      -1.5956436577657575e-02 -2.9370034265056243e-03
      1.7290251642926486e-02 -1.1188799983536345e-02
      9.2998967662691464e-06 -1.1171946266818555e-02
      -8.6612026408999614e-03 5.2997587545270597e-03
      -1.0846250766220667e-02 1.1882917815784053e-02
      -1.9473529370057096e-02 1.0235524521161190e-02
      3.8604313350174939e-03 8.8449566329241690e-03
      -4.6717906885671854e-03 -7.5557259855637965e-03
      -8.1376801792746034e-03 -1.5504672864533711e-02
      -9.3694105426384757e-03 -2.0522854790313769e-02
      1.9515525904856543e-02 -1.2433022371905366e-02
      -3.9730497723265102e-03 -1.2801660323731746e-02
      -1.3393344081620583e-02 -4.8507291510568838e-03
      1.2524103530470412e-02 -8.7385741468811399e-03
      -8.9923186777888572e-03 1.4827703101914900e-02
      1.0229893518765224e-02 1.4536170815150084e-03
      4.9401630413941694e-03 -1.5084830371218393e-02
      -9.9121798151408404e-03 8.6438266008748658e-03
      1.2425507051256623e-02 -1.2183649033577904e-02
